1.19818164643
-1.07834432394
1.55783377639
-1.23389983637
1.94590315849
0.732719144429
-0.805441766013
-0.470422882841
0.701050015829
-1.19408182423
0.891818651201
0.54044072912
0.704025884788
-0.411989980403
-0.217073468478
0.619672371812
0.00940253019281
1.13652982965
-0.0375965350465
0.159143651769
0.595908951864
1.16502547865
0.189713032192
1.63393774165
-0.516199973705
-0.797313058132
-0.536065933005
0.833840025859
-2.18987531526
1.52521493838
-0.341050760974
1.25170592732
-0.348659455753
-1.03351920753
-1.49960101185
-0.332961093674
1.44887149052
-0.926543983007
-0.181383651573
0.488237455722
-0.930140592195
-1.51548098427
0.797470481997
0.958976501512
-0.947545310305
-1.1974848022
1.08782033204
0.425488353092
-0.198850428221
1.67652193217
-0.149486001441
1.60065089448
-0.478320297097
-0.749401236134
2.16169782218
-0.4401198857
-0.327326623363
1.0802454626
-1.34318727399
0.452403613613
0.78402492504
0.090292325778
-1.4105310322
0.169330990675
0.274094897112
0.145171734499
-0.604547175154
-0.0513922175122
-0.210700255639
0.444339439907
1.19160032356
-0.204744473434
-0.389050931696
0.335270931637
1.106895893
0.619354029263
-0.398757569258
0.946376104873
1.24745790894
1.04479027074
-0.404156599957
0.91400379317
0.262309486284
0.264943891394
0.985404394357
1.47852115455
-0.399099118021
-1.87122767958
-0.812536744113
0.182675021746
0.571064628522
-1.05327650695
-0.397429122239
-2.13096872921
0.661684223879
-0.110997211565
0.12871856523
0.396497238294
-0.0925216132654
-1.66699346846
-0.793507344804
-0.526186918519
0.437951666886
-0.806611755109
-0.630239572107
0.893721306063
-0.800717326479
-0.717226825306
0.428999362467
-0.497001240144
-0.0464654313205
-0.555772411787
0.339500611592
-0.388629955127
0.342254681185
0.41802807305
-0.0739916902258
-2.0189540187
0.642426811878
-0.860879190137
-0.228692765947
1.72253018696
-0.0975675976395
1.15782714925
-1.62610878982
-0.511427179045
1.62218482861
-0.390850755573
0.410613519387
0.604986751952
-1.3192724377
0.00125085593757
-1.970597583
-0.22349235223
1.8483487466
-2.25888488855
0.406875139217
-0.637720175246
-1.21126829015
0.896862616045
1.80489654327
0.0337850076227
-0.268221698805
0.744171645081
-0.473050807464
0.175841682998
1.35274492927
0.420369112655
-0.0604443731295
0.529269538956
1.07265785315
-0.422532862132
-1.79596352365
0.510533674247
0.132179580408
0.128195626895
-1.71491771716
0.235564066505
-1.48612122734
0.218843633786
-0.694594840717
-0.402846883194
0.089992450659
-0.671814264518
