1.19819578535
-1.07672077742
1.55326719794
-1.23537864046
1.94363176624
0.733677523607
-0.805441761459
-0.479033723166
0.701317941896
-1.19311387955
0.896412002408
0.542393551722
0.703266260511
-0.413449512783
-0.219216825199
0.6230554063
0.00684670452752
1.12484753067
-0.0204967529332
0.162250045016
0.595905289719
1.16765164003
0.19097851698
1.63114098058
-0.510496789772
-0.807171557924
-0.53223385068
0.811722164577
-2.18010434183
1.52299030646
-0.339291904756
1.25071952747
-0.348755815471
-1.03432014378
-1.48751082399
-0.331056497791
1.44384296656
-0.918551138883
-0.180607248992
0.489299188899
-0.929161010542
-1.51088737945
0.797477790566
0.957485716896
-0.953322444068
-1.18976085506
1.09112822117
0.423740596946
-0.204574618929
1.68731642762
-0.152165414186
1.59869669242
-0.475005584918
-0.744334328227
2.14544962027
-0.431265489626
-0.327205480965
1.08030165192
-1.36014264095
0.4720906254
0.788950463015
0.0903323728867
-1.41326256785
0.176113191161
0.290342223554
0.148833136845
-0.601483753172
-0.0548731652763
-0.232092125009
0.43292665906
1.19242547713
-0.208790122663
-0.388993593697
0.352689279513
1.10242710159
0.618879845661
-0.373638958059
0.950296180756
1.22427603995
1.04568463246
-0.403821476584
0.915953184325
0.261953554803
0.266617815282
0.97645354287
1.48381122608
-0.399941562292
-1.86865225146
-0.825865363383
0.184183059344
0.572192499145
-1.05144632643
-0.39858817805
-2.13105936049
0.663029495246
-0.0877175247611
0.119819468821
0.409583624474
-0.0925104900472
-1.66744466844
-0.803408772733
-0.519013667146
0.410839625367
-0.780699523439
-0.620595058151
0.879378457142
-0.828748938912
-0.717307648174
0.465301318375
-0.484904639209
-0.0307597337495
-0.609693148184
0.348910340376
-0.410773147861
0.349885126736
0.42924864852
-0.0817360061305
-2.0135003533
0.634207440392
-0.857669153984
-0.220460823312
1.71767808067
-0.0825403055558
1.12212946082
-1.62754851484
-0.503012688724
1.62223877913
-0.390668967347
0.416971327881
0.628199555074
-1.27839460418
-0.010780556025
-1.95861178337
-0.236897310872
1.83775870042
-2.23571969147
0.410519711402
-0.634977091279
-1.21228331444
0.885811611942
1.81930843723
0.0277343840593
-0.24882782458
0.73022167344
-0.461403453555
0.176488253631
1.35848132741
0.404306385008
-0.0545825022039
0.532086406381
1.09522283824
-0.423322013546
-1.80415121304
0.512788891827
0.15008251073
0.147886656608
-1.68979369875
0.239198046395
-1.51286451146
0.225792548458
-0.676620219853
-0.395042728029
0.112542663374
-0.684891663719
