1.20118352395
-1.01321216366
1.56833188925
-1.24712605048
1.92410748158
0.726992492662
-0.805493218301
-0.391606037872
0.701424099681
-1.1959042648
0.911944919505
0.527897116937
0.649161269706
-0.476839238985
-0.172541113221
0.611507635266
0.0111813206544
1.12303159283
-0.0409254865995
0.188785965054
0.616716951737
1.18910912937
0.261245444292
1.66819478446
-0.538616245304
-0.792705039744
-0.578920562496
0.815663709003
-2.18142705344
1.56050312874
-0.314530202422
1.24258748117
-0.330992727495
-1.03325055347
-1.50065359712
-0.2875472762
1.45918239565
-0.915797917304
-0.187742856514
0.498691823865
-0.950121745319
-1.49647943877
0.798274832162
0.960226337694
-0.913911128388
-1.17093763504
1.09947431582
0.464726715866
-0.193329275342
1.64186011997
-0.130787160424
1.60759541113
-0.477023432272
-0.779853968428
2.18799404995
-0.422204678044
-0.293670692111
1.11389209103
-1.27939043697
0.500381015161
0.748675199249
0.0946296750941
-1.41970711863
0.119244582692
0.301987392597
0.148255088082
-0.610749712968
-0.0212518299039
-0.175539839296
0.428771568214
1.19980771224
-0.211410883031
-0.363652767572
0.309156622908
1.11689961215
0.620060455897
-0.411180808481
0.9051835865
1.24786740678
1.04289266724
-0.382229473777
0.916105910505
0.238417839475
0.237857617773
1.01985113233
1.45572092205
-0.411282218691
-1.8850321298
-0.796387038594
0.241902472832
0.602390514729
-1.10686501552
-0.334840541032
-2.12465394576
0.656261288628
-0.153326308717
0.121827698295
0.369861179997
-0.0976875090226
-1.66658917759
-0.891014644112
-0.564396349097
0.374408247745
-0.884923134723
-0.647960530236
0.863822208185
-0.791197808852
-0.7169254994
0.415946893177
-0.522876005772
-0.0438465087689
-0.534435108659
0.313430907432
-0.482357772814
0.342937782183
0.384239985289
-0.106947703254
-1.91065289567
0.648624854109
-0.884319503489
-0.2629385549
1.59459211468
-0.20922882896
1.10505992315
-1.67937391322
-0.512023025267
1.68005306409
-0.391085844814
0.35176568319
0.634126372692
-1.3884901029
-0.0218112292391
-1.97989022497
-0.233583091023
1.93169867092
-2.29524543215
0.403706636413
-0.664720651584
-1.20030418849
0.915745135445
1.79069731691
-0.030869688861
-0.263449510025
0.672544821316
-0.503352223466
0.178689567195
1.32064731295
0.388440034884
-0.0651186874211
0.529155492273
0.996593089284
-0.412950087291
-1.83583125516
0.507689621915
-0.0436419401803
-0.0110183449176
-1.69238200263
0.216822075684
-1.50368397306
0.215354455925
-0.700889725441
-0.423108307292
0.0696769795575
-0.666652929587
