1.19821855374
-1.07228733489
1.55090959913
-1.24111955927
1.93313723727
0.73666799274
-0.805441759495
-0.449810590995
0.701261160777
-1.19219525824
0.893278081589
0.541841388334
0.698326193995
-0.412529260674
-0.219775315619
0.626874033565
0.00528390890411
1.11664138104
-0.0114492593586
0.166735978494
0.59589584695
1.16816748483
0.200211567401
1.63016291636
-0.513219204715
-0.807451553522
-0.525463378563
0.804357568143
-2.1823611572
1.52421246353
-0.343786460656
1.25264594174
-0.349165288662
-1.03429542045
-1.51251642973
-0.331596816199
1.44034008988
-0.918421488339
-0.178782592478
0.487798349839
-0.928513590275
-1.50726088284
0.797474910593
0.957493877969
-0.949455187209
-1.18588460137
1.09365102176
0.418532429374
-0.207540739113
1.68258048173
-0.147560268771
1.59660502573
-0.469035285853
-0.740209069906
2.15258763431
-0.435778255381
-0.327484755892
1.08274797898
-1.35995454107
0.473322193092
0.786985524486
0.0903986123127
-1.41840097165
0.179169480224
0.290574652547
0.165204097964
-0.601266587536
-0.0517477786497
-0.228254747209
0.441675551578
1.17920016924
-0.214178031042
-0.388923477763
0.342330364626
1.10457917376
0.618133481869
-0.367967690159
0.951993862812
1.22441570672
1.04548172245
-0.403552317459
0.917765875745
0.262143676013
0.281416916553
0.972833882668
1.49117044741
-0.39232885336
-1.86931627814
-0.822795742922
0.189008968613
0.58132201036
-1.04890053669
-0.397030120884
-2.13121306438
0.66298668497
-0.0798345003246
0.117737081753
0.41573289444
-0.0924965883937
-1.66748832309
-0.814032723555
-0.527140192992
0.391574141352
-0.800295791576
-0.614804474503
0.906504420364
-0.836284289952
-0.717325801533
0.451735370881
-0.476755914496
-0.0217098869961
-0.616031616357
0.364748883744
-0.411282487594
0.352061841652
0.406849764511
-0.109325711686
-2.00895002363
0.630515439059
-0.856883875746
-0.240166542269
1.73388197871
-0.0896751667766
1.10858575027
-1.62730178601
-0.495678945136
1.62341716597
-0.390612276824
0.418471040351
0.625845311829
-1.27120186851
0.00969901408097
-1.95319504135
-0.238589763127
1.83517441656
-2.22487244978
0.411588836165
-0.633758458926
-1.21554735144
0.911617245572
1.80114044061
0.00721487281037
-0.234724992569
0.72331768383
-0.472801167181
0.189254560779
1.36180344413
0.390352352097
-0.0352484786258
0.534078121319
1.05820506278
-0.450904155672
-1.80016749462
0.513288195058
0.154423047068
0.135966137397
-1.69827194726
0.242198675123
-1.49597903996
0.229328380213
-0.665456754304
-0.387412552915
0.0953269304325
-0.673066388307
