1.19819294687
-1.0154400546
1.56169194157
-1.25107666092
1.94852256807
0.734385033505
-0.805467142751
-0.431348529857
0.701504752084
-1.19591851777
0.887490951391
0.539821275191
0.658220303729
-0.43588486787
-0.176446010846
0.610514269222
0.010609539765
1.15376670274
-0.0567984740179
0.174306578282
0.618743891193
1.18367374222
0.197888069436
1.68772206443
-0.539621520263
-0.796343969679
-0.576013710739
0.808815132825
-2.18520713968
1.52867239676
-0.322875201376
1.27487452023
-0.340881590498
-1.03256749963
-1.47842161503
-0.301385507134
1.46137942663
-0.896755129849
-0.186646545653
0.500548020059
-0.948581101655
-1.47560047244
0.802525753832
0.959213555728
-0.945602951383
-1.17872051953
1.09111562796
0.443203259638
-0.192986717239
1.6364735159
-0.122764612642
1.60541430802
-0.478554712275
-0.730127148485
2.16358448286
-0.41292706081
-0.320581221118
1.07483972787
-1.28789707281
0.498542952058
0.795898005565
0.0821302719604
-1.41611478949
0.120006303973
0.282663054297
0.156021289429
-0.596980369095
-0.0484876738844
-0.199021016188
0.454284844349
1.20531436552
-0.1925905366
-0.364130429745
0.31343451891
1.11145630772
0.619962589527
-0.416751237892
0.945207530435
1.24015742995
1.04406233856
-0.407173213947
0.909785785063
0.245209990029
0.25382403702
1.02284859584
1.45581540713
-0.450440515849
-1.86609877339
-0.769967674636
0.186184941029
0.581953160959
-1.10445389274
-0.380725999569
-2.13017920687
0.675874452693
-0.150006617197
0.118002591676
0.358789295155
-0.0973549308338
-1.66698787294
-0.810837528489
-0.525690090458
0.390698249062
-0.795366561228
-0.645661866606
0.91348241028
-0.809113930781
-0.720966737605
0.424422372493
-0.49131734522
-0.0541929733397
-0.530452899207
0.322035539579
-0.388897083608
0.339541816996
0.418296227407
-0.107363202509
-1.95060691069
0.64862380204
-0.862827096925
-0.235797160594
1.5989658751
-0.112637694321
1.15660492949
-1.59736333921
-0.511336944018
1.66076355384
-0.391038123384
0.357098700204
0.614707563724
-1.31607015243
-0.0201942173965
-1.98412561432
-0.235469192515
1.93753255953
-2.29260833736
0.404216116462
-0.663827261776
-1.22027567222
0.901381411263
1.81471002514
0.0288404579309
-0.275602070666
0.740672805635
-0.509073619594
0.17068188107
1.32516589012
0.409571946341
-0.0500990707977
0.531268416186
1.07443771389
-0.412482454093
-1.82231732969
0.508028266767
-0.0192908955118
-0.0106692200297
-1.68636470018
0.24642127987
-1.49977284444
0.216334061968
-0.696175222181
-0.436394468745
0.0782506863022
-0.667478091888
