0.342250603386,-0.11384175274,0.119367198829,0.228124408258,-1.94044757058,2.37850232723,-0.126689596612,1.64356992692,-1.1061468542,-0.58651825202,-0.364473084029,-0.36649565469,-0.140372008757,-0.181123850411,-2.02471083333,0.676377742482,0.328468590477,2.53724210915,1.5050778977,1.62533179307,0.657117473503,-0.444106271442,0.789700114163,-0.0532871774829,0.725698934879,0.438678901634,1.35148560503,0.698139961849,0.779439393662,-1.18321103089,0.211298431093,0.608772621353,0.215170051032,0.352409815547,0.159944108523,1.90613381461,1.11886148711,0.9914477709,-0.950028517188,-0.547800045553,0.186230191744,1.3569604578,1.06240308696,0.808118823448,0.725195121342,-1.6769513208,-0.642371237113,0.0460759722856,0.415105533109,0.784917595748,-0.926357106472,-1.66512440875,-0.825760289357,0.730771090659,-1.06596978366,0.752361179222,-0.622780231508,-1.36173521958,-0.0811776731453,-0.246674300457,-0.0445174207223,-0.185510251751,-1.56573267899,-0.311394903984,-0.493372793439,-0.109703764417,-0.0971313001368,-0.590679959282,-0.558781042573,-0.891413408607,0.978274911099,-0.371233575742,-1.56327499414,0.290695800619,0.849634453133,-0.328501046285,0.31675535175,-0.567252581124,0.72843314903,0.239813998237,1.41524903059,-1.28628184177,-0.328022227866,-0.60299533256,-0.313526132126,1.12522208882,-1.70253303318,-0.990000534199,0.12295243048,-0.348813621864,0.687571549593,-0.241600217091,1.49211174162,0.665407896738,0.585029042317,-2.97246824974,0.198485225568,0.582737999482,-0.73066935552,0.354101416952,-0.97897032923,1.49035686243,1.55493104583,0.333479861377,0.279419785671,-0.607684956963,2.13716261072,-0.761775216814,-2.31454476401,-0.886388276826,0.0798897251937,0.315436726141,1.15760143206,-0.0699387403956,1.36855376452,0.0788338400876,0.668203530259,-1.50166785499,-0.132310034513,0.356548307496,-0.546559955985,-0.8731495606,-0.582696077625,0.871767825648,-0.29662046743,0.142636754365,1.1087419161,0.652067785209,-0.768176987018,-0.0220301640473,2.62162783202,0.173502584763,-1.0158122119,-1.23658746038,2.07305931189,-1.60562734945,0.508902111952,1.75428406105,-1.6623093064,0.60176454442,-1.53799720268,-0.272948105776,0.743492435146,0.0395323922525,0.648588209674,0.462615656961,-0.457948121527,-2.24050391785,-0.493957502098,0.246919175156,0.0659903847825,0.323352848801,1.75186686038,0.566478032517,-0.634011471764,-0.562184005511,1.61873876479,1.61659807947,-0.913324674715,1.28901966648,-0.0566402713543,1.11868918669,1.01595109649,-0.694771303377,-2.41430316029,1.32280607437,-1.31325577172,-2.05112101021,-0.490497821644,0.346003138895,-1.11962328284,0.596637912112,0.479668739831,-0.400956524295,1.20366378063,1.13010964282,0.646968598341,-0.187741160987,-1.02605656345,0.0894299626246,-0.894948975097,-0.940481168022,1.12164867187,-0.229581024828,0.366601859933,-0.540194974369,-0.176325244819,1.63818519225,0.114273602891,-1.54770576352,-1.32616852824,-0.0925025190748
0.336423202763,-1.42992613474,0.0593846039705,-1.23212619444,-0.45246240215,0.137970075915,-0.54584373277,0.324581095032,-0.384617284916,0.215555422807,0.752335582494,0.366288805509,-0.591693063607,0.161596615633,-0.461046178054,-0.206276167303,0.33517976695,0.900870753249,0.740839815346,0.0937804492692,-0.699211792843,-0.091384110934,0.219176457202,0.784876284464,1.03368509742,-0.285386628134,0.286877412287,0.83020173167,-1.44357266031,1.16858973277,0.424219459207,-0.324410455949,0.710802894632,0.575373112968,0.475246259952,0.989946369904,-0.687319038507,0.699526567063,0.816762716594,0.799953626327,0.219021799592,0.350477153094,0.827937929492,1.46569964397,1.89703062041,-0.772977833615,-0.532665753766,1.01794151844,0.228032507188,1.37528724365,-0.132864300883,-1.4861867476,1.4381098205,0.0858214605912,-0.462484984828,-0.523590018303,-0.28401421321,1.84663241264,1.12569542014,0.0250194649827,1.11571761661,-0.595256898641,1.3871337983,-1.22966691094,1.69495602112,-0.409167052033,1.48234379883,1.57317902143,1.18987978031,-1.69455790489,-0.790555793086,-1.46112068158,0.035910501057,0.851813788632,0.467404608994,0.483004846558,0.971116236302,-0.098683211241,0.874909928529,0.464966257876,0.181198521335,2.08542079407,-1.28991180676,0.778068053865,-1.97130642077,-1.74018479308,0.596621841288,0.26943050877,0.566922943182,0.826296714354,-0.959952540946,0.472073338214,-1.70811821584,-1.38246474431,1.11410163863,0.942220505231,-0.982087037561,0.00122407408102,0.759616769736,0.33371263009,-3.12308130149,-0.178441792185,-1.01523699806,-0.473552222115,0.496796087957,0.908864407277,0.802591723756,-0.533235878881,0.27485325274,-0.926469622511,0.265095051046,0.00484470826653,-1.7823068025,0.972824849084,2.07876798191,-1.98590671565,-0.000304618514365,0.350926771005,-1.7306485135,-0.0601271051243,1.19791872884,0.761282656402,-2.05060362378,0.228813181396,-0.193746246072,1.4192778513,-0.0161044428001,-0.665974078354,-0.662223575155,-0.479262227858,-0.462571792947,-0.367413276778,0.821468753068,-1.48047794759,-0.900550842416,-0.24531143207,0.260406825991,0.915093243517,-0.838699119609,0.374507836522,-0.326972099602,-0.201376812388,-0.293358140774,-0.0981010990503,-0.736153596626,-2.2319869982,1.31908919393,0.00296531021538,2.20055660437,-1.30622539326,0.174831456707,-0.31298342082,-1.13070032727,-0.804506021221,1.65117639741,-0.617083435105,1.08209303338,0.568909181341,0.571391260933,-0.307438693466,0.803806347347,0.176687880772,-0.100380483332,-0.208487323878,0.140906152661,-1.73635063906,-0.324321191598,-2.69719570949,-0.656530402362,0.116373768535,-0.668525651876,1.64701921408,0.913147986033,0.229752879603,1.20820161549,0.276705723901,-1.11517806694,-0.223681882935,0.516434722056,-1.08355095578,1.6425583905,-0.220864535157,0.738250661732,1.29166192851,0.620336374169,1.20667212028,-1.30562734738,-0.678593933845,0.1271060523,0.818906409294,1.07200762013,-0.442574138042
-2.86409181766,0.410608835854,1.29214616039,-0.13711374786,-0.0990337332511,-0.250152947284,0.212226087495,-0.356704394014,-0.44268411474,0.488216589437,0.659261448069,0.747090610783,-1.20626168732,-0.134939866053,-0.497052596651,-0.537872972437,0.375805839618,-0.365580954848,-0.325866997285,-0.809006094623,0.816499143667,-0.779171956081,0.822469737924,0.775568364347,0.671952373264,1.3466240348,-0.438250775065,-1.62059532864,-0.514448165843,-0.233781740548,0.515200626937,-1.10166492064,-1.80588037246,1.19018126256,0.624474609022,-2.35798575899,-0.136219579354,-0.144449597841,0.382071302316,0.263729970004,0.776516646748,1.59994407126,0.20830447842,-0.578234222499,-0.730743480424,0.869243809504,2.17802826321,0.172981340148,-0.781083682464,0.0298892633427,0.556230504394,0.818163701229,1.88206870723,-0.258090900104,-1.35821579394,-0.489321479649,0.23135358963,-0.173439196766,-0.288558788373,1.37811714119,0.566562670264,1.00085699506,0.322564635868,-2.41452560809,-1.27635731105,0.259070349923,-1.40731594647,-1.98054790961,-1.70364892953,-0.327879104776,-0.601201711451,-0.102063084962,-0.107810250487,1.48167584005,-0.986909966491,-0.248078742599,-1.44027809234,-0.373152238453,-0.532455562417,-0.375353248054,0.900270933615,0.579641239863,0.776354711235,0.207259961326,1.29421959684,0.406573362282,-0.185271019807,-0.433253186667,0.462522907371,0.713039248107,-0.469912489971,1.45385773761,-0.930334826181,-1.3764484119,-0.597964465794,0.477528699563,1.65655946337,0.342546295257,-1.50723133362,0.0445629361407,2.33915747619,-0.617609968541,-0.354002457608,0.320897279344,-0.750170995912,1.47377710143,0.506084648721,0.206578105077,-0.988225501085,1.39084387592,-0.133552425442,0.067342399158,-0.569448526742,-1.97001916002,0.635562777241,-1.70416140069,-1.66305890122,0.133773011988,1.21398224381,1.15466725319,1.18799526126,0.00762946101404,-0.229007357727,0.396758959731,-0.0954171906991,-0.803687646486,-1.34204948544,-0.821310872838,0.796300001164,-0.205886561452,-0.313906392728,-0.434144167856,1.05881044033,0.304773123885,0.0870420817246,-2.60450930051,-2.09912583952,1.80520695732,1.34856720374,-0.495393019119,0.429799023794,-0.211667309001,1.18258912241,-1.36738377138,0.987695377911,-0.962098730488,-0.261518950633,-1.5699229376,0.1098603694,0.284483976928,-0.062939693572,-1.62090781406,-0.726786892075,-0.306231870917,2.23830974458,-0.774294029894,0.471166351864,-1.29818635575,-0.1923441577,0.107545794137,-0.731702080215,0.170086354533,-1.4283030716,-0.196923747404,-0.0904060363458,0.0943530655558,-0.230052314313,0.0391983004283,-0.189482137531,0.22870262224,2.21621701834,0.104279400074,1.28933133822,-1.15684734127,-0.205988451148,1.88218534654,-0.352514012501,0.770540775868,-0.215465583191,-0.207086178314,-0.858991806024,0.166463579569,0.608476948677,0.0835167804817,-1.76671629567,2.17271154459,-2.3892060488,0.0773703974995,0.301002965731,1.88211223108,-0.763047464642,-1.20466194972
-0.636671531975,0.388661255901,1.71414731429,-0.610372882553,-0.791160877065,-1.04455697912,-0.189427298779,-0.695259664907,0.749078876962,0.264147315604,-1.79957638743,-1.3834151107,-0.958456614017,0.303742261914,-0.208678782332,1.04284263995,-0.039211292498,0.320359497371,0.291310960311,0.549040530011,-1.43976295346,0.712173285329,-1.61335948823,-0.490729261013,0.619430901535,1.77424129888,0.524393483694,-0.807783733347,-0.829585584329,0.456521118714,0.0271307163783,0.389332132169,-2.74686248002,0.0847706640048,0.220692997213,-0.450804028095,-0.556346983893,1.50170021277,-1.05230598754,0.347807331013,0.0960130075478,0.280583882199,-2.1510164185,0.636856782764,-0.794184807441,0.998497384389,0.37884542161,1.12306388518,1.03670174802,0.980042102373,1.05235485466,-1.7830109855,-0.471222187495,-0.79592726049,0.0477317669808,0.0224555251835,-0.186858114474,-0.265613851681,0.580105581492,-0.566221891762,-0.598574288117,-1.56985346452,-0.383732433845,2.33230126915,-0.988473182971,-0.262841593847,-0.0915901716499,0.83844028537,0.598258857861,0.20022791711,1.13941607308,1.38636361213,1.84837046869,-0.157225823948,0.600108530018,2.16012707428,0.89708522296,-2.20586629801,-0.651927860578,-2.12700086348,-1.29331633981,-0.0108310789506,-0.731129889533,0.615886854558,0.19620752304,1.21605714992,-0.161517468828,-0.820903463584,-0.797424216177,1.01625717199,0.573907363014,-1.92708376771,0.696023356653,-0.00283513810636,-1.91356006888,1.93691332385,0.173175281973,-0.0367135655754,-0.787561957388,0.183687614401,-0.189184562465,0.480543408369,-1.9346239837,-1.91692088838,0.647258764691,-0.0203447230809,0.912141797588,-0.642518340673,0.885315183665,-0.292855899945,-1.51444711611,0.631702683825,0.3410184515,0.277267962657,1.81758249752,0.435216378863,-0.117487257395,2.49813729998,-1.12137615476,-0.895218758123,-1.28601336486,-0.29104329053,0.213893864795,-1.68299692494,0.448869314854,-0.316470317549,-1.10790218893,0.28262512355,0.0555311353745,2.08605446689,-0.138630826123,-0.597345103971,0.44230116002,1.26396087474,-0.434597612029,-1.1479764888,0.0479064523096,0.866321688754,1.52865134777,-0.482512935514,-1.45389927052,0.0684446849472,1.28860708755,-1.17384576777,0.26398631834,0.104632918924,-0.28054815169,0.156389718758,0.551589879776,-0.244417062127,1.09920700571,-0.106924372301,-0.360630517504,0.79168278918,-0.846617191951,0.175911174523,0.385158250644,1.82184738868,0.540269161602,1.80750102393,-0.386081362469,1.29287717325,0.249207235889,-0.648336257243,-1.13161832452,-0.203191247458,-1.20949968185,1.17509248516,1.60206014366,-1.41985058819,-0.0228157611638,-1.08846938691,0.0839336576685,-0.449978667465,-0.759095656567,-0.873342715881,-0.763685281033,0.693397237554,-0.575763251916,0.154548002767,-0.411072717943,0.0599490944773,-1.27163005204,-0.0249217118741,1.06086306933,-0.0378784737734,-0.0642561162863,2.29012688021,1.52492791563,-0.764847546868,-0.213740152155,-0.467575317398
0.601358259567,-1.34377267785,-1.60430884681,0.123831542163,-0.759767114263,-0.205127879021,-1.24810154278,-0.319385106145,0.937387788762,0.553116881019,0.0430672127354,-0.574698665416,-1.0618029933,0.297584548947,0.745460019287,-0.574387879425,-0.17546550455,-0.0238237378176,-0.203866845036,1.17553327088,0.28810719056,-1.76711812238,0.51342891559,0.766513000952,1.21692693357,1.44969140905,-1.19998388496,0.337033294458,1.70704421189,0.107561171728,0.47043778099,0.346360797034,-1.30605235692,0.657157237803,1.42490085995,-0.611559172168,0.478915757115,-1.017885204,-1.61100033177,0.035135733565,0.175375993837,-0.643185426294,-0.668577103888,0.846445459379,-1.64505684126,-0.673073711224,-1.13502716288,-3.4782520839,-0.455977519028,-1.07512828302,1.6152466808,1.11664892911,0.0258183473485,-0.523925304949,-2.21946700127,-0.333086071598,0.764696819004,-1.37704816543,-0.870089166522,-1.36342616749,-0.369533370331,-1.71365015734,-1.8149318788,0.215397230474,-0.356058245083,-0.175235768592,1.72479023568,-0.730299586919,0.991028875223,-0.00642447046913,-0.283767253389,-0.438351921564,1.68225509251,0.630677644706,0.654715816537,1.68482913918,1.41444607131,0.300686810497,-0.146391308748,1.33243148739,-0.486811158503,-0.955506974408,-0.520497420841,0.104168147844,-1.21081311386,-2.1365759599,0.832589306297,-0.909403031121,-0.415686049627,0.198516071347,-0.557806247474,-0.651996763176,0.667219071218,0.496285440885,1.65440956131,0.019242921672,0.0409637496948,1.48314080342,0.430212161871,-0.961450871833,-1.09817056509,-2.43462161943,-1.36306942382,0.847682442841,0.236599184744,0.383634074809,0.329558827264,0.0494595490315,0.144703263067,0.738768259352,-2.23050414787,-0.478042853747,-2.72646882788,0.206460920303,-0.363457592037,-1.06798218079,2.74390516635,0.0467468384339,1.08420773257,1.42505121646,-1.35593077736,1.04237776272,-0.580511073221,-0.386970737611,-1.22873857551,-0.0232747038312,1.53074509099,-2.96590856632,-1.39468977141,1.20125884068,1.20628427473,0.529862091295,0.780262989972,1.37481955838,-0.433213757379,1.06007126946,1.37630631856,0.775397713425,0.0494361230185,1.45371871276,-0.456131304913,0.0471519950274,-2.67130723762,1.50113571252,-0.321060743496,-0.197263397716,0.426159327277,0.779380108679,0.218272336854,-0.0729349626154,0.554655812973,0.345053564075,1.54648700602,1.13600530983,0.0383673583512,-0.231874602027,-0.102906663225,-0.209571166298,0.131408881703,0.148743722486,0.141983283268,-0.670066101595,0.314012977145,-0.527738687822,-0.907811903004,1.77230870406,0.234353110115,0.582285389123,0.1376164053,0.174848078522,-0.119700856332,-0.252446054473,0.694068004006,-0.225444297999,-0.865752046014,-0.985505684891,-0.250588735873,-2.22606863664,1.53364363827,2.06094021211,-0.0449289097292,0.23127570266,-1.0925470248,-0.390310924266,-0.653273696071,0.434789512364,1.96409461208,0.243302435616,0.679781754706,0.755345395253,-0.687207874157,-0.0136314375163
-0.549536854707,-0.493414282219,-1.5927853973,-0.210216577509,-0.028100606585,-0.661806225311,0.332065574168,-0.502840494775,-0.276496157183,0.101979540544,-1.53660151232,0.886827225486,-0.438204190074,0.477285448132,0.153053461126,1.86690744911,2.53234986102,-2.16843353405,-0.347738877513,-0.860334671863,-0.518545272257,0.460522977443,0.953996937662,1.67708942716,1.31775645377,0.427351329807,1.82905676057,1.86566525033,0.602227148142,1.45747686917,-0.410143488916,1.40592675253,-0.14689657606,-0.323917952776,1.59693396888,-0.685953166576,-0.269913172608,-2.22190325617,0.641457802699,0.444050848953,1.58600348446,0.134196602862,1.82834829085,-0.815450400361,0.597692054757,-0.697136674024,-1.51420622786,-0.231108767299,0.519496448786,0.167269959537,-0.826539827829,0.018451541783,0.504816341398,-0.999886609525,0.541701461632,0.303951793207,-1.55940129839,-0.941666780363,-0.232118799704,0.768150259313,-0.703176122765,0.467361862253,-1.66010475853,0.129523183043,-0.0503145757138,-0.142042111336,-1.59360535745,-0.703772837426,1.37492347836,-1.1256201578,-0.435312721683,-0.2028657535,-0.084228319144,-1.64663943398,-0.729512408568,-0.491976349039,0.335825084232,0.952897713248,-0.443926980433,0.141442002855,-1.03373823405,-1.34454555417,0.00891687804887,-0.371174199228,1.41594642646,0.324370544886,0.439323400167,0.698241523912,-0.859035423029,-0.793547947257,0.279022845669,-0.0109698425515,-0.820792239802,0.745543950516,-0.85884384938,-1.00752074679,0.464929587151,0.457304680644,-0.508531113882,-0.939327911919,1.6120933612,1.23853703133,-0.372543773585,0.576131906242,-1.65969449314,0.50607890178,0.398493251763,-0.385826890492,0.862380513872,-0.409652099689,-0.0995615107261,-1.91816927741,-1.17453469977,-0.962920516994,-0.155295086123,0.34943041371,-0.113397261798,0.0579689990597,0.471312008857,-1.14259709116,-1.34987807801,0.372772438527,0.762739046106,1.71984628322,0.128159496244,-0.105348276852,0.147251085598,-0.511573935172,0.218961509882,0.296100560918,0.21358634772,1.55240419963,-0.671047525729,0.586943153397,0.038693497298,-1.04212361829,-1.22343983921,0.414106973877,-3.24559230748,-2.19166580566,0.379890601976,-0.204724872909,-0.697744835155,-1.04175721668,1.25232518888,-0.980658942273,0.661790304435,-0.44368141175,0.482151631912,1.80306133222,-0.237385780152,-0.143485027991,-0.262550449844,0.592950631129,-0.402450500287,-0.0728304163677,-0.823833386269,-1.15927039058,-0.013069962177,0.579626522466,-1.09728771048,-0.297040885169,1.48251853014,-0.226558608407,1.12769664672,-0.626812349939,-0.874469525887,-0.441056778381,0.591485058329,0.168067763289,-1.00232665324,0.786706680623,0.0617378608506,-0.641678158336,1.31241994494,-1.14848030146,-0.0570539268061,1.13358641173,-0.679943836349,-0.714322993689,-0.395986604165,0.835527708794,-0.862830992826,-0.643265480948,0.737662871756,-1.35026852501,0.620675804007,-1.36444848186,0.489871801941,0.298506037253,2.65461142867,0.326467755506
-1.01831064458,1.94157488118,0.044398172956,0.00979458843381,1.51897750419,-0.85352269896,-1.97372831895,0.620592117038,0.151824745374,0.637703159942,-0.131102095931,-0.0206006918012,1.44955814519,0.834652290592,0.3495369745,-2.66410556757,0.388486813715,1.991110299,-0.804851726809,0.224410331057,-0.0763567317439,-0.469569019386,-0.980681852923,1.21400297378,-1.29642883775,0.706961546674,-0.63308754074,-0.405466778224,-2.35526103768,-0.402947387666,0.327456699201,1.33992836087,0.67632531105,-1.59336180058,0.688289312655,0.256969225166,1.47558585958,-0.869092173358,0.975971043079,-0.347351603007,0.310887111477,-0.498076193462,-0.955658381277,-0.724209081937,-1.04325884949,1.47403249156,-0.52385854178,0.781608830625,-1.29182273119,1.23184188578,0.440221637541,0.328005358388,-0.0556366091057,0.735805167064,0.771612173749,1.29160957655,2.15614508569,-0.0022638951968,-0.281745935714,1.75881801732,-1.90066627214,-0.222786015644,1.03884693391,0.80908669295,0.0699268448676,1.13296847454,0.828211187716,0.523616729254,0.329190544364,0.464758886687,1.20277723091,-0.153220412397,-0.782962043056,2.80605305577,-0.205930969882,-0.614781694578,-1.06915363774,0.85731101194,2.45527591993,-0.585347999732,1.70106504333,-0.647512725892,1.63363783488,-2.73031733588,-0.457078336455,0.081955363472,-0.468800617243,-0.155267451699,0.545326335001,-0.305972519818,1.34265215451,-0.217528510665,-0.054821338559,-0.628708958074,1.43803176749,-0.629555643414,-0.699794092969,0.764680906058,0.205233875858,0.0828601631039,0.651271081669,-0.832668507272,-1.04264512525,0.539345440508,-1.53411257357,-0.569435329545,-0.421820412405,-0.189229535945,-0.778268102583,1.24171998478,0.422506393341,-0.022615053078,0.864344245862,0.149626553047,-0.928162101767,-0.712285757671,1.02479178004,0.373196721258,0.74831581241,-1.23046501313,-0.527729652517,1.5688431189,-0.886920759096,0.226310008468,1.8144589383,-0.780430880866,2.15255874298,-1.62702423059,1.6509877649,1.00571605704,1.53651937373,2.17811944858,0.86697108205,-1.385032962,-1.03883812768,-0.673828176318,-0.662980719814,-0.816282183066,0.20818076444,-0.124433766432,1.11132870587,2.00104741836,-0.0395183914119,0.324778392961,-0.184888029628,1.28950903647,-0.233194795834,0.52282302844,-1.66165625881,1.26086000743,-0.93952329247,0.135715297002,-0.862761857405,1.1250382086,-0.225152872221,1.71491502373,-0.804161572909,-1.31560196493,-0.578207717986,-0.217129713992,1.16416038209,-0.415707094542,0.95422603008,0.919078322814,-0.905321379532,-0.373277428912,-0.39731252121,1.51339146673,1.40617359003,0.0852723657457,-1.52217341238,0.790385260307,-0.261738826525,-0.200704999849,0.69451089585,1.95242068325,-0.606186381556,-1.50337528975,-0.327878731627,1.27992480246,2.59681971542,-1.32235883712,0.108975986914,-0.766985820705,0.875212982341,-1.11709579732,-0.539811845265,0.57097944147,-1.38481176955,-1.41173697356,1.32350764094,-0.410801902569
2.18009787553,1.34993220394,1.39546380766,0.0549856055509,0.900960435498,-0.893992662341,-1.62035895273,-1.4918844896,-1.21571506177,0.842197303194,1.49635720922,1.83755858738,-2.026625795,-2.11003887546,1.02276187707,-0.926957545454,-0.415070964729,-0.385716384923,-0.732979729951,0.56751518663,-0.273667869061,0.605639567341,-0.125060774277,0.688827748114,-0.941832511104,0.123294669967,-1.26488315023,-1.67161891244,-0.624175678005,0.807711877208,-0.773920163225,-0.0901515254546,-0.373062590009,-0.0315841360669,1.48346893657,-1.36465230583,-0.988858329686,0.772010835577,0.239886978187,0.329785173407,1.4082696486,0.259020306677,-0.696837714938,0.237826759512,0.709158131335,-0.0158213121429,1.40021853829,-0.156863873044,-0.20536828956,-0.654607682649,-1.79355567357,-0.482476261566,0.355485040314,1.6926328004,-0.695700632846,-0.360024692177,0.901474794934,0.323090031041,-0.127692056398,0.0212914011952,0.214761225682,0.364003785023,-1.02360045453,1.26308882869,-0.080617423978,0.317679234068,-0.461267461798,0.52008587639,-0.450625240924,-2.44423774828,0.12555832758,0.771286436116,-0.542571650267,0.687426243822,-1.59666250835,0.177042535663,-1.21890327419,-1.26850548208,-0.732983650807,-0.917178575956,-0.0500731744467,0.613130138115,0.202688786483,0.669044349891,2.33702558994,1.24369328879,0.614165506025,-0.196295927305,0.0328787085051,-0.625233914342,0.693846262231,-0.0769200239103,-0.987113744866,-0.88429406085,1.26181163884,-0.0578337374176,-0.524675367573,1.26418434,1.07717688328,0.13322682385,0.896878460714,0.72791998846,0.262775947955,-0.60286478995,0.0233046543868,-1.16802575107,-0.333752639793,-0.340802922351,0.860733645507,-0.878320612768,-0.642815374009,0.243778236509,0.559074190026,-0.341187428013,0.776272259007,-1.53191543972,0.760368531383,1.3138647734,-0.467061702166,1.59030536027,0.835662307419,0.0794603198363,0.817058024473,0.094839432548,-0.498444572802,1.46938012305,-0.273778196838,0.34412879268,-0.994454730578,2.16041770083,0.752449997218,-1.92279224101,0.993343473555,-0.431474570449,0.276206424045,0.552409175725,1.84625659323,0.739162024134,-0.285261714127,-2.35574803001,-0.017118818901,0.645864231287,-1.01559194904,1.37712838143,-1.09604096649,0.347618873765,-1.14265551487,-1.21062656912,-0.0302489074409,0.814779407104,-0.450652628655,-1.02618047257,1.82876082746,-0.3783466062,0.371755039819,-0.399366587503,-0.205897139384,-1.01208434597,-0.809187829766,-0.0386860122112,0.147864674401,-1.03660532765,0.323200275742,1.37476916632,0.370762759655,0.794194609409,0.49550680864,-1.47191237875,0.919779738974,1.32900355903,-1.0472113966,-1.27047950935,0.840569907798,-1.82827030635,-1.21789648223,-1.20994216752,-1.15621818162,0.822374656673,-0.104258005182,-0.655647443161,0.533816101587,-0.0892364078153,1.38312326834,0.361870654365,-0.532721993217,0.517051238634,0.357165380164,1.48178436653,-0.308238829721,1.07009278328,-0.863393115943,-0.878353538742
0.0734542543599,0.897183707861,-2.41934288551,-0.180574043256,-0.766738974429,-0.569684448311,0.898523968048,-0.652786850823,0.498352008604,1.78744527108,0.73450226981,2.68486109688,-0.401853332774,-1.16504724319,-1.5302053068,0.420807180355,-0.25136925382,-0.705473123575,-0.739682867687,0.506511342701,0.623948945877,-0.445971852433,-0.920413789492,-0.382921559717,-0.280440697896,1.00122182117,-1.73172561912,-0.207509773733,0.275488746344,-0.47783985615,-0.777140807456,0.0631114664282,1.0679161723,1.17019772684,-0.632996214518,1.11041325526,0.969075757437,0.806264027231,-1.20995259379,-0.455045203107,-0.129286844848,0.647768748342,-2.70994394793,0.403331779989,1.39611720571,-1.99558550115,2.00652923316,-2.58049202686,0.322704442496,1.5636619134,2.47922233888,-2.07168189424,1.15905765954,2.01505830791,-0.687711003142,-0.7129413398,0.0244587642626,0.398821447592,0.768184419474,0.612168789669,-0.429000225747,2.38818189353,0.779797321478,-0.975418132845,1.2827181004,1.27989833874,0.640877499526,-1.59044037283,1.00108536287,-0.501221889972,-0.146092616596,0.704000547837,0.00245790033792,-0.0101450277401,1.76541934395,-0.921685421447,0.350546392319,-0.493727460335,0.441167300565,-2.10349104123,0.802775453323,-0.549433251985,1.0966689856,-0.39842130043,-0.901175050907,1.52711027,-0.094853705726,0.0663562683733,-0.183513901124,0.602984180289,-0.77479576378,-1.57634155808,0.0108018473524,-0.231737931014,1.37060629602,-0.887732855068,-0.798512765353,0.140669838626,0.558314319558,-0.908857471707,1.13810526951,0.246188649585,-0.760125048109,0.871977223787,-0.576156039662,0.314258085715,-0.0312219657816,0.955512575367,1.68660443579,-0.721486117215,0.366726107306,0.0491488600933,-0.905061188425,0.0871325075041,1.42217790957,0.76698810049,-0.347981500381,-1.02362806987,-0.0236316471318,0.277148626499,-1.54821705607,1.12398416491,0.516651260165,-0.63444326558,-1.84042303148,0.173693518587,0.611084816765,-0.320312724977,0.955525613078,0.138989526321,-1.31311985574,-0.692611743754,-0.582106559235,-0.660084739839,1.24799867555,-0.423308012862,-0.040904493115,1.07208164543,0.666107670315,0.587620342152,0.475886349045,0.077729227409,-0.329831380109,1.25484056208,-0.193614202955,-0.0876726451293,0.158908679818,0.0860587366817,0.023863449458,0.957720666511,-0.752853168642,-0.903788148546,-0.521348436201,-0.102427328628,1.14463045176,0.95382120956,0.684338849068,-3.04926009765,-0.988451228008,-0.647172735291,2.06457173111,-1.51393097631,1.09254309037,1.85843787544,0.071060351397,-0.484884769816,0.974889727965,0.580657480793,0.409057022602,-0.91801900085,1.49002447824,-0.0335696534735,1.13796624266,-0.56842818266,0.195666186229,-0.989798735765,-1.22317686028,1.62910758162,0.616495390293,1.29441471518,1.00408880787,-0.410887111555,-0.640290366499,-0.194827093608,1.03794620084,1.52444048434,-0.591379486162,-1.01206662888,-0.581589060684,0.658581129043,-1.25276693701,1.99144745219
1.33439308952,-1.48153396806,-0.882116126686,1.08441402208,-1.50063386414,0.236107743934,0.180024618209,0.101785645666,2.28925002223,-2.20615819823,0.98363679872,1.384541171,-0.887429582421,1.12807863796,0.454836244197,1.59785797021,-0.272528956022,0.442020534439,-0.534727665187,0.211892916762,2.96378804441,-0.267338598022,-1.22003514235,0.766791609351,1.89951847807,0.50313611631,-0.751784458326,0.380735737429,0.992010125502,1.07136483978,1.79642784591,1.54787944679,0.0675386089738,0.715958447477,-0.767480384992,0.45353769593,-1.15791557261,-0.597737937888,-0.304821264219,0.824333430904,0.534732551937,0.751381540622,1.09398717959,-1.4286802561,-0.082223683459,-0.647172008249,-0.0825324431181,0.0778416094658,-0.787323406973,-0.271212760728,-1.10428922838,-0.383643139452,-0.131901337438,2.06310017745,0.446170627603,-1.01715003048,-0.219974240114,2.12421426959,0.695834157989,-1.09784749909,-0.314505898254,-0.177227613457,1.33169132994,0.148857494164,0.353260034868,-0.749274868995,0.669819623602,-0.330134232508,-1.31384634862,-1.25244417822,-0.937686883562,0.726381910065,0.431614666056,0.419787807097,-0.509830393513,-0.0831586841221,0.769005117889,1.31015050072,-0.0983442366503,-0.684712399199,-1.113225932,0.156321862942,0.258805919048,-1.73303953478,-0.27305996223,-1.26707163609,1.2568409521,0.848714366244,-1.01263342076,-0.00471337342432,-1.39207859513,-2.17136773489,0.602454498536,-1.62327490045,-0.522047714984,0.00545100851597,0.268085049555,0.411507989132,0.0123655995503,0.620027587957,-0.537628391493,-0.204155676264,1.43070566353,-0.820417398738,-1.7311957813,-0.225848683787,0.991090459236,-0.478576564222,0.786091816513,-1.04267631673,0.508643263719,-0.724002228093,-1.35841224239,-0.443960180778,-0.420819925224,-1.54198308222,0.444095590128,-1.57621899373,0.201406178991,-0.201243346044,0.685385840163,-0.722819571752,0.248563674156,-1.58512977772,-1.1207049955,0.149479192078,-0.33952365115,0.324161651529,0.955036576009,0.0754940301219,-0.400319343026,-0.0713699588229,0.899691734552,-0.0113799669494,-0.683021969219,-0.260902653905,0.285998018499,-0.489923565811,-0.530335037039,0.500846278035,-0.149706513947,0.0521384522581,-0.0874938558181,-0.295181576125,-2.00816688769,0.0470511683574,-1.42112364112,0.45044413178,-1.16706855335,0.526286052491,-1.77731815774,-1.54489244733,-0.792174430867,1.16568100906,0.589251722085,0.133826823645,-0.540837363313,-0.654299059787,1.22497767954,-1.26594046939,-0.0170899984573,0.972054824389,-0.52823534269,1.30896283085,0.574171748896,0.474562499411,-0.660660557687,-1.01281474939,2.20530972029,-0.115760972186,0.646000374559,-0.630866138121,-0.0918415047809,0.456474626732,-0.810106700976,2.29195120799,0.878879911731,-1.058691895,0.207266073957,-0.317334235988,0.320931231409,-1.04105645499,-0.0389585206505,0.947714070893,-0.879378954483,0.301485616743,1.54951443418,-0.563607683684,-0.50076354084,-0.417258597945,-0.72810398224,0.633922352374
0.463472435227,-1.48607082716,-0.190822772726,1.38434787038,0.896078773886,-0.165763538566,0.627796041985,-0.833180629593,-0.0621366757197,-1.78680965466,0.19475440849,-0.62812415325,1.16681954653,0.103047571511,-0.330284686829,-0.648158262944,0.44449348517,1.18299540433,1.65207870623,-1.41990665457,0.358742325984,1.78430656866,-0.441291143861,-0.765578648905,-0.68285347475,0.804041520239,1.02356857866,-0.357011109712,0.310391704552,0.270817066931,-1.49579359637,0.60745302711,-0.378921690456,-0.0490654245922,-0.484365836647,0.543040084704,-0.904524171557,-1.73240416568,-0.175592260854,0.452029051091,-0.18596183173,0.874437007247,2.30751115653,-0.437803388254,0.503441540225,-1.27123258953,-0.384716563208,0.53281509458,-0.484576737464,1.02999370352,-0.326124479773,-2.55201756634,-0.656663513008,1.1376757963,-1.43065631023,-0.0786266884578,-2.4126975798,1.12811585,-0.963107241348,0.890743878455,2.04803003563,-1.34532539102,1.16111634192,-1.11242164216,1.49399508587,-2.30306136421,1.01381617321,-0.706840443278,0.884702737923,0.362201473118,1.61756348859,-0.0528128046807,-0.589923884555,2.15068898,0.0408450574227,0.0630942438939,0.0843016729622,0.313474948997,0.426631100651,-0.945897410591,-0.249188433712,-2.54972267624,1.06739478188,-2.27259561896,0.682836894936,0.251561105521,-0.296688923205,-2.06911144573,1.74647808139,2.06321851452,0.545364943664,-0.00993844664999,0.711386171478,1.26635229389,0.75160321635,-1.9089864092,-0.272501463273,2.40567376255,2.81783970641,-0.000338197985684,0.14599876219,-0.259184510191,0.390362839381,-1.76716612109,0.175942613052,-0.104242904025,2.50134001558,0.551091667681,-2.23908744697,-0.371744260722,-0.139678653783,0.317621995775,-0.659784129718,0.380944390822,1.68126580556,-0.106798112237,-0.986731551668,0.63322545403,0.931487696681,-0.250561359204,-0.0686108615264,-1.26552721645,-0.859100038441,0.511640626244,1.23891777593,-1.57483151394,-0.358073396639,-0.472845347255,1.55288859559,-1.10655985826,-0.341893662862,-1.03645633404,1.35034807981,0.0650797536019,0.209824534115,-2.40396068092,0.0125783276338,0.645906283868,-0.735594159161,-0.57606424229,1.08126982518,1.60945612271,-2.12296780648,1.65990217411,1.13501742292,-0.243791780998,-1.23983268218,0.170671255924,-0.960152230818,-1.71079282808,-0.930113886321,-0.0373842609325,-1.3329979518,1.34341918798,0.681679961663,-1.23251314371,0.0891007222029,-1.84044430624,-0.720030633625,-0.902611307816,0.470477041036,0.491742878275,-1.89642324209,0.993471985585,0.944313639062,-0.14755299879,-0.995232795259,0.764074887242,2.19147816225,-0.0781590763958,0.143317978566,0.98099571043,-0.96155604798,0.347700560848,-0.176850668023,-0.270045154391,1.76194575213,-0.688658059965,0.339179437882,-1.87243103415,2.67992551448,0.434553131206,-0.599716513534,-0.0291169282583,-1.28304020238,1.22771166459,-1.82081998524,1.29088001436,-1.17255909489,0.541915165732,0.0966703867888,0.586693107088
0.384426904976,0.444944515245,0.0910066586026,-1.07700535386,-1.29686151638,0.520501943196,-1.51310645252,0.621803599291,-0.684338494519,-0.478434950953,-1.16128292501,-0.177388066921,1.51064913303,0.126976943692,0.597402302091,0.15678669701,-2.0303588612,-1.0027736676,-0.95794670166,-0.123367320606,0.578785324653,-1.89070460563,-0.171135703284,0.536209447181,1.10024733725,-0.382241098938,-0.151758643986,3.08965796782,-0.241661976472,0.371532611987,0.31918076718,-0.12818599438,-0.10929257545,1.31460710804,0.968495610342,0.383028882661,-0.338716471996,-1.27434134755,-1.17050938836,1.59939102928,-1.06816668845,-0.39961555507,-0.944824524519,2.1062326457,-0.492594899454,-0.274160901199,-0.696483355114,1.5379427121,0.0505974082864,-0.773357429093,2.49633828488,0.0463521002066,0.855572037432,-0.200944813999,-0.990564260448,0.0083168602336,0.221600196637,-1.72220711368,0.734500228479,1.23569998607,-0.588613311986,-0.713134557836,1.5367545293,-1.17854203521,-1.31437640688,-1.39277912206,-0.399195374741,1.50256181112,1.14013954186,0.711571858185,-1.26607523801,0.110376997776,0.389539096382,-0.72897744274,-1.03934432597,-0.790786463619,0.312909281218,1.05007478602,-0.106714477389,-0.439954798621,-0.610002648657,0.132883085569,0.579063876887,-2.03413352695,0.197375891256,-1.00534588149,-0.413323723362,-0.59531904465,-1.72335061375,0.200234395033,1.14277958188,0.700742546022,-1.01869303193,0.325261791597,-1.37487616204,0.274034273325,0.925023153306,-1.42818868885,-0.119707269788,-1.80256370368,-1.06174363658,-0.786866728132,0.191983886189,0.0897673774414,-0.506362389681,0.371267400031,-0.836270117557,0.310677999917,0.766572892819,-2.0272551744,-1.54462918525,0.206929656913,2.22475623181,-0.748512104882,-0.26117577221,1.65523944666,-0.0543081070729,0.841244207735,-0.238825069726,0.133085202816,0.427489502522,1.29761617586,-0.940184429296,-1.32739069103,0.627788679197,-0.845682555248,0.295386664629,-1.92027018462,1.72162685553,-0.157150516118,-1.53063294964,0.15635748284,-1.65067514874,0.940063196453,0.738143757831,-0.343353539068,-1.91991612093,-0.478121486989,0.646275177462,0.614843317677,0.638496410794,-0.0963545862342,-0.113709234767,-0.310593190871,0.30981522698,1.74496648767,0.874671570014,0.228258510044,-1.17072482926,1.2853963247,0.676055585601,-0.180256546706,0.0942483365753,0.648034561661,-1.47203187999,1.80362824279,1.16757849926,0.249569502383,0.845761095599,-1.25249444506,1.38360867558,-0.194349019659,1.67882356344,0.620125911111,0.623865752314,-1.78241026398,-0.254158777892,-1.78419524375,-1.71428772993,-0.586702994389,-0.0644978335542,0.215826897584,-2.92548173033,1.0640098946,-0.155935530709,-1.515475016,-1.20543592538,1.21093614994,0.548603706959,1.69233662592,0.85309892737,-0.635971817396,-1.02931430778,-0.202674742965,1.607103008,0.620994475783,2.40655303279,-0.0353042020577,-0.360315134663,0.855527767705,2.64906821496,-1.85308877557
-0.65882479306,0.106078744435,-1.9404554973,1.25898218226,1.030546595,-0.325197526653,-0.434376359597,-0.863312543341,-0.355315604233,-0.129774283834,-0.404743248743,-0.125236042558,-0.0839742031443,1.37676703824,-1.11141383695,2.27362084968,-1.03417718916,-2.97683094354,-0.917975080007,-0.646076175122,-0.352507488841,-1.70632720999,-1.73442117967,0.343065439809,-0.887555764692,0.240255339367,1.56502740507,1.00155918924,-0.631196503819,0.98598276949,1.13406494505,1.13957224659,0.214848580302,-1.30227244474,-0.194538045099,2.2852502745,-0.571195702239,-0.180561034157,0.454547419757,-0.382673238154,-1.7403841488,-0.250319676357,-0.991774408189,-1.30800812053,0.476307917868,-1.60045021586,0.588861932649,-0.751842850685,-1.06950363871,-0.606320897498,0.487963789769,0.140626509972,-0.687062272089,-0.519793349543,-0.550620963637,0.884447537878,0.639478072564,0.946324581221,0.316415153459,-0.923779840594,-0.0336064621921,0.515095395712,0.616682433246,0.259853844358,-0.59607843084,-1.1823339658,1.06738969093,-1.93563858135,0.906195370618,0.143903832748,-2.35116274931,0.596076238862,0.731781109476,0.276723229613,-1.48059648112,-1.15232718553,0.775366559305,-1.77024385811,0.809958212536,1.4360062107,1.24733917445,-1.07560137714,1.06920721859,0.356417990227,1.17601058592,-0.784634495887,0.869020827783,1.33045165965,-0.187943602554,1.395598252,-0.453316044121,-0.952129588909,1.21141211114,0.72933979061,-0.891646270664,0.0298491839771,0.0821923317629,-0.15490385096,-1.66116549902,0.980432154425,-0.936835446737,1.38036876379,-1.1059852571,-0.021231735582,-0.040715022734,0.0134586289882,1.09215211286,1.01810115642,-1.42682486617,1.024035889,-1.40624793586,1.03421485416,0.50416413474,0.898515441277,0.365678277238,-0.629249751745,-0.532571981137,1.62188607897,0.197678071194,0.168251422282,-1.25033765792,-2.7205221857,-0.623284903183,-0.13519816291,-0.981882384882,0.407254866442,-0.307943427225,1.02261346561,0.130099357607,-1.16111122033,-0.603382531898,1.04031364101,-0.56286080136,1.03331909918,-2.23703848538,0.151913489112,2.60594394595,-0.0332552218948,0.304416885526,1.09893281941,0.194919754759,-0.178871337947,-0.983303647094,0.152262636353,2.00824633056,-0.0716827154029,2.62931197847,0.073556189162,0.281469579276,0.405887678644,1.69783075488,0.227070680525,-0.0236350911119,-0.00991295676227,-0.326957247716,-1.02617876801,-1.00140434412,-0.77987574475,0.865874912773,-0.283067694806,0.390944004554,0.0649119140195,1.94812946132,0.736967797149,0.141249261707,1.02974560065,2.24624146106,-1.67521167696,1.66585213728,-1.10868000875,0.572272661502,-0.841102557353,-1.37030682764,-0.234323622663,-0.573508847354,-0.100897128683,-1.95578009714,-0.49777426004,0.483504815798,2.20720172698,0.272129236559,1.53961869369,-2.32358428641,-0.656435464694,-1.35359366772,1.53569973312,0.600903585332,1.0633181378,0.407630829195,-1.27369964325,-1.42768214564,-1.86297631955
0.105326849879,-0.248550192595,-0.24380795988,-1.04215126202,-1.1527408639,1.82217319175,0.206170906295,-0.563322940472,1.5131880929,0.934595857943,0.544840487366,0.488777770344,-0.192356848926,-0.741098732078,-0.384854176705,0.769382014864,-0.270792779876,-0.00218830954221,1.3362273409,-0.167661252793,-0.93186303219,-1.09033369901,0.420331193838,-0.0787713098964,-1.83831836494,-1.39003742375,-1.46197572761,0.0405312682444,-0.472917393229,-1.36932196287,-1.34224859677,-0.151718079081,0.804786436057,-1.24926560707,-1.70600958089,0.927690159112,1.07986781237,-1.09192996587,2.40033454982,-0.443508499911,0.254242318967,-0.21767985011,0.4571801374,-0.417388772391,1.70850320828,0.451720125894,-0.452286824769,1.44614676588,-0.0131887961604,-0.561895568485,-0.712206543898,0.577349246573,-0.772091199904,0.0323165310639,0.708620496951,0.454825159052,2.96315352695,0.589637205696,-0.218588634197,-1.41210763812,-0.962326235519,-0.450603827549,0.166472917384,0.481927746744,-0.375385033111,-0.943043905287,-1.49230485159,-2.11264998175,-0.829353092086,0.890568581965,0.668576362421,-0.984444339058,-0.645820094491,-0.581277627683,0.749400791137,-0.0251766930199,1.02336217359,0.425987566851,-0.0663387927524,-0.829816863322,-1.32117603563,-0.0758599974028,0.0704120994721,-0.495831172998,1.10468229091,-0.723185107647,0.193668501961,-0.884072898191,0.371646841923,1.65814057094,0.340070090345,1.14370263405,0.132005894141,1.27767353519,-0.865405848807,0.719379000186,-1.18249434302,-0.632219686147,0.923309799592,-2.09969014829,-0.734863017216,-0.628608489993,-1.03019566116,-1.69043502198,-0.320318184567,0.0325449299946,0.744244478497,-0.999588002989,-0.955332101557,-0.253883155081,1.10470274061,-1.27439553315,-1.83052600995,-0.642708115165,-0.817947421006,0.560645719573,-1.40038308289,1.30838022757,0.0468595078675,-1.15733692535,0.0611439565618,-1.88190443421,-0.274694128142,0.155832111369,0.613108769901,-1.11868720378,-0.486794815727,1.88299232526,-2.84238620759,-0.706355300877,0.151613037962,-1.05843402298,-0.0818674088576,-0.708827323111,-0.12220586906,0.639554584661,-0.463732304487,1.2243071612,0.215778209576,0.0841084629114,-1.20253955223,0.0139574381671,1.09238011541,-0.0189189948996,1.47707859138,0.386031077726,0.644606473277,0.290184865998,1.00462992548,-0.615788908921,0.818897184572,0.507861531618,-1.91032145628,0.2013389965,0.295110869052,1.65981638572,-0.521545945317,0.529688468079,-1.07747335779,0.82512817128,2.7321835817,-0.885398749764,-1.64311331427,-0.414285798772,0.916585125305,0.186749987377,-0.252956807965,0.709774399898,-0.55008790352,-0.0231979104797,0.155991421113,0.383643487753,-0.448548138047,-0.132380109792,-0.809799371962,0.0338039173625,0.153593258484,0.603814445468,-1.81642315847,0.435521467572,-0.035140376653,1.25214732522,-2.03969820972,1.87171683481,0.38335013144,0.256439168836,-0.503431543045,-1.27578064112,0.743895866127,0.0266373746629,-0.208712111361,1.3280540817
-0.455763895176,-0.191895261095,2.53474239371,-0.807048433411,-0.796392369492,-0.935786052924,0.17536423313,0.128506510368,0.762132389371,0.332198494812,-0.645087769464,0.117937643434,-0.188440050464,0.749383535973,1.45852787105,1.08768534541,0.961685449126,-0.460990614998,-1.44930003415,0.338287257678,-0.58794647173,-1.46561097245,-0.20071336448,0.11889661632,-1.23070575059,0.087213817443,2.28385358661,0.835730730445,-1.64618743172,-0.96670735699,0.808694608077,-0.353897430452,-1.33178713976,-0.749616555107,1.21651002293,0.00500349862014,0.419786212809,0.68814894221,-1.19672567195,-0.466756022558,-0.235882609102,0.982557523424,0.733038099639,0.488990603506,-0.181740504078,-0.0225660516127,0.922960258585,-0.167378846154,-0.481821610443,1.06921285652,1.14070851954,-0.0643334723483,0.716968561483,0.90468678345,-1.41497684873,0.346580879404,0.828894126943,0.79908689114,-1.30119497824,0.572007119909,0.451614113715,1.69531298215,-1.14431248392,-0.770333556327,0.309289001539,-0.518424343959,0.34594744158,-0.503899857048,-0.575967267451,-0.129526432139,-1.29019101251,1.38009689267,0.366210941037,0.506821684651,-1.30373232532,-0.394372964384,0.679678994831,-0.0445151757276,-0.981804445232,0.915646731507,0.250098492804,1.18448500963,0.56794508857,1.10195624769,0.175135253801,-0.488148131595,-0.644667187867,-0.257624363676,0.29768305941,0.340462580532,0.320385538677,1.36821401645,-0.476497316796,0.52973708745,0.16654978049,1.55783658297,-1.49207534241,-0.0883415435715,0.194239818749,0.978333796733,-1.14986069161,-0.353101254774,0.384938189196,-0.996769755857,-0.985527295542,0.554224569508,-0.176703530964,0.630987912711,-0.0444616268966,1.48374439585,1.40604314096,-1.26719553934,0.566987172861,0.412142826331,-0.735656440627,-1.43207750482,-1.63254670941,-0.187847506818,0.591117111751,-0.870934599251,0.853075287353,-0.812386054799,1.35578021544,1.97563069688,1.47692924025,-1.13543496955,-2.69739166575,0.652586193932,1.37968642044,-1.48708267118,0.997198708505,-1.2620641504,0.193896273663,0.0811265596733,0.548928945501,-0.30737222998,0.114159204128,1.89962942351,0.837089793696,0.0292100779508,0.662855674935,0.388691256089,-1.34737593014,-0.419461339926,1.28211353928,-0.540405594934,-1.57733880248,-0.84987482042,1.04192343761,-0.598756018373,-0.740053554712,-0.348665030727,-0.255457311287,-0.295671685246,1.59091591718,1.73143570047,-0.968149695694,0.654622518776,0.682536318417,0.780310144478,-0.530529801199,-0.270131217604,-0.835342973076,-3.53094391197,0.398187613405,1.41655931972,0.486349109441,0.0741714840408,-1.3611860255,0.174922532102,-0.197362630484,-1.2706172883,-0.382558581591,-0.183574734424,0.698886443104,0.91063494206,0.0163667030572,0.649910146681,0.028059703635,0.691692619402,0.10253389532,1.87224677988,0.567766003695,0.484619472017,-0.389266576728,0.693047971155,-0.933400291782,-0.755130038809,1.43692217338,1.56212719335,1.45217012488,-1.93194149458
-1.12828732431,-0.309907398877,1.64791467169,-0.0946129633438,-0.0670591064215,-0.16376808488,-1.05231043161,-0.346465573622,0.500553362342,-1.09467658764,-0.0175016529275,-1.44239082607,-0.186976803995,0.84490384459,-1.15615584222,-1.91557862298,0.681780220111,0.491066317316,1.2338864782,0.248094897373,-2.19107724281,-2.9930859837,-0.2365274281,0.71081403411,0.406401627181,0.539073592391,1.22730436071,-1.9415728594,0.142944471595,0.175258473735,0.980016775165,0.30611563511,-1.20287818525,-0.0658430103561,0.419994062333,1.1093801595,0.764049376336,0.0911173369826,-0.392531182236,-1.35619466653,2.26476930105,1.03526136134,0.485972117112,-0.478263392987,-1.84589620324,0.15167474807,-2.23137373949,-0.253329858382,-1.77195889008,-1.51293857107,0.239648070793,-0.75453025322,-0.615858528477,-0.980666735496,-1.61250898377,0.0853309866408,-0.193714447962,-2.12342554171,1.01585439587,-0.547512799378,-1.31682748108,1.06169297963,-1.53653331238,-0.0950048757186,-0.084199141484,-1.18939404629,-0.0545720656399,1.08842802338,0.998779264318,-0.856536946122,0.555483825493,1.42948139833,-1.42067994081,-1.40741777632,1.85652443504,-0.045744986097,1.54359439941,0.239060632922,0.60868665053,-1.73548701734,-1.36277581532,-1.16911000819,0.0245524645609,-1.37747810792,-0.967148084215,1.47836330056,-1.23730740627,-1.97738410929,0.606679201736,1.26796601259,-0.77179118746,1.24102970818,-2.72734840038,-0.57304599808,-1.81103726633,1.18476568376,-0.59312474428,-1.23176996741,-0.14756710279,0.648742112036,0.725425510664,-0.962555429481,-0.0535996378749,1.59111703124,1.57155413945,-1.19280049291,0.913727532701,-1.42837435347,0.557213993532,1.00818118728,0.156141769627,0.343652188922,0.677258422869,-0.556682954116,0.202749539244,-0.160371440128,-1.20521012438,0.560916564255,0.1302533452,-0.0732517322389,-0.38625649172,-2.31539602557,0.50603172399,0.0784721739649,0.427116145194,0.809683077841,0.438696291955,-1.83062458906,0.238251372373,-1.42347047842,-0.0530740786021,-0.0190267902438,-0.502212047177,-2.51806718461,-1.48030068753,0.649820708517,-1.2041476881,-0.137455549066,-0.383264488898,0.658797803149,-1.91982792187,0.876528358647,1.54202983654,0.272974065231,0.756939251062,-0.181865369,-0.479182474025,0.508501783137,-0.164381766381,-1.8333578016,0.746956898161,-0.351869204023,0.436254862313,-0.0380641360388,0.860112753809,-0.406927208094,-0.57690509494,-0.297668896036,-1.10598328964,-0.0341975230766,-0.273387359252,-1.11057334206,0.525241986795,1.17712672951,-1.13608480467,0.396948679858,0.257795858577,-1.01503369739,-1.53404455129,-0.306799987814,-1.98589302927,-1.25086921897,-0.316063450243,1.92387979023,-0.13233143189,-1.05417590806,2.55453760136,-1.27091576483,-0.769852398814,2.45893045212,0.208012795416,0.0210955010816,-0.279622571242,-0.384762999481,0.177437616101,0.408380240024,-0.90629714636,-0.687000941438,2.917128545,-1.44062996288,-0.193606384564,-0.275791918556
-0.000290520405685,1.66840857549,-0.0629266532843,1.23800682633,0.448147506593,-0.293627236509,-0.128243601839,1.68903875279,-1.1798367066,0.0333620127741,0.157580424418,1.07225423641,0.0848734310204,0.00368814025718,2.4587811619,0.643250908046,-0.0419584053787,1.35487247568,0.145931640016,0.438023948632,-1.47879265476,-1.01430890888,0.372311752142,-1.52089658924,-0.946026389919,-1.99134944367,-0.348620417598,1.38641055728,0.427421949212,-0.343373104889,0.67777402651,-0.416208844661,-0.150839468953,-0.858491682907,-1.63956557153,0.503196150116,-1.30229173002,0.0171733200086,1.17413764247,-1.63531142849,1.36157002758,-0.276924273537,0.156899730033,-1.50376494774,-0.722597589802,-0.206184288712,-1.05672659054,1.43522124741,-0.426966384748,-0.401186954975,0.481655938473,0.387023041622,-0.428398927199,2.49624909255,1.30166750773,-0.0547887408447,-1.76077080378,0.637573132647,-1.17558369588,-0.653758590682,-0.514308655855,0.825590021505,0.680179677783,-0.758207329375,0.0713916955599,0.593117808319,-0.500559016219,-1.26074992449,0.252851630942,1.60990322605,1.25083141748,1.79362259775,-0.225098942099,2.45541812441,-0.26289762142,-0.611794492551,1.09060814466,-0.63942684705,-0.680363755976,-1.40315028177,0.890738170408,-0.305840503175,0.0663190761789,1.74024468464,-0.299094143628,0.225414789044,-0.952534946397,0.149320888408,3.12092315651,-0.535344965402,1.16966886028,-0.972129854081,0.498736744247,0.216178787711,1.81255688652,2.55557980942,-0.258377901048,1.74682115247,0.277002740602,0.321776690805,1.08001763986,0.823776862505,0.0233263225442,0.914637948633,-0.595627230329,0.675894224782,-1.62119062774,0.528219741827,-1.28254253942,-0.861533710583,-1.03478821761,-0.204866293349,-0.126184880088,0.244351760457,0.0495191845663,-1.54115568096,0.460454591479,0.411238246506,0.0645468420195,-1.19144737267,0.327130752606,0.211370922701,-0.750863635096,-2.19091718889,-0.334587736244,-0.489952134389,0.0104687356376,0.804276157459,0.980948812544,0.940004946014,0.454781407709,-0.212635008606,-0.202097411901,0.68290843561,-1.083249697,0.616171185498,0.996092321892,1.44523136615,0.347621998314,0.106997218157,-0.0074743903284,1.60862393483,1.03158789839,-0.0568763021308,1.31022984903,-0.319850497421,-1.95953397294,0.299858023077,-0.131672790038,-1.31098092752,-1.32472544224,-1.45463903351,0.101049889853,2.060755505,0.0615959912467,-0.4337713181,1.25004486852,0.612903817228,-0.360196206741,0.0234010400628,0.60506256295,0.078842699345,-1.25984359689,-0.24521008185,-0.592843428821,-0.295788874649,-1.38339292404,-0.180385948549,-0.877592156363,-0.45112908759,1.60823754388,0.136598998764,-0.172310221246,-0.759698454259,-0.224568636044,-0.101219830487,-0.741676753085,-1.29764467301,-0.486137028171,-0.5217685069,0.210661788771,0.0911866848904,-0.254877022712,0.136475418671,0.0959722938766,1.59012317173,0.278720698779,-1.2974300097,0.661566089532,-0.827618147938,1.43944591097,0.793411708373
0.376458362761,0.487778972929,0.414751798994,-0.291172016526,-1.81196444981,-3.07086483287,0.938559933317,0.775451460567,1.32431724582,0.21379648497,-0.279413007588,0.702628324718,-1.35878335784,0.64449940916,-0.25039920186,-0.646368621129,0.207940946516,-0.127693246229,1.11967327614,0.035196799861,1.05046343635,0.419083005794,0.0913935424611,-0.598599831912,0.869434159175,-0.266916501584,-0.219446829454,0.601633629952,1.07302973349,-0.967107244411,-0.95348429881,0.500548694206,0.820360814076,-0.633525306722,-0.0986420093809,-1.31808988563,-0.935825116012,-1.75603378379,-1.31932266168,-0.0932364552014,-0.593157595283,1.07530886994,1.23786673246,-0.192329705013,0.740922178502,-1.22107303859,-0.294153156017,-0.208504005809,0.0514120420808,-0.176800577866,-0.0142517693872,-0.0281396445714,0.472354576919,0.604713705288,0.355474306238,0.295489972112,1.12745370955,2.85430755343,1.41202936064,-0.350911681091,-0.358636476021,1.13706411382,-0.166081730382,0.0308703841679,1.47970197692,-0.0578024010384,2.76685311792,-0.200622119709,-1.34333589012,1.05659425393,-0.616706293612,-0.896834232336,-1.36810516678,1.05735149919,-1.40145486747,0.0168291558581,-1.36281615741,-0.198283259167,0.174107345721,-0.288254508987,1.14628586623,0.842701082125,-1.11796951755,-1.56406816558,0.216715141026,1.34442592704,-0.0941902424585,-0.440204739364,0.252771042654,0.958443573689,1.08494743376,-0.173786977617,1.58155545964,-2.62396883061,-1.23567244022,-0.262648136343,0.708066865326,1.13471532388,-0.550225563334,0.137593734686,-0.243571481813,-0.631960701904,-0.335698556344,0.632442667759,1.07522845395,-0.381181710254,0.408910168815,-0.903605428657,0.631892705822,-0.982904011976,-1.82228463937,-2.09965796585,-1.49753068349,-1.77742044034,-0.980220920604,0.212199677202,-1.41080102191,-0.823432368251,-0.955952500741,-0.389043551034,-0.351911564497,0.414025775862,-1.92051388174,0.81709244541,-1.3236488711,0.432058068722,0.230576837962,0.329655489051,-0.582838096955,-0.341317747114,-0.572712379912,-0.486127870397,0.728616392726,-1.29537277515,0.889388375796,1.57074308675,0.45241736869,-0.0525072856219,0.640727216611,1.65667019404,-0.989071991014,0.491114764148,-0.888718060715,0.280044868517,0.913551064708,-0.772055157997,-0.33626401645,-1.10890922479,1.72956670894,0.257923077303,-0.721392311453,1.56331408314,-1.48392918307,-0.878003289901,-0.00339235827435,-0.454022852238,1.04473148364,0.0260593952473,-2.03197096751,-1.17503373941,-0.208929169648,0.230858855179,-0.388056750147,1.02523715167,1.59459137767,-0.901953809344,-0.404372581716,1.3803331841,-1.57968836223,0.26004560061,-0.762508658115,-0.0719747050657,0.319455126021,0.118125893066,0.11359729994,-0.0187540397693,-1.97298503166,-0.27957449916,-0.837504346376,0.0987351770412,0.104620602839,1.27322930948,0.664301941206,-0.671796316271,-0.555779871717,0.639397493311,-1.28604036262,0.846088784259,-1.0410282766,0.590679629878,0.925678682314,0.47908238005
0.387841048217,1.06991336441,-2.08921226326,-1.04396569226,-1.29282204928,0.747537638337,0.771833685571,1.28792218884,0.359365502847,0.708324158031,0.436581261755,0.778835582794,-0.712599133326,-1.25081235623,0.369785206378,0.0954263402507,-1.13868692449,0.941711429314,-0.542016878535,0.402159813182,0.939815149656,-0.683028662708,-0.623279551484,-1.4219948712,1.18263267912,1.43171897483,0.211801587905,-2.12109749102,0.579459184175,-0.742614526562,-1.84206587996,0.895360698495,1.76022232633,-0.068288033477,-0.537526949595,0.901905691946,-1.24165623185,2.19739049312,-0.488054807762,1.0261616528,-0.51036955969,-0.231822926673,-0.0340635288207,0.462292530537,-0.158733457678,0.313874660175,0.981424965432,0.457948462451,-0.787107353979,1.24134997619,-0.284403384836,-1.88248803785,-1.03276312261,0.388865945892,-1.70659121572,1.43026124127,-0.297586458123,0.259234112791,-1.39669669318,2.14891731463,2.45042749351,1.98588770986,1.23845597786,0.991159369278,0.0474804970968,-0.0897792285145,1.60554589888,-0.347658956458,0.411985340849,0.4787701221,0.782960458641,1.57783553482,-1.38300289373,1.52191803267,-0.0672197462181,-0.0635544512731,-0.151330057382,-1.13299771749,-0.839077910528,-1.72450193237,0.591714682768,-0.727437365052,-0.844612491881,0.318195573317,0.53680601187,-0.191510888061,0.831900727248,0.989193403748,-0.147666742066,-1.46443887363,2.74652954475,-1.23086876527,-1.56006996959,0.622149246214,1.27024530305,0.252690040266,-0.668005228078,-0.507372421675,0.670358369585,0.631574076931,2.06305747863,0.267116042216,-0.377796135453,-1.19539580295,-0.296244097509,-0.864215955004,-1.06095184577,0.218247187933,-1.61949716029,1.25387120338,-1.83579443382,1.20797181141,0.477990737983,-1.08869157504,2.21082079369,0.0127686940959,-0.953488233531,-0.234661292519,2.39231740669,0.960639261322,0.574164577506,-0.226881665207,0.994404576038,-0.209913407676,0.348528236195,0.0463462858961,0.738937249907,-0.41137624303,0.170062806569,0.944017562012,-0.989315240312,-0.585081510266,-1.66281714172,-0.627924346758,0.211607807736,-0.783789974305,-0.438220311002,0.713032868144,1.4052496142,-0.254879713087,0.496833385368,0.765219517186,-0.891361655948,0.673555113113,-2.00716983889,1.35463377429,1.55895696513,-1.45751589994,1.00624409539,1.04934945436,-0.119023494741,-0.497063945972,-0.523627804988,0.961664015164,-1.98860721953,-1.52911461276,0.234820734336,0.781624189014,0.751451617155,-0.0192892706884,0.0817760130349,-0.711500599498,-0.465218131055,-1.55650474357,0.804670900101,0.692552754589,-0.741007463442,0.126239194017,1.35365298848,-1.96810265247,-0.675627765316,-1.13851774112,-0.642388865654,-1.56168190737,1.02080361986,-1.15224722564,1.51278974212,1.10426039419,-0.636960811436,-1.85931808935,-0.204252566967,0.998701576218,0.802720390761,-0.0242930492703,-1.24245190939,1.08290712864,-0.0309232765878,-0.835129347942,-0.0498633564798,-0.282585058883,-1.75130059064,-0.256928842421
0.991591121936,0.667610787776,-1.10682277634,0.562406287495,0.741402529679,0.0994476778223,-2.66096832279,-0.0787099249654,0.608933841663,0.0325607484427,1.39542366533,-0.158153461107,-0.943967870363,0.981565940585,-0.463288936904,-1.48346385542,0.432225816206,1.26372494279,-2.54786747765,0.0182502482245,-0.615968912945,-1.45882746634,-0.894455229189,-2.21328232622,0.0795428166757,-0.0898025148802,0.241668356373,-1.23559993926,-0.13643326222,0.767853329496,-0.60269107733,-1.044470116,0.744741265422,-0.665680468128,-0.54319763474,-0.00768170520228,1.49261688253,-0.448483336397,1.61921745657,-1.32568337631,-0.561991225023,-0.247114612898,0.282654063109,0.27171065498,1.9586312289,-0.861172943335,0.374570821503,0.735317526375,-0.355641323829,-0.0827723874926,-0.841213233607,2.03381970972,-0.762502880392,-1.26773742015,-1.02941562656,1.88500793442,-0.204654495824,-0.139494442652,-0.545568874259,-1.15832712502,-1.74077949494,0.933058742477,-1.24726229022,-2.24364654566,0.0953977411829,-0.59230089415,1.04224197193,-0.438101246585,-0.887404830547,1.63956142242,-1.85929677854,-0.799915796731,-1.08772980282,0.397319596264,-1.7654231025,-0.929907083504,-1.5863322978,0.0273289179151,-0.829804356284,0.326124925135,-0.96083407455,-2.16740354349,-0.271941333282,-0.608825907641,-0.081715677577,3.07366139564,-0.257886318371,-0.67207593448,1.88460092844,0.456694026939,-0.646347298102,1.10339552603,-0.280540050561,-1.66756269663,0.576377763325,1.94009815964,1.59185276927,-1.1469348892,0.222446046702,-0.251000001858,0.1759383269,1.12386012892,0.191189837916,-1.7451938499,-0.118468053775,1.31532727346,1.28338661895,0.516185505069,0.0708750441737,-2.13779339681,1.03296542648,0.966288694516,-0.985733930682,-0.333800965976,-0.641076576724,-0.199808403473,-0.759087438402,-0.555197234821,-0.555510508577,-1.28710256718,-1.57096614108,0.0172476888302,-1.34557983044,-0.406059190881,-0.177942591859,-0.710283962791,-2.09974651842,0.166076841018,0.178043850836,-0.772743213063,0.454269292307,-0.798774217056,0.871251475649,0.747405448884,-0.624640500433,1.21568522678,-1.56605959657,0.712106465042,0.757897402916,0.444499538593,0.59075674225,0.856315463329,-1.35542941927,-1.09153341658,-0.727463826246,-0.386051715044,1.85869424545,-0.256873652277,2.05699486949,-1.47904278195,0.156844997775,0.104091157195,0.0563614193128,-0.279839032492,1.15051841323,0.0455284069125,0.25013358616,0.548066651337,-0.0233660003942,-0.64688407334,-1.15328930863,-1.783192244,0.645785789986,-0.887737941797,-1.00930482088,-0.76669106229,-0.842878937145,0.956461664571,0.74663038871,-2.52607354975,1.00461944369,0.0587221431174,0.171248154653,-0.283870298837,-0.768936764036,0.262825309711,-1.04519592608,1.5449382946,-0.833167701282,1.67359350687,-1.77867726795,-1.31816055914,-1.16510446859,1.55514517046,-0.68839658431,-0.748803339683,-1.09885959924,-0.534641913211,-0.280495698357,-0.444247263587,-0.762949130644,-0.863063270044
-1.12508690593,0.889621164304,0.239952922439,-0.105527290669,-0.332928405383,0.0943364794169,-1.92321757831,-1.01632973582,0.545537639722,-0.616198436273,1.01156492636,0.996555141432,-1.01859437562,-2.57059403878,-0.406435498889,-0.0578265870075,-0.264493331648,-1.301062781,0.386228957522,-0.368840511948,-0.124164375981,-1.69829820585,-0.936023805142,0.667316251422,1.4800922536,-0.85418590273,0.615239892568,-1.25920834939,0.663379345882,-0.926961360832,-0.206772042495,0.925041425814,2.35026536173,0.210403602711,-0.437411099738,-1.21279090147,0.269520664252,-0.373435481758,0.811646123786,1.2371558186,0.467485864016,-0.989878261904,0.851675437703,-1.45750888975,0.214130625549,-1.39722314995,1.84250099496,-0.80528072252,1.78098730423,-0.706571735868,-0.060920037687,2.28912310403,-1.10651429736,-0.862627826751,-0.463505884591,0.584247180801,-0.377959597061,0.781916742046,-2.75040851016,-2.2883193262,-0.240850165964,-0.63297947542,-0.308375378331,0.106631805383,-1.57100325723,-0.310684063123,0.419072676087,-1.82724418858,0.186475041895,0.282069230677,-1.55067847948,-0.478232148496,-0.386488845898,0.817279595189,1.2095331041,0.504827617478,-0.530125723031,-1.33864700157,-0.0141009734625,-0.791683400565,1.37950884673,-1.16622315868,0.147869297476,-0.455834463977,-0.00581482177815,-0.803704824205,1.14298927094,0.418504074753,-0.166038928326,-0.19357709128,-0.207530668688,-0.706458029985,-0.474358530401,-0.670513969805,1.70114705838,-0.0392969772698,0.489070576883,0.59182356143,-0.425644631865,-0.41460358615,0.840338560883,1.09616769693,-0.194333543362,-0.705086492183,-0.329074956976,0.239143011055,0.542845645646,-0.692203241636,-0.523317629513,-0.770547984093,-0.170639251943,0.380178627866,0.677458616129,1.77972287839,0.320720780818,-0.972801226152,1.17426883721,1.65799492883,0.125585651003,-1.15140443918,-0.459737019345,0.0281320867903,0.275893950123,0.0996173841177,-0.0551878168711,2.30589487318,-1.80777587235,0.150328984222,0.992536391279,0.927156174718,1.01596838084,0.517531032117,-0.326110648188,-0.413214685905,1.16828926129,-0.176480325776,-0.482367718086,0.576684255826,-1.76126995179,-0.342987773704,-1.6158456593,1.05692053096,-0.433161100839,-0.304063897852,0.442451249942,0.2330793076,2.07856876113,-1.8741995438,1.95057802623,-1.68782016201,-0.33635317811,0.717328694824,-0.747484398664,-0.904184508147,-1.58932272549,-0.304343339957,-0.503367814262,-0.594644576681,-0.490835857962,-0.929651886397,-1.60782664321,-0.320920373226,-0.406478874916,-0.671393649508,-2.22557757555,0.447294249127,-0.568467963236,0.65674825165,0.993108907833,-0.726638755687,-0.639005483004,-0.0451952020048,-0.425503639625,-1.41581753271,0.184086437793,-0.787775878831,-1.10315267515,0.312056276934,-0.327477521552,2.20687126621,-1.76366228931,-1.53577639379,1.03287674691,0.123700245092,0.209350595646,0.104374879127,0.949711406606,0.103692412561,-0.565155579276,1.09734022539,-0.5335981721,1.58321990783
-0.687073304131,1.87079299409,-0.288544263107,-1.40561335842,-0.305634791024,-0.213682960156,-1.94038469069,0.226425241621,0.179099346086,-0.8452754865,-2.20048535363,-0.112490303027,0.954883522942,0.138511323595,-0.703314521497,-1.15356612367,0.110824261912,-0.809834676685,0.269324317712,-0.482036653428,-0.510379752951,-1.27194048175,-0.299063976999,0.0442639125346,-0.562303950124,0.424822449713,-0.71780774865,-0.506248084136,2.14997828029,0.637433992928,0.429651067911,-0.104249325309,0.418552286248,-2.51772730733,-0.368375198208,0.342005026773,0.601341122399,0.83287795955,1.91971701419,0.613328723365,1.32411108586,0.804916388898,-0.620726483345,-0.495498268544,-1.3730563224,0.719743192367,0.684446394007,0.289415361499,0.549031488075,-0.407956631632,-1.0266096738,-0.975903702591,-0.0549227828356,1.33322060691,1.47193697876,0.0970722488382,1.36749273184,0.0935181066879,-0.808576267884,0.730354485519,0.115847061027,0.427707506987,0.587560901078,-0.786495225398,0.233313424073,-0.121726158858,0.760175591689,-0.371875802462,-0.208751882314,-0.677065117311,-0.406299866408,0.373249685049,1.24369738975,0.34478204658,-0.206067288144,-0.330346701437,0.214545876348,-0.323020529001,-0.0613619567538,-1.0965085182,-0.156421284059,0.00887564902281,-0.758275244762,0.35518242954,-0.15293827411,0.554102925294,-0.853598058838,0.295885151025,-0.0222273640404,1.09919577192,-0.824859347745,0.540079571403,-0.156824656481,-0.818747692352,-0.276576060703,-0.188839992792,-0.368338159877,0.847261085807,-0.557786878955,-0.479594222456,-1.22322316335,1.31132426369,-1.12810745445,-0.851502094656,0.955387702239,0.107016988048,0.286517140241,1.91220457066,-0.652664347187,1.3793263274,0.0345280101654,-0.0944801701613,-0.766582459656,-0.889634059998,1.46898235086,-0.117575867345,-0.844381485598,0.41462784806,1.6766263583,-0.298944922867,-0.671590310233,-1.80184554911,2.11086129485,0.159067343865,0.520219264855,-0.125328039353,-0.170187599892,-1.10495766916,1.55364940466,0.92517047621,1.0518599377,0.0455350295611,0.13358800678,0.352657444936,1.19038783875,-0.218575072859,-0.935794937052,-0.0637592239333,-0.675987246097,-0.478361435489,-1.2306667432,-0.508405729344,0.335035966401,-1.10253237557,-0.761141646989,-1.12440750345,-1.7015102827,-0.444491698113,0.457073659067,0.110997955737,-0.325715652804,0.136079737593,0.992387547803,0.984546935046,-0.768611698852,0.636053452667,0.697197514985,-0.00487886668608,-0.145101567217,-0.196009443449,1.19828988125,0.367901805305,-0.614100004747,1.08974986039,-0.469041937436,0.894309980085,1.28978847762,0.681324514343,0.411312933603,-0.251969650896,0.622402761488,-0.633417533299,2.20725901337,0.372693915712,2.17094315579,0.442369832369,-0.283539387942,0.19981184622,-0.725209459264,-0.401558901675,0.441342540521,-0.337236036116,-1.89571178209,1.45703056546,0.111434435535,0.0648990092273,0.820926434692,0.786112133668,-0.153906599448,-0.0324757255667,-0.00608959208706,-0.197347571396
0.347766257334,0.626160094846,0.785500955207,1.53396568561,-0.0540245926995,0.465930618519,-0.340169925452,1.15287598156,1.65966535526,0.197128012931,0.0229832493328,-1.03158806684,-0.967302389118,-2.07952755531,0.405054923908,-0.101102014182,0.0392601614904,-0.0274016579572,-0.333680146386,0.357240074002,0.222783227126,-0.583398725211,-0.829180575016,1.52129435855,0.86041251727,0.0795608408034,1.06125790131,0.0497363680234,-0.23091604891,-1.24714649237,0.141563265253,-0.0775483201195,-0.458414696581,-1.72862502181,0.187958689813,0.352544754338,-0.216569174115,0.314986629833,-0.113443277493,0.32394934268,-0.154383731591,0.581058654807,-0.23165577731,-0.988161838689,0.00834398557583,0.162862811643,-0.722159329425,-0.622429994772,1.86628344733,0.896538306505,-0.663259330476,-2.74882469241,1.28889411227,0.814326911448,1.07588317468,0.991802640495,-1.13070606163,-1.0381429373,1.10845582206,-2.36770214127,-0.278200870269,0.0220226012593,-0.408929099969,1.12750205452,-2.09064962424,1.04613294086,-1.8022489955,0.0810086138249,0.697856865584,-0.742000186882,0.284928329399,0.442420608504,1.06351706372,-0.610138923699,-0.48806739792,-0.809723588032,-0.0926212571491,-0.0205950503967,-0.685585449108,-0.290557388859,2.07943071166,-0.736865243454,-1.34996536262,-0.792964558875,0.571229299837,-0.1019157099,-1.83514167618,-0.252894114533,-0.180555814601,0.958291349862,0.581837683436,-0.881875898486,1.37352727911,1.54679794405,1.02248501734,1.35260940109,-0.99425894792,0.900930180376,-0.503004908511,-0.0728348763596,1.09583499096,-1.80550923202,0.543870748457,-1.83037526671,-0.0331725596426,0.791632553053,0.960680564212,0.207799393242,0.992954524399,1.02847945866,-1.4645576768,1.67913925679,-1.63030942651,0.978936859892,-1.0106068895,-0.0392643044837,1.34708435075,0.677636367154,-0.478170125095,1.27094848147,-1.09403948006,1.66842489226,0.55023927074,1.0054705737,-0.543498670439,-0.225651068387,0.950807155549,-0.224903324683,-0.635035792768,-0.473607271591,-0.261385866406,1.23864927272,-1.21882762961,0.78536960341,0.261871710203,0.465992991437,1.45657425692,1.14144032904,0.413274642875,-0.774006365359,0.347107876361,0.804569199783,-0.606000389981,0.360456089433,-0.262248464263,-0.327706271286,0.523742677589,-0.54245011786,1.64137244139,-0.0583119184681,-1.20591902745,0.575652065687,1.02850508791,-1.41213369316,0.918780243421,0.747864191036,1.36064978473,-0.432713563004,-0.0498494123793,0.0613113701998,-2.49704381182,-0.323033278246,-1.25373256215,-1.84961665718,-0.234463496571,0.154298204266,-0.971579895168,0.305374675673,-0.238691220335,-0.242301172342,0.369137004858,-0.813845107933,0.523227989452,-1.23032445968,-0.823247495702,-0.520000085161,-1.97193838486,0.194338081778,0.429902910776,-0.476725935644,1.24010663832,0.89519331998,1.40149178551,0.524937433864,-1.27100321781,0.485503966667,-0.498961145415,0.282393837105,-0.0893991304027,-0.357624067707,-0.304552423067,-0.131578034578
0.108609944419,1.86387224152,-0.674208905945,-0.0259392781915,1.025857969,-2.94929508961,-0.630128867697,-0.422812326026,0.213109028399,-1.82796721867,0.297770942486,1.19164195965,-0.714781275842,-1.90375922421,-0.151293683328,-1.02690828559,0.111904467623,1.55911639393,-1.98675451848,0.690169377333,-0.605841375849,0.519224726881,0.337156501802,0.139085250999,-1.82647913805,-0.130704290105,-1.41793837991,0.71130287315,-1.16433461116,0.495538913622,-0.489731769753,-0.6794200076,0.836581556607,0.0998458953816,-0.50491942131,0.308920063746,-0.459587791525,0.348380511986,-0.499241765984,-0.183964933472,-1.06078527022,0.920792427936,0.324155814116,-1.12642750873,0.551368414348,-0.672148173481,-0.0258405200245,0.273977650156,0.698856676778,-0.484119980251,-0.590865046492,-0.911415706885,0.604986235366,-1.7521970092,0.627342684535,-0.443810113904,0.255779072513,0.522899147344,2.00803759813,0.345435223991,-0.193648186355,0.812742284509,-0.557138153375,0.572192322023,0.263008663351,1.04332132765,0.10585730474,0.200368314197,0.298684681253,1.30264343602,-0.0372656425113,-1.12280026796,0.477531599579,-2.11004620652,0.976726189412,-0.946122694455,0.23974967202,-1.07094781069,0.348456132949,0.097326730989,0.522058529423,1.39072152753,-0.470087698597,0.361014846569,-0.391057925423,-0.545910730938,0.553921161239,0.000429548550583,0.195086976913,0.391380551952,1.4927087424,-0.507537079857,0.0170703662771,0.963218293247,0.672433119309,-0.137546758889,-0.393335359659,-0.0788110709338,0.0391723066719,0.453946197883,0.0966896808014,-1.38255682008,-0.174560309488,0.0584433124759,-0.626782644107,1.26440845544,0.126452854024,-1.88462817156,-0.384444874746,-0.327539426406,-0.217567012101,0.481126825932,0.654491760922,1.13192825119,-0.454060752411,0.962321554877,-1.00130254107,0.362716984369,0.624814483964,-0.0907163021196,1.11055744928,-1.24590217673,0.860444697916,0.896414253183,0.732313235377,0.153202517554,-1.07830421938,-0.546855501054,1.14853517128,-0.344225665217,-1.07324305352,1.15978299144,1.27114562597,0.424768945932,-0.925042446713,-0.200115194788,0.956231918372,-0.389650863863,-0.296449682822,0.0874241059275,-0.880268607821,-0.462838938365,0.328894906717,0.0668487665257,-0.936207626558,0.416432879368,0.645345739716,-0.530588138532,-0.987744264256,-0.834833760971,0.070199583614,-0.0322497694909,1.34317719826,0.321094376727,-1.17283251313,2.03610253335,-0.102636105565,-0.689771477043,-2.12939897084,-0.612125761798,-1.32951448399,-0.122307156847,0.647347576356,-0.377159937917,-0.591477072299,1.0798877226,0.52306471692,0.237977687579,0.171865255389,-0.994671362825,0.0272904294443,0.473866330313,-1.15277764898,0.338958640327,1.8047267569,0.280108154393,0.539106496173,2.32620222702,-1.46900445545,0.896244723304,-0.195823030548,1.84342015572,1.77335541967,-1.83266615607,0.795136516418,0.340105126217,-0.359266006038,2.0627646872,0.618136099124,0.239901474178,-0.258461084927,0.723105722159
-0.00894647221375,-1.60616608771,-0.174368846325,0.125916539008,0.348921524256,-0.871290679401,-1.04106699466,-0.0519585745381,-0.796313397448,0.5714990554,0.35442916238,0.0246953056956,0.127413972777,-0.623175388804,-0.564598713313,0.59523594667,0.598141764996,-0.0621887356259,-1.08974051222,0.686262594783,-1.53974446001,-1.16532580222,-0.439282246721,1.35066742055,0.429206311876,0.254015622983,-0.0258819205115,-0.387897269499,-0.340941462268,-1.88785189136,-0.361453972378,-0.592533637108,0.0259105886909,1.27884505003,-0.624413010357,-0.727669304902,-0.295256973522,0.941150499247,-0.964031538116,-0.259866291301,-0.404373894888,1.09495372516,-1.28897536723,0.0262048381286,0.216299041547,1.23190119664,1.35633516944,1.90250769272,-0.631019335659,1.49353310884,-0.0918002498046,0.260598499634,-1.6984750499,0.879746001852,-2.34741354604,-0.0823184768807,0.535840750987,-0.637248445879,0.748033128215,-1.89574432832,0.0896908632671,-0.910804637746,-0.0200180392937,1.84570093537,0.862204472203,0.330123059582,-0.998722629685,2.73735679786,0.683948888986,-1.58091801894,0.463610086483,0.828966568392,-0.972080888944,-1.05776685177,0.252498993813,-1.34042587087,-1.25933669369,-0.111943563651,0.451453894648,0.455010034424,-1.82961210217,-1.31703578171,-0.669488240418,-0.0937465349178,-0.446232432205,0.767703741114,-0.54148755224,0.589725080944,0.668306509504,0.247853211906,-1.30946526256,0.758421900325,-0.640688441444,0.809605300208,0.121071584684,-0.611990001389,-0.374084409198,-1.26055750912,-1.21726929491,-0.461993250798,0.514596357761,-0.436781778633,0.381966595485,-0.254299850584,1.31284328046,2.73051603171,-2.31178587642,-1.28013590391,-0.538688050926,-1.39028221195,0.826238362152,-0.0267634432393,-1.27591593491,-0.561501329968,-1.63515872848,-0.116565490856,-0.0244592951271,-0.701340786926,1.60456556044,0.347494911476,-0.219720000483,0.41457281205,0.175791587287,-0.552366404742,0.120449248631,-0.189679137312,1.8975047151,-0.865955512243,-0.706427963781,0.990771706053,0.818721208175,-0.0658056263692,0.10235025139,1.53866013728,0.623574002901,-0.0257278831826,-0.321920776891,0.000164560563493,1.47267233618,1.04908377761,1.32404632466,-1.14591979088,-0.747963159269,0.454911802218,-1.83032193622,-0.850730414957,0.118434272387,-0.274749813854,-1.12236885705,-0.16065621232,-0.338586322596,1.07700542119,-1.07342561652,-2.35416087597,2.1760449897,0.168013096775,1.85225884701,0.705343719927,1.60536090252,1.3866097616,-0.145026756129,-0.52478201796,-0.685965442754,-0.904444138706,2.32648043413,1.42433106248,0.602667849997,-0.0983981847121,0.350494210017,0.2216167157,0.464345009761,0.876212403998,0.471508911428,-0.198939126655,0.0244626455167,0.766911939434,1.2413450061,1.75917882908,0.280191232853,0.0970284956882,-1.0288878256,-0.31392455547,-0.45401445476,-0.0223415573877,0.761755725974,0.835705220512,-0.634444482912,1.31009542533,-0.383878257911,-0.506384158957,0.384937249405,-0.0239873169248
0.656852420358,0.675670132042,0.345840204707,-0.464471660763,-1.15015245622,-1.03869930595,-1.86025547399,1.48083802712,0.316550204092,0.598587917343,0.664103439585,0.0063321380253,0.0612608387424,-0.661145196559,0.846931257421,-1.22578076875,0.0803386566621,-1.58311121649,0.417762920431,-0.198949018069,-0.319924304899,-0.386320595735,0.340333284793,0.0745250966725,-0.96301868629,-0.423018710749,0.594520934583,0.210949890341,-0.714294335655,0.729623884718,-0.580291613159,-1.17792624478,1.00171495145,1.88296593398,-0.804912585763,-0.534299995265,-0.127422833353,1.13006946476,-0.875398272973,-1.20034175829,0.937747563508,-0.00537042995395,1.01106036632,-0.199809923297,-0.748568658796,1.2985808773,-1.17085014617,0.542217495113,0.856673907212,-0.372163179625,-0.0995078976679,1.13077898384,-0.128214453415,1.52941936685,-2.05340971301,-0.102036363949,-1.08778715474,-0.442363164705,-1.46337626217,-1.88010180343,0.494561038299,-1.80152719713,-0.208716129002,0.307570730394,-0.452872093173,0.251984944565,-0.65704320871,-0.0185441138457,0.0299386747879,0.171671972216,1.6368472854,0.949038999459,-1.35856780848,-0.382965146313,0.856050569828,0.15467809097,0.414575929917,-0.425775114927,-1.28074334298,-1.54774459004,-0.432237009202,-0.319216562058,1.54481167998,0.0528115167632,0.88610847493,-0.0996099190156,1.16294823313,0.140593414719,-1.10699278459,0.352927380847,-0.101049457149,-0.383694207695,-2.15824473561,0.539215244432,-0.819805780448,-0.0480379374755,0.425172906727,2.32652839597,0.071409080671,-0.625447602523,-0.341690375618,0.0689800450475,0.772630513692,-1.33574301996,0.336871686786,-0.82048751282,0.434899820875,-0.438435927362,-1.18052036321,-0.50005590055,-0.001550955418,1.38658753295,-0.837341679203,-0.0379300602509,-0.115846391908,2.03880580297,0.549133771321,-1.03818364601,-0.386615337183,1.08148715144,1.18107673303,-2.11076828728,0.696137512993,-1.6318914334,-0.177735403748,1.79633113357,-1.30164055981,-0.869597719567,2.0990232884,2.61779240915,1.06518799947,0.505141015399,-0.0995556963021,-1.0725633574,-0.116973724153,-0.311386466857,-0.0607188682623,1.00522597441,0.84928104285,-1.16651142555,0.282817875823,0.595796173931,-0.421039160625,-2.239870726,-1.25231822606,-2.29360346883,0.229499330776,-1.33450854795,-0.34505989967,1.85204623905,1.05325862022,-0.483789244234,0.063517875296,-2.01345819364,-0.054750463969,-0.109207650713,0.0616838628694,-0.524456405076,-0.413764531438,-0.511860571638,0.12132813062,-0.0229407609295,1.52810475308,-0.754317752676,-2.55633814907,1.49379524774,-0.939330014974,-1.60056243072,-1.12414430749,-0.425000067707,1.64648270401,-0.493241669027,0.0547581946097,-1.34245436755,1.16841548717,1.55092727117,0.112368212044,0.135933916502,-1.51676353832,0.188354913798,0.320546299155,1.97273708045,0.935855031145,-0.5772999595,1.63929362089,-0.238279198602,1.00819378387,0.413452048665,-0.9263160677,0.175335090591,0.640588747768,-1.00477749353
0.698480043405,0.982284377311,-0.329360300065,0.535426675381,-0.801489541346,-0.961726663291,-0.529255213376,-0.46407568373,1.26941102357,-0.0399289147796,-1.46150644391,1.38454154193,0.681884551791,3.21838551971,0.78583478029,-0.656961590855,0.810849925916,-0.668038245053,-1.32982169111,1.27410127895,1.98758376073,0.453120549283,1.70670842272,0.462992022355,0.323212373391,-0.230480611948,0.0675849115985,-0.054127507081,-0.00902696956327,0.69861886515,2.63116495372,-1.64838926836,-0.552827800671,-0.463628389418,0.168351035886,-0.843144724515,0.733561619772,-0.521001266784,0.529510233066,-0.180544455063,-0.161926319608,-0.141993089153,-0.215141929631,0.958478611516,1.3189234895,0.772379131339,1.96378922958,-0.00205331696085,-2.46165024638,-1.10925592564,-0.487348720388,-1.27555456249,-1.31446104066,-1.144257597,0.607035948855,-1.1930855512,-0.781149580896,-1.20072765709,-0.0333809157373,1.8264219476,-1.54967265197,-1.20305955284,-0.715462461158,0.725480426417,-0.171063590797,0.536556614423,0.0695154329672,0.586738981656,-0.31459674833,0.990355521818,0.476611496839,-0.751468011827,0.428886259165,-1.80166436272,-1.16037303317,-0.0711195677122,1.3131072268,-0.0995790459654,-0.496237229357,0.977525773047,-0.0566303501224,1.09926261838,0.322937298062,-1.06589960625,0.601514101013,-0.0759790222824,-1.24189952845,0.0705965722242,-1.44246449223,1.05143309678,0.562622318186,-0.232456121899,-0.962415048369,-0.738167715715,-1.5624603156,-1.13101737685,-0.855279030892,-0.329330660378,-0.0637858706741,-0.0486062517784,1.52586088454,0.819814936547,-1.14658628221,-0.174816680183,2.05924545147,0.826862910066,-0.235357833264,-1.60236898995,-0.142222976261,0.0157182618472,0.633758258584,0.752301965095,-1.01452442686,-0.0541397699174,-0.00555147450552,-2.42989048465,-0.0605595106733,-0.681517902676,-2.13076703535,-1.8314930436,-0.0788118109931,-1.4871472875,-0.597769532734,-1.61390364011,0.860604695858,-0.471324224217,-1.57851341585,0.825343088792,0.14400172113,-0.432211628294,0.713725149286,-0.681525436488,0.464579655241,0.269647227599,-1.6809407766,-1.03975612107,0.142297693477,0.618753335649,-0.993504102506,0.0270802325572,-1.70811354781,-0.905653110669,-0.64064361479,2.02043578505,-0.0201350829008,0.260638142001,0.665105705018,-0.524493066704,-1.16638434883,0.353554605892,-0.276545111237,0.0107873014585,-0.16891478257,-2.30392218096,-0.247751668637,-0.0790948241414,-0.541925517711,-0.221083289817,0.457591343997,-1.30515283408,1.47500342326,-2.62074015792,-0.29987840845,-0.515209323723,-0.708159118563,0.209156364844,-0.844574969762,-1.95787856956,1.11473901284,-0.650352551909,-1.00941548534,-0.244096651762,0.118150555977,1.18098988839,-1.08235894901,-0.0212714067477,-0.401060077094,1.34534734829,-0.836558936365,0.295073207688,1.47251831513,-1.31047649666,0.52878107201,-1.92160414735,0.833941948521,0.197306371208,-0.630573100555,1.34405869207,2.53922550811,0.936528521664,1.36897280226,2.42234211488
-1.86039263396,0.583028056823,1.11951935434,0.320429800802,0.61396463777,1.04304362976,-1.21617289118,-2.52420160265,0.602470863259,-1.24108364394,-1.41059550116,-0.0541124809784,1.66159084047,0.201886706357,0.827490833038,0.314389435744,1.33009159713,1.21540590531,-0.462052156946,-0.183464898547,-0.583236601903,-1.90191708275,0.759372453608,1.82205685731,-0.430291180395,0.703805736062,-2.03447964682,-0.880303471797,-1.28779221588,-1.20137908349,-0.833864392619,2.52909504565,-1.3334764655,0.824825010452,0.926994776008,-0.0112954283276,-0.183819166913,-0.448438177408,-0.037488741133,-0.792243411608,-1.46732063051,0.21913073993,-0.423857150593,-0.436000646882,0.687089476968,-1.32616370533,-1.58384841598,-1.9012156466,-0.369781167323,0.601359053858,0.380012100137,-0.974801006104,1.28456890954,-0.65163308908,0.34916095334,-1.27142339581,2.07058612497,0.989890951878,0.460741620496,1.19137885294,-0.497051959944,0.340044826271,1.55656156818,-1.37363683787,0.576308007777,-0.573302922754,0.698403126291,-1.51677761259,-0.560937400974,0.275596197599,-1.52524906657,0.232545548833,-0.344774579833,0.39515288228,-0.867306071538,2.44549924727,1.64775427763,1.32216928169,0.983151600224,1.4033007598,0.00456519842139,-0.634644880358,2.1726730379,0.953734658913,-0.00640736485321,0.975840553767,-0.38943045116,0.284521657432,-1.233821076,2.19287088717,1.87615278552,0.722508387873,0.795426265814,1.83930957265,1.10034352714,-0.599892528773,-1.90931696473,-0.739727027244,-1.0037475055,0.506303655944,0.800447303223,-2.17547936823,0.94739571676,-1.06792768321,0.991966755026,-0.644845848282,-0.575562063853,0.260875390278,-0.930791722078,0.53600840054,0.452607558357,0.386275647023,-0.809347669092,1.36915413173,-1.00683872501,-2.21626764918,-0.125700170584,0.787553507288,-0.229051819408,0.4051139263,1.38173678719,-1.44033865544,1.07233798291,-1.105816945,0.620561414502,0.582267775857,0.451923532827,1.78320091772,0.0904335338642,0.188932441432,-0.949449343313,-0.108874452969,0.711473021326,-1.24697361779,-0.789019809244,-0.00327801257985,-1.17460792702,0.874281598779,-1.51115112615,0.449257630298,-1.20108146126,0.254821808644,-1.591247506,-0.823584388864,0.183463544918,0.742532221531,0.895208807046,0.477870920768,1.34267400485,-0.0957513845701,0.293627541385,-1.28253498723,-0.170599002236,0.838244754376,0.516811749102,-0.191981914292,0.202219755622,0.443566478474,-0.729753783307,-0.478035016222,-0.478996651235,0.558721313362,-0.0878818753065,-1.14060563262,-1.03617314208,-0.287365613772,-1.31090266697,-1.23293644167,0.0243207550721,0.275983514108,-0.943920504325,0.672871206248,-0.161689472902,-1.3256086256,1.19934084757,-0.146245682269,2.36133034488,-0.720237910448,-0.14260713048,-0.791788506623,0.701201475772,0.0147860688888,-0.208333648799,-0.192596145638,0.586219301521,-1.24674739884,0.535734599549,0.364096896381,-1.06876212561,-0.305987036526,-0.452949017303,1.62432640798
0.548646700066,0.783312610263,-0.86025281322,-0.89774392863,-1.2849958737,-0.307196893063,-1.50478406073,0.437263236992,0.173766570986,1.68998199768,1.59862682763,1.38680094059,1.10200776465,0.671207139105,0.462542388561,-1.18326336167,0.168748891646,-1.37397070236,-0.943353735056,-1.94576583614,1.51350855879,0.149300007287,-1.48214298568,1.05614036434,-1.03499126533,-0.892710729891,1.38790875032,-0.195759902198,-0.863026351342,-2.02389869851,-1.1161287329,-1.18964852211,-1.34740689943,-2.52695503919,0.426699005611,0.24331911243,-0.627662354229,2.81019363645,-0.812652762133,0.512921905658,0.111404604966,-1.3838862244,1.68413106043,-0.243329497588,-0.923581715335,-0.631397651473,0.502140529563,1.02644672028,0.789476685146,0.0158287377335,0.278692205594,1.41050487292,0.986438331007,0.0292250144085,-0.528677327626,-0.455336123345,1.03392438026,-0.182882323698,0.642053441486,1.37607006003,1.18601109605,-0.014441825421,-1.57498552065,0.70627435219,-2.44890859654,-2.40762447594,-1.24528696834,0.933530008065,1.00786391525,-2.04108010854,0.902656134646,-0.728065669976,-0.825061705992,-1.41237977162,0.308352604241,-0.856241016106,-0.101745473055,-0.378881713169,0.507243560279,-1.25430774338,-0.0989808580631,0.00109478475834,-0.35633442043,0.522379262731,-1.61685414161,-1.03983350321,-0.931088983532,-1.75048472735,-0.221920754863,-0.282427604813,-0.174523161725,0.108627886351,0.7736798373,-1.11901512922,-0.547744881188,-0.0784639848502,0.229516996433,0.917991356104,-1.19419340062,-0.396672001552,-0.306873364131,-0.451856583487,0.250632072247,-2.06004159433,-0.384213672865,1.45389776718,0.338754896158,0.597102287356,0.766958347095,-0.559874397651,-2.37913903193,0.0378181540034,-0.969534540885,-0.263786818234,1.03094341111,-0.556533062458,-0.466843882574,0.432082162857,-1.37980625304,1.69106636642,1.13886521402,-0.799637632471,0.739380206887,-0.176744500423,-0.0154261516281,-0.561315259419,-0.540030302094,-1.10017824822,0.356071511466,-1.03151764466,-0.314404099392,0.969226058987,-0.721883770283,0.711963893917,0.163507129422,-1.23617225381,0.401922999671,-0.0476941578836,-0.444381406914,-0.116597306568,1.19906745177,-0.493348645688,0.683439207131,1.39109358913,-0.616126216396,-0.0296681302319,0.202618569662,1.63282881858,1.97711066089,0.930600132406,1.49195862092,-0.710208470835,-1.20530626385,-0.0454131642929,0.299094269457,0.563217718578,0.307641949918,1.41198881833,-0.467222334878,-0.00233224901971,0.0768836688963,0.710597512427,1.14150345209,-0.0242327862444,0.396455406101,-0.937886063736,1.15330487272,0.179236948586,1.567414249,-0.827315224368,-1.11777290394,-0.947826811796,-0.810563096386,-1.82994376825,0.0583215684244,0.239984590669,-0.659693201945,-0.14304365022,2.27312546399,0.927331016227,0.605209729389,1.92684968849,-0.683229126915,-1.40124844129,1.88448825911,-2.6381924459,-0.0232625313128,0.352340785454,-0.474983446607,0.688448228697,0.534347575704,-0.536252427856
1.8764480606,-1.16469404423,1.33302630404,0.0323398510809,1.33409070831,-1.36432079247,0.505039482814,-0.123313370738,-1.46350189484,-0.366892331902,0.397468194598,1.07404637807,0.834736170378,-0.26973751505,-0.868307059623,0.948680147899,0.318180553935,-1.18012166691,1.08692617512,-0.488038458472,-1.54999129058,-0.899543207296,0.130799367268,-1.10323912597,-0.286674106574,-1.89657581932,-0.332114348442,-0.914890056242,1.01666636302,0.151143965621,0.13526410813,-0.287994584319,0.545223404936,0.306963902454,-0.326713352813,-0.136236579594,-0.118643962447,-0.0272722312176,-0.531081933149,0.175026254825,0.454407714128,0.369442818225,-0.411928211745,-0.383093491833,-0.0124111538333,-1.03641592468,-0.533880792712,0.396907795498,1.36826919796,-0.499841134512,1.93435173553,-0.858868198938,0.390239089799,0.105351734057,0.243776605131,-1.18694277182,-0.375074348882,-1.01562792974,1.0403783169,-0.686813687547,-0.280587610484,0.373706771265,-2.04766904911,-0.208503635375,-0.0626382253843,0.397938269627,-1.62497953529,2.18086385102,0.819105847217,0.963021432504,0.59995630916,0.581965709235,1.64608692189,0.2865270405,-0.328794465118,0.375775737513,0.43077548848,-1.90773151358,0.691283463651,-0.305885481001,-0.67209247662,-1.35859393547,-0.324744821974,0.0255179936447,0.015761319989,0.640918456977,-0.752049943099,2.10211113808,0.225471730563,0.410622463839,-0.627932675119,0.137453370873,-1.68874222633,-0.155225297568,0.138825441113,0.973452628978,1.77413790491,-0.943521674804,0.487149434861,-0.829898275407,0.79268577081,-2.24646598623,-0.376508385156,0.805899807703,-1.63368184106,-1.494274544,0.345445003912,0.613344480372,-0.6244440932,-0.722289113494,-0.0461208664623,-0.40434619,0.549637014527,0.24475717336,-0.170489254272,-1.52157735966,-0.153392013302,-0.124684164803,-0.47267254117,0.38583549834,0.226184435868,1.24532743514,0.00903100260744,-2.30052063644,-0.34791639402,-1.95320133681,0.174080601514,1.81819923954,1.04434230175,0.831375965837,0.157145653813,-0.628699328763,1.39220462075,-0.159406709113,0.169619654231,0.372530061604,0.177578174399,-0.859570267401,-0.336578669303,1.27166352098,1.94412915334,-0.499592996723,1.36355989583,1.22180546963,-0.457437789998,-1.01752601945,0.187781590206,0.168588468313,1.05642402406,-1.09740970891,1.43822489287,1.64059082823,-0.472028700566,1.88127853221,0.825805828056,0.64255304746,-0.574170273421,0.382137045876,0.0525662505814,2.37194753551,-0.545917162153,-1.27533204467,0.287029021463,-1.41946642216,0.335841055141,0.171790042482,1.06029280293,0.386806570077,-0.700127072156,0.296099706379,-0.0710994210192,-0.588684619742,1.59592137249,0.853685816116,1.13022977297,0.186787247195,0.869795972282,1.10025016908,-1.18922359893,0.459876141439,-1.39410503635,0.903185077146,0.685082735826,0.268311609499,0.881165257017,-0.344314778287,-1.34315880351,-1.45941803515,-0.502728075964,0.322057247809,2.1212318974,0.485022649871
-0.670783199395,-0.418140899374,-2.0334324222,1.4678968908,-0.972259657129,-2.3623899764,-0.972745793008,-0.455026807452,0.260647256067,0.599114129913,-0.209555360617,-0.603678904776,-0.112745607557,-0.829429738501,0.917874081795,-1.61121438436,-0.609236216778,-0.864873224505,-0.199574457248,-1.33251169014,0.693558223203,-0.0448129478202,-1.40519427046,1.44070039652,-0.847820506035,0.92784286777,0.572701049183,-0.859701190735,0.713610823184,-0.191085071102,-0.551857884198,-0.69943097179,-0.414550345823,-0.666809641576,-0.0978908471137,-0.599325411855,-0.720360200582,-0.442945095081,0.726038057082,1.8406946977,0.630482053278,-1.29845920421,1.86795247857,-0.542585852861,-0.0192632802703,-0.387617390423,-0.134358325487,-0.728255544947,-0.253689331324,-0.259859811105,-0.199534961048,0.186021870109,0.841109725383,-1.59165919589,-1.54536160321,0.380237922001,0.261920606085,-1.4540243851,-0.201236344812,1.97595387195,0.107579523608,0.646266017038,-0.0925888674219,1.2642178041,0.143137914848,1.32134112836,-0.788836126736,0.520716934471,-1.08874677692,0.303049109161,0.470922126869,0.0807983998035,1.77738099589,1.11382545344,0.28764688888,-0.782746260469,0.47638526902,-0.52409460489,0.85702487446,0.157997833799,0.155610706629,0.0084402580051,0.0128641206069,-2.02141711266,-0.830350651363,-1.12733829929,-1.37935033435,-0.558109992184,-0.0939045526477,-0.277684481749,-0.871320074542,1.03328063084,1.52281147082,-0.973269954651,-0.321571542556,0.992796371992,0.979495923607,0.484237589575,0.073178841883,0.65686054405,0.169536962762,0.488737276397,0.224394873573,-0.623154683309,-0.756506559174,0.399244504,-0.788665562718,-0.064311661614,-0.547571589806,1.53160208718,0.991101561919,-1.9441048779,-1.48220213598,-1.44049044031,-1.27882141323,-0.928416800053,-1.31057310942,0.0355789237106,-0.272551155636,-0.50020064993,-1.4196937798,-2.93184011053,-0.100496679157,-1.0400008654,3.17946315953,-0.463620992681,-0.513997947844,0.942659579261,-1.91180338973,-0.339153553417,-1.29261162454,0.792266519769,-0.543328346619,2.41980712753,-0.197167660411,-0.964537827563,0.529000772265,-0.142684955705,-1.92434786036,1.37776539856,0.672864795433,0.594401479709,1.15958231454,-0.656846978301,-0.469640481629,-1.64754531944,-0.613792187724,0.366712086592,-1.35120257913,-0.91617860889,2.35459466483,-0.192827664265,2.17507829491,0.848488419517,1.41258999538,0.685288127,-0.366252788757,-1.5013537825,-0.402647215873,0.683824305166,0.988164288049,0.441053161997,-0.238482990706,0.755864718845,-0.28283662418,-1.39344954205,-0.472940383125,0.281309764584,-1.04274737819,1.06672895485,-0.310140723466,-0.824049795594,-1.16913187185,-0.450791581349,0.446672018325,-1.18278562159,1.23011743426,0.794940065553,1.5382708705,-0.917823518161,0.687823929247,0.794923047354,0.0042183222889,1.90117920765,0.400060543438,0.304852084124,-0.0580226520226,-0.452325281857,-0.358975933809,0.84814103007,0.482349734767,0.107672787394
3.03555821923,-1.15948326164,0.9625548315,-1.44813506394,-1.07696558035,-0.26740331032,-0.867421116371,-0.807686698413,-0.459160305342,1.45508799921,0.582350526032,-1.57154232292,-2.36197699843,-0.27231649527,-1.01999269395,-0.338214491407,-0.928988197842,-0.908244894016,0.0943566976453,0.119854384278,0.569582838239,1.47137296777,0.427653605128,-0.220304723011,-0.451421724766,-1.13153750476,-1.68628918798,2.05300582322,0.116720841789,-0.395257832601,-1.04316484177,1.87376656115,-0.965892520281,-0.507893695895,2.11094923,1.89539843254,0.789812541619,-1.61089979348,0.888723973379,1.77410235937,-0.992800268637,1.73155360181,-0.93355507453,0.850035221317,-0.776530916,-1.57298522451,0.331992577252,0.303619323689,-1.55829973319,-1.40480385693,-2.01052344754,-0.347715985982,-0.997697212407,0.0410803752429,1.47393310254,-1.86470999542,0.929596946366,-0.204016409429,0.320381243899,1.05188766859,0.325706033996,0.362253256205,1.36671482352,-1.88016057937,0.687528047064,0.740099128855,-1.32939612977,0.619005575734,-0.854775834089,-1.09596077367,2.03049222646,-1.01641684665,-0.224539568789,1.51085808321,2.58331334095,-0.110575051278,-1.14315541707,-0.447917351734,-1.25956447069,0.198482955044,-0.210687159581,-0.817517008888,-0.0943349549705,0.689488982678,0.787483024898,0.407440952628,-0.441094233805,0.679725490675,0.226497340615,-0.810917283869,1.18728354868,0.37796354607,0.726506549214,0.00831111058323,1.74636327447,-0.267433940296,1.13812161199,0.185727139416,-0.834470001104,-0.531652531458,0.232517282779,-1.3643747607,-0.18270511046,0.229730888246,0.922061510326,-1.17480646806,0.462318295719,1.32744388184,-0.00503813914812,-0.638094575004,-1.15762096583,1.1636480817,0.185616765256,0.548909002846,-0.982223644776,-0.189902199014,1.76882835249,2.1716572454,-0.701224731276,-0.820423368082,-0.817743361783,-0.454794717052,-0.568449126113,0.339938069443,0.326124238483,0.732950927162,-0.37368241417,0.00670741409339,-0.171544044274,-0.865388132413,-1.04832324999,-0.674026053927,-1.64542435335,0.309830120868,-1.15147184154,0.0883067316257,-1.73765525111,0.957896936917,-0.246163562406,1.03729423794,-1.02512160422,-1.46629351539,-0.453809183342,-1.09470802823,0.0946050768704,0.782402829047,1.88643363488,-2.33600357913,0.886076162592,-0.881940328665,0.838903451272,1.75455564804,1.39030743917,0.127351690444,-1.22325177158,0.771126913072,-0.100833146529,-0.122340668296,0.591373719147,-0.206006117387,-0.535438572988,-0.247902906493,0.2655463229,-1.34438017974,1.01137598145,-0.274658655872,0.158098948023,0.0443778568074,-0.846766208543,0.701743195797,-0.288026997658,-0.658698518219,0.2354519099,0.999043335819,-2.09992659171,0.639280436869,-0.576438518101,-1.15101143704,0.558868815119,1.50483307692,-0.116097612631,-0.0672667912515,0.642414760005,0.0109424887669,-0.262325677993,-0.783999777897,-0.134222410787,-1.75910553366,-1.96210006975,-0.107341233151,-1.14698168061,-0.28193335219
-0.139300869416,1.87912612468,0.0815639820799,-0.327209570477,0.918960020054,0.406555174552,0.576466964207,0.654841019266,1.014330673,3.09625964682,-0.430004457768,0.524840224667,0.370870246129,1.79602855749,-2.13857747806,0.745189837818,0.414300777113,0.590977261405,1.38540114655,0.674969633665,0.712455667331,0.897814361291,0.953027151288,-0.222120696911,0.724159667777,-1.10777741651,0.12081751699,1.16031863945,-0.234379519345,1.58588533315,-0.59081452555,1.20068206839,-1.58017573553,0.128678376331,-0.0710832947387,0.643235825539,0.204512592971,-1.22121499422,2.90532162439,0.437465728947,-0.70563406032,1.5986474028,0.037718619042,-0.572052101152,-1.26323997898,1.35035009478,0.0538194282065,0.10459267446,-1.38950491242,-0.0129954149831,-0.989336590052,-1.74463986306,0.0478773016307,-0.706092547104,-0.784243672475,0.0650860225718,0.198611324232,-1.26650184355,-1.02618919306,0.0174353571855,1.73311582873,0.236648092127,-2.43809154765,-0.235194025298,0.798531373651,-0.806775274565,-0.237063596068,-1.14858149785,-1.4893691373,0.187107050243,0.550187451761,-0.574145550196,-1.09576245165,0.789183811823,-1.1260073359,-0.486474592592,-0.788157741639,1.51848788596,-1.35137957371,-1.92879913193,0.165471584916,-0.0990129525469,0.210742893127,0.299106505965,-0.426594394308,0.0246670579364,1.1442515595,1.26900192994,0.720254013184,0.476530597431,-1.39089681546,-0.372775194951,-0.050845078297,-0.189998095128,0.962151574715,-2.02820159252,1.22820183527,-0.67946737676,0.0875245762248,0.626749737146,-0.791810271767,0.256628028278,1.22561467643,-0.352948339037,1.94487617712,-0.846813323676,-1.54722189059,0.641749689601,-1.20295398304,-0.963546931644,1.26385308512,-0.501061957679,-0.0871151590434,-0.290304709167,-0.360763898683,-0.369252347058,-0.496398264766,-2.59919832927,-1.10842216051,-0.453231281744,-0.247003986274,-0.153573961918,0.842436091596,-0.000718179111085,0.114844699559,0.375451951296,0.558580984116,2.06090049555,0.126027914597,-0.228716833334,1.12114530063,-0.789393719622,0.296869492351,-1.30067582481,-0.645231796478,-0.6637954203,0.664474748823,0.592828021602,0.171051106206,1.92445147117,1.19174572713,0.632879534571,-0.569357176635,-0.37756713157,-0.763287597071,3.02625114536,-0.139389578841,0.740463714402,0.508000792983,0.174777926327,0.615673041305,-0.899910294996,-0.289305774282,-0.302861010839,0.78884980722,-1.10907054415,-0.651617547459,0.340628798657,0.665309721842,-0.683836521108,-0.79605045827,1.44954989207,0.06363084509,0.245516975493,-0.768536203869,0.166857992903,1.24419664855,0.22793332149,0.0874726899956,0.757146458507,0.380958567401,0.18463504197,-0.963661215807,0.199455118135,1.15368540154,-0.43134192965,0.135705176162,-0.69021917436,1.37268149059,0.642313803743,0.33362537513,-0.900834861165,1.3275522006,-0.724506033397,1.11262030422,-0.0281465183058,1.23370351667,-1.67911884084,-1.72332968957,0.962146650882,0.0524474995702,0.747007097859
0.998230893526,-1.3049424016,0.18411077499,0.00705874389623,-0.812869495177,-1.86578119709,-0.445988689791,-1.25081331621,1.4564961685,0.130965427802,0.905770334305,0.201419231999,1.42180415321,1.07515240305,0.74778115034,0.695135154001,-0.371774344693,-0.243792095196,-1.86267447246,-0.0962271916376,-1.69385043464,-0.366491984881,-0.956267728527,-2.34882427325,-0.51974808194,-0.0578518928788,-0.979655233368,-1.1842081873,0.703837075468,0.597583819127,1.17679569532,-0.40625954593,1.88944774689,0.139307273286,-0.865983943491,-0.417458964387,-0.423495443538,-0.0769190991922,0.24804060797,0.689906799702,0.481295747691,-1.02156644815,1.63078318321,-0.0356250064456,-0.272674361049,-0.293439118356,0.434855956328,-0.909200445274,0.886023582899,0.492846215273,-0.658089863793,-0.814594191509,-0.286723855085,0.050808160997,-1.05163156427,0.600964014593,-0.114982383343,-2.32683422573,0.413053723549,-0.790830556111,0.208400818047,-1.55616335343,-2.22294822212,-1.60814590607,0.230876842494,1.06479117294,-0.919772090723,-0.661481641462,-1.97392625236,-0.451495998827,1.01886722752,-0.980272639513,1.70523183065,-0.468441869582,0.508224863854,-0.623149024834,-1.80249697627,-0.496439652191,-0.415100787333,-1.09583405212,1.16997283418,0.66200121786,-1.38392362775,0.50383455818,1.23079611917,0.533720879552,0.134988210529,-1.6790570927,-0.64734499148,-1.28458531504,0.793226906074,-1.06166688105,0.231937639514,-1.69934703166,0.110525172083,-1.25712706195,0.40491964524,0.0291414192291,1.75952988231,-0.989929278993,0.600200939591,-0.416362292644,1.1186356973,-0.292327632931,-1.66861552936,0.14833144054,-0.707650720626,0.336069755091,-0.459613831492,-0.167692900969,0.135553757348,-1.0223944748,0.458613284359,-0.196773069148,0.193229929493,0.263665337903,-0.231236029087,0.63048802063,1.011671334,-2.06927515604,-0.049882922123,-0.850025492724,0.490492203322,-0.518498919267,-0.0223637829551,-1.03643728483,0.09850945715,-0.675509284949,-1.76680721235,-1.07306801456,2.41309081481,1.55445267594,-0.606706326887,0.628211546448,0.201745995756,0.588403477242,-0.368351308637,0.342783565279,-0.985709582556,-1.30601218104,-0.663290261284,1.30782087004,-1.45568950268,-0.572731848267,-0.306032077413,-0.962423524621,0.910600778174,0.48265515458,-0.123215049974,0.795831575697,-1.38486131353,-0.18046343605,-1.13780685847,-0.826705680517,1.02458358051,1.39697391533,0.221496706664,-0.775410975691,-0.526746270324,0.231521089336,0.0494808481964,-0.326990645752,-0.945535165292,0.165775769925,-0.3377991947,0.461549760862,-1.05572838725,1.24410370793,0.771787013407,0.0308272978175,-0.585133212308,-1.01747834641,-0.826532923971,1.29522616033,-1.16895107052,0.197235046872,0.368037953929,1.15049157658,-0.227934543578,-0.149908278378,-1.79000902545,0.570946843239,0.997346572725,-0.33189551439,-2.49566122694,-0.806732127118,-1.13384403979,0.910751294951,-0.159068528288,-0.240252996424,0.171008112718,-0.996782277596
