7.10752532282e-05,-0.000109120013698,-7.84295275304e-05,-7.56987644172e-05,-0.000115606390456,7.48308668725e-05,-6.13464493979e-05,-6.29547968121e-05,7.82695820978e-06,-6.37275115897e-05,3.2171020565e-06,-5.59638784673e-05,-7.97512655669e-05,-8.27257534776e-06,-2.8450447087e-05,-0.000103558877277,-3.74426435758e-05,2.45272328528e-05,-0.00010596191955,-3.35923510653e-05,2.30799826137e-05,-0.000133360957369,-3.28954560953e-05,4.97821254643e-05,-7.11712082462e-05,-8.34717341217e-05,3.81686543666e-05,-9.52869769898e-05,-0.000155480636317,0.000134293325307,-8.06497834704e-05,-8.46982318316e-05,4.88737273017e-05,-3.11754269247e-05,-7.76835076158e-05,-7.61535345981e-06,-8.6747062705e-05,-2.8750871276e-05,-9.76354020122e-07,-5.97397995069e-05,-4.1509161413e-05,-1.52253270816e-05,-8.84301238559e-05,-7.71589614655e-05,4.91147973208e-05,-8.71007934775e-05,4.90091434665e-07,-2.98635859571e-05,-0.000108098398633,-3.10465296219e-05,2.26706402558e-05,-0.000100627360842,-6.13915115119e-06,-9.70777600774e-06,-0.000121493757686,-1.43618875955e-06,6.45565844507e-06,-4.52676902827e-05,-6.59155949906e-05,-5.29100272811e-06,-7.56815558013e-07,-0.000101787979309,-1.39294931339e-05,-2.54735846232e-05,-3.57117635439e-05,-5.52889398342e-05,-3.72451855571e-05,-7.93175321257e-06,-7.12973492314e-05,-4.86178096539e-05,1.3144091475e-05,-8.10005698209e-05,-6.85581146322e-05,-5.54971268301e-05,7.58095346148e-06,-3.9525442489e-05,-2.11510677301e-05,-5.57977777818e-05,-5.73903342968e-05,2.77767832322e-06,-6.18616320275e-05,-9.88131291682e-324,2.09923005427e-05,-0.000137466588544,-9.88131291682e-324,-3.40308736336e-05,-8.24434143669e-05,-8.57735994389e-05,2.53562982388e-05,-5.60569867996e-05,-7.02892611247e-05,-3.84871790301e-05,-7.69784784584e-06,-8.69208557741e-05,-3.26733169283e-05,3.11988470218e-06,-7.23232132444e-05,-6.25846554601e-05,1.84335807044e-05,-7.87119075868e-05,-4.38688829607e-05,6.10650254746e-06,-6.92823199826e-05,4.2365618703e-05,-8.95575867207e-05,-9.88131291682e-324,2.54316941108e-05,-0.000141905982111,-9.88131291682e-324,-4.85123384778e-05,-6.79619495222e-05,4.57196803301e-05,-1.47559759513e-06,-0.000160718370735,-5.41365035511e-05,-2.86152711851e-05,-3.37225132647e-05,-6.13421665331e-05,-4.04803602128e-05,-1.46517612556e-05,-3.35330540648e-05,-9.87440208892e-05,1.58027869537e-05,-1.06814121529e-05,-5.36800767375e-05,-5.21127991105e-05,-8.70009958705e-05,-1.87709230207e-05,-1.07023691092e-05,-4.37172527996e-05,-4.22106894995e-05,-3.05463457023e-05,-0.000110077669269,-1.92433302331e-05,1.28467115005e-05,-0.000137754666243,-7.70760495916e-06,2.89879832012e-05,-8.89230031418e-05,-2.99644016253e-06,-2.45548446964e-05,-0.000155241099189,3.3700295736e-05,5.06651545049e-06,-0.000125801930916,1.62656175692e-05,-6.93797465403e-06,-8.33294059316e-05,2.21137214648e-05,-5.52586035336e-05,-0.000139212553893,3.05370161951e-05,-7.79875030223e-06,-0.00018879026431,2.29405555916e-05,4.9375420718e-05,-0.000143586109767,-3.15085528642e-06,3.02626770522e-05,-0.000131401113472,1.95429226185e-05,-4.61609714647e-06,-0.000156733718474,5.11888228751e-06,3.51405481867e-05,-0.000179332226915,4.00247476828e-05,2.28331912325e-05,-0.000191882164693,1.98216153055e-05,5.55862613867e-05,-0.000176551396792,3.095399919e-05,2.91231096012e-05,-0.000165115144391,3.68024244395e-06,4.49606139476e-05,-0.000160700118281,1.00495997853e-05,3.41762304962e-05,-0.000172005195116,1.36148867031e-05,4.19160204116e-05,-0.000163527412049,4.65925798767e-06,4.23938660608e-05,-0.000155563772086,1.0793571599e-05,2.82959124864e-05,-0.000137556503802,-9.31800271392e-06,3.04002185153e-05
6.51901565794e-05,-0.000100501821729,-7.22392731926e-05,-6.98457014591e-05,-0.000106534719244,6.88294823617e-05,-5.66154138531e-05,-5.81014627697e-05,7.16593828169e-06,-5.87848860247e-05,2.77157993087e-06,-5.15376322484e-05,-7.34514591377e-05,-7.83344226637e-06,-2.62660369374e-05,-9.53906896844e-05,-3.46342350685e-05,2.24739864099e-05,-9.75310858158e-05,-3.1103611209e-05,2.1083758683e-05,-0.00012262337142,-3.04362560934e-05,4.55086891718e-05,-6.55892174976e-05,-7.6944208092e-05,3.49824872478e-05,-8.77529424877e-05,-0.000143153917996,0.000123355922142,-7.43762094676e-05,-7.81761342549e-05,4.50014053808e-05,-2.87980192308e-05,-7.16470262211e-05,-7.10589288948e-06,-8.00133240559e-05,-2.65087301336e-05,-1.02888415166e-06,-5.50815284748e-05,-3.84129012165e-05,-1.40565086501e-05,-8.1457837452e-05,-7.11686666244e-05,4.50755657331e-05,-8.00928927268e-05,2.12465607119e-07,-2.76705112222e-05,-9.9495998682e-05,-2.87993748398e-05,2.07444351801e-05,-9.26853603905e-05,-5.84458251357e-06,-9.02099543769e-06,-0.0001119225859,-1.51163181246e-06,5.88327937055e-06,-4.17350894136e-05,-6.07092548363e-05,-5.10659409149e-06,-7.23838196461e-07,-9.37216325547e-05,-1.31054675905e-05,-2.35082984244e-05,-3.29369234856e-05,-5.11057164312e-05,-3.43107112699e-05,-7.61045926429e-06,-6.56297678078e-05,-4.46435405188e-05,1.18706295173e-05,-7.47780273408e-05,-6.32178255368e-05,-5.12552786917e-05,6.92216588618e-06,-3.64163410576e-05,-1.97138877058e-05,-5.14207095777e-05,-5.29135173182e-05,2.27161182735e-06,-5.69090328505e-05,9.88131291682e-324,1.90941427742e-05,-0.000126645081117,-9.88131291682e-324,-3.13429913663e-05,-7.62079469757e-05,-7.89651844094e-05,2.31325785354e-05,-5.17183324684e-05,-6.46782171239e-05,-3.56950748307e-05,-7.17764638759e-06,-7.98576616586e-05,-3.0331093883e-05,2.63781719983e-06,-6.6439612755e-05,-5.77899526192e-05,1.66786270325e-05,-7.23635993729e-05,-4.06009259306e-05,5.41358696151e-06,-6.38309536601e-05,3.88341671838e-05,-8.25541518662e-05,9.88131291682e-324,2.31384849679e-05,-0.000130689423309,9.88131291682e-324,-4.48498942901e-05,-6.27010440506e-05,4.19599902309e-05,-1.47092167064e-06,-0.000148040006901,-4.96856952721e-05,-2.66763695285e-05,-3.11888735406e-05,-5.638537647e-05,-3.7370823564e-05,-1.37947383072e-05,-3.0729767962e-05,-9.11064399778e-05,1.42852695984e-05,-9.78874177089e-06,-4.96914468496e-05,-4.80707497211e-05,-7.99351462805e-05,-1.75435623713e-05,-1.00722296914e-05,-4.01033894542e-05,-3.91136556621e-05,-2.83338932249e-05,-0.000101048907329,-1.80647759834e-05,1.15627449701e-05,-0.000126592225239,-7.39256418064e-06,2.64338510775e-05,-8.17264959933e-05,-2.90559194204e-06,-2.29188504063e-05,-0.000142698207809,3.0740942013e-05,4.40632745423e-06,-0.000115537695147,1.47239958563e-05,-6.73723905076e-06,-7.6450983686e-05,2.01516233362e-05,-5.12515779914e-05,-0.000127858918138,2.78398135502e-05,-7.53183375371e-06,-0.0001735229083,2.09787043521e-05,4.49932656072e-05,-0.000131895392415,-3.06602548832e-06,2.74104795627e-05,-0.00012072036706,1.78345255161e-05,-4.66509679759e-06,-0.000144016870127,4.59736922845e-06,3.18685625561e-05,-0.00016485262245,3.66358600826e-05,2.06658240263e-05,-0.000176409913614,1.79210941543e-05,5.09378811175e-05,-0.00016238156835,2.82035821576e-05,2.66270478518e-05,-0.000151861147224,3.199246353e-06,4.11109625297e-05,-0.000147811154084,9.08515364299e-06,3.11750621001e-05,-0.000158415563785,1.24582209253e-05,3.84064045186e-05,-0.000150520563496,4.2215259293e-06,3.87480992242e-05,-0.000143366289066,9.87280809346e-06,2.59425426299e-05,-0.000126872694704,-8.60406262019e-06,2.79258189821e-05
8.42255329175e-05,-0.000128128509432,-9.20795092056e-05,-8.85304838389e-05,-0.00013557792397,8.81259220877e-05,-7.17115047487e-05,-7.35839625384e-05,9.31298156711e-06,-7.45731039635e-05,4.31983784211e-06,-6.57292195986e-05,-9.36472352743e-05,-9.10711272479e-06,-3.3228137722e-05,-0.000121568425025,-4.35430789289e-05,2.91290182339e-05,-0.000124595372688,-3.89787232786e-05,2.75916102464e-05,-0.000157171943752,-3.82331177638e-05,5.94225757959e-05,-8.34592997735e-05,-9.78274589818e-05,4.5304273036e-05,-0.000111911902995,-0.000182696621345,0.00015862603862,-9.44278680734e-05,-9.89794114679e-05,5.74247938225e-05,-3.63671437268e-05,-9.09352368026e-05,-8.68010519238e-06,-0.000101527132212,-3.36786404396e-05,-7.76713067803e-07,-6.99768265226e-05,-4.82243011044e-05,-1.7781358094e-05,-0.000103801036368,-9.03059569202e-05,5.81245075676e-05,-0.000102638424642,1.25085792706e-06,-3.45949190058e-05,-0.0001271126898,-3.58742616155e-05,2.7004465695e-05,-0.000118141925337,-6.66806345282e-06,-1.11724969319e-05,-0.000142590668293,-1.15197023516e-06,7.7601528073e-06,-5.30340740513e-05,-7.73997366563e-05,-5.54867501167e-06,-8.13945660945e-07,-0.000119597008433,-1.55715316263e-05,-2.97802431878e-05,-4.18038201169e-05,-6.43984224168e-05,-4.37138896848e-05,-8.45033560254e-06,-8.38182604334e-05,-5.74679157633e-05,1.60984335845e-05,-9.46130035403e-05,-8.02912858471e-05,-6.47635937029e-05,9.07239382955e-06,-4.63763154034e-05,-2.41740336614e-05,-6.54321366551e-05,-6.72292234568e-05,4.07282784673e-06,-7.28260901099e-05,9.88131291682e-324,2.53289922142e-05,-0.000161311477936,9.88131291682e-324,-3.9958931739e-05,-9.60235539815e-05,-0.000100812024025,3.03992103253e-05,-6.55696720211e-05,-8.27026757523e-05,-4.44908266593e-05,-8.78898330801e-06,-0.000102623848919,-3.76908871591e-05,4.33225035809e-06,-8.54074119638e-05,-7.30671526195e-05,2.24920788632e-05,-9.27950948134e-05,-5.09533726903e-05,7.76598178444e-06,-8.1294930593e-05,5.02713012827e-05,-0.00010495885641,9.88131291682e-324,3.06686328164e-05,-0.000166651118536,-9.88131291682e-324,-5.64835722348e-05,-7.94989134859e-05,5.4102484137e-05,-1.41396329806e-06,-0.000188671006561,-6.40624169596e-05,-3.26907270394e-05,-3.92293417218e-05,-7.23444471258e-05,-4.72847742968e-05,-1.6353264298e-05,-3.98133513193e-05,-0.000115488291452,1.93191570501e-05,-1.26810164594e-05,-6.2319708782e-05,-6.09817604801e-05,-0.000102709007031,-2.1317670638e-05,-1.19558080521e-05,-5.17889689337e-05,-4.88926613816e-05,-3.53008554049e-05,-0.000130200361944,-2.16297450175e-05,1.58476212407e-05,-0.000162549272034,-8.21878290523e-06,3.47855692191e-05,-0.000104903808365,-3.10493390161e-06,-2.79737434545e-05,-0.000183080980352,4.04125840649e-05,6.68591056556e-06,-0.000148645638603,1.98261197859e-05,-7.16296690252e-06,-9.86871633208e-05,2.65761144264e-05,-6.38714368254e-05,-0.000164477934768,3.66642862137e-05,-8.16883716544e-06,-0.000222685561912,2.73610996305e-05,5.93419765607e-05,-0.000169589855652,-3.23515122046e-06,3.68425211521e-05,-0.000155147219912,2.34141262659e-05,-4.24939207416e-06,-0.000184992582275,6.34230531812e-06,4.26677912368e-05,-0.000211465351962,4.76417274086e-05,2.78411388335e-05,-0.000226205155135,2.42220729137e-05,6.60005965007e-05,-0.000207945360816,3.72115670785e-05,3.47513080182e-05,-0.000194480599293,4.8595286105e-06,5.36385849613e-05,-0.00018925026251,1.22832470241e-05,4.09845297641e-05,-0.000201981066788,1.62168950056e-05,4.97816860601e-05,-0.00019227209807,5.66840097042e-06,5.06212113798e-05,-0.000182411142752,1.28674427229e-05,3.35612143089e-05,-0.000161007587338,-1.08787638756e-05,3.59038654926e-05
6.5050988553e-05,-0.000100297172872,-7.20922676114e-05,-6.97064471536e-05,-0.000106319175378,6.86871706001e-05,-5.65028303745e-05,-5.79859579711e-05,7.15033641492e-06,-5.86673260448e-05,2.76141028151e-06,-5.14325361674e-05,-7.33018660894e-05,-7.82255690822e-06,-2.62140289333e-05,-9.51967045408e-05,-3.45672262871e-05,2.24254788975e-05,-9.73310168991e-05,-3.10441620443e-05,2.10367270123e-05,-0.000122368832074,-3.03775641638e-05,4.54079443069e-05,-6.54565852909e-05,-7.67890632967e-05,3.49071966579e-05,-8.75740625528e-05,-0.000142861302244,0.000123096912867,-7.42270337718e-05,-7.80209036588e-05,4.49094854991e-05,-2.87413867288e-05,-7.15034701653e-05,-7.0935950359e-06,-7.98531766355e-05,-2.64554277658e-05,-1.02984752904e-06,-5.49707847781e-05,-3.83389876561e-05,-1.40286794974e-05,-8.1292247413e-05,-7.10261974476e-05,4.49799929295e-05,-7.99267579013e-05,2.06380665387e-07,-2.76180746949e-05,-9.92918635216e-05,-2.87455746484e-05,2.06989862405e-05,-9.24967592286e-05,-5.83717651741e-06,-9.0045161839e-06,-0.000111695260053,-1.51302074625e-06,5.86982886805e-06,-4.16511165897e-05,-6.05856269735e-05,-5.10170836795e-06,-7.23000955862e-07,-9.35301478491e-05,-1.30853031256e-05,-2.34615338899e-05,-3.28709352009e-05,-5.10059828396e-05,-3.42410157597e-05,-7.60218010952e-06,-6.54952560613e-05,-4.45494548416e-05,1.1840887999e-05,-7.46298850879e-05,-6.30908581073e-05,-5.11542464884e-05,6.90665266464e-06,-3.6342488278e-05,-1.96792592999e-05,-5.13167043507e-05,-5.28070899265e-05,2.2602060548e-06,-5.67915680579e-05,-9.88131291682e-324,1.90495813793e-05,-0.000126388033311,9.88131291682e-324,-3.12791635724e-05,-7.60592883579e-05,-7.88035843872e-05,2.30802457943e-05,-5.16151133366e-05,-6.45451045358e-05,-3.56282447726e-05,-7.16510262237e-06,-7.96903621162e-05,-3.02749676291e-05,2.62687781501e-06,-6.63002660482e-05,-5.76757800418e-05,1.66375941597e-05,-7.22131297166e-05,-4.05229034089e-05,5.39758119485e-06,-6.37014656304e-05,3.87507065648e-05,-8.23876928655e-05,-9.88131291682e-324,2.30846405258e-05,-0.000130423092457,9.88131291682e-324,-4.4762561647e-05,-6.25758902824e-05,4.18710226121e-05,-1.47056646802e-06,-0.000147738908074,-4.95803786583e-05,-2.66296417431e-05,-3.11284315289e-05,-5.62679095067e-05,-3.72967989346e-05,-1.37737434887e-05,-3.06635326957e-05,-9.09247311342e-05,1.42498118994e-05,-9.76764916213e-06,-4.95961940463e-05,-4.79746087225e-05,-7.97677797142e-05,-1.75138703199e-05,-1.00568018967e-05,-4.00179185978e-05,-3.90396051515e-05,-2.82809281807e-05,-0.000100835222149,-1.80360620782e-05,1.15328322972e-05,-0.000126327757803,-7.38445592531e-06,2.63737617992e-05,-8.15559759126e-05,-2.90312141439e-06,-2.28793546038e-05,-0.000142400961104,3.06713015874e-05,4.39120758582e-06,-0.00011529465863,1.46879358979e-05,-6.73172919792e-06,-7.62882841828e-05,2.01054912216e-05,-5.11556589696e-05,-0.000127590077029,2.77763742686e-05,-7.52474916996e-06,-0.000173161124454,2.09324373006e-05,4.48902352231e-05,-0.000131618529393,-3.06366020819e-06,2.734373767e-05,-0.000120467384615,1.77943098251e-05,-4.66537714122e-06,-0.000143715612996,4.58523525634e-06,3.17919258093e-05,-0.000164509459751,3.65558732735e-05,2.0615134546e-05,-0.0001760431813,1.78766772052e-05,5.08280521636e-05,-0.000162045570366,2.81389232194e-05,2.65681952169e-05,-0.000151546868054,3.18822932785e-06,4.10201867967e-05,-0.000147505508247,9.06261550807e-06,3.11044408082e-05,-0.0001580928707,1.24309282169e-05,3.83234905534e-05,-0.000150211894444,4.21128057651e-06,3.86621619373e-05,-0.00014307645581,9.85109016515e-06,2.58869137134e-05,-0.000126618608733,-8.58706187537e-06,2.7867218678e-05
-1.21146109821,0.675227445711,0.557621475519,-0.28445532459,0.518015289837,-0.21217214223,-0.13395430961,0.109605608997,0.0457365236284,0.148798631109,0.0338377877101,-0.161248595802,0.339855468873,0.34153267455,-0.660000320408,-0.224679453038,-0.268341055762,0.514408331816,-0.0147585242021,0.113327384669,-0.0771810374518,0.681888228883,0.146706426703,-0.80720683257,-0.106369885881,0.190678813644,-0.0629211047466,0.849889543049,-0.290207943763,-0.53829377627,0.881683279814,-0.320972075051,-0.539323381747,-0.316846822537,0.137897126834,0.200337518719,0.514202887124,-0.0115663122222,-0.481248751885,0.200740700066,0.053403498825,-0.232756375873,-0.776301930768,-0.193871578749,0.991561332534,-0.758082452369,0.0474319121452,0.73203836324,0.849214390219,-0.709392426917,-0.118434140286,0.641097318267,-0.246393550848,-0.373315944402,0.478340741024,-0.150289949459,-0.306662968549,0.0217066615024,-0.0072807746991,0.00696193621372,-0.106111652059,-0.0261337700325,0.153633245107,0.100062641205,0.513329947961,-0.59200476615,-0.194767768617,-0.0358354854467,0.251991077078,0.184278622534,0.265974046387,-0.428864845903,-0.589873828788,0.361539274327,0.249722377477,-0.32207800383,0.57801444105,-0.234548614203,-0.611218825591,0.705176241036,-0.0725695924294,-9.88131291682e-324,-0.253591153879,0.274978976895,-9.88131291682e-324,-0.364981647349,0.386369470365,-0.644607293472,0.322449692828,0.34354542366,-0.526414822124,-0.120724298436,0.668526943577,0.0698515654807,-0.902986018593,0.854522276128,-0.240465579666,0.153130469454,0.108722933229,0.653055361071,-1.02231728731,0.390649749255,0.597339699203,-0.802799352377,0.22684747619,9.88131291682e-324,0.171093723277,-0.149705900261,9.88131291682e-324,0.652766212473,-0.631378389455,0.895164185913,0.311992598904,-1.1857689618,0.293479751132,-0.185777327534,-0.0863146005812,1.60839965308,-0.206023338841,-1.38098849122,0.212456553796,0.134822661526,-0.325891392306,-0.160638947144,0.416436526821,-0.234409756662,0.444018433192,-0.190063397015,-0.232567213164,0.429497603972,0.17048491806,-0.578594699015,-0.0155525169221,0.252436407317,-0.215496067379,0.00301110700187,0.105056735045,-0.0866800190295,-0.195817993875,0.140214716524,0.0769911003667,0.38189357361,-0.104589528074,-0.255916222521,0.0124860056509,-0.182993442734,0.1918952601,0.227329392794,0.415700507537,-0.621642077316,0.300464339683,0.00481533463116,-0.283891851297,-0.016915312351,0.196350406142,-0.158047270776,0.114170151104,-0.0733672773737,-0.0194150507139,-0.102319253054,0.0186824684322,0.105024607639,0.00771523443811,-0.138983587031,0.15265617561,0.0638129221002,0.00481535536614,-0.0472404544502,0.198176677589,-0.148805168278,-0.0279836862942,0.0794071160256,0.0845962837544,-0.142615576764,0.238092209652,-0.135282283206,-0.0814221034299,0.106367455062,0.044910106397,-0.129889738442,-0.176560731616,0.305785026355,-0.107836471724,0.00801095100789,-0.0577502801432,0.0711271521515,0.119475165128,-0.057017023564,-0.0410703185479,0.00478592025914,0.0703106434191,-0.053708740662
7.05961572107e-05,-0.000108421031592,-7.79274983998e-05,-7.52248678403e-05,-0.000114871017955,7.43435130136e-05,-6.09634717802e-05,-6.25619547819e-05,7.77305378023e-06,-6.33272261755e-05,3.17970877106e-06,-5.56048553773e-05,-7.92403074477e-05,-8.23836508736e-06,-2.82737002472e-05,-0.000102896460782,-3.72158496346e-05,2.43599376362e-05,-0.000105277731509,-3.33915795727e-05,2.29169382994e-05,-0.000132488738836,-3.26969087733e-05,4.94332748274e-05,-7.07187281683e-05,-8.29427507049e-05,3.79091060909e-05,-9.46758494531e-05,-0.00015448057776,0.000133404054431,-8.01415838859e-05,-8.41703473028e-05,4.85595584066e-05,-3.09831530191e-05,-7.71945705953e-05,-7.57464916699e-06,-8.62016779567e-05,-2.85692060513e-05,-9.81488772967e-07,-5.93623806704e-05,-4.12592339313e-05,-1.51307581798e-05,-8.78647106625e-05,-7.66738006729e-05,4.87861385523e-05,-8.65315672603e-05,4.66015882747e-07,-2.96868214038e-05,-0.00010740027126,-3.08656218188e-05,2.25135202983e-05,-9.99832493291e-05,-6.11652415794e-06,-9.6525992939e-06,-0.000120717628178,-1.44354395706e-06,6.4087993527e-06,-4.49814439757e-05,-6.54933239908e-05,-5.27760481429e-06,-7.54306496985e-07,-0.00010113357024,-1.38644960445e-05,-2.53144850974e-05,-3.54870052557e-05,-5.49508824279e-05,-3.70072233241e-05,-7.9076896377e-06,-7.083745982e-05,-4.82945903214e-05,1.30392772234e-05,-8.0497059683e-05,-6.81254671722e-05,-5.51540265203e-05,7.52712091038e-06,-3.92733491545e-05,-2.10360440428e-05,-5.54429795847e-05,-5.70276097451e-05,2.73475583481e-06,-6.14595188712e-05,-9.88131291682e-324,2.08367753112e-05,-0.000136589148093,9.88131291682e-324,-3.38128750739e-05,-8.19394977086e-05,-8.52211737576e-05,2.51744925412e-05,-5.5705691564e-05,-6.98337814033e-05,-3.82623470988e-05,-7.65624428087e-06,-8.63466895036e-05,-3.24849084675e-05,3.07922518974e-06,-7.18448967245e-05,-6.21967524738e-05,1.82892764166e-05,-7.81961715699e-05,-4.36051277836e-05,6.04892657085e-06,-6.8840303472e-05,4.20779765718e-05,-8.89900458809e-05,9.88131291682e-324,2.5243826591e-05,-0.000140996199373,9.88131291682e-324,-4.82164123348e-05,-6.75359604475e-05,4.5413796993e-05,-1.47596974109e-06,-0.000159690200034,-5.3774373591e-05,-2.84601241979e-05,-3.35178749921e-05,-6.0939414225e-05,-4.02287280948e-05,-1.45842304617e-05,-3.33046723107e-05,-9.81256340354e-05,1.56779335637e-05,-1.06086895868e-05,-5.33582310533e-05,-5.17854521405e-05,-8.64266254319e-05,-1.86730581218e-05,-1.06526892282e-05,-4.34230906595e-05,-4.19610639854e-05,-3.03682181366e-05,-0.000109343197689,-1.91499784323e-05,1.27408033395e-05,-0.000136847497829,-7.68398024187e-06,2.87791052893e-05,-8.83381934868e-05,-2.99003454617e-06,-2.44241447482e-05,-0.000154221964757,3.34583329472e-05,5.01125902927e-06,-0.000124967297451,1.61389018135e-05,-6.92397714387e-06,-8.27695728532e-05,2.195317119e-05,-5.49359711183e-05,-0.000138289366204,3.0316388199e-05,-7.77939477611e-06,-0.000187549674805,2.27804580671e-05,4.9016843956e-05,-0.0001426356367,-3.14505317941e-06,3.00283170974e-05,-0.000130532869061,1.9403280597e-05,-4.6227843176e-06,-0.000155700105254,5.07581704508e-06,3.48719154265e-05,-0.000178155788639,3.97483970087e-05,2.26550188484e-05,-0.000190625211808,1.96652828217e-05,5.52075562046e-05,-0.000175400670272,3.072891997e-05,2.89193775195e-05,-0.000164038785186,3.63998808803e-06,4.46464243165e-05,-0.000159653472102,9.97026084966e-06,3.39308384694e-05,-0.000170902977354,1.35205414616e-05,4.16300631106e-05,-0.000162471892312,4.62329751636e-06,4.2096222015e-05,-0.000154575073925,1.07184419802e-05,2.81042591634e-05,-0.000136691177169,-9.26024407329e-06,3.01990484605e-05
6.5147126155e-05,-0.000100438549004,-7.2193822495e-05,-6.98026485454e-05,-0.000106468078657,6.87854818588e-05,-5.65806068134e-05,-5.80657526076e-05,7.16111407692e-06,-5.87485401272e-05,2.76843368391e-06,-5.15051389011e-05,-7.34052083881e-05,-7.83007902551e-06,-2.62499579304e-05,-9.53307140434e-05,-3.46135190726e-05,2.24589877724e-05,-9.74692284538e-05,-3.10852326289e-05,2.10692157391e-05,-0.000122544671539,-3.04181113579e-05,4.54775375546e-05,-6.55482110702e-05,-7.6896241582e-05,3.49592073066e-05,-8.76976368033e-05,-0.00014306344745,0.000123275838908,-7.43300887713e-05,-7.81281422791e-05,4.4972985707e-05,-2.87805106438e-05,-7.16026430371e-05,-7.10209166289e-06,-7.9963811375e-05,-2.64922505629e-05,-1.0291834058e-06,-5.50472896986e-05,-3.83900507649e-05,-1.40479048801e-05,-8.14066409372e-05,-7.11246195282e-05,4.50460151227e-05,-8.00415262915e-05,2.10581772762e-07,-2.76543008258e-05,-9.94328840939e-05,-2.87827432257e-05,2.07303819753e-05,-9.26270492908e-05,-5.84229477955e-06,-9.01590127364e-06,-0.000111852302205,-1.51206322835e-06,5.87912008981e-06,-4.1709127378e-05,-6.06710319274e-05,-5.10508603815e-06,-7.23579609878e-07,-9.36624295856e-05,-1.30992361484e-05,-2.34938403825e-05,-3.29165219005e-05,-5.10748830602e-05,-3.42891630835e-05,-7.6079027514e-06,-6.5588179509e-05,-4.46144499651e-05,1.18614316586e-05,-7.47322270372e-05,-6.31785708956e-05,-5.12240433602e-05,6.9173689118e-06,-3.63935075919e-05,-1.97031838724e-05,-5.138855388e-05,-5.28806130075e-05,2.26808240242e-06,-5.68727147391e-05,-9.88131291682e-324,1.9080362881e-05,-0.000126565608225,-9.88131291682e-324,-3.13232572809e-05,-7.61619880626e-05,-7.89152210301e-05,2.31163961215e-05,-5.1686420435e-05,-6.46370611351e-05,-3.56744151232e-05,-7.17376908538e-06,-7.98059343851e-05,-3.03137434438e-05,2.63443248583e-06,-6.63965281426e-05,-5.77546546473e-05,1.6665937446e-05,-7.23170762339e-05,-4.057680524e-05,5.4086361301e-06,-6.37909191296e-05,3.88083611132e-05,-8.25026873269e-05,-9.88131291682e-324,2.31218344875e-05,-0.00013060707983,-9.88131291682e-324,-4.48228948392e-05,-6.26623505052e-05,4.19324819497e-05,-1.47081305375e-06,-0.00014794691424,-4.9653131949e-05,-2.66619257631e-05,-3.11701876316e-05,-5.63490572072e-05,-3.73479377646e-05,-1.3788250373e-05,-3.07092878968e-05,-9.10502614862e-05,1.42743040393e-05,-9.78221990067e-06,-4.96619995308e-05,-4.80410259125e-05,-7.98833983055e-05,-1.75343849729e-05,-1.00674620641e-05,-4.00769621245e-05,-3.90907634546e-05,-2.83175197644e-05,-0.000100982837252,-1.80559019018e-05,1.15534938098e-05,-0.000126510455025,-7.39006039483e-06,2.64152700766e-05,-8.16737732728e-05,-2.9048296591e-06,-2.29066424112e-05,-0.000142606302993,3.07194076636e-05,4.40164998537e-06,-0.000115462550378,1.4712844238e-05,-6.73553920383e-06,-7.64006775897e-05,2.01373580719e-05,-5.12219258261e-05,-0.000127775794864,2.78201965715e-05,-7.52964705195e-06,-0.0001734110493,2.09643980635e-05,4.49614058923e-05,-0.000131809789036,-3.06529593241e-06,2.73898396245e-05,-0.000120642147512,1.78220900073e-05,-4.6651878395e-06,-0.000143923724783,4.59361644712e-06,3.18448629931e-05,-0.0001647465211,3.66111275952e-05,2.06501481616e-05,-0.00017629652507,1.79073579275e-05,5.09039217989e-05,-0.000162277683113,2.81835878718e-05,2.66088498971e-05,-0.000151763977085,3.19583814001e-06,4.10828936016e-05,-0.000147716653346,9.07818357085e-06,3.1153224431e-05,-0.000158315794453,1.24497817885e-05,3.83807673204e-05,-0.000150425129155,4.21835756454e-06,3.87215262472e-05,-0.000143276680218,9.86609268422e-06,2.59253421892e-05,-0.000126794139067,-8.59880661469e-06,2.79077003377e-05
6.83578550882e-05,-0.000105149326225,-7.55775842663e-05,-7.30047910788e-05,-0.000111428066242,7.20638019169e-05,-5.91691538932e-05,-6.07213339548e-05,7.52143244481e-06,-6.14522400767e-05,3.00764157948e-06,-5.39244569065e-05,-7.68487034553e-05,-8.07493502238e-06,-2.74454169266e-05,-9.9795748009e-05,-3.61519909109e-05,2.35786835156e-05,-0.000102076215574,-3.2449299466e-05,2.21564596351e-05,-0.000128409323818,-3.17654430774e-05,4.78057114919e-05,-6.86002318429e-05,-8.04657319688e-05,3.66969084089e-05,-9.1815544347e-05,-0.000149800323941,0.000129246812883,-7.7761409945e-05,-8.16969258987e-05,4.70892804403e-05,-3.00818984606e-05,-7.49044791631e-05,-7.38267777953e-06,-8.36471317199e-05,-2.7718457461e-05,-1.00346622132e-06,-5.75948858177e-05,-4.00865953138e-05,-1.46875742725e-05,-8.52180164905e-05,-7.44013135624e-05,4.72502746491e-05,-8.38691979632e-05,3.5698725174e-07,-2.88568446917e-05,-0.000104133567779,-3.00156827176e-05,2.17801950916e-05,-9.69683106862e-05,-6.00764287916e-06,-9.39310183821e-06,-0.000117084483389,-1.47506658472e-06,6.19049457072e-06,-4.36409936311e-05,-6.35168330279e-05,-5.21122874518e-06,-7.42174401191e-07,-9.80709309183e-05,-1.35559500848e-05,-2.45690984691e-05,-3.44342897614e-05,-5.33656671718e-05,-3.58933081867e-05,-7.79036905028e-06,-6.86853781668e-05,-4.67837854513e-05,1.25522685521e-05,-7.81375385042e-05,-6.60992622929e-05,-5.35458852604e-05,7.27609215e-06,-3.80932159301e-05,-2.04940381442e-05,-5.37818013285e-05,-5.53289467237e-05,2.53826137206e-06,-5.95783700521e-05,9.88131291682e-324,2.01125117492e-05,-0.000132481567152,9.88131291682e-324,-3.27924873341e-05,-7.95765680693e-05,-8.26359827887e-05,2.4326926611e-05,-5.40599992254e-05,-6.77027556682e-05,-3.72061698948e-05,-7.46012984082e-06,-8.36622675066e-05,-3.15993690393e-05,2.89258114301e-06,-6.9608696613e-05,-6.03788189416e-05,1.76184601513e-05,-7.57841858366e-05,-4.23675362396e-05,5.78266667246e-06,-6.67710918748e-05,4.07344907316e-05,-8.63324542597e-05,-9.88131291682e-324,2.43688887582e-05,-0.000136737944161,9.88131291682e-324,-4.68286517457e-05,-6.55404036569e-05,4.39842922013e-05,-1.47594438294e-06,-0.00015487740322,-5.20820527989e-05,-2.77289780509e-05,-3.25580245541e-05,-5.90559771392e-05,-3.90495865879e-05,-1.42634916763e-05,-3.22380894538e-05,-9.5228671902e-05,1.5097705953e-05,-1.02690561074e-05,-5.18478907398e-05,-5.02521085563e-05,-8.37412227815e-05,-1.82110350764e-05,-1.0416797546e-05,-4.20487008639e-05,-4.0788981242e-05,-2.9531373297e-05,-0.00010591052256,-1.87077776527e-05,1.22492448099e-05,-0.000132605647554,-7.56887358112e-06,2.78054657325e-05,-8.56035555263e-05,-2.95778947983e-06,-2.38077103972e-05,-0.000149456048601,3.23303492322e-05,4.75664396566e-06,-0.000121065699423,1.55497382865e-05,-6.85309426697e-06,-8.01537740288e-05,2.12050091464e-05,-5.34202905213e-05,-0.000133973740089,2.92880951151e-05,-7.68341042855e-06,-0.000181748342201,2.20333981918e-05,4.7345888606e-05,-0.000138192170466,-3.11536227778e-06,2.89384773402e-05,-0.000126473548885,1.87522038412e-05,-4.64771035999e-06,-0.000150867288016,4.87604643358e-06,3.36221861798e-05,-0.000172654115965,3.84583994096e-05,2.18266611524e-05,-0.000184746689437,1.89386863743e-05,5.34389476596e-05,-0.000170017966529,2.96801101456e-05,2.79688009803e-05,-0.000159003962038,3.45449051208e-06,4.31804161237e-05,-0.000154757474771,9.60152581568e-06,3.27868935512e-05,-0.00016574391641,1.30801955555e-05,4.02946654514e-05,-0.000157532745878,4.45605457769e-06,4.07076358973e-05,-0.000149945930982,1.03678441687e-05,2.72090314106e-05,-0.000132638075347,-8.98955221813e-06,2.92585721617e-05
7.30307333558e-05,-0.000111968220824,-8.04751281369e-05,-7.76282974816e-05,-0.00011860216779,7.68178496676e-05,-6.29056610625e-05,-6.45540991724e-05,8.04714463018e-06,-6.53575159278e-05,3.37177700994e-06,-5.74268766863e-05,-8.18333320586e-05,-8.40940187039e-06,-2.91698816753e-05,-0.000106257963624,-3.83649808104e-05,2.52103288305e-05,-0.000108750578111,-3.44084785759e-05,2.37464410819e-05,-0.000136917523025,-3.37028356535e-05,5.12077430738e-05,-7.30145150624e-05,-8.56264352842e-05,3.92283347412e-05,-9.77773392102e-05,-0.000159556204598,0.000137920928204,-8.27194560341e-05,-8.68472521641e-05,5.01540925917e-05,-3.19579043671e-05,-7.96746257519e-05,-7.78008548594e-06,-8.89680076383e-05,-2.9490782036e-05,-9.53825931344e-07,-6.12769853326e-05,-4.25253746293e-05,-1.56102556435e-05,-9.0733924468e-05,-7.91346371162e-05,5.04559459801e-05,-8.94218238864e-05,5.9104534854e-07,-3.05818370671e-05,-0.000110943902854,-3.17812220477e-05,2.33125092972e-05,-0.000103251932391,-6.22903452074e-06,-9.93164869177e-06,-0.000124656063096,-1.4039553944e-06,6.64740288676e-06,-4.64335988237e-05,-6.76362784706e-05,-5.34273830913e-06,-7.66738389135e-07,-0.000104454899531,-1.41909776839e-05,-2.61213426705e-05,-3.66270651722e-05,-5.66642077616e-05,-3.82147613109e-05,-8.02615695034e-06,-7.31716973434e-05,-4.99364808151e-05,1.35739846439e-05,-8.30501194327e-05,-7.03201884151e-05,-5.68934732648e-05,7.80104607554e-06,-4.05525415362e-05,-2.16169459902e-05,-5.72431280775e-05,-5.88676845351e-05,2.9560149029e-06,-6.35009459726e-05,-9.88131291682e-324,2.16289150123e-05,-0.000141041530616,-9.88131291682e-324,-3.49191655837e-05,-8.4493450021e-05,-8.80250342054e-05,2.60997726167e-05,-5.74873540156e-05,-7.21459673661e-05,-3.94003523988e-05,-7.86629584008e-06,-8.92628493618e-05,-3.34381906129e-05,3.28842437056e-06,-7.4274311995e-05,-6.4163497778e-05,1.90251941689e-05,-8.08149855127e-05,-4.49412618345e-05,6.34363174263e-06,-7.10832310746e-05,4.35399390691e-05,-9.18693235996e-05,9.88131291682e-324,2.62006504162e-05,-0.000145613266021,9.88131291682e-324,-4.97161280606e-05,-6.96964875447e-05,4.69678294124e-05,-1.47270236002e-06,-0.000164907742657,-5.56142033835e-05,-2.92436034526e-05,-3.45548087686e-05,-6.29846331759e-05,-4.1504670173e-05,-1.49233122563e-05,-3.44655300264e-05,-0.00010126187359,1.63147880115e-05,-1.09783311347e-05,-5.49885026822e-05,-5.34457817884e-05,-8.93438034482e-05,-1.91666245415e-05,-1.0902187615e-05,-4.49178395108e-05,-4.32250035337e-05,-3.12697725596e-05,-0.000113074495509,-1.96196287524e-05,1.32815086571e-05,-0.000141454541874,-7.80034409705e-06,2.98422703655e-05,-9.1308055681e-05,-3.02077848453e-06,-2.50837814387e-05,-0.000159397221977,3.46897985627e-05,5.29480781027e-06,-0.000129206819701,1.67850355948e-05,-6.99083149856e-06,-8.56141903638e-05,2.27705175928e-05,-5.65689428329e-05,-0.00014297864506,3.14394522554e-05,-7.87342280002e-06,-0.000193849659653,2.359471424e-05,5.0842329809e-05,-0.000147463284946,-3.17252408851e-06,3.12231934301e-05,-0.000134942647805,2.01139148227e-05,-4.58388262183e-06,-0.000160949516815,5.29576909793e-06,3.62411321135e-05,-0.000184129744271,4.11535528592e-05,2.35635758062e-05,-0.000197007771789,2.0462644414e-05,5.71325117707e-05,-0.000181243070016,3.18748209931e-05,2.99556334175e-05,-0.000169503623266,3.84654448311e-06,4.62444631784e-05,-0.000164967327171,1.03749335889e-05,3.51797779783e-05,-0.000176496548125,1.40003001472e-05,4.3083632373e-05,-0.000167829521287,4.80662786401e-06,4.36102778186e-05,-0.000159591442975,1.11005346725e-05,2.90782926971e-05,-0.000141080354267,-9.55309009361e-06,3.12208287568e-05
6.831525874e-06,-1.09966821266e-05,-7.90766031556e-06,-7.78248032054e-06,-1.1721542054e-05,7.43120580639e-06,-6.32333379937e-06,-6.48755271299e-06,7.38069944217e-07,-6.53339328597e-06,9.12333768419e-08,-5.63065665917e-06,-8.03597999033e-06,-1.09484865364e-06,-2.94198792426e-06,-1.04498418433e-05,-3.9536309292e-06,2.3306562043e-06,-1.06018949968e-05,-3.58561633462e-06,2.11469476317e-06,-1.31895154807e-05,-3.48496973214e-06,4.60166864469e-06,-7.2209747457e-06,-8.48995852628e-06,3.63811670369e-06,-9.59579616833e-06,-1.56092740341e-05,1.31322536342e-05,-8.2460587096e-06,-8.7402862192e-06,4.91352836059e-06,-3.24661041856e-06,-7.94836565833e-06,-8.77840491383e-07,-8.88717155667e-06,-2.93273721038e-06,-2.52907801204e-07,-6.09352730027e-06,-4.40500055996e-06,-1.57428870806e-06,-8.92617769918e-06,-7.90143473854e-06,4.75479586951e-06,-8.62111660476e-06,-2.43329081106e-07,-3.20837088228e-06,-1.08146504478e-05,-3.37784899444e-06,2.11968287403e-06,-1.0148694005e-05,-8.48354546477e-07,-1.07576801659e-06,-1.22755558087e-05,-3.75500298568e-07,5.78239539134e-07,-4.61579654617e-06,-6.64327187445e-06,-8.13748147692e-07,-1.10529392683e-07,-1.02255585379e-05,-1.73672863762e-06,-2.62543974234e-06,-3.65509180668e-06,-5.79228501935e-06,-3.76321364248e-06,-1.17245298135e-06,-7.13714994441e-06,-4.73592836021e-06,1.0353643542e-06,-8.37225256231e-06,-7.00108912661e-06,-5.76349962881e-06,6.91772187197e-07,-4.00024553256e-06,-2.41469716551e-06,-5.65787387008e-06,-5.85107450178e-06,-7.0158866947e-08,-6.15158319955e-06,9.88131291682e-324,1.82228681472e-06,-1.38951033829e-05,-9.88131291682e-324,-3.42874266537e-06,-8.64407390292e-06,-8.6027641163e-06,2.28556954834e-06,-5.75562200022e-06,-7.01110314528e-06,-4.18069210064e-06,-8.81021322325e-07,-8.51818631275e-06,-3.58399045403e-06,2.93601985805e-08,-7.07912044174e-06,-6.48748152958e-06,1.49378540316e-06,-7.77012119218e-06,-4.66039299531e-06,3.57697619145e-07,-7.00938847105e-06,4.04409630846e-06,-9.10752440586e-06,-9.88131291682e-324,2.21707136299e-06,-1.42898879312e-05,9.88131291682e-324,-5.09361667265e-06,-6.97919989552e-06,4.42226072571e-06,-2.82463946386e-07,-1.62126133476e-05,-5.24156628062e-06,-3.27499393315e-06,-3.55625635454e-06,-6.04446811629e-06,-4.187220003e-06,-1.84112844895e-06,-3.19119162742e-06,-1.01466347075e-05,1.26500976676e-06,-1.01671950044e-06,-5.71453304205e-06,-5.34156402569e-06,-8.53272098293e-06,-2.20176884307e-06,-1.33832674226e-06,-4.20948177824e-06,-4.54129532885e-06,-3.32203946119e-06,-1.06837611858e-05,-2.35593292805e-06,9.66877545694e-07,-1.35344918001e-05,-1.13487330698e-06,2.59654853888e-06,-8.74927285175e-06,-4.78846857059e-07,-2.84469685937e-06,-1.52987163557e-05,3.0315419897e-06,1.94357797723e-07,-1.22762832078e-05,1.32520291484e-06,-1.12173627532e-06,-8.03635375619e-06,1.96547820713e-06,-6.00194101927e-06,-1.35908093024e-05,2.72900030224e-06,-1.21100756803e-06,-1.85878194027e-05,2.1283511765e-06,4.386651658e-06,-1.40418799386e-05,-5.17227291699e-07,2.48629066199e-06,-1.28716384452e-05,1.76833664595e-06,-9.69514769028e-07,-1.53811209023e-05,3.72707582417e-07,2.93559675167e-06,-1.76854855178e-05,3.75565820134e-06,1.85701074832e-06,-1.89478187341e-05,1.58779075454e-06,5.28721141128e-06,-1.75158362277e-05,2.74666802182e-06,2.69635163762e-06,-1.63778099535e-05,1.37924202216e-07,4.1670691829e-06,-1.59528705955e-05,8.04114250138e-07,3.07593977711e-06,-1.73271865769e-05,1.27275484613e-06,3.9816151626e-06,-1.63669431325e-05,3.84572158714e-07,3.9095544056e-06,-1.57852767639e-05,1.00486260348e-06,2.70759759223e-06,-1.40814775966e-05,-9.6559626476e-07,2.97425729311e-06
7.11858665398e-05,-0.00010928132878,-7.85453878032e-05,-7.5808112417e-05,-0.000115776094132,7.49433565079e-05,-6.14348167176e-05,-6.30454392752e-05,7.83940595103e-06,-6.3819876971e-05,3.22576353361e-06,-5.60467366039e-05,-7.98691876423e-05,-8.28043526343e-06,-2.84912271359e-05,-0.000103711751839,-3.74949596565e-05,2.45658614546e-05,-0.000106119830451,-3.36386591494e-05,2.31176395591e-05,-0.000133562286653,-3.29412551954e-05,4.98626918069e-05,-7.12756279194e-05,-8.35938050041e-05,3.82285828815e-05,-9.5428018456e-05,-0.000155711442922,0.000134498611336,-8.07670530804e-05,-8.48200325834e-05,4.89462356211e-05,-3.12197872758e-05,-7.77963308378e-05,-7.62473192788e-06,-8.68729106918e-05,-2.87927923787e-05,-9.75146970675e-07,-5.98268925269e-05,-4.15668110476e-05,-1.52471464677e-05,-8.85606112047e-05,-7.7270912432e-05,4.9190673594e-05,-8.72321840497e-05,4.9568687142e-07,-2.99043528648e-05,-0.000108259527159,-3.10882466625e-05,2.27069237801e-05,-0.000100776011891,-6.14434134125e-06,-9.7204968095e-06,-0.000121672873687,-1.43446022483e-06,6.46648386979e-06,-4.53337451623e-05,-6.60130493238e-05,-5.29405555453e-06,-7.57390474053e-07,-0.000101939012217,-1.39444473506e-05,-2.55102951057e-05,-3.57636271042e-05,-5.53669278321e-05,-3.73001028572e-05,-7.93725662694e-06,-7.14034905579e-05,-4.86924262822e-05,1.31683195098e-05,-8.11167432697e-05,-6.86579514639e-05,-5.55762859247e-05,7.59338734774e-06,-3.9583620247e-05,-2.11775748541e-05,-5.58796549406e-05,-5.74740366467e-05,2.78763139505e-06,-6.19544447899e-05,-9.88131291682e-324,2.10282331028e-05,-0.000137669083144,9.88131291682e-324,-3.40811844892e-05,-8.25596655529e-05,-8.59010970794e-05,2.53982928267e-05,-5.61380457901e-05,-7.03943892253e-05,-3.85390262521e-05,-7.70743456362e-06,-8.70533978793e-05,-3.27167597582e-05,3.12930759574e-06,-7.24336301106e-05,-6.26741534652e-05,1.84669335346e-05,-7.88309535153e-05,-4.39297213696e-05,6.1198248433e-06,-6.93843281182e-05,4.24320331211e-05,-8.96885550442e-05,-9.88131291682e-324,2.54750984015e-05,-0.000142115948444,-9.88131291682e-324,-4.85806058903e-05,-6.80602441505e-05,4.57902977067e-05,-1.47549279005e-06,-0.000160955654959,-5.42201067316e-05,-2.86510239124e-05,-3.37697193978e-05,-6.14351343275e-05,-4.05384190457e-05,-1.46672966694e-05,-3.3585786941e-05,-9.88867090349e-05,1.58316459338e-05,-1.06982035701e-05,-5.37543125533e-05,-5.21883339188e-05,-8.71335848419e-05,-1.87934665958e-05,-1.07137986043e-05,-4.3785167802e-05,-4.22682602699e-05,-3.05874219706e-05,-0.000110247229814,-1.92648183379e-05,1.2871198111e-05,-0.000137964073777,-7.71300879388e-06,2.90362325297e-05,-8.90579973267e-05,-2.99789428611e-06,-2.45849584291e-05,-0.000155476346994,3.37561860922e-05,5.07931085972e-06,-0.000125994606345,1.62949040048e-05,-6.94114770118e-06,-8.34586565508e-05,2.21508096893e-05,-5.53330031797e-05,-0.000139425671346,3.05879809699e-05,-7.80315966577e-06,-0.00018907663299,2.29775284474e-05,4.9458254501e-05,-0.000143805522945,-3.15216723905e-06,3.0316840142e-05,-0.000131601541544,1.957517718e-05,-4.61448567752e-06,-0.000156972317078,5.12884041608e-06,3.52026266195e-05,-0.000179603783884,4.00885629929e-05,2.28743708482e-05,-0.000192172303412,1.98577496139e-05,5.56737037568e-05,-0.000176817005107,3.10059946453e-05,2.91701604195e-05,-0.000165363587559,3.68956379155e-06,4.50331737263e-05,-0.000160941701423,1.00679381394e-05,3.42329132421e-05,-0.000172259571828,1.36366736367e-05,4.19820481495e-05,-0.000163771025815,4.66756865922e-06,4.24626071136e-05,-0.000155791934812,1.0810921771e-05,2.83401629984e-05,-0.000137756178948,-9.33132891719e-06,3.04466578233e-05
7.43195018033e-05,-0.000113841179694,-8.1820242447e-05,-7.88958317246e-05,-0.000120571542442,7.81254538286e-05,-6.3929810897e-05,-6.56045185847e-05,8.19240914394e-06,-6.64284518384e-05,3.47551046878e-06,-5.83889789673e-05,-8.32024988832e-05,-8.49712276242e-06,-2.96422986922e-05,-0.000108032753869,-3.89699235934e-05,2.56607571248e-05,-0.000110585021302,-3.49434270359e-05,2.41865280013e-05,-0.000139258445229,-3.42323080203e-05,5.21488329129e-05,-7.42262604886e-05,-8.70426512798e-05,3.99269914309e-05,-9.94151102396e-05,-0.000162236736204,0.000140309926105,-8.40794623679e-05,-8.82586790955e-05,5.09962211263e-05,-3.24715808557e-05,-8.09829184546e-05,-7.88742102723e-06,-9.04272711825e-05,-2.99770461552e-05,-9.37603001288e-07,-6.22871979224e-05,-4.31917095926e-05,-1.58630128217e-05,-9.22487624182e-05,-8.0432726724e-05,5.1339568805e-05,-9.09494754848e-05,6.59929770915e-07,-3.10523746238e-05,-0.0001128157679,-3.22621855761e-05,2.37360331392e-05,-0.000104977787711,-6.2861092673e-06,-1.00780233596e-05,-0.000126735342718,-1.38077638502e-06,6.77419876612e-06,-4.71998665085e-05,-6.87678016569e-05,-5.37425217104e-06,-7.73000536087e-07,-0.000106208943084,-1.4359976718e-05,-2.65468313182e-05,-3.7228485816e-05,-5.75666032032e-05,-3.88522851579e-05,-8.08503755465e-06,-7.44045976257e-05,-5.08050481364e-05,1.38591290012e-05,-8.4396001202e-05,-7.14781484184e-05,-5.78101949897e-05,7.94642307086e-06,-4.12278417206e-05,-2.19208322646e-05,-5.81932463525e-05,-5.98385849206e-05,3.07629900314e-06,-6.45796344202e-05,9.88131291682e-324,2.20500729002e-05,-0.000143391993238,9.88131291682e-324,-3.55032929538e-05,-8.5838627384e-05,-8.95059238473e-05,2.659100139e-05,-5.84269978806e-05,-7.33675548568e-05,-3.99982452206e-05,-7.97612026107e-06,-9.08050165927e-05,-3.39386667533e-05,3.40176300701e-06,-7.55591429948e-05,-6.5200170469e-05,1.94173931268e-05,-8.21993200528e-05,-4.56443736338e-05,6.50177334821e-06,-7.22673094853e-05,4.43141251644e-05,-9.33887360162e-05,9.88131291682e-324,2.67093213391e-05,-0.000148051241677,9.88131291682e-324,-5.05059350371e-05,-7.08359852995e-05,4.77901236888e-05,-1.46958863534e-06,-0.000167662455392,-5.65877633133e-05,-2.96534072486e-05,-3.51007497753e-05,-6.40658755636e-05,-4.21773385996e-05,-1.50987061741e-05,-3.50803560732e-05,-0.000102915888537,1.66543242722e-05,-1.11740994819e-05,-5.58462586947e-05,-5.43215621616e-05,-9.08864912677e-05,-1.94241369775e-05,-1.10312920917e-05,-4.5709033632e-05,-4.3889503052e-05,-3.17433836538e-05,-0.000115048696111,-1.98634949554e-05,1.35702707292e-05,-0.000143890487697,-7.85823786808e-06,3.04068052267e-05,-9.28782653885e-05,-3.03523737377e-06,-2.54284175754e-05,-0.000162133200802,3.53436023779e-05,5.44767808709e-06,-0.000131449292147,1.71292977122e-05,-7.02192590286e-06,-8.71197854541e-05,2.32046888612e-05,-5.74268237446e-05,-0.000145458958851,3.2035886682e-05,-7.91884816868e-06,-0.000197180402267,2.40264562456e-05,5.18120256834e-05,-0.000150016560694,-3.18504352722e-06,3.18596838829e-05,-0.000137274703653,2.04911300406e-05,-4.55834672525e-06,-0.000163725331704,5.41331960125e-06,3.69700917647e-05,-0.000187287862217,4.18982419291e-05,2.40476999501e-05,-0.000200381646916,2.08876909175e-05,5.81520356614e-05,-0.000184330644717,3.24835631807e-05,3.05051611981e-05,-0.000172391676442,3.95789575649e-06,4.70918603486e-05,-0.000167775462768,1.05906617478e-05,3.58428806813e-05,-0.000179450065112,1.42546004831e-05,4.38535442915e-05,-0.000170659505313,4.90427195906e-06,4.44133130165e-05,-0.000162239070961,1.13031148433e-05,2.95940357789e-05,-0.000143395703311,-9.7074475203e-06,3.17612304938e-05
7.65718123838e-05,-0.000117106545939,-8.41652406571e-05,-8.1103192018e-05,-0.000124003813011,8.04070308148e-05,-6.57131088718e-05,-6.74334319228e-05,8.44656658055e-06,-6.82937598156e-05,3.66020408117e-06,-6.00664184794e-05,-8.55895718067e-05,-8.64577007394e-06,-3.04646323315e-05,-0.000111126765814,-4.00215932327e-05,2.64483848329e-05,-0.000113784459522,-3.58727799575e-05,2.49572652673e-05,-0.000143343762584,-3.51526404446e-05,5.37964288155e-05,-7.63380929197e-05,-8.95103895976e-05,4.11485083044e-05,-0.000102270692422,-0.000166910935914,0.000144481654125,-8.64486453694e-05,-9.07160680843e-05,5.24647392411e-05,-3.33654775116e-05,-8.32618310179e-05,-8.07266568292e-06,-9.29690875934e-05,-3.08242508002e-05,-9.06635816915e-07,-6.404723405e-05,-4.43497669612e-05,-1.63029732014e-05,-9.48895366235e-05,-8.26937594939e-05,5.28833219054e-05,-9.36154101355e-05,7.84771748051e-07,-3.18693358246e-05,-0.000116080526876,-3.30965939728e-05,2.44771466364e-05,-0.0001079866107,-6.38174823064e-06,-1.03316152823e-05,-0.000130359984339,-1.33659672632e-06,6.99660685296e-06,-4.85349933931e-05,-7.07405591362e-05,-5.42442168392e-06,-7.83420376225e-07,-0.000109267556157,-1.46489976804e-05,-2.72877444511e-05,-3.82761168454e-05,-5.91361129161e-05,-3.99636456139e-05,-8.18161206491e-06,-7.65547165341e-05,-5.23220305272e-05,1.43609118218e-05,-8.67388555058e-05,-7.34955123159e-05,-5.94055687662e-05,8.20110686877e-06,-4.2404967249e-05,-2.24459344906e-05,-5.9849072474e-05,-6.15301490798e-05,3.2917300233e-06,-6.6461555157e-05,-9.88131291682e-324,2.27891313847e-05,-0.000147489105598,9.88131291682e-324,-3.65216625878e-05,-8.81783116248e-05,-9.20884381004e-05,2.74518444193e-05,-6.00633805316e-05,-7.54985047354e-05,-4.10356791314e-05,-8.16579034629e-06,-9.34976466462e-05,-3.48064603916e-05,3.60413282527e-06,-7.78025802127e-05,-6.70045637194e-05,2.01071697186e-05,-8.46154018396e-05,-4.68662494562e-05,6.78167708289e-06,-7.43313117871e-05,4.56675935912e-05,-9.60362560172e-05,9.88131291682e-324,2.76018787139e-05,-0.000152301852928,-9.88131291682e-324,-5.18794893465e-05,-7.28204848669e-05,4.9226619887e-05,-1.46185583483e-06,-0.000172464738264,-5.82885831571e-05,-3.03614386168e-05,-3.604995244e-05,-6.59531635793e-05,-4.33483581989e-05,-1.53984524339e-05,-3.615537335e-05,-0.000105796298649,1.72516977851e-05,-1.15163895988e-05,-5.73366445189e-05,-5.58469400949e-05,-9.35800039837e-05,-1.98679602953e-05,-1.12520099335e-05,-4.70916501297e-05,-4.50432439264e-05,-3.25650801583e-05,-0.00011849724306,-2.02818432118e-05,1.40791120582e-05,-0.000148142958099,-7.95329523925e-06,3.13962791244e-05,-9.56192654266e-05,-3.05750506626e-06,-2.60232037199e-05,-0.000166908774494,3.64893802079e-05,5.71942007318e-06,-0.000135365424178,1.77346197835e-05,-7.06916981903e-06,-8.97506483178e-05,2.39659449719e-05,-5.89152708671e-05,-0.000149790353269,3.30814284447e-05,-7.99104938873e-06,-0.000202994382502,2.47821553398e-05,5.35122529492e-05,-0.000154474995566,-3.20358110228e-06,3.29786024549e-05,-0.000141346497115,2.11520759559e-05,-4.50555305349e-06,-0.000168571486155,5.62060053701e-06,3.82509114044e-05,-0.000192800095268,4.32011069185e-05,2.4899014136e-05,-0.000206270050876,2.1635401037e-05,5.99346756261e-05,-0.000189718102744,3.35509764477e-05,3.14671520838e-05,-0.000177431009672,4.15581503221e-06,4.85752204268e-05,-0.000172675139766,1.09701726235e-05,3.70049929301e-05,-0.000184599375907,1.46995807067e-05,4.51998209867e-05,-0.000175595179724,5.07590436827e-06,4.58193011428e-05,-0.000166853233842,1.16576748761e-05,3.04955847526e-05,-0.000147428716069,-9.97611274781e-06,3.27048546031e-05
7.55261099018e-05,-0.000115591749113,-8.30774182173e-05,-8.00795962233e-05,-0.000122411777823,7.9348316619e-05,-6.48861933897e-05,-6.65853850199e-05,8.32852098045e-06,-6.74287302799e-05,3.57391729227e-06,-5.92882444405e-05,-8.44822085224e-05,-8.57749113288e-06,-3.00833577721e-05,-0.000109691492199,-3.95342010621e-05,2.60826358328e-05,-0.000112300053481,-3.54421755173e-05,2.45991715713e-05,-0.000141447944926,-3.47261372111e-05,5.30310247083e-05,-7.53585377059e-05,-8.83658213199e-05,4.05813015972e-05,-0.000100945953906,-0.000164742443559,0.000142545340036,-8.53498846729e-05,-8.95766170039e-05,5.17834442489e-05,-3.29510631746e-05,-8.22049644842e-05,-7.98702976854e-06,-9.1790308073e-05,-3.04313229956e-05,-9.21426359885e-07,-6.32309459009e-05,-4.38131236829e-05,-1.60989878443e-05,-9.36645238734e-05,-8.16452018075e-05,5.21666682538e-05,-9.23782792673e-05,7.26107033937e-07,-3.14908851942e-05,-0.000114565806155,-3.27101647953e-05,2.41329135228e-05,-0.000106590836142,-6.33799342522e-06,-1.02142278623e-05,-0.000128678588113,-1.3576877047e-06,6.89321838969e-06,-4.7915757779e-05,-6.98253960999e-05,-5.40190354882e-06,-7.78665204133e-07,-0.000107848581936,-1.45158102874e-05,-2.6944177764e-05,-3.77902655135e-05,-5.84086141507e-05,-3.94481058979e-05,-8.13777291801e-06,-7.55571786123e-05,-5.16178784689e-05,1.41273997294e-05,-8.56525786887e-05,-7.25598911755e-05,-5.86659311655e-05,8.08276491253e-06,-4.18589342453e-05,-2.22030844331e-05,-5.90810387501e-05,-6.07456145718e-05,3.19088651643e-06,-6.55883293728e-05,-9.88131291682e-324,2.24455242617e-05,-0.00014558858169,9.88131291682e-324,-3.60492451919e-05,-8.70938122365e-05,-9.08903054459e-05,2.70518016204e-05,-5.93045536016e-05,-7.45097712399e-05,-4.05551983597e-05,-8.0780878281e-06,-9.2247912212e-05,-3.44046439379e-05,3.50949872258e-06,-7.67613118552e-05,-6.61679790673e-05,1.97862334947e-05,-8.34941758635e-05,-4.63000482819e-05,6.65116671637e-06,-7.33738806168e-05,4.50391318916e-05,-9.48083087031e-05,9.88131291682e-324,2.71869170713e-05,-0.000150329974501,-9.88131291682e-324,-5.1242840814e-05,-7.19002166157e-05,4.85597759799e-05,-1.46580786013e-06,-0.000170237025549,-5.74990243262e-05,-3.00340016841e-05,-3.56100314175e-05,-6.50773031895e-05,-4.28053978733e-05,-1.52603563652e-05,-3.56561824825e-05,-0.00010446059535,1.69737204044e-05,-1.13574465088e-05,-5.6646056299e-05,-5.51395546196e-05,-9.23298638191e-05,-1.9662883273e-05,-1.11503103362e-05,-4.64497465469e-05,-4.45087797763e-05,-3.21845311055e-05,-0.000116896413608,-2.00888502037e-05,1.38422063834e-05,-0.000146169363673,-7.9101278412e-06,3.09364340864e-05,-9.43471746199e-05,-3.04764034878e-06,-2.57482424598e-05,-0.000164692510566,3.59569200602e-05,5.59253307632e-06,-0.000133547703063,1.74530012443e-05,-7.0483556089e-06,-8.85292521307e-05,2.36121179581e-05,-5.82259232557e-05,-0.000147779897318,3.25955017643e-05,-7.95866187556e-06,-0.000200296169899,2.443111535e-05,5.27219971204e-05,-0.000152405631629,-3.19550188679e-06,3.24580760881e-05,-0.000139456647364,2.08449426432e-05,-4.53135270759e-06,-0.000166322301252,5.52407315511e-06,3.76551706685e-05,-0.000190241987229,4.25959900616e-05,2.45029397385e-05,-0.000203537435745,2.12874844193e-05,5.91068938977e-05,-0.000187218160365,3.30548381283e-05,3.10202648097e-05,-0.000175092605069,4.06340180439e-06,4.78861458372e-05,-0.000170401572941,1.07935797737e-05,3.64649357395e-05,-0.000182210609919,1.44928980339e-05,4.45746544567e-05,-0.0001733052449,4.99606343252e-06,4.51661240399e-05,-0.000164713014907,1.14929774239e-05,3.00769800552e-05,-0.000145558383619,-9.85155000272e-06,3.22668761931e-05
0.000196324868715,-0.000277811477543,-0.000199321022189,-0.000185705423773,-0.00029094791397,0.000195845706727,-0.000149935249564,-0.000153405186672,2.25328052205e-05,-0.000157214323961,1.90652747694e-05,-0.000142658581824,-0.000203141206253,-8.93985226056e-06,-6.87265725023e-05,-0.000263093177184,-8.68050587716e-05,6.90906049412e-05,-0.000273202153253,-7.62212436771e-05,6.86157659152e-05,-0.000351080197482,-7.59544150264e-05,0.000146226981492,-0.000179085630914,-0.000208720147352,0.000106998147251,-0.000243389649525,-0.000398303362132,0.000360885380642,-0.00020003511545,-0.000206235506927,0.000125462991361,-7.47187765734e-05,-0.000192098404095,-1.39904503475e-05,-0.000214403060636,-7.16167559848e-05,5.21218560361e-06,-0.00014872280305,-9.53544630815e-05,-3.67303648833e-05,-0.000224477501476,-0.000190511268012,0.000134181138472,-0.000229070839167,1.46300658671e-05,-6.63668577165e-05,-0.00027888789562,-6.73887624064e-05,6.54690270111e-05,-0.000256002680319,-4.62671781112e-06,-2.0178232885e-05,-0.000308166978519,6.98885048704e-06,2.03704970176e-05,-0.000113028537631,-0.000167912536551,1.33443166791e-07,-5.61857621598e-07,-0.000260765815312,-1.94799580823e-05,-6.23704141519e-05,-8.83756777253e-05,-0.000130061539138,-9.45274060317e-05,-3.04238056241e-06,-0.000183237844421,-0.000131411841016,4.65612158957e-05,-0.000195957005895,-0.000170471021857,-0.000133158883391,2.28222742309e-05,-0.000100080909286,-4.05192843045e-05,-0.000140207437424,-0.000142910300238,2.32421175523e-05,-0.000161139448331,9.88131291682e-324,6.70180760563e-05,-0.000347825707073,9.88131291682e-324,-8.65710049497e-05,-0.000194236626065,-0.000220339013791,7.70549713908e-05,-0.000137523588616,-0.000182353664302,-8.4004177651e-05,-1.44497890617e-05,-0.000232530659668,-6.97769666179e-05,2.14999952697e-05,-0.000193811109447,-0.000150940412571,6.39438910029e-05,-0.000207683007804,-0.000100517139879,2.73925166682e-05,-0.000175460830289,0.000118439207343,-0.00022378600807,9.88131291682e-324,8.09760618561e-05,-0.000361783692873,-9.88131291682e-324,-0.000113808444732,-0.000166999186283,0.000124457754266,2.83678251718e-06,-0.0004081021678,-0.000147666163694,-5.46664731521e-05,-7.84749941693e-05,-0.000162419275129,-9.81977169112e-05,-2.01906389753e-05,-9.41785486026e-05,-0.000242210908154,5.55818257416e-05,-2.99656175878e-05,-0.000122367493769,-0.000128474519659,-0.000232718731994,-3.32535805196e-05,-1.48353185028e-05,-0.000120417746664,-9.39636519854e-05,-6.6426232363e-05,-0.000299068213142,-2.97470278553e-05,4.80076099828e-05,-0.000366383818929,-3.01379602919e-06,8.85899839418e-05,-0.000236129385267,7.11166935417e-07,-4.53894126833e-05,-0.000410984028539,0.000102487339384,2.76890581383e-05,-0.000338740187337,5.58837062681e-05,2.04885004958e-06,-0.000229035043616,6.84871016195e-05,-0.00012025968902,-0.000374586452185,9.38548172233e-05,-7.59960523526e-08,-0.00050055744799,6.68406122204e-05,0.000152909204753,-0.000385262394829,1.28344917425e-06,0.000103171314638,-0.000351516266657,5.90782361404e-05,1.16303994996e-05,-0.000417980925576,1.96404896614e-05,0.000117532804897,-0.000474279385174,0.000114771414641,7.87003395174e-05,-0.000506252046977,6.92884339968e-05,0.00015615598196,-0.000462160089443,9.60901041084e-05,8.52623543187e-05,-0.000432249104211,2.0045727205e-05,0.000131395745991,-0.000420086736279,3.51940783359e-05,0.000104085026927,-0.000438072351994,3.92564596799e-05,0.000118008261301,-0.00042138605499,1.58112516757e-05,0.000124767172297,-0.000390999295487,3.13807832246e-05,7.88108812466e-05,-0.000339916606813,-2.24580311188e-05,8.1567006918e-05
7.23451331984e-05,-0.000110970495671,-7.97585673068e-05,-7.69526570037e-05,-0.000117552879312,7.61216065349e-05,-6.23597156193e-05,-6.39941293282e-05,7.96991516718e-06,-6.47867230959e-05,3.31717294766e-06,-5.6914379633e-05,-8.11039821528e-05,-8.36194215665e-06,-2.89180054727e-05,-0.000105312497942,-3.80422160539e-05,2.4970784215e-05,-0.000107773578576,-3.41229507161e-05,2.35125995107e-05,-0.000135671211244,-3.34203145457e-05,5.070759601e-05,-7.23688891226e-05,-8.48717905511e-05,3.88567498928e-05,-9.69049403537e-05,-0.000158128437516,0.000136649448087,-8.19946585792e-05,-8.60948173196e-05,4.97055461168e-05,-3.16839855843e-05,-7.897735759e-05,-7.72258660807e-06,-8.8190265154e-05,-2.92316534335e-05,-9.62011193641e-07,-6.07386413323e-05,-4.21697961516e-05,-1.54754922971e-05,-8.99269303328e-05,-7.84427885213e-05,4.99857890727e-05,-8.86084846593e-05,5.55159994921e-07,-3.03306051169e-05,-0.000109946981905,-3.15243113317e-05,2.30873634564e-05,-0.000102332555588,-6.19797223036e-06,-9.85340196221e-06,-0.000123548357188,-1.41566040861e-06,6.58008781657e-06,-4.60252705295e-05,-6.70335210375e-05,-5.32513821514e-06,-7.63317399563e-07,-0.000103520617038,-1.40999953434e-05,-2.58945320118e-05,-3.63065346393e-05,-5.618286313e-05,-3.78751324638e-05,-7.99375481482e-06,-7.25150425028e-05,-4.94742550057e-05,1.34228820341e-05,-8.23325568092e-05,-6.97030949952e-05,-5.64046478856e-05,7.72381309954e-06,-4.01927728941e-05,-2.14542647522e-05,-5.67368921351e-05,-5.83502935179e-05,2.89291537602e-06,-6.29265516385e-05,-9.88131291682e-324,2.14053824903e-05,-0.000139789312272,-9.88131291682e-324,-3.46079987918e-05,-8.37759309898e-05,-8.72362821845e-05,2.58388487371e-05,-5.69864963334e-05,-7.14954325216e-05,-3.90810114429e-05,-7.80748581626e-06,-8.84420143443e-05,-3.31707772657e-05,3.22886182915e-06,-7.35904670083e-05,-6.36107561577e-05,1.88172933846e-05,-8.00779933646e-05,-4.45660413647e-05,6.26010494868e-06,-7.04524121621e-05,4.31281660449e-05,-9.10596836641e-05,-9.88131291682e-324,2.59306573019e-05,-0.000144314587083,9.88131291682e-324,-4.9294815915e-05,-6.90891138656e-05,4.65302859806e-05,-1.4739688292e-06,-0.000163440246931,-5.50961829538e-05,-2.90242048144e-05,-3.42635420126e-05,-6.24090341731e-05,-4.11460449341e-05,-1.48288506736e-05,-3.4138542744e-05,-0.00010038022717,1.61348401323e-05,-1.08742127884e-05,-5.45307157378e-05,-5.29790012544e-05,-8.85226864686e-05,-1.90285733767e-05,-1.08326699369e-05,-4.44969205491e-05,-4.28702126675e-05,-3.10167965647e-05,-0.000112023976554,-1.94885596056e-05,1.31286063787e-05,-0.000140157864929,-7.76850251509e-06,2.95424376637e-05,-9.04721939916e-05,-3.01257525644e-06,-2.48991605327e-05,-0.00015794072026,3.43425264384e-05,5.21426403972e-06,-0.000128013370659,1.6602521061e-05,-6.97308018321e-06,-8.48131770181e-05,2.2539969268e-05,-5.61107220317e-05,-0.00014165860081,3.1122703622e-05,-7.84803259258e-06,-0.000192076579601,2.33652347809e-05,5.03274150393e-05,-0.000146104345995,-3.16529441993e-06,3.08857106336e-05,-0.000133701388996,1.99135345733e-05,-4.59607535831e-06,-0.000159471986894,5.23354887968e-06,3.5854508234e-05,-0.000182448486718,4.07576332886e-05,2.33069236487e-05,-0.000195211582921,2.02373597433e-05,5.65902933957e-05,-0.000179599085962,3.15515864948e-05,2.9663569686e-05,-0.000167965877845,3.78787323489e-06,4.57940748295e-05,-0.00016347209831,1.02605956116e-05,3.48275729174e-05,-0.000174923221985,1.38651115698e-05,4.26741806348e-05,-0.000166322296773,4.75485097703e-06,4.3183516015e-05,-0.000158180747919,1.09928547407e-05,2.8803963397e-05,-0.00013984634965,-9.47078798674e-06,3.0933207856e-05
7.67687532581e-05,-0.00011739159175,-8.43699374555e-05,-8.12957301103e-05,-0.000124303356639,8.06063108011e-05,-6.5868644818e-05,-6.75929384799e-05,8.4688073498e-06,-6.84564813351e-05,3.67655873808e-06,-6.02128533523e-05,-8.57979500718e-05,-8.65848707935e-06,-3.05363387982e-05,-0.000111396841159,-4.01132158563e-05,2.6517281066e-05,-0.000114063823947,-3.59537078489e-05,2.50247558454e-05,-0.000143700632031,-3.52328127544e-05,5.39406688369e-05,-7.65223968867e-05,-8.97257271208e-05,4.1255348057e-05,-0.000102519981904,-0.000167319017587,0.000144846223539,-8.66553461019e-05,-9.09303814986e-05,5.2592951651e-05,-3.34434088304e-05,-8.34606448367e-05,-8.08872228126e-06,-9.31908331465e-05,-3.08981725386e-05,-9.03770263367e-07,-6.42008018843e-05,-4.44506376546e-05,-1.63413364099e-05,-9.51200453481e-05,-8.28910070068e-05,5.30182764049e-05,-9.38482855936e-05,7.9595628855e-07,-3.19404466455e-05,-0.000116365598185,-3.31691838965e-05,2.45420061308e-05,-0.000108249257214,-6.38986321962e-06,-1.03536555156e-05,-0.000130676366807,-1.33251252332e-06,7.01610338158e-06,-4.86514930489e-05,-7.09127702378e-05,-5.42851266268e-06,-7.84299994314e-07,-0.000109534588021,-1.46738879331e-05,-2.73523675149e-05,-3.83675139716e-05,-5.92728944624e-05,-4.00606534386e-05,-8.18967528978e-06,-7.67424472217e-05,-5.24546165282e-05,1.44049952757e-05,-8.69431546952e-05,-7.36715276674e-05,-5.95446617795e-05,8.22341349713e-06,-4.25077102356e-05,-2.24914885696e-05,-5.99935771436e-05,-6.16777436886e-05,3.31088150638e-06,-6.66259137681e-05,-9.88131291682e-324,2.28539364504e-05,-0.0001478467124,-9.88131291682e-324,-3.66105589517e-05,-8.8382216998e-05,-9.23139170693e-05,2.75272576253e-05,-6.02061165048e-05,-7.56845957833e-05,-4.11259416955e-05,-8.18223847156e-06,-9.37329362979e-05,-3.4881926455e-05,3.62208680339e-06,-7.79986251631e-05,-6.71618964752e-05,2.01677456884e-05,-8.48264671978e-05,-4.69726730105e-05,6.80636425912e-06,-7.45114650486e-05,4.57859682681e-05,-9.62672791686e-05,9.88131291682e-324,2.76801392987e-05,-0.000152672915248,-9.88131291682e-324,-5.1999185532e-05,-7.29935904165e-05,4.93521910276e-05,-1.46104147399e-06,-0.000172883925503,-5.84372646912e-05,-3.0422856815e-05,-3.61326544421e-05,-6.61180459927e-05,-4.34504764667e-05,-1.54242534906e-05,-3.62494036205e-05,-0.000106047544282,1.73041719527e-05,-1.15463286959e-05,-5.74664407704e-05,-5.59800064831e-05,-9.38153692973e-05,-1.99063933162e-05,-1.12710133357e-05,-4.7212538751e-05,-4.51436703251e-05,-3.26365668739e-05,-0.000118798682358,-2.03179508196e-05,1.41238572293e-05,-0.000148514508543,-7.96123824118e-06,3.14829708349e-05,-9.58587460036e-05,-3.05927124846e-06,-2.60747586969e-05,-0.000167325989695,3.65897567541e-05,5.74345699099e-06,-0.000135707673017,1.77877701506e-05,-7.0728730831e-06,-8.99806665301e-05,2.40326581455e-05,-5.90447675643e-05,-0.00015016888833,3.31730419997e-05,-7.99692961768e-06,-0.000203502333341,2.48483035622e-05,5.36612538298e-05,-0.000154864610598,-3.20500064073e-06,3.30768352891e-05,-0.000141702302751,2.12099715946e-05,-4.50044479257e-06,-0.000168994930846,5.63883618369e-06,3.83633187124e-05,-0.000193281657916,4.3315113849e-05,2.49737681177e-05,-0.000206784451677,2.17010743401e-05,6.00906013892e-05,-0.000190188665366,3.36445242585e-05,3.15513651588e-05,-0.000177871166621,4.17332077343e-06,4.87050698981e-05,-0.000173103085935,1.10035071257e-05,3.71068028597e-05,-0.000185048882369,1.47385228816e-05,4.53175835383e-05,-0.000176026141821,5.09097117611e-06,4.59423946962e-05,-0.000167255913418,1.1688708878e-05,3.05744285908e-05,-0.000147780553371,-9.99953859474e-06,3.27873160159e-05
7.10566267404e-05,-0.000109092846983,-7.8410015725e-05,-7.5680348604e-05,-0.000115577810675,7.48119233116e-05,-6.13315669732e-05,-6.29395311827e-05,7.82486218674e-06,-6.37119559947e-05,3.21564456459e-06,-5.59499245381e-05,-7.97314065796e-05,-8.27125037249e-06,-2.84435790165e-05,-0.000103533131948,-3.74338322286e-05,2.4520728208e-05,-0.000105935326496,-3.35845514231e-05,2.30736419512e-05,-0.000133327053195,-3.28877423296e-05,4.97685595552e-05,-7.11536229283e-05,-8.34511760317e-05,3.81585629913e-05,-9.52632245818e-05,-0.000155441766963,0.000134258755575,-8.06300337806e-05,-8.46777186234e-05,4.88615164353e-05,-3.11679557899e-05,-7.76645066997e-05,-7.61377347973e-06,-8.67258682226e-05,-2.8743811264e-05,-9.76556481522e-07,-5.97251320009e-05,-4.14994516556e-05,-1.52216523129e-05,-8.84081486988e-05,-7.7140107416e-05,4.91020201466e-05,-8.70786670682e-05,4.89150564583e-07,-2.98567194657e-05,-0.000108071263731,-3.10395028964e-05,2.26645306601e-05,-0.000100602326823,-6.13827590845e-06,-9.70563323677e-06,-0.000121463593026,-1.43647871067e-06,6.45383576822e-06,-4.52565658807e-05,-6.58991829276e-05,-5.29048715991e-06,-7.56718584845e-07,-0.000101762544362,-1.39269730202e-05,-2.54674020175e-05,-3.57030290419e-05,-5.52758049093e-05,-3.72359370179e-05,-7.93082454497e-06,-7.12794744045e-05,-4.86052444528e-05,1.31400127031e-05,-8.09810042194e-05,-6.85413008889e-05,-5.54837949526e-05,7.57885987242e-06,-3.9515644835e-05,-2.11466022947e-05,-5.5783988838e-05,-5.73762378267e-05,2.77600389007e-06,-6.18460020321e-05,9.88131291682e-324,2.09862506825e-05,-0.00013743248665,9.88131291682e-324,-3.40224008893e-05,-8.24238350793e-05,-8.57521280536e-05,2.53492273685e-05,-5.60433352844e-05,-7.02715570993e-05,-3.84784460486e-05,-7.69623282187e-06,-8.68985358583e-05,-3.26659993727e-05,3.11829926319e-06,-7.23046192268e-05,-6.25695823969e-05,1.84279656547e-05,-7.86918601154e-05,-4.38586360983e-05,6.10426024571e-06,-6.9265140908e-05,4.23544351337e-05,-8.95355301941e-05,-9.88131291682e-324,2.5424386232e-05,-0.0001418706222,9.88131291682e-324,-4.85008406754e-05,-6.79453952939e-05,4.5707788696e-05,-1.47561454528e-06,-0.00016067841012,-5.41224251842e-05,-2.86092481921e-05,-3.37145625926e-05,-6.13265107067e-05,-4.04705821271e-05,-1.46491431354e-05,-3.35241743814e-05,-9.87199901102e-05,1.57979285235e-05,-1.06785846437e-05,-5.36675733145e-05,-5.21000780109e-05,-8.69786680539e-05,-1.87671249475e-05,-1.07004429676e-05,-4.37058163634e-05,-4.22009926856e-05,-3.05394269195e-05,-0.00011004911598,-1.92397093965e-05,1.28425894079e-05,-0.000137719402081,-7.70669312442e-06,2.89798592375e-05,-8.89002701187e-05,-2.99619438344e-06,-2.45497714661e-05,-0.000155201483326,3.36908851665e-05,5.06436219199e-06,-0.000125769484863,1.62606870652e-05,-6.9374381707e-06,-8.33076409349e-05,2.21074768308e-05,-5.52460718656e-05,-0.00013917666543,3.05284350648e-05,-7.79800560483e-06,-0.000188742039748,2.29343299845e-05,4.93614737949e-05,-0.000143549161002,-3.15063334339e-06,3.02535583774e-05,-0.000131367361655,1.95374917022e-05,-4.61636601466e-06,-0.000156693538658,5.11720597297e-06,3.51300967159e-05,-0.00017928649652,4.00140020731e-05,2.28262584784e-05,-0.00019183330499,1.98155320366e-05,5.55715369849e-05,-0.000176506667651,3.09452446106e-05,2.91151870721e-05,-0.000165073305912,3.67867380836e-06,4.49483961361e-05,-0.000160659434985,1.00465124993e-05,3.41666865178e-05,-0.000171962356118,1.36112181085e-05,4.19049020406e-05,-0.000163486386142,4.65785883059e-06,4.23822913433e-05,-0.000155525347164,1.07906501133e-05,2.82884610819e-05,-0.000137522875848,-9.31575834242e-06,3.03923982225e-05
0.00172664489295,-0.00141013608309,-0.000901659172284,-0.000669930816405,-0.001294684842,0.00137946529598,-0.000566048180628,-0.000388666352423,0.000369564170614,-0.000620199552129,0.000642625137018,-0.000607575947333,-0.00106789407381,0.00053718662196,-5.44429105934e-05,-0.00135305551496,8.36212532763e-06,0.000759543027189,-0.00153615739809,5.66853404302e-05,0.000894321695227,-0.00231418049682,-4.35925067375e-05,0.00177262264112,-0.00085543180369,-0.000836201339246,0.00110648278049,-0.00141432793551,-0.00207405649266,0.00290323406574,-0.000845324542291,-0.000601750986364,0.000861925166216,-0.000226071015025,-0.000664122429988,0.000305043082569,-0.000886837417606,-0.000276096677018,0.000577783732173,-0.000625555161462,3.7480660596e-05,2.9241384215e-06,-0.0011270559288,-0.000661493742002,0.00120339930837,-0.00152035330465,0.000664992436191,0.000270210506026,-0.00160808533125,0.000236983781328,0.000785951187476,-0.00135301536723,0.000623760414526,0.000144104590267,-0.00162092431998,0.000543520197962,0.000492253759561,-0.000548915548887,-0.000837642642762,0.000801407829223,5.86274289064e-06,-0.00140909922787,0.000818086122548,-0.0002794043662,-0.000311959431361,6.21343511298e-06,-0.000515663270548,0.000746759122631,-0.000816246214523,-0.00103321751121,0.000782624909302,-0.000334557760533,-0.000733139650315,-0.000239333329703,0.000387322617576,-0.000558754343591,0.000497743945736,-0.000524139964601,-0.000579170417495,0.000879120030941,-0.000885099975888,-9.88131291682e-324,0.00101838602928,-0.00160353639172,9.88131291682e-324,-0.00036080742603,-0.000224342936398,-0.00123071187202,0.000999457375594,-0.000353895866007,-0.00109368957552,0.000230282088808,0.000278257124271,-0.0017049214094,0.000258942605857,0.000860828441108,-0.00142179867188,-0.000375029955334,0.00121167826478,-0.00131985128206,2.67270581522e-05,0.000707973861451,-0.000948778344254,0.00116743072199,-0.000803802740172,-9.88131291682e-324,0.00125217777445,-0.0018373281369,-9.88131291682e-324,-4.53780943634e-05,-0.000539772268085,0.000879712289453,0.000453202964365,-0.00191806561626,-0.00116620796274,0.000592809017652,-1.17514173432e-05,-0.00106012021625,-0.000290751085903,0.00076572093971,-0.000882611056179,-0.000788820641556,0.00108628133529,-0.000262509694561,8.46318229847e-05,-0.000407272490869,-0.00177391034815,0.000578426440429,0.000610333545272,-0.00100988345435,0.000209653511894,0.000215079580012,-0.00232405909857,0.000734294793275,0.00100461394286,-0.00246256217039,0.000774415732286,0.00110299607566,-0.00160554721062,0.000448406949084,0.000571989899103,-0.00272752781335,0.00126151975346,0.000880857697451,-0.00250104473851,0.000946059835762,0.00096983454031,-0.0019572763064,0.000948934449504,0.000423191494458,-0.0027619299388,0.0012375048248,0.000939274751549,-0.00333965203672,0.000732813200683,0.00202168847359,-0.00279716431589,0.00046066977746,0.001751344176,-0.00248454978154,0.000741211610795,0.00115818780831,-0.00290901851747,0.000401690538243,0.00192217761677,-0.00314618194772,0.00119811729013,0.00136291429514,-0.00328024516273,0.00118778389893,0.00150731090136,-0.00285741316715,0.00129704154649,0.000975221258206,-0.00264401870889,0.000564884394911,0.00149398395154,-0.00253104659178,0.00060966177658,0.00133623445275,-0.00215354259541,0.000412540427677,0.00115585180528,-0.0022894173914,0.000263774942585,0.00144049208639,-0.0016986404391,0.000359480473807,0.000754009602852,-0.00115939869405,-4.92181006368e-05,0.000623466432245
6.49700271147e-05,-0.000100178099577,-7.20067333652e-05,-6.96254174707e-05,-0.000106193760213,6.86043718546e-05,-5.64373194687e-05,-5.79187469674e-05,7.14126060668e-06,-5.85989206274e-05,2.75550187996e-06,-5.1371387081e-05,-7.32148266388e-05,-7.81621360147e-06,-2.61837655887e-05,-9.50838353688e-05,-3.45282309557e-05,2.23972604955e-05,-9.72146111976e-05,-3.10095645444e-05,2.10093699129e-05,-0.000122220739706,-3.0343408441e-05,4.53493423199e-05,-6.53794125692e-05,-7.66987905403e-05,3.486339728e-05,-8.74699832048e-05,-0.000142691048178,0.000122946225554,-7.41402327718e-05,-7.79305763963e-05,4.48560033392e-05,-2.87084317593e-05,-7.14199386964e-05,-7.08643537324e-06,-7.97599908734e-05,-2.6424412928e-05,-1.03040202808e-06,-5.49063467262e-05,-3.82959733516e-05,-1.40124857514e-05,-8.11958996424e-05,-7.0943298159e-05,4.49243919724e-05,-7.98300995599e-05,2.02851008084e-07,-2.75875572776e-05,-9.91730920715e-05,-2.87142620924e-05,2.06725483348e-05,-9.23870229546e-05,-5.83285865019e-06,-8.99492422366e-06,-0.000111562991315,-1.51382031025e-06,5.86200579497e-06,-4.16022558116e-05,-6.05136951462e-05,-5.09885487123e-06,-7.22512654417e-07,-9.34187352851e-05,-1.307355789e-05,-2.34343222588e-05,-3.28325383896e-05,-5.09479451808e-05,-3.42004637043e-05,-7.59734910665e-06,-6.54169930172e-05,-4.44947179781e-05,1.18235937584e-05,-7.45436816099e-05,-6.30169797942e-05,-5.10954552278e-05,6.89762919412e-06,-3.62995171224e-05,-1.9659100375e-05,-5.12561883301e-05,-5.27451634434e-05,2.25358272163e-06,-5.67232251061e-05,-9.88131291682e-324,1.90236646082e-05,-0.000126238470437,-9.88131291682e-324,-3.1242025865e-05,-7.59727799634e-05,-7.87095602788e-05,2.30498064643e-05,-5.15550520138e-05,-6.44676567714e-05,-3.55893489845e-05,-7.15780007333e-06,-7.95930292539e-05,-3.02423002058e-05,2.62052363154e-06,-6.62191960849e-05,-5.76093428955e-05,1.66137331522e-05,-7.21255860873e-05,-4.0477497662e-05,5.38827792103e-06,-6.36261232185e-05,3.87021541433e-05,-8.22908367526e-05,9.88131291682e-324,2.30533245682e-05,-0.000130268130397,9.88131291682e-324,-4.47117401085e-05,-6.250306572e-05,4.18192641465e-05,-1.47035460519e-06,-0.00014756371537,-4.95191089787e-05,-2.66024389371e-05,-3.1093257913e-05,-5.61995673646e-05,-3.72537243512e-05,-1.37615141127e-05,-3.06250013068e-05,-9.0818997941e-05,1.42291934195e-05,-9.75537883039e-06,-4.95407605067e-05,-4.79186664913e-05,-7.96704077609e-05,-1.74965825914e-05,-1.00478154766e-05,-3.99681954036e-05,-3.89965086418e-05,-2.8250101783e-05,-0.000100710906341,-1.80193396176e-05,1.15154401288e-05,-0.000126173892292,-7.3797248401e-06,2.63388113034e-05,-8.14567680408e-05,-2.90167728898e-06,-2.28563604997e-05,-0.000142228023256,3.06307953514e-05,4.38242207493e-06,-0.00011515326469,1.46669663682e-05,-6.72850750642e-06,-7.61936323382e-05,2.0078659423e-05,-5.10998329143e-05,-0.000127433670267,2.77394756037e-05,-7.52061116479e-06,-0.000172950639564,2.09055239931e-05,4.48303097422e-05,-0.00013145745477,-3.06227651529e-06,2.73049254566e-05,-0.000120320202535,1.77709181495e-05,-4.66552144271e-06,-0.000143540344277,4.57818052732e-06,3.17473579209e-05,-0.000164309807611,3.65093439487e-05,2.05856578341e-05,-0.000175829815414,1.78508487553e-05,5.07641608293e-05,-0.000161850082884,2.81013158428e-05,2.65339612125e-05,-0.000151364016884,3.18182778636e-06,4.09673832687e-05,-0.00014732767957,9.04950962544e-06,3.10633641139e-05,-0.000157905114501,1.24150518728e-05,3.82752567992e-05,-0.000150032301962,4.20532257596e-06,3.86121735566e-05,-0.000142907814609,9.83845688546e-06,2.58545518948e-05,-0.000126470762618,-8.57716911924e-06,2.78331259085e-05
6.51850545011e-05,-0.000100494319735,-7.22338842854e-05,-6.98405969086e-05,-0.000106526817965,6.88242653531e-05,-5.6611286976e-05,-5.80972288173e-05,7.1653662739e-06,-5.87805766803e-05,2.77120679887e-06,-5.15337796378e-05,-7.34459753698e-05,-7.83304360526e-06,-2.62641305435e-05,-9.53835786163e-05,-3.46317789288e-05,2.24722080269e-05,-9.75237516042e-05,-3.11014322151e-05,2.10820343004e-05,-0.000122614040187,-3.04341048126e-05,4.55049954809e-05,-6.55843555467e-05,-7.69385209265e-05,3.49797269544e-05,-8.77463851072e-05,-0.000143143191242,0.00012334642683,-7.43707411673e-05,-7.81704441184e-05,4.49980357677e-05,-2.87959433478e-05,-7.16417639333e-05,-7.10544223852e-06,-8.00074535916e-05,-2.65067762298e-05,-1.02891969695e-06,-5.5077468949e-05,-3.84101920184e-05,-1.40554885514e-05,-8.14517672893e-05,-7.11634441867e-05,4.50720619576e-05,-8.00868023486e-05,2.12242131521e-07,-2.76685893021e-05,-9.94885154046e-05,-2.87974029966e-05,2.07427688822e-05,-9.26784466779e-05,-5.84431136061e-06,-9.02039148058e-06,-0.000111914252653,-1.51168305576e-06,5.8827861904e-06,-4.17320112189e-05,-6.07047228972e-05,-5.1064154031e-06,-7.23807549466e-07,-9.37146130798e-05,-1.310472889e-05,-2.35065842135e-05,-3.29345045723e-05,-5.11020607319e-05,-3.43081563895e-05,-7.61015629825e-06,-6.5624836831e-05,-4.46400912994e-05,1.18695388496e-05,-7.47725970687e-05,-6.32131713058e-05,-5.12515753124e-05,6.92159709934e-06,-3.6413633789e-05,-1.97126187098e-05,-5.14168970204e-05,-5.29096160129e-05,2.27119321634e-06,-5.69047267228e-05,-9.88131291682e-324,1.90925088301e-05,-0.000126635658349,-9.88131291682e-324,-3.13406515727e-05,-7.62024979457e-05,-7.89592604333e-05,2.31306597431e-05,-5.17145488286e-05,-6.46733373908e-05,-3.56926254133e-05,-7.17718671438e-06,-7.98515284636e-05,-3.03290368276e-05,2.6374157715e-06,-6.64345042984e-05,-5.77857675524e-05,1.66771223319e-05,-7.23580832448e-05,-4.05980661333e-05,5.41299985778e-06,-6.38262069342e-05,3.88311073697e-05,-8.25480499554e-05,9.88131291682e-324,2.31365106475e-05,-0.000130679660167,-9.88131291682e-324,-4.48466931562e-05,-6.26964563634e-05,4.1956728613e-05,-1.47090884788e-06,-0.000148028969285,-4.96818342814e-05,-2.66746571469e-05,-3.11866580908e-05,-5.63810701829e-05,-3.73681101285e-05,-1.37939692072e-05,-3.0727339644e-05,-9.1099779198e-05,1.42839693233e-05,-9.78796847312e-06,-4.96879555227e-05,-4.80672255227e-05,-7.99290106323e-05,-1.75424743691e-05,-1.00716645187e-05,-4.01002559903e-05,-3.91109415414e-05,-2.83319519877e-05,-0.000101041073496,-1.8063723987e-05,1.15616479644e-05,-0.000126582529931,-7.39226746128e-06,2.64316478738e-05,-8.17202447838e-05,-2.90550163331e-06,-2.29174031024e-05,-0.000142687310881,3.07383886252e-05,4.40577273695e-06,-0.000115528785367,1.4722673527e-05,-6.73703767815e-06,-7.64450189439e-05,2.0149931855e-05,-5.12480624298e-05,-0.000127849062365,2.78374875026e-05,-7.53157465725e-06,-0.000173509645449,2.09770080388e-05,4.49894878904e-05,-0.000131885242589,-3.06593906887e-06,2.74080321397e-05,-0.000120711092729,1.78330510059e-05,-4.6651077959e-06,-0.000144005826087,4.59692421832e-06,3.18657523487e-05,-0.00016484004228,3.6632927538e-05,2.0663965222e-05,-0.000176396469428,1.79194653397e-05,5.09338545693e-05,-0.000162369250979,2.8201211364e-05,2.66248900962e-05,-0.00015184962604,3.1988421609e-06,4.11076343613e-05,-0.000147799949411,9.08432714531e-06,3.11724727458e-05,-0.000158403734529,1.24572202905e-05,3.84033647202e-05,-0.000150509248179,4.22115023447e-06,3.87449484257e-05,-0.000143355664544,9.87201184022e-06,2.59405031837e-05,-0.000126863380762,-8.60343944761e-06,2.79236706904e-05
7.23988152146e-05,-0.000111048650674,-7.98146982682e-05,-7.70055927419e-05,-0.000117635078514,7.61761375284e-05,-6.24024908259e-05,-6.403800387e-05,7.97596096878e-06,-6.4831442781e-05,3.32143384194e-06,-5.69545247902e-05,-8.11611143323e-05,-8.36567815157e-06,-2.89377412435e-05,-0.00010538656017,-3.80675120782e-05,2.49895385212e-05,-0.000107850104847,-3.41453310887e-05,2.35309022088e-05,-0.000135768821343,-3.34424571442e-05,5.07467447591e-05,-7.24194663069e-05,-8.49309099632e-05,3.88858425429e-05,-9.69732771069e-05,-0.000158240275259,0.000136749018637,-8.20514423622e-05,-8.61537721842e-05,4.97406808186e-05,-3.1705449626e-05,-7.90319853746e-05,-7.72709872742e-06,-8.82511980648e-05,-2.92519542051e-05,-9.61381458058e-07,-6.07808166491e-05,-4.21976653435e-05,-1.54860517362e-05,-8.99901457667e-05,-7.84969921659e-05,5.00226042047e-05,-8.86721850714e-05,5.57950711546e-07,-3.0350299369e-05,-0.000110025068357,-3.15444535568e-05,2.31049881861e-05,-0.000102404573661,-6.20042194653e-06,-9.85953812055e-06,-0.000123635129189,-1.41475962848e-06,6.5853550882e-06,-4.60572596435e-05,-6.70807368308e-05,-5.3265372548e-06,-7.63587515127e-07,-0.000103593799956,-1.41071462564e-05,-2.59123026523e-05,-3.63316466772e-05,-5.62205843987e-05,-3.79017371787e-05,-7.99631896914e-06,-7.25664775806e-05,-4.95104510972e-05,1.34346984758e-05,-8.23887811075e-05,-6.97514401197e-05,-5.64429513674e-05,7.7298577605e-06,-4.02209556338e-05,-2.14670281758e-05,-5.67765499166e-05,-5.83908272341e-05,2.8978336947e-06,-6.29715401883e-05,9.88131291682e-324,2.14228719905e-05,-0.000139887405719,-9.88131291682e-324,-3.46323735316e-05,-8.38321601954e-05,-8.72980646968e-05,2.58592688412e-05,-5.70257378718e-05,-7.15463858608e-05,-3.91060475917e-05,-7.81210027559e-06,-8.85062959893e-05,-3.31917449138e-05,3.23350717506e-06,-7.36440201158e-05,-6.36540668666e-05,1.88335532538e-05,-8.01357132074e-05,-4.45954504541e-05,6.26662993449e-06,-7.05018277431e-05,4.31604056017e-05,-9.1123111587e-05,9.88131291682e-324,2.59517822607e-05,-0.000144416315989,-9.88131291682e-324,-4.93278332312e-05,-6.9136700497e-05,4.65645477952e-05,-1.47387944975e-06,-0.000163555202072,-5.51367462305e-05,-2.90414184969e-05,-3.42863690009e-05,-6.24541131809e-05,-4.11741445896e-05,-1.48362759569e-05,-3.41641433992e-05,-0.000100449303211,1.61489128825e-05,-1.0882364511e-05,-5.45665972237e-05,-5.30155719929e-05,-8.85869903211e-05,-1.90394092857e-05,-1.08381341212e-05,-4.45298786804e-05,-4.28980249287e-05,-3.10366301177e-05,-0.000112106238531,-1.94988558004e-05,1.31405606047e-05,-0.000140259413918,-7.77102188221e-06,2.95659020721e-05,-9.05376549395e-05,-3.01323040101e-06,-2.49136483882e-05,-0.000158054788766,3.43697040668e-05,5.22055097046e-06,-0.000128106829351,1.66167960942e-05,-6.97450047112e-06,-8.48758974499e-05,2.25580104333e-05,-5.61466467115e-05,-0.000141761973531,3.11474911826e-05,-7.85005138015e-06,-0.000192215440371,2.33831978644e-05,5.036770878e-05,-0.00014621076616,-3.16587479864e-06,3.09121072306e-05,-0.000133798595003,1.99292168994e-05,-4.59515562421e-06,-0.000159587697781,5.23841278454e-06,3.58847512687e-05,-0.000182580158118,4.07886274694e-05,2.33269969204e-05,-0.000195352257192,2.02549784838e-05,5.66327449805e-05,-0.000179727845255,3.15768803471e-05,2.96864311801e-05,-0.00016808631629,3.79245295116e-06,4.58293296108e-05,-0.00016358920769,1.02695375161e-05,3.48551364455e-05,-0.000175046465342,1.38756943724e-05,4.27062372409e-05,-0.000166440354763,4.75890085528e-06,4.32169201801e-05,-0.000158291259786,1.10012837743e-05,2.88254422838e-05,-0.000139943028676,-9.47723687703e-06,3.09557318254e-05
6.49722283753e-05,-0.000100181337243,-7.20090590921e-05,-6.96276207656e-05,-0.000106197170344,6.86066231511e-05,-5.64391007948e-05,-5.79205745233e-05,7.14150735919e-06,-5.86007806481e-05,2.75566244676e-06,-5.1373049757e-05,-7.32171932874e-05,-7.81638617539e-06,-2.61845884959e-05,-9.5086904345e-05,-3.45292913264e-05,2.23980277135e-05,-9.72177763038e-05,-3.10105053417e-05,2.10101136873e-05,-0.000122224766327,-3.03443372146e-05,4.53509355837e-05,-6.53815109535e-05,-7.67012451325e-05,3.48645881287e-05,-8.7472813173e-05,-0.000142695677454,0.000122950322669,-7.41425929788e-05,-7.79330325169e-05,4.48574575372e-05,-2.87093278601e-05,-7.14222100044e-05,-7.08663009301e-06,-7.97625246945e-05,-2.64252562517e-05,-1.03038701188e-06,-5.49080988578e-05,-3.82971430146e-05,-1.40129260858e-05,-8.11985193956e-05,-7.09455522806e-05,4.49259037178e-05,-7.98327276959e-05,2.02946875005e-07,-2.75883871374e-05,-9.91763215013e-05,-2.87151135885e-05,2.06732671318e-05,-9.23900067448e-05,-5.83297614157e-06,-8.99518507195e-06,-0.000111566587781,-1.51379865508e-06,5.86221847636e-06,-4.16035843798e-05,-6.05156510111e-05,-5.09893256686e-06,-7.22525942943e-07,-9.34217646403e-05,-1.30738773753e-05,-2.34350621785e-05,-3.28335824402e-05,-5.09495233397e-05,-3.42015663402e-05,-7.59748059992e-06,-6.54191210183e-05,-4.44962062448e-05,1.18240638934e-05,-7.45460256069e-05,-6.30189886198e-05,-5.10970538565e-05,6.89787451776e-06,-3.63006855379e-05,-1.96596486113e-05,-5.12578338086e-05,-5.27468472828e-05,2.25376268564e-06,-5.672508336e-05,-9.88131291682e-324,1.902436919e-05,-0.000126242537148,9.88131291682e-324,-3.12430356623e-05,-7.59751322962e-05,-7.87121168306e-05,2.30506340262e-05,-5.15566851544e-05,-6.4469762593e-05,-3.55904066912e-05,-7.15799867374e-06,-7.95956757011e-05,-3.02431885562e-05,2.620696299e-06,-6.62214003468e-05,-5.76111494219e-05,1.66143818105e-05,-7.2127966389e-05,-4.04787323565e-05,5.38853078674e-06,-6.3628171829e-05,3.87034742244e-05,-8.22934703534e-05,9.88131291682e-324,2.30541759359e-05,-0.000130272343895,9.88131291682e-324,-4.47131220517e-05,-6.2505045908e-05,4.18206714201e-05,-1.47036041916e-06,-0.00014756847896,-4.95207748598e-05,-2.66031787384e-05,-3.10942143608e-05,-5.62014255784e-05,-3.72548956103e-05,-1.37618467707e-05,-3.0626048931e-05,-9.08218729527e-05,1.42297539251e-05,-9.75571244883e-06,-4.95422678853e-05,-4.79201876239e-05,-7.96730552691e-05,-1.74970527687e-05,-1.00480599209e-05,-3.9969547336e-05,-3.89976805643e-05,-2.82509400587e-05,-0.000100714286408,-1.80197944614e-05,1.15159129098e-05,-0.000126178075853,-7.37985361118e-06,2.63397615072e-05,-8.14594654807e-05,-2.90171662104e-06,-2.28569858562e-05,-0.000142232725404,3.06318966052e-05,4.38266084136e-06,-0.000115157109125,1.46675364265e-05,-6.72859526013e-06,-7.61962058425e-05,2.0079388897e-05,-5.11013510134e-05,-0.000127437922894,2.77404787711e-05,-7.52072383474e-06,-0.000172956362604,2.09062557133e-05,4.48319389332e-05,-0.000131461834322,-3.06231421151e-06,2.73059805758e-05,-0.000120324204364,1.77715541083e-05,-4.66551770271e-06,-0.000143545109781,4.57837229707e-06,3.17485695247e-05,-0.000164315236123,3.65106090042e-05,2.05864591599e-05,-0.000175835616807,1.78515508965e-05,5.07658979528e-05,-0.000161855398195,2.81023382715e-05,2.65348919655e-05,-0.000151368988614,3.18200176379e-06,4.09688188914e-05,-0.000147332514741,9.04986590582e-06,3.10644808768e-05,-0.000157910219693,1.24154835227e-05,3.82765682114e-05,-0.00015003718514,4.20548454624e-06,3.86135326348e-05,-0.000142912400096,9.83880036036e-06,2.58554317763e-05,-0.000126474782715,-8.57743811813e-06,2.78340528759e-05
6.51154540678e-05,-0.000100391975379,-7.21603672368e-05,-6.97709575139e-05,-0.00010641902567,6.87530946348e-05,-5.65549854604e-05,-5.80394664387e-05,7.15756335007e-06,-5.8721786192e-05,2.76611895935e-06,-5.14812213171e-05,-7.33711642664e-05,-7.82760212793e-06,-2.62381221556e-05,-9.52865672678e-05,-3.45982695938e-05,2.24479483113e-05,-9.74236970197e-05,-3.10717035791e-05,2.10585120507e-05,-0.000122486743575,-3.0404754593e-05,4.54546096178e-05,-6.55180269352e-05,-7.68609341197e-05,3.49420725052e-05,-8.76569276061e-05,-0.000142996854397,0.000123216893454,-7.42961397958e-05,-7.8092815466e-05,4.49520667127e-05,-2.87676224654e-05,-7.15699729798e-05,-7.09929310461e-06,-7.99273655105e-05,-2.64801201556e-05,-1.02940288334e-06,-5.50220869498e-05,-3.83732299654e-05,-1.40415716341e-05,-8.1368956273e-05,-7.10921968273e-05,4.50242645512e-05,-8.00037174004e-05,2.09196558442e-07,-2.76423677077e-05,-9.93864272652e-05,-2.87704998305e-05,2.07200385466e-05,-9.25841277804e-05,-5.84060967132e-06,-9.01215109781e-06,-0.000111800567832,-1.5123796483e-06,5.87605893015e-06,-4.16900170626e-05,-6.06428969182e-05,-5.1039745683e-06,-7.23389116295e-07,-9.36188517907e-05,-1.30946476429e-05,-2.34831978732e-05,-3.29015044844e-05,-5.10521861926e-05,-3.42733019164e-05,-7.60601912535e-06,-6.55575675075e-05,-4.4593037883e-05,1.185466273e-05,-7.46985133969e-05,-6.31496760035e-05,-5.12010508779e-05,6.91383833163e-06,-3.63767003299e-05,-1.96953036097e-05,-5.13648846096e-05,-5.28563925484e-05,2.26548619885e-06,-5.68459821999e-05,9.88131291682e-324,1.90702212589e-05,-0.000126507109809,-9.88131291682e-324,-3.13087314697e-05,-7.61281570798e-05,-7.88784443272e-05,2.31044859438e-05,-5.16629301655e-05,-6.46067675079e-05,-3.56592064872e-05,-7.17091455446e-06,-7.97678603127e-05,-3.03009707434e-05,2.63194250669e-06,-6.6364815573e-05,-5.77286717119e-05,1.66565987349e-05,-7.22828323934e-05,-4.05590493558e-05,5.40499319998e-06,-6.37614505089e-05,3.8789366968e-05,-8.24648050095e-05,9.88131291682e-324,2.31095801665e-05,-0.000130546468716,-9.88131291682e-324,-4.48030201295e-05,-6.26338684201e-05,4.19122346019e-05,-1.47073241779e-06,-0.000147878390732,-4.96291638819e-05,-2.66512920946e-05,-3.11564325724e-05,-5.6322324094e-05,-3.73310915218e-05,-1.37834729326e-05,-3.0694213928e-05,-9.10089087898e-05,1.42662341689e-05,-9.77741960172e-06,-4.96403225036e-05,-4.80191464449e-05,-7.98453089815e-05,-1.75276281547e-05,-1.00639514139e-05,-4.00575105442e-05,-3.90739115838e-05,-2.8305466422e-05,-0.000100934206583,-1.80493678333e-05,1.15466858674e-05,-0.000126450267514,-7.38821564238e-06,2.64015946074e-05,-8.16349663217e-05,-2.90426767574e-06,-2.28976545524e-05,-0.000142538655634,3.07035585046e-05,4.39820857986e-06,-0.000115407239996,1.47046373316e-05,-6.73428588489e-06,-7.63636502116e-05,2.01268590319e-05,-5.12000973686e-05,-0.000127714611866,2.78057586777e-05,-7.52803536159e-06,-0.000173328714564,2.09538684304e-05,4.4937957584e-05,-0.00013174678044,-3.06475793106e-06,2.73746498214e-05,-0.000120584573699,1.78129375058e-05,-4.66525235689e-06,-0.000143855164643,4.5908548163e-06,3.18274212769e-05,-0.000164668424202,3.65929239439e-05,2.06386117083e-05,-0.000176213064239,1.78972490182e-05,5.08789266714e-05,-0.000162201216904,2.81688723754e-05,2.6595455978e-05,-0.000151692453628,3.19333057666e-06,4.10622345025e-05,-0.000147647094676,9.0730540868e-06,3.1137152039e-05,-0.000158242356533,1.24435704212e-05,3.8361897561e-05,-0.000150354882649,4.21602582434e-06,3.87019682756e-05,-0.000143210720638,9.86115003752e-06,2.5912682052e-05,-0.000126736314952,-8.59493765372e-06,2.78943640565e-05
3.91307471539e-11,-6.33241248e-11,-4.55377973092e-11,-4.4912653186e-11,-6.75426278001e-11,4.27241060311e-11,-3.65031153031e-11,-3.74473186959e-11,4.21925904362e-12,-3.76929980685e-11,3.79071269116e-13,-3.24172481562e-11,-4.62746287151e-11,-6.4690103479e-12,-1.69875358921e-11,-6.01840274577e-11,-2.28795354328e-11,1.33323879357e-11,-6.10019634301e-11,-2.07736860259e-11,1.20444745004e-11,-7.57939839644e-11,-2.01754989499e-11,2.62383079586e-11,-4.16132383139e-11,-4.89373614392e-11,2.08194247981e-11,-5.52554723738e-11,-8.98465314905e-11,7.53708289098e-11,-4.75603279504e-11,-5.04602275726e-11,2.82893805683e-11,-1.87626861601e-11,-4.58451989349e-11,-5.1232898599e-12,-5.12693800507e-11,-1.691077362e-11,-1.55102128448e-12,-3.51355998801e-11,-2.55056674978e-11,-9.08990757732e-12,-5.14104504782e-11,-4.55787533338e-11,2.72580288571e-11,-4.95463873171e-11,-1.58654362156e-12,-1.85982440165e-11,-6.2226197731e-11,-1.96075037361e-11,1.21025265121e-11,-5.84469079649e-11,-5.02803507884e-12,-6.25623191095e-12,-7.07103188287e-11,-2.30796434988e-12,3.28710822383e-12,-2.66153832212e-11,-3.82564000012e-11,-4.85939173284e-12,-6.59276391391e-13,-5.88641740135e-11,-1.02077245508e-11,-1.51563979091e-11,-2.10836335616e-11,-3.34911434845e-11,-2.16774484069e-11,-6.98717043168e-12,-4.1066556117e-11,-2.71691733204e-11,5.7782870972e-12,-4.83402887321e-11,-4.03746837484e-11,-3.32952420764e-11,3.93875086915e-12,-2.30473853745e-11,-1.40822441423e-11,-3.26015454384e-11,-3.37353150206e-11,-6.24780108485e-13,-3.53710798255e-11,-9.88131291682e-324,1.03086359702e-11,-8.00398109256e-11,-9.88131291682e-324,-1.97435586558e-11,-4.99876162996e-11,-4.95132803478e-11,1.29914622721e-11,-3.32093568797e-11,-4.03281113835e-11,-2.42647472667e-11,-5.13831630488e-12,-4.89003088236e-11,-2.0822263321e-11,-8.6028107054e-15,-4.06332334628e-11,-3.74713788514e-11,8.37343735944e-12,-4.46409104089e-11,-2.69871188062e-11,1.89685426023e-12,-4.0382548696e-11,2.31465311786e-11,-5.24951574381e-11,9.88131291682e-324,1.25501467439e-11,-8.22813216981e-11,-9.88131291682e-324,-2.94593740057e-11,-4.02718009497e-11,2.53459754257e-11,-1.70879434151e-12,-9.33683560396e-11,-3.00484363746e-11,-1.91050137387e-11,-2.05777248413e-11,-3.47200732935e-11,-2.41806336885e-11,-1.08304679722e-11,-1.82587106066e-11,-5.85515373019e-11,7.07907295278e-12,-5.81739371963e-12,-3.30979653726e-11,-3.08158158633e-11,-4.8989551529e-11,-1.28732825599e-11,-7.86834086586e-12,-2.41171186854e-11,-2.63309589996e-11,-1.92830972699e-11,-6.12638731056e-11,-1.38292354051e-11,5.36193355588e-12,-7.7716790067e-11,-6.76055217228e-12,1.47461672847e-11,-5.02487791814e-11,-2.86807922058e-12,-1.66143165536e-11,-8.78783150951e-11,1.72263096669e-11,9.20830472518e-13,-7.04394249036e-11,7.43303570532e-12,-6.72478575705e-12,-4.6050767827e-11,1.11523805442e-11,-3.48327876725e-11,-7.79857822924e-11,1.54952962729e-11,-7.24068893603e-12,-1.06760232113e-10,1.21400983674e-11,2.48889587899e-11,-8.05898931958e-11,-3.10389039918e-12,1.39626086397e-11,-7.38871424951e-11,1.00563178185e-11,-5.90035027926e-12,-8.83103446028e-11,2.05597178252e-12,1.65231978656e-11,-1.01597001772e-10,2.14518450146e-11,1.04139818029e-11,-1.08864138883e-10,8.88442957545e-12,3.02485343532e-11,-1.00690214046e-10,1.55820353236e-11,1.53770037671e-11,-9.41453303784e-11,6.46963472025e-13,2.3767191952e-11,-9.17109758451e-11,4.49881905062e-12,1.74809818389e-11,-9.97733500446e-11,7.26657301097e-12,2.27756020776e-11,-9.41771440591e-11,2.16114259488e-12,2.228482651e-11,-9.09673238188e-11,5.7346341452e-12,1.55015147182e-11,-8.12253546736e-11,-5.57688270362e-12,1.70710624222e-11
7.35890888394e-05,-0.000112780080532,-8.10581919597e-05,-7.8177855458e-05,-0.000119455881227,7.73845530328e-05,-6.33497074181e-05,-6.50095417065e-05,8.11006547186e-06,-6.58218196361e-05,3.41654467287e-06,-5.784390869e-05,-8.2426814614e-05,-8.44764559768e-06,-2.93747234402e-05,-0.000107027281305,-3.86273555642e-05,2.54054532177e-05,-0.000109545680001,-3.46405280804e-05,2.39370244284e-05,-0.000137932018002,-3.39324844862e-05,5.16153188352e-05,-7.35398015878e-05,-8.62403817064e-05,3.95309996422e-05,-9.84872409076e-05,-0.000160718072067,0.00013895612932,-8.33090663312e-05,-8.74592253521e-05,5.05191080302e-05,-3.21806497155e-05,-8.0241825691e-05,-7.82670824707e-06,-8.9600663603e-05,-2.97015886824e-05,-9.46931366545e-07,-6.17149371478e-05,-4.2814393784e-05,-1.5719852721e-05,-9.1390563785e-05,-7.96974190806e-05,5.08387992122e-05,-9.00838727908e-05,6.20660720783e-07,-3.07859715831e-05,-0.000111755221771,-3.198991337e-05,2.34959514877e-05,-0.000104000032152,-6.25397256611e-06,-9.99517893344e-06,-0.000125557377498,-1.39410144498e-06,6.70229529208e-06,-4.67657894056e-05,-6.8126751213e-05,-5.35664303349e-06,-7.69478396159e-07,-0.00010521518472,-1.42645205352e-05,-2.63058225318e-05,-3.68878054618e-05,-5.70555556582e-05,-3.84911107372e-05,-8.05199141023e-06,-7.37060815054e-05,-5.03128348135e-05,1.36973455577e-05,-8.3633694396e-05,-7.08221967069e-05,-5.72909856574e-05,7.86399871156e-06,-4.08452705408e-05,-2.17489107226e-05,-5.76550023888e-05,-5.92885925258e-05,3.00786007469e-06,-6.39684512015e-05,-9.88131291682e-324,2.18112254504e-05,-0.000142060409104,9.88131291682e-324,-3.51723642648e-05,-8.50768193874e-05,-8.86669106579e-05,2.63124756784e-05,-5.78947486732e-05,-7.26754195901e-05,-3.96597710426e-05,-7.9139930205e-06,-8.99311190481e-05,-3.36553724978e-05,3.33730789329e-06,-7.48310637488e-05,-6.46130100653e-05,1.91948901615e-05,-8.14149110797e-05,-4.52462377545e-05,6.41196518245e-06,-7.15965042262e-05,4.38753292882e-05,-9.25280087155e-05,-9.88131291682e-324,2.6420847131e-05,-0.000146670030784,-9.88131291682e-324,-5.00586558751e-05,-7.01905277772e-05,4.73241159456e-05,-1.4714707411e-06,-0.000166101828856,-5.60360272818e-05,-2.94215683776e-05,-3.47915879943e-05,-6.3453198551e-05,-4.17963362136e-05,-1.49996488885e-05,-3.4731875155e-05,-0.000101978995374,1.64616868779e-05,-1.10631392223e-05,-5.53605676896e-05,-5.38254767411e-05,-9.0012300153e-05,-1.92785099406e-05,-1.09583735587e-05,-4.52606279147e-05,-4.35132843168e-05,-3.14752714209e-05,-0.000113929897525,-1.97256854355e-05,1.34063993068e-05,-0.000142510149786,-7.82574032701e-06,3.00867064602e-05,-9.19885073938e-05,-3.02719665337e-06,-2.5233479605e-05,-0.000160582882448,3.49728951567e-05,5.360803638e-06,-0.00013017851435,1.69339977814e-05,-7.00466708457e-06,-8.62665051284e-05,2.29584940065e-05,-5.69411725311e-05,-0.000144053404347,3.16976924684e-05,-7.89347177333e-06,-0.000195293052729,2.37817054301e-05,5.12621636474e-05,-0.000148569678978,-3.17811949434e-06,3.14986148198e-05,-0.000135953200301,2.02772547352e-05,-4.57323808732e-06,-0.000162152386854,5.34660293748e-06,3.65566002637e-05,-0.000185498351318,4.14761149617e-05,2.37730527028e-05,-0.000198469900995,2.06465443611e-05,5.75741729819e-05,-0.000182581190857,3.21383749612e-05,3.01936322439e-05,-0.000170755272769,3.89461697743e-06,4.66114721383e-05,-0.000166184352013,1.04682692767e-05,3.54668990835e-05,-0.000177776786887,1.4110446703e-05,4.34171565316e-05,-0.000169056124042,4.84888138283e-06,4.39580590058e-05,-0.000160739185022,1.11882752496e-05,2.9301726119e-05,-0.000142084160112,-9.62002128253e-06,3.14549977415e-05
6.42755928707e-05,-9.91562170255e-05,-7.12726748452e-05,-6.8929851943e-05,-0.000105117370489,6.78939234321e-05,-5.58749527312e-05,-5.73417794478e-05,7.06343317939e-06,-5.80117443413e-05,2.7050600756e-06,-5.08466147336e-05,-7.24678592818e-05,-7.76148082775e-06,-2.5923958889e-05,-9.41151820288e-05,-3.41933685821e-05,2.21552516122e-05,-9.6215706261e-05,-3.07124239133e-05,2.07748311746e-05,-0.000120950098064,-3.00500949605e-05,4.48468940247e-05,-6.47170665796e-05,-7.59239823385e-05,3.44877499177e-05,-8.65767934022e-05,-0.000141229996468,0.000121653490871,-7.33951792406e-05,-7.71551619064e-05,4.43970421474e-05,-2.84254984616e-05,-7.07029377542e-05,-7.0248627828e-06,-7.89601147621e-05,-2.61582059595e-05,-1.03497827902e-06,-5.43532595059e-05,-3.79265754882e-05,-1.38734640046e-05,-8.03690305224e-05,-7.0231716188e-05,4.44474477101e-05,-7.90007589145e-05,1.72886746807e-07,-2.73254268317e-05,-9.81538892688e-05,-2.844525629e-05,2.04458465585e-05,-9.14452642495e-05,-5.7955383927e-06,-8.91249635658e-06,-0.000110427835133,-1.52042280678e-06,5.79495894217e-06,-4.11828780487e-05,-5.98963805128e-05,-5.07404043827e-06,-7.18286983747e-07,-9.24626353379e-05,-1.2972376677e-05,-2.32007306669e-05,-3.25029561705e-05,-5.04496121614e-05,-3.38524389411e-05,-7.55547103644e-06,-6.47453890226e-05,-4.40251536711e-05,1.16754964733e-05,-7.38036418019e-05,-6.23828581569e-05,-5.05907148058e-05,6.82027396349e-06,-3.59307248644e-05,-1.94857747811e-05,-5.07367993542e-05,-5.22136353126e-05,2.19713536104e-06,-5.61367990475e-05,9.88131291682e-324,1.88015779892e-05,-0.00012495487699,9.88131291682e-324,-3.09233109559e-05,-7.5229988043e-05,-7.79026962671e-05,2.27888813142e-05,-5.10394840469e-05,-6.38030854414e-05,-3.52552064587e-05,-7.09500709955e-06,-7.87579954204e-05,-2.99616226429e-05,2.56631906381e-06,-6.5523692574e-05,-5.70389777308e-05,1.64093713054e-05,-7.1374469361e-05,-4.00875560547e-05,5.30872641725e-06,-6.29795119843e-05,3.82857351443e-05,-8.14595221602e-05,9.88131291682e-324,2.27849651936e-05,-0.000128938264193,-9.88131291682e-324,-4.42753575014e-05,-6.18779414971e-05,4.13752754289e-05,-1.46837950901e-06,-0.000146060194919,-4.89935351914e-05,-2.63685434395e-05,-3.07912203689e-05,-5.56132108973e-05,-3.68839405363e-05,-1.36561475668e-05,-3.02945401479e-05,-8.99113770587e-05,1.40526182068e-05,-9.65014286984e-06,-4.90646854309e-05,-4.74384706999e-05,-7.88350356368e-05,-1.73478677992e-05,-9.97039556397e-06,-3.95416946897e-05,-3.86263290373e-05,-2.79852752723e-05,-9.96444922201e-05,-1.78753592504e-05,1.13665524709e-05,-0.000124853809542,-7.33871883397e-06,2.60392293762e-05,-8.06056077333e-05,-2.8890822329e-06,-2.26586090332e-05,-0.000140744262986,3.02835801553e-05,4.30738383141e-06,-0.000113940277942,1.44873594521e-05,-6.70038051066e-06,-7.53817436371e-05,1.984868633e-05,-5.06202416922e-05,-0.000126091885573,2.74232048747e-05,-7.48461830055e-06,-0.000171144754112,2.06747607621e-05,4.43166943499e-05,-0.000130075599367,-3.05017574001e-06,2.69724761072e-05,-0.000119057506547,1.75703984978e-05,-4.66619095013e-06,-0.000142036658069,4.51779813163e-06,3.13655609382e-05,-0.000162596833587,3.61103442113e-05,2.03331903773e-05,-0.000173999151843,1.76296494451e-05,5.02162033985e-05,-0.0001601727265,2.77789912647e-05,2.62404362365e-05,-0.000149795086512,3.12715083421e-06,4.0514636679e-05,-0.000145801829626,8.93726978387e-06,3.07112608432e-05,-0.000156293803342,1.227891354e-05,3.78615908024e-05,-0.00014849117081,4.15428726548e-06,3.81835845448e-05,-0.00014146041981,9.73013296207e-06,2.55769878481e-05,-0.00012520170389,-8.49223934436e-06,2.75406442348e-05
3.65284870239e-05,-5.74953989423e-05,-4.13367209609e-05,-4.03125529954e-05,-6.11118065428e-05,3.91207266587e-05,-3.27129785839e-05,-3.3571546736e-05,3.98089244023e-06,-3.38861349435e-05,1.04649399545e-06,-2.94639919316e-05,-4.20176168502e-05,-5.08526506499e-06,-1.5200750964e-05,-5.46024275374e-05,-2.02316051102e-05,1.25303997677e-05,-5.56197698218e-05,-1.82570757452e-05,1.15732126878e-05,-6.95728050718e-05,-1.78043135117e-05,2.50734857044e-05,-3.76339100816e-05,-4.42000420841e-05,1.95303192862e-05,-5.01829066369e-05,-8.17605703537e-05,6.96398441111e-05,-4.2822054634e-05,-4.51958448292e-05,2.57142665837e-05,-1.6715912215e-05,-4.1265683415e-05,-4.32203724981e-06,-4.61080266744e-05,-1.52463900597e-05,-9.49216145256e-07,-3.16803151209e-05,-2.24884791743e-05,-8.13483858441e-06,-4.66341622667e-05,-4.10056253333e-05,2.53361547206e-05,-4.545735595e-05,-5.53876775066e-07,-1.62924001544e-05,-5.67370991735e-05,-1.70522594657e-05,1.148572576e-05,-5.30407478653e-05,-3.876848969e-06,-5.38603604514e-06,-6.41005816836e-05,-1.39784971721e-06,3.19479852128e-06,-2.39986705288e-05,-3.47309610198e-05,-3.57400133047e-06,-4.91770050677e-07,-5.35410673773e-05,-8.27079545131e-06,-1.35820862702e-05,-1.89720245226e-05,-2.97495220867e-05,-1.9650125228e-05,-5.21550833046e-06,-3.7437999321e-05,-2.51611812509e-05,6.12443818547e-06,-4.32668898138e-05,-3.63773671005e-05,-2.97184741259e-05,3.79220834654e-06,-2.08709036705e-05,-1.19339420556e-05,-2.94987871532e-05,-3.04275581313e-05,4.90649637259e-07,-3.2366724385e-05,-9.88131291682e-324,1.02458580141e-05,-7.2549490894e-05,-9.88131291682e-324,-1.79295236957e-05,-4.43741091844e-05,-4.50790636836e-05,1.26102661668e-05,-2.98348353625e-05,-3.68335829746e-05,-2.11188163398e-05,-4.35123356512e-06,-4.51267468407e-05,-1.80246831593e-05,8.47797120509e-07,-3.75250586453e-05,-3.34780989983e-05,8.69952476411e-06,-4.10245288585e-05,-2.37812055413e-05,2.50210151998e-06,-3.6577597374e-05,2.1694645268e-05,-4.74206807738e-05,-9.88131291682e-324,1.24363947163e-05,-7.47400275958e-05,-9.88131291682e-324,-2.61324907235e-05,-3.61711421561e-05,2.3580084077e-05,-1.15325778955e-06,-8.47304591674e-05,-2.79297739581e-05,-1.61659899463e-05,-1.82078689754e-05,-3.19401863759e-05,-2.1627406131e-05,-8.73604037294e-06,-1.7144229778e-05,-5.25735746022e-05,7.41417150054e-06,-5.46175190689e-06,-2.91336420003e-05,-2.77082389718e-05,-4.51841121868e-05,-1.07543129195e-05,-6.36520777347e-06,-2.24885586472e-05,-2.30420502732e-05,-1.67730239594e-05,-5.6862654501e-05,-1.12973947861e-05,5.85641640741e-06,-7.16199488438e-05,-5.05717368292e-06,1.43734896462e-05,-4.6264550273e-05,-2.07205576917e-06,-1.39670268369e-05,-8.08373182344e-05,1.67448536184e-05,1.78883173704e-06,-6.51696088257e-05,7.69801900818e-06,-4.83204306117e-06,-4.28999635098e-05,1.09204270496e-05,-3.03240964193e-05,-7.21330240836e-05,1.51215392145e-05,-5.29214801097e-06,-9.82598731695e-05,1.1577848138e-05,2.43783921519e-05,-7.44659287839e-05,-2.21602632429e-06,1.43783222293e-05,-6.82066571139e-05,9.73785444874e-06,-3.83483021438e-06,-8.1434079819e-05,2.29929765679e-06,1.68311492836e-05,-9.34161590684e-05,2.0316437224e-05,1.07960889652e-05,-0.000100022928924,9.30615979833e-06,2.84131362455e-05,-9.22575479409e-05,1.52729484872e-05,1.46809665748e-05,-8.62733323357e-05,1.29245464393e-06,2.26772448118e-05,-8.40025402302e-05,4.7154921045e-06,1.69834152467e-05,-9.06119284357e-05,6.89762155371e-06,2.14106740021e-05,-8.58505662615e-05,2.21852574244e-06,2.13284076401e-05,-8.22675525208e-05,5.45606956882e-06,1.45078500727e-05,-7.30888695459e-05,-4.98390109396e-06,1.576913776e-05
