0.342250603386,-0.113866952408,0.119389559976,0.228124408258,-1.94048036975,2.3785322878,-0.126689596612,1.64353712775,-1.10611689363,-0.58651825202,-0.36450588318,-0.366465694063,-0.140372008757,-0.181156649562,-2.02468087276,0.676377742482,0.328435791326,2.53727206972,1.5050778977,1.62529824382,0.657148184234,-0.444106271442,0.789829216457,-0.0534191182979,0.725698934879,0.438786392877,1.35137527524,0.698139961849,0.779547430932,-1.18332190664,0.211298431093,0.608880658623,0.215059175241,0.352409815547,0.160052145793,1.90602293886,1.11886148711,0.991359195437,-0.949942780248,-0.547800045553,0.186226649825,1.35696116119,1.06240308696,0.808163735697,0.725147370565,-1.6769513208,-0.642374075641,0.0460759722856,0.415105533109,0.78489239608,-0.926334745325,-1.66512440875,-0.825785678989,0.730793641763,-1.06596978366,0.752335979554,-0.622757870361,-1.36173521958,-0.0812662486107,-0.246588563517,-0.0445174207223,-0.18562878784,-1.56561698144,-0.311394903984,-0.493273698478,-0.109805697902,-0.0971313001368,-0.59079009909,-0.558673741292,-0.891413408607,0.978272072571,-0.371233575742,-1.56327499414,0.290692962092,0.849634453133,-0.328501046285,0.31672999472,-0.56723006261,0.72843314903,0.239796254795,1.41526393556,-1.28628184177,-0.328048177635,-0.602972221316,-0.313526132126,1.1252361969,-1.70254997987,-0.990000534199,0.122842243967,-0.348706273876,0.687571549593,-0.241655377385,1.49216406336,0.665407896738,0.585026203789,-2.97246824974,0.198485225568,0.582712799814,-0.730646994373,0.354101416952,-0.978855395871,1.49023909055,1.55493104583,0.333453972425,0.279442836098,-0.607684956963,2.13727754407,-0.761892988695,-2.31454476401,-0.886499213432,0.0799978232796,0.315436726141,1.15759322578,-0.0699333725981,1.36855376452,0.078778679791,0.668255852028,-1.50166785499,-0.13231287304,0.356548307496,-0.546559955985,-0.873174760268,-0.582673716478,0.871767825648,-0.296543733613,0.142557182032,1.1087419161,0.65217452636,-0.768286566683,-0.0220301640473,2.62161082454,0.17351675369,-1.0158122119,-1.23669835026,2.07316736322,-1.60562734945,0.508800178467,1.75438315602,-1.6623093064,0.601709384126,-1.53794488094,-0.272948105776,0.743489596618,0.0395323922525,0.648588209674,0.462590457293,-0.45792576038,-2.24050391785,-0.493880768281,0.246839602823,0.0659903847825,0.323296891703,1.75191997896,0.566478032517,-0.634067428862,-0.562130886938,1.61873876479,1.61646534187,-0.913194775625,1.28901966648,-0.0566872720333,1.11873334888,1.01595109649,-0.694804135124,-2.41427316709,1.32280607437,-1.31325859618,-2.05112102431,-0.490497821644,0.345915313525,-1.11953829604,0.596637912112,0.47971365208,-0.401004275072,1.20366378063,1.13010680434,0.646968598341,-0.187741160987,-1.0261443888,0.0895149494662,-0.894948975097,-0.940568993392,1.12173365867,-0.229581024828,0.366499865646,-0.540095818599,-0.176325244819,1.63815999257,0.114295964038,-1.54770576352,-1.32617136672,-0.0925025190748
0.336423202763,-1.36867333049,0.0594125225891,-1.23212619444,-0.4762391711,0.223027567734,-0.54584373277,0.300804326082,-0.299559793097,0.215555422807,0.728558813544,0.451346297328,-0.591693063607,0.137819846683,-0.375988686235,-0.206276167303,0.311402998,0.985928245068,0.740839815346,0.068602831559,-0.612753452259,-0.091384110934,0.279048153869,0.786285310665,1.03368509742,-0.22414200132,0.286913508352,0.83020173167,-1.46520277735,1.2515005727,0.424219459207,-0.34604057299,0.793713734537,0.575373112968,0.453616142911,1.07285720984,-0.687319038507,0.759383591842,0.818186414687,0.799953626327,0.277285841474,0.353493834078,0.827937929492,1.52533350778,1.8986774794,-0.772977833615,-0.471385030897,1.01794151844,0.228032507188,1.4365400479,-0.132836382262,-1.4861867476,1.43978459809,0.145427405849,-0.462484984828,-0.462337214049,-0.283986294589,1.84663241264,1.18555244485,0.0264431630798,1.11571761661,-0.620457365688,1.47361498824,-1.22966691094,1.6713860582,-0.324316366239,1.48234379883,1.63279314417,1.1915463804,-1.69455790489,-0.729275070217,-1.46112068158,0.035910501057,0.913094511501,0.467404608994,0.483004846558,0.946477615719,-0.0127638677875,0.874909928529,0.550054776466,0.157390725611,2.08542079407,-1.23005985131,0.779496821252,-1.97130642077,-1.76377760533,0.681495376419,0.26943050877,0.628152898102,0.826347482303,-0.959952540946,0.44826865065,-1.62303280545,-1.38246474431,1.17538236145,0.942220505231,-0.982087037561,0.0624768783335,0.759644688357,0.33371263009,-3.06269852631,-0.177543844493,-1.01523699806,-0.390618532875,0.475143121586,0.908864407277,0.862974498932,-0.532337931189,0.27485325274,-0.866640516351,0.266546667757,0.00484470826653,-1.80754336561,1.05934213507,2.07876798191,-2.00971140323,0.0847807919211,0.350926771005,-1.66936779068,-0.0601271051243,1.19791872884,0.822535460656,-2.0505757051,0.228813181396,-0.217344127615,1.50415645572,-0.0161044428001,-0.606130300305,-0.660786630333,-0.479262227858,-0.40077999157,-0.367924355283,0.821468753068,-1.42226467365,-0.897483393479,-0.24531143207,0.345257511785,0.891523280591,-0.838699119609,0.350703148958,-0.241886689166,-0.201376812388,-0.232077417905,-0.0981010990503,-0.736153596626,-2.17073419395,1.31911711261,0.00296531021538,2.17695872285,-1.22134678884,0.174831456707,-0.336573124926,-1.04582990032,-0.804506021221,1.62758669328,-0.532213008122,1.08209303338,0.570533191005,0.631047974142,-0.307438693466,0.806854055107,0.234920895887,-0.100380483332,-0.205950694628,0.199650246282,-1.73635063906,-0.238342902751,-2.72189327545,-0.656530402362,0.177631642074,-0.668502802545,1.64701921408,0.972781849914,0.231399738601,1.20820161549,0.33798644677,-1.11517806694,-0.223681882935,0.577692595595,-1.08352810647,1.6425583905,-0.159606661618,0.738273511063,1.29166192851,0.682105326219,1.20618389117,-1.30562734738,-0.617341129591,0.127133970921,0.818906409294,1.13328834295,-0.442574138042
-2.86409181766,0.418828949387,1.29235079057,-0.13711374786,-0.0966530789062,-0.244108857908,0.212226087495,-0.354323739674,-0.436640025364,0.488216589437,0.661642102409,0.753134700159,-1.20626168732,-0.132559211713,-0.491008507275,-0.537872972437,0.378186493958,-0.359536865472,-0.325866997285,-0.808008068306,0.823925861067,-0.779171956081,0.828669863684,0.777792982309,0.671952373264,1.35400215841,-0.437204154947,-1.62059532864,-0.508117450471,-0.231687712205,0.515200626937,-1.09533420527,-1.80378634407,1.19018126256,0.630805324394,-2.3558917306,-0.136219579354,-0.137407710384,0.383454158578,0.263729970004,0.778776336165,1.60610912559,0.20830447842,-0.575434123239,-0.72511883596,0.869243809504,2.18645300684,0.172981340148,-0.781083682464,0.0381093768775,0.556435134578,0.818163701229,1.88789798187,-0.25549543103,-1.35821579394,-0.481101366116,0.231558219814,-0.173439196766,-0.281516900916,1.37949999749,0.566562670264,1.0018547931,0.329991581508,-2.41452560809,-1.27141884832,0.262556630983,-1.40731594647,-1.97711045061,-1.69866164482,-0.327879104776,-0.59277696773,-0.102063084962,-0.107810250487,1.49010058368,-0.986909966491,-0.248078742599,-1.43927044131,-0.365735145737,-0.532455562417,-0.368466940491,0.901809369784,0.579641239863,0.783192196744,0.208847219536,1.29421959684,0.411511596699,-0.181784510505,-0.433253186667,0.470742792667,0.713244106537,-0.469912489971,1.45603376173,-0.924086106617,-1.3764484119,-0.589539722073,0.477528699563,1.65655946337,0.35076640879,-1.50702670344,0.0445629361407,2.34516259647,-0.615190345084,-0.354002457608,0.322991535939,-0.743840508773,1.47377710143,0.512089768982,0.208997728534,-0.988225501085,1.39768113326,-0.131964938987,0.067342399158,-0.569497348794,-1.9615455943,0.635562777241,-1.70198537657,-1.65681018163,0.133773011988,1.22240698744,1.15466725319,1.18799526126,0.0158495745488,-0.228802727543,0.396758959731,-0.0906833582222,-0.799996735234,-1.34204948544,-0.815315377269,0.798729249311,-0.205886561452,-0.305676654506,-0.433949162358,1.05881044033,0.306827954869,0.0934119944596,-2.60450930051,-2.0956395584,1.81014542005,1.34856720374,-0.493216994964,0.436047743358,-0.211667309001,1.19101386604,-1.36738377138,0.987695377911,-0.953878616955,-0.261314320449,-1.5699229376,0.114594201879,0.28817488818,-0.062939693572,-1.61533199163,-0.723937970764,-0.306231870917,2.24388556701,-0.771445108583,0.471166351864,-1.29256193955,-0.189543830196,0.107545794137,-0.724694807727,0.171503825772,-1.4283030716,-0.189721469417,-0.0891835706088,0.0943530655558,-0.221588373233,0.0391591030691,-0.189482137531,0.237127137721,2.21621724664,0.104279400074,1.29213143745,-1.15122269681,-0.205988451148,1.89061009017,-0.352514012501,0.770540775868,-0.20704106771,-0.207085950073,-0.858991806024,0.17488809505,0.608477176918,0.0835167804817,-1.75848678568,2.17290677835,-2.3892060488,0.0855905110343,0.301207595915,1.88211223108,-0.754622720921,-1.20466194972
-0.636671531975,0.371479907936,1.7156306418,-0.610372882553,-0.806905018488,-1.04451085816,-0.189427298779,-0.71100380633,0.749124997903,0.264147315604,-1.8153205288,-1.38336898974,-0.958456614017,0.287998120491,-0.208632661391,1.04284263995,-0.0549554339161,0.320405618312,0.291310960311,0.533296475304,-1.4397169192,0.712173285329,-1.62905699243,-0.490729777251,0.619430901535,1.75706038045,0.525876381662,-0.807783733347,-0.845285778688,0.456523292598,0.0271307163783,0.37363193781,-2.74686030607,0.0847706640048,0.204992802854,-0.450801854211,-0.556346983893,1.486002362,-1.05230615723,0.347807331013,0.0802715556625,0.280627313611,-2.1510164185,0.621115756653,-0.794141801813,0.998497384389,0.363147401134,1.12306388518,1.03670174802,0.962860754408,1.05383818217,-1.7830109855,-0.469695854371,-0.813151614086,0.0477317669808,0.00527417721587,-0.185374786982,-0.265613851681,0.564407730686,-0.566222061434,-0.598574288117,-1.58559743631,-0.383686482574,2.33230126915,-1.00417328999,-0.262839507265,-0.0915901716499,0.821215502239,0.599785620518,0.20022791711,1.12371805262,1.38636361213,1.84837046869,-0.172923844424,0.600108530018,2.16012707428,0.881341167664,-2.20582026319,-0.651927860578,-2.12695525501,-1.30905996878,-0.0108310789506,-0.748311150785,0.617370095336,0.19620752304,1.20035712582,-0.161515465207,-0.820903463584,-0.814605481188,1.01774041654,0.573907363014,-1.94431123656,0.697552805095,-0.00283513810636,-1.92925808934,1.93691332385,0.173175281973,-0.0538949135431,-0.786078629896,0.183687614401,-0.206365394779,0.482026220213,-1.9346239837,-1.91691879744,0.63155865329,-0.0203447230809,0.894960965275,-0.641035528829,0.885315183665,-0.310037078245,-1.51296395827,0.631702683825,0.323791581797,0.278796811891,1.81758249752,0.417988909955,-0.115957808953,2.49813729998,-1.13707417522,-0.895218758123,-1.28601336486,-0.308224638495,0.215377192287,-1.68299692494,0.431685880307,-0.314984903477,-1.10790218893,0.265444291818,0.0570139466253,2.08605446689,-0.155812174687,-0.595861775888,0.44230116002,1.24673617831,-0.433070936085,-1.1479764888,0.04790853889,0.850621581692,1.52865134777,-0.499740404422,-1.45236982215,0.0684446849472,1.27290906709,-1.17384576777,0.26398631834,0.0874515709546,-0.279064824198,0.156389718758,0.534406445229,-0.242931648055,1.09920700571,-0.124108236381,-0.359144673905,0.79168278918,-0.863801056032,0.177397018122,0.385158250644,1.82189047724,0.52452805253,1.80750102393,-0.386038443551,1.27713623385,0.249207235889,-0.646810010232,-1.14884259194,-0.203191247458,-1.20797083201,1.15786561489,1.60206014366,-1.43554852568,-0.0228158441235,-1.08846938691,0.068192631561,-0.449935661837,-0.759095656567,-0.889040736357,-0.763685281033,0.693397237554,-0.591461189431,0.154547919811,-0.411072717943,0.0442511569614,-1.27163013495,-0.0249217118741,1.04368180374,-0.0363952286485,-0.0642561162863,2.27294553223,1.52641124314,-0.764847546868,-0.229438172631,-0.467575317398
0.601358259567,-1.33641823295,-1.60677248989,0.123831542163,-0.750823257583,-0.209180933874,-1.24810154278,-0.310441249465,0.933334733909,0.553116881019,0.0520110694134,-0.578751720269,-1.0618029933,0.306528405627,0.741406964434,-0.574387879425,-0.16652164787,-0.0278767926722,-0.203866845036,1.15521886499,0.313312398286,-1.76711812238,0.468807300849,0.816025417514,1.21692693357,1.43679170001,-1.18219337402,0.337033294458,1.69563816816,0.123858017264,0.47043778099,0.334954753317,-1.28975551138,0.657157237803,1.41349481622,-0.595262326632,0.478915757115,-1.01941283544,-1.60458189856,0.035135733565,0.151092175665,-0.614010806296,-0.668577103888,0.854005579128,-1.64772615922,-0.673073711224,-1.13013636105,-3.4782520839,-0.455977519028,-1.06777383812,1.61278303772,1.11664892911,0.0206853863233,-0.513901542106,-2.21946700127,-0.325731626676,0.762233175902,-1.37704816543,-0.871616797946,-1.35700773428,-0.369533370331,-1.71112473393,-1.81256650042,0.215397230474,-0.396710447559,-0.129692764305,1.72479023568,-0.700021670081,0.965641760212,-0.00642447046913,-0.278876451568,-0.438351921564,1.68225509251,0.635568446527,0.654715816537,1.68482913918,1.39411956161,0.325904122044,-0.146391308748,1.32579275715,-0.475281626488,-0.955506974408,-0.542401238497,0.130962767317,-1.21081311386,-2.15438833301,0.855292481261,-0.909403031121,-0.385491775376,0.173212598917,-0.557806247474,-0.64058926339,0.660702373265,0.496285440885,1.65930036314,0.019242921672,0.0409637496948,1.49049524832,0.427748518769,-0.961450871833,-1.14034064055,-2.38756074212,-1.36306942382,0.841139459043,0.248032970363,0.383634074809,0.287388751805,0.0965204263184,0.144703263067,0.739704271029,-2.2265493577,-0.478042853747,-2.74173391533,0.226616809584,-0.363457592037,-1.05657468099,2.73738846837,0.0467468384339,1.0890985344,1.42505121646,-1.35593077736,1.04973220762,-0.582974716323,-0.386970737611,-1.26692713486,0.0198046573583,1.53074509099,-3.00806653795,-1.34764099791,1.20125884068,1.2136266158,0.527410552017,0.780262989972,1.37583921265,-0.429342609812,1.06007126946,1.42184932284,0.73474551095,0.0494361230185,1.46512621256,-0.462648002866,0.0471519950274,-2.66641643579,1.50113571252,-0.321060743496,-0.189908952794,0.423695684175,0.779380108679,0.180083777481,-0.0298556014259,0.554655812973,0.327119158697,1.56931221324,1.13600530983,0.0204329529714,-0.209049394825,-0.102906663225,-0.189400654886,0.11612917212,0.148743722486,0.168572227923,-0.691764244424,0.314012977145,-0.503601282445,-0.927058506553,1.77230870406,0.254521103221,0.567008197845,0.1376164053,0.202578709675,-0.142540685662,-0.252446054473,0.701628123755,-0.228113615923,-0.865752046014,-0.980614883069,-0.250588735873,-2.22606863664,1.5613742694,2.03810038277,-0.0449289097292,0.259006333813,-1.11538685414,-0.390310924266,-0.62309152564,0.409498143754,1.96409461208,0.250656880538,0.677318111604,0.755345395253,-0.682317072336,-0.0136314375163
-0.549536854707,-0.488764075659,-1.59672809394,-0.210216577509,-0.0282531473418,-0.660946174659,0.332065574168,-0.50299303553,-0.275636106531,0.101979540544,-1.53675405308,0.887687276138,-0.438204190074,0.477132907377,0.153913511778,1.86690744911,2.53219732026,-2.1675734834,-0.347738877513,-0.860111228297,-0.518061205925,0.460522977443,0.966975376673,1.66481849803,1.31775645377,0.443896481163,1.81321911905,1.86566525033,0.613914011536,1.44649751566,-0.410143488916,1.41761361591,-0.157875929559,-0.323917952776,1.60862083226,-0.696932520075,-0.269913172608,-2.23770989514,0.657971951561,0.444050848953,1.5871101597,0.133797437496,1.82834829085,-0.819714897797,0.602664062089,-0.697136674024,-1.51349871798,-0.231108767299,0.519496448786,0.171920166097,-0.830482524496,0.018451541783,0.505845652069,-1.00020841034,0.541701461632,0.308601999767,-1.56334399503,-0.941666780363,-0.24792543866,0.784664408175,-0.703176122765,0.450695172641,-1.64273055903,0.129523183043,-0.0382193684023,-0.153429808754,-1.59360535745,-0.715989582997,1.38784773378,-1.1256201578,-0.434605211786,-0.2028657535,-0.084228319144,-1.6459319241,-0.729512408568,-0.491976349039,0.336016168203,0.953414139174,-0.443926980433,0.14729724189,-1.03888596315,-1.34454555417,0.0139430689305,-0.375492880214,1.41594642646,0.319575619024,0.444825835929,0.698241523912,-0.871275349644,-0.780600510743,0.279022845669,-0.00717968664357,-0.823874885814,0.745543950516,-0.858136339482,-1.00752074679,0.464929587151,0.461954887204,-0.512473810549,-0.939327911919,1.62898213731,1.22235576515,-0.372543773585,0.582042685921,-1.66489776291,0.50607890178,0.41538202784,-0.402008156673,0.862380513872,-0.421516041982,-0.0869900585334,-1.91816927741,-1.1753637479,-0.961383958949,-0.155295086123,0.353220569623,-0.11647990781,0.0579689990597,0.472019518754,-1.14259709116,-1.34987807801,0.377422645087,0.758796349439,1.71984628322,0.144197400217,-0.120678670933,0.147251085598,-0.494652799497,0.202747884093,0.296100560918,0.218204194682,1.54849386255,-0.671047525729,0.575102392145,0.0512417684443,-1.04212361829,-1.23482753659,0.426202181189,-3.24559230748,-2.18787564975,0.376807955964,-0.204724872909,-0.697037325257,-1.04175721668,1.25232518888,-0.976008735713,0.657847607768,-0.44368141175,0.498189535885,1.78773093817,-0.237385780152,-0.139342068811,-0.265985899127,0.592950631129,-0.398307541107,-0.076265865652,-0.823833386269,-1.17118851644,-0.00044432643788,0.579626522466,-1.09269168748,-0.300929398286,1.48251853014,-0.225872922459,1.12771847072,-0.626812349939,-0.872900608238,-0.441918186127,0.591485058329,0.151885140009,-0.98543652006,0.786706680623,0.0574733634126,-0.636706151004,1.31241994494,-1.14777279158,-0.0570539268061,1.13358641173,-0.696126459629,-0.697432860509,-0.395986604165,0.819345085514,-0.845940859646,-0.643265480948,0.725390585548,-1.33728872889,0.620675804007,-1.35979827528,0.485929105274,0.298506037253,2.65531893855,0.326467755506
-1.01831064458,1.94157487501,0.0443727978168,0.00979458843381,1.51895212256,-0.853522698613,-1.97372831895,0.620566735406,0.151824745721,0.637703159942,-0.131127477563,-0.0206006914571,1.44955814519,0.83462690896,0.349536974847,-2.66410556757,0.388461432083,1.99111029928,-0.804851726809,0.224384949425,-0.0763567313995,-0.469569019386,-0.980707234121,1.21400297371,-1.29642883775,0.706961540617,-0.633112915976,-0.405466778224,-2.35528641918,-0.402947387476,0.327456699201,1.33990297937,0.67632531124,-1.59336180058,0.68826393117,0.256969225356,1.47558585958,-0.869117554524,0.97597104295,-0.347351603007,0.310861729903,-0.498076193178,-0.955658381277,-0.724234463289,-1.04325884945,1.47403249156,-0.523883923072,0.781608830625,-1.29182273119,1.23184187961,0.440196262398,0.328005358388,-0.0556619841876,0.735805160847,0.771612173749,1.29160957038,2.15611971056,-0.0022638951968,-0.28177131688,1.75881801722,-1.90066627214,-0.222811397148,1.03884693411,0.80908669295,0.0699014636067,1.13296847451,0.828211187716,0.523616722949,0.329165169373,0.464758886687,1.20275184958,-0.153220412397,-0.782962043056,2.80602767444,-0.205930969882,-0.614781694578,-1.06917901961,0.85731101251,2.45527591993,-0.585347999612,1.70103966191,-0.647512725892,1.63363782871,-2.73034271101,-0.457078336455,0.0819299823419,-0.468800617403,-0.155267451699,0.545326328983,-0.305997895087,1.34265215451,-0.217528517163,-0.0548467133538,-0.628708958074,1.43800638616,-0.629555643414,-0.699794092969,0.764680899901,0.205208500715,0.0828601631039,0.651271075381,-0.83269388228,-1.04264512525,0.53934544057,-1.5341379549,-0.569435329545,-0.421820418693,-0.189254910953,-0.778268102583,1.24171997869,0.422481018072,-0.022615053078,0.864344239589,0.149601178027,-0.928162101767,-0.712285764169,1.02476640522,0.373196721258,0.748290431118,-1.23046501313,-0.527729652517,1.56884311273,-0.886946134239,0.226310008468,1.81445893216,-0.78045625604,2.15255874298,-1.62702423668,1.65096238964,1.00571605704,1.53651936731,2.17809407368,0.86697108205,-1.38503296829,-1.03886350267,-0.673828176318,-0.662980719853,-0.816307564328,0.20818076444,-0.12443377293,1.11130333105,2.00104741836,-0.0395437727066,0.324778392961,-0.184888029628,1.2895090303,-0.233220170977,0.52282302844,-1.66165626495,1.26083463221,-0.93952329247,0.13571529079,-0.862787232486,1.1250382086,-0.225152878433,1.71488964862,-0.804161572909,-1.31560196476,-0.578233099464,-0.217129713992,1.16416038213,-0.415732475894,0.95422603008,0.919052947961,-0.905321385973,-0.373277428912,-0.397337896004,1.51339146022,1.40617359003,0.0852469845819,-1.52217341248,0.790385260307,-0.261764207877,-0.200704999787,0.69451089585,1.95239530192,-0.606186381556,-1.50337528975,-0.327904112793,1.27992480236,2.59681971542,-1.32238421832,0.108975986785,-0.766985820705,0.875212976091,-1.11712117238,-0.539811845265,0.570979435313,-1.38483714468,-1.41173697356,1.32348225961,-0.410801902569
2.18009787553,1.39720004129,1.39588116362,0.0549856055509,0.947170798371,-0.892517831902,-1.62035895273,-1.44567412672,-1.21424023133,0.842197303194,1.5425675721,1.83903341782,-2.026625795,-2.06382851258,1.02423670751,-0.926957545454,-0.368860601855,-0.384241554484,-0.732979729951,0.613707911744,-0.272175400868,0.605639567341,-0.0681096566594,0.679561823805,-0.941832511104,0.179846069373,-1.27374935638,-1.67161891244,-0.581797351283,0.813018743797,-0.773920163225,-0.0477731987329,-0.36775572342,-0.0315841360669,1.52584726327,-1.35934543924,-0.988858329686,0.764898100956,0.294684906121,0.329785173407,1.45446411344,0.260511035153,-0.696837714938,0.238542133991,0.756127950162,-0.0158213121429,1.44790373156,-0.156863873044,-0.20536828956,-0.607339845306,-1.79313831761,-0.482476261566,0.402872215112,1.69293081888,-0.695700632846,-0.312756854834,0.901892150904,0.323090031041,-0.134804791019,0.0760893291272,0.214761225682,0.355416219962,-0.96732769614,1.26308882869,-0.0236680460791,0.308415049479,-0.461267461798,0.511100332833,-0.393954504066,-2.44423774828,0.173243520889,0.771286436116,-0.542571650267,0.735111437131,-1.59666250835,0.177042535663,-1.18729923795,-1.25242432491,-0.732983650807,-0.870207017409,-0.0493595396842,0.613130138115,0.249938986066,0.669479343615,2.33702558994,1.24586237652,0.659681611606,-0.196295927305,0.0253662556727,-0.5700362682,0.693846262231,-0.0311270170056,-0.985221558456,-0.88429406085,1.30949683211,-0.0578337374176,-0.524675367573,1.31145217735,1.07759423924,0.13322682385,0.938823533431,0.733660109053,0.262775947955,-0.542777633189,0.0109026909336,-1.16802575107,-0.291807567076,-0.335062801758,0.860733645507,-0.885850703362,-0.587600090108,0.243778236509,0.559352831069,-0.293780875744,0.776272259007,-1.48612243287,0.762260717793,1.3138647734,-0.419376508857,1.59030536027,0.835662307419,0.126728157179,0.817475380443,0.094839432548,-0.441912550876,1.46053329442,-0.273778196838,0.400662554331,-1.00330329894,2.16041770083,0.785129145626,-1.90778619608,0.993343473555,-0.44047775176,0.332894798665,0.552409175725,1.83699240863,0.796111402037,-0.285261714127,-2.30995502316,-0.0152266324951,0.645864231287,-0.967906755729,1.37712838143,-1.09604096649,0.394886711108,-1.14223815891,-1.21062656912,0.0262831144899,0.805932578485,-0.450652628655,-0.978932012702,1.82919756085,-0.3783466062,0.419003499681,-0.398929854053,-0.205897139384,-1.01989481732,-0.753692165109,-0.0386860122112,0.194852130983,-1.03590759091,0.323200275742,1.43676266773,0.356454451478,0.794194609409,0.557502049845,-1.48622242665,0.919779738974,1.32190846213,-0.992431106433,-1.27047950935,0.841285282277,-1.7813004876,-1.21789648223,-1.16225697425,-1.15621818162,0.822374656673,-0.111353102045,-0.600867152988,0.533816101587,-0.096331504679,1.4379035585,0.361870654365,-0.554823134979,0.586837573709,0.357165380164,1.52905220388,-0.307821473751,1.07009278328,-0.815707922634,-0.878353538742
0.0734542543599,0.897370543496,-2.41934291096,-0.180574043256,-0.766560110003,-0.569676502539,0.898523968048,-0.652607986397,0.498359954376,1.78744527108,0.734681134236,2.68486904262,-0.401853332774,-1.16486837879,-1.53019736106,0.420807180355,-0.251190389394,-0.705465177803,-0.739682867687,0.506690163096,0.623956935675,-0.445971852433,-0.920227678299,-0.382920860725,-0.280440697896,1.00140800188,-1.73172498961,-0.207509773733,0.275666558757,-0.477830858376,-0.777140807456,0.0632892788369,1.06792517002,1.17019772684,-0.632818402106,1.11042225298,0.969075757437,0.806451048585,-1.20995280493,-0.455045203107,-0.129100164019,0.647768877711,-2.70994394793,0.403518105073,1.39611769083,-1.99558550115,2.00671604332,-2.58049202686,0.322704442496,1.56384874901,2.47922231343,-2.07168189424,1.15905811915,2.0152446584,-0.687711003142,-0.712754504165,0.0244587388186,0.398821447592,0.768371440828,0.612168578515,-0.429000225747,2.38836096909,0.779805056087,-0.975418132845,1.28289635115,1.27990689815,0.640877499526,-1.59025336735,1.00108516757,-0.501221889972,-0.145905806408,0.704000547837,0.00245790033792,-0.00995821755283,1.76541934395,-0.921685421447,0.350724730328,-0.493718988157,0.441167300565,-2.10348269573,0.802953917976,-0.549433251985,1.0968557772,-0.398421281844,-0.901175050907,1.52728877597,-0.0948454014896,0.0663562683733,-0.183326810302,0.602983899652,-0.77479576378,-1.57616266816,0.0108097676771,-0.231737931014,1.37079310618,-0.887732855068,-0.798512765353,0.140856674261,0.558314294117,-0.908857471707,1.13829092377,0.246189805514,-0.760125048109,0.871985966372,-0.575977972059,0.314258085715,-0.0310363115255,0.955513731296,1.68660443579,-0.721299070422,0.366725870703,0.0491488600933,-0.904882742366,0.0871408716308,1.42217790957,0.767166990359,-0.347973580054,-1.02362806987,-0.0234448369447,0.277148626499,-1.54821705607,1.12417100052,0.516651234724,-0.63444326558,-1.84024475528,0.173702052572,0.611084816765,-0.32012658834,0.955526286628,0.138989526321,-1.31293350251,-0.692611286816,-0.582106559235,-0.659897778377,1.24799852432,-0.423308012862,-0.0408959336875,1.07225989618,0.666107670315,0.587799232021,0.475894269372,0.077729227409,-0.329644569921,1.25484056208,-0.193614202955,-0.0874858094982,0.158908654377,0.0860587366817,0.0240417256614,0.957729200496,-0.752853168642,-0.90360921738,-0.521340557176,-0.102427328628,1.14480938293,0.953829088585,0.684338849068,-3.04925935733,-0.988265158116,-0.647172735291,2.06457226024,-1.51374469527,1.09254309037,1.85843886152,0.0712461755104,-0.484884769816,0.974898574469,0.580835444473,0.409057022602,-0.917831935472,1.49002422307,-0.0335696534735,1.13815256773,-0.568427697555,0.195666186229,-0.989611925577,-1.22317686028,1.62910758162,0.616682455671,1.29441446001,1.00408880787,-0.410700046177,-0.640290621686,-0.194827093608,1.03813280929,1.5244406861,-0.591379486162,-1.01187979327,-0.581589086125,0.658581129043,-1.25258012685,1.99144745219
1.33439308952,-1.48433196961,-0.882122763397,1.08441402208,-1.49922162422,0.231890865782,0.180024618209,0.103197885566,2.28503314406,-2.20615819823,0.98504903862,1.38032429283,-0.887429582421,1.12949087788,0.450619366045,1.59785797021,-0.271116716122,0.437803656287,-0.534727665187,0.21205341176,2.96082291118,-0.267338598022,-1.22411825685,0.7680700856,1.89951847807,0.500311383425,-0.751764363688,0.380735737429,0.991965441251,1.06860488579,1.79642784591,1.54783476251,0.0647786549729,0.715958447477,-0.767525069243,0.450777741929,-1.15791557261,-0.601934009749,-0.303429830614,0.824333430904,0.532105627632,0.751203826678,1.09398717959,-1.43022185559,-0.0834867222619,-0.647172008249,-0.0853370813697,0.0778416094658,-0.787323406973,-0.274010762274,-1.1042958651,-0.383643139452,-0.133171012953,2.06156521467,0.446170627603,-1.01994803203,-0.219980876825,2.12421426959,0.691638086128,-1.09645606555,-0.314505898254,-0.17720680716,1.3288658854,0.148857494164,0.351964339661,-0.750783812048,0.669819623602,-0.331642463899,-1.31514275551,-1.25244417822,-0.940491521811,0.726381910065,0.431614666056,0.416983168848,-0.509830393513,-0.0831586841221,0.769164878921,1.30718610144,-0.0983442366503,-0.688762857304,-1.11198011213,0.156321862942,0.254756172597,-1.73179442656,-0.27305996223,-1.26850702002,1.2554716978,0.848714366244,-1.01557111097,-0.00458032143269,-1.39207859513,-2.16994885828,0.598230983672,-1.62327490045,-0.524852353233,0.00545100851597,0.268085049555,0.408709987586,0.0123589628402,0.620027587957,-0.541705603242,-0.202883102761,1.43070566353,-0.823037664032,-1.73138015429,-0.225848683787,0.987013247487,-0.477303990719,0.786091816513,-1.04686575185,0.510028060616,-0.724002228093,-1.35841153075,-0.446765530687,-0.420819925224,-1.54056420561,0.439872075264,-1.57621899373,0.198601540742,-0.201243346044,0.685385840163,-0.725617573298,0.248557037445,-1.58512977772,-1.12199405402,0.147963612319,-0.33952365115,0.320085173732,0.956308415554,0.0754940301219,-0.403118078521,-0.0713758615786,0.899691734552,-0.0141399432499,-0.683066631168,-0.260902653905,0.284489075446,-0.491219261018,-0.530335037039,0.502265154644,-0.153930028811,0.0521384522581,-0.0902984940697,-0.295181576125,-2.00816688769,0.0442531668159,-1.42113027784,0.45044413178,-1.16835761187,0.524770472732,-1.77731815774,-1.54615477447,-0.793716741973,1.16568100906,0.587989394936,0.132284512539,-0.540837363313,-0.655701787293,1.22357576875,-1.26594046939,-0.0171012923521,0.969261480033,-0.52823534269,1.3089456342,0.571384307295,0.474562499411,-0.663465173639,-1.01281477168,2.20530972029,-0.118705299139,0.646140063256,-0.630866138121,-0.0933831042289,0.455211587927,-0.810106700976,2.28914656977,0.878879911731,-1.058691895,0.204321747004,-0.317194547291,0.320931231409,-1.04400078195,-0.0388188319487,0.947714070893,-0.882317378678,0.301619402684,1.54951443418,-0.56640568523,-0.500770177551,-0.417258597945,-0.730908620489,0.633922352374
0.463472435227,-1.49492125864,-0.190893392262,1.38434787038,0.891056170402,-0.169661986096,0.627796041985,-0.838203233077,-0.066035123248,-1.78680965466,0.189731805006,-0.63202260078,1.16681954653,0.0980249680263,-0.334183134359,-0.648158262944,0.439470881686,1.17909695676,1.65207870623,-1.42073555812,0.350650178582,1.78430656866,-0.445378379897,-0.770412463883,-0.68285347475,0.795831203861,1.02285784399,-0.357011109712,0.306545230576,0.265742489889,-1.49579359637,0.603606553134,-0.383996267498,-0.0490654245922,-0.488212310623,0.537965507663,-0.904524171557,-1.73713418781,-0.179783289736,0.452029051091,-0.190688380997,0.870242505506,2.30751115653,-0.446086193284,0.50280329424,-1.27123258953,-0.393637614225,0.53281509458,-0.484576737464,1.02114327204,-0.326195099309,-2.55201756634,-0.657372378531,1.12946361078,-1.43065631023,-0.0874771199361,-2.41276819931,1.12811585,-0.967837263479,0.886552849573,2.04803003563,-1.3461569656,1.15302686551,-1.11242164216,1.49380549552,-2.31179282488,1.01381617321,-0.715692743874,0.884633987496,0.362201473118,1.60864243753,-0.0528128046807,-0.589923884555,2.14176792894,0.0408450574227,0.0630942438939,0.0840095856296,0.304845985316,0.426631100651,-0.950433302234,-0.253573593086,-2.54972267624,1.06273805033,-2.27685993835,0.682836894936,0.251368844154,-0.305417712855,-2.06911144573,1.73762497894,2.06315056594,0.545364943664,-0.0148904306002,0.707417104406,1.26635229389,0.742682165333,-1.9089864092,-0.272501463273,2.39682333107,2.8177690869,-0.000338197985684,0.142518961968,-0.264625760986,0.390362839381,-1.77223802715,0.172093468086,-0.104242904025,2.49786021539,0.545650416886,-2.23908744697,-0.376403663319,-0.14394030221,0.317621995775,-0.659904969682,0.372144179773,1.68126580556,-0.111750096187,-0.99070061874,0.63322545403,0.922566645664,-0.250561359204,-0.0686108615264,-1.27437764793,-0.859170657977,0.511640626244,1.23879880509,-1.58363359411,-0.358073396639,-0.476861963753,1.54798416106,-1.10655985826,-0.350207278063,-1.03706376979,1.35034807981,0.0604211528793,0.205562083818,-2.40396068092,0.00384686699996,0.645716693486,-0.735594159161,-0.58101622624,1.07730075802,1.60945612271,-2.13188885754,1.65990217411,1.13501742292,-0.252642212478,-1.23990330169,0.170671255924,-0.960271201665,-1.71959490825,-0.930113886321,-0.0381433468812,-1.34115991688,1.34341918798,0.680920875717,-1.24067510879,0.0891007222029,-1.84108522325,-0.728310767662,-0.902611307816,0.465645095183,0.487653773121,-1.89642324209,0.988032603907,0.940831969724,-0.14755299879,-1.00456982264,0.764490863558,2.19147816225,-0.0870827984024,0.143320649556,0.98099571043,-0.96983885301,0.347062314863,-0.176850668023,-0.278966205408,1.76194575213,-0.688658059965,0.330255715876,-1.87242836313,2.67992551448,0.4256294092,-0.599713842544,-0.0291169282583,-1.29135648857,1.22710689981,-1.82081998524,1.28202958288,-1.1726297144,0.541915165732,0.0877493357714,0.586693107088
0.384426904976,0.442320929813,0.0910579675042,-1.07700535386,-1.29944735035,0.520515500625,-1.51310645252,0.619217765341,-0.68432493709,-0.478434950953,-1.16386875898,-0.177374509492,1.51064913303,0.124391109742,0.59741585952,0.15678669701,-2.03294469517,-1.00276011016,-0.95794670166,-0.122369338841,0.57521506636,-1.89070460563,-0.170167338402,0.532668805773,1.10024733725,-0.384907858675,-0.151664160776,3.08965796782,-0.244271998631,0.371570357621,0.31918076718,-0.130796016539,-0.109254829816,1.31460710804,0.965885588183,0.383066628295,-0.338716471996,-1.27423055571,-1.17319245666,1.59939102928,-1.06717690969,-0.403177610414,-0.944824524519,2.10269468705,-0.491629217354,-0.274160901199,-0.699055631645,1.5379427121,0.0505974082864,-0.775981014525,2.49638959379,0.0463521002066,0.856589028433,-0.204534081534,-0.990564260448,0.00569327480319,0.221651505541,-1.72220711368,0.734611020252,1.23301691777,-0.588613311986,-0.713037323481,1.53408501847,-1.17854203521,-1.31339983907,-1.39632796642,-0.399195374741,1.49901571787,1.14111335858,0.711571858185,-1.26864751457,0.110376997776,0.389539096382,-0.731549719271,-1.03934432597,-0.790786463619,0.313904488703,1.04650730202,-0.106714477389,-0.438997319477,-0.613532404331,0.132883085569,0.580024107175,-2.03766603379,0.197375891256,-1.00527006108,-0.41597182031,-0.59531904465,-1.72687494662,0.201186451354,1.14277958188,0.698105403171,-1.0186281656,0.325261791597,-1.3774484386,0.274034273325,0.925023153306,-1.43081227428,-0.119655960884,-1.80256370368,-1.06082935491,-0.790353286356,0.191983886189,0.0907058704906,-0.509873159256,0.371267400031,-0.835355835863,0.307191441693,0.766572892819,-2.02719569152,-1.54726094464,0.206929656913,2.22475898299,-0.751087132546,-0.26117577221,1.65260230376,-0.0542432407466,0.841244207735,-0.241397346257,0.133085202816,0.427489502522,1.29499259043,-0.940133120392,-1.32739069103,0.628713938135,-0.849180090708,0.295386664629,-1.91935312868,1.71813752303,-0.157150516118,-1.53325930933,0.156411566024,-1.65067514874,0.94010091895,0.73553375881,-0.343353539068,-1.92346496529,-0.477144919145,0.646275177462,0.612206174826,0.638561277115,-0.0963545862342,-0.116281511298,-0.310593190871,0.30981522698,1.74234290224,0.874722878918,0.228258510044,-1.16979957036,1.28189878925,0.676055585601,-0.179288113461,0.0907076268034,0.648034561661,-1.47106344675,1.80008753306,1.16757849926,0.249634437072,0.843123884382,-1.25249444506,1.38099054199,-0.194303162572,1.67882356344,0.617561860681,0.623857526216,-1.78241026398,-0.256731031272,-1.78419526689,-1.71428772993,-0.590176018336,-0.0635970861405,0.215826897584,-2.92901968898,1.0649755767,-0.155935530709,-1.51804729256,-1.20543592538,1.21093614994,0.545130683012,1.69323737332,0.85309892737,-0.639444841343,-1.02841356038,-0.202674742965,1.6035759009,0.621949306379,2.40655303279,-0.0379277874879,-0.360263825759,0.855527767705,2.6464959384,-1.85308877557
-0.65882479306,0.0600278238787,-1.93945053353,1.25898218226,0.985950467049,-0.325647355445,-0.434376359597,-0.907908671321,-0.355765433025,-0.129774283834,-0.449339376723,-0.12568587135,-0.0839742031443,1.33217091029,-1.11186366577,2.27362084968,-1.07877331711,-2.97728077236,-0.917975080007,-0.690721280252,-0.352908340488,-1.70632720999,-1.77968080155,0.34327910492,-0.887555764692,0.194039730857,1.56619705681,1.00155918924,-0.666822803571,0.976563112463,1.13406494505,1.10394594683,0.205428923279,-1.30227244474,-0.230164344851,2.27583061751,-0.571195702239,-0.188984632359,0.417925061176,-0.382673238154,-1.78547378127,-0.250276000663,-0.991774408189,-1.31654212815,0.439795968644,-1.60045021586,0.543815975867,-0.751842850685,-1.06950363871,-0.652371818056,0.488968753544,0.140626509972,-0.722569257535,-0.529332320876,-0.550620963637,0.83839661732,0.640483036339,0.946324581221,0.307991555257,-0.960402199175,-0.0336064621921,0.507121626305,0.57961024586,0.259853844358,-0.640893525378,-1.18256482806,1.06738969093,-1.94501286475,0.870523697216,0.143903832748,-2.3962087061,0.596076238862,0.731781109476,0.231677272831,-1.48059648112,-1.15232718553,0.739861271802,-1.77978452743,0.809958212536,1.39904973412,1.23924969423,-1.07560137714,1.02310732088,0.357471931152,1.17601058592,-0.792778254698,0.832118629815,1.33045165965,-0.197323187384,1.35993188004,-0.453316044121,-0.99773068067,1.2119672461,0.72933979061,-0.936692227446,0.0298491839771,0.0821923317629,-0.200954771518,-1.66016053525,0.980432154425,-0.973960214758,1.37244757502,-1.1059852571,-0.0673227283339,-0.039669986761,0.0134586289882,1.05502734485,1.01017996765,-1.42682486617,1.01460732704,-1.44186533068,1.03421485416,0.495020713604,0.862612905633,0.365678277238,-0.674850843506,-0.53201684616,1.62188607897,0.152632114412,0.168251422282,-1.25033765792,-2.76657310631,-0.622279939408,-0.13519816291,-1.0277024432,0.408028967985,-0.307943427225,0.976348879919,0.131317986492,-1.16111122033,-0.640293634819,1.03217878714,-0.56286080136,1.02389583865,-2.27266118162,0.151913489112,2.60571308369,-0.0780703164349,0.304416885526,1.0533317277,0.195474889736,-0.178871337947,-1.02834960388,0.152262636353,2.00824633056,-0.117733635957,2.63031694224,0.073556189162,0.235649520958,0.406661780187,1.69783075488,0.181415310168,-0.023025677531,-0.00991295676227,-0.372612618073,-1.02556935442,-1.00140434412,-0.779716358245,0.820669569489,-0.283067694806,0.354481032478,0.0563289293146,1.94812946132,0.692369971213,0.140801130861,1.02974560065,2.20119910775,-1.67521528048,1.66585213728,-1.11705462984,0.535601325769,-0.841102557353,-1.37884083526,-0.270835571887,-0.573508847354,-0.145943085464,-1.95578009714,-0.49777426004,0.475130194742,2.17053039127,0.272129236559,1.5312440726,-2.36025562212,-0.656435464694,-1.35383343489,1.49089354353,0.600903585332,1.01726721719,0.40863579297,-1.27369964325,-1.47272810243,-1.86297631955
0.105326849879,-0.270985546901,-0.243807960656,-1.04215126202,-1.17873464099,1.82573161371,0.206170906295,-0.589316717524,1.51674651486,0.934595857943,0.518846710314,0.492336192302,-0.192356848926,-0.76709250913,-0.381295754747,0.769382014864,-0.296786556928,0.00137011241783,1.3362273409,-0.193655029589,-0.92830461049,-1.09033369901,0.39789585548,-0.0787713266331,-1.83831836494,-1.41247276158,-1.46197574488,0.0405312682444,-0.49535263442,-1.36932207678,-1.34224859677,-0.174153320272,0.804786322153,-1.24926560707,-1.72844482214,0.927690045208,1.07986781237,-1.08836971888,2.3743389478,-0.443508499911,0.228248456747,-0.214121342989,0.4571801374,-0.417387016611,1.68606609738,0.451720125894,-0.474722179856,1.44614676588,-0.0131887961604,-0.584330922791,-0.712206544674,0.577349246573,-0.794528311556,0.0323182876256,0.708620496951,0.432389804746,2.96315352616,0.589637205696,-0.215028387256,-1.43810324014,-0.962326235519,-0.450602002569,0.144035737311,0.481927746744,-0.397820286045,-0.943044007441,-1.49230485159,-2.11264824166,-0.851790187265,0.890568581965,0.646141007334,-0.984444339058,-0.645820094491,-0.60371298277,0.749400791137,-0.0251766930199,0.997368408827,0.429545976549,-0.0663387927524,-0.852254059613,-1.32117419443,-0.0758599974028,0.0479767454191,-0.495831174038,1.10468229091,-0.71962475881,0.167672798034,-0.884072898191,0.375207089388,1.6321449684,0.340070090345,1.11770885776,0.135564315318,1.27767353519,-0.887841203894,0.719379000186,-1.18249434302,-0.654655040453,0.923309798816,-2.09969014829,-0.757298342784,-0.628608519515,-1.03019566116,-1.71643073761,-0.316757823984,0.0325449299946,0.721809152929,-0.999588032511,-0.955332101557,-0.250322907357,1.07870713779,-1.27439553315,-1.83052416771,-0.665145312496,-0.817947421006,0.534651943302,-1.39682466174,1.30838022757,0.024424152772,-1.15733692535,0.0611439565618,-1.90433978856,-0.274694128918,0.155832111369,0.59067351775,-1.11868730669,-0.486794815727,1.86055698771,-2.8423862251,-0.706355300877,0.129177695655,-1.05843403576,-0.0818674088576,-0.708825582771,-0.144642964498,0.639554584661,-0.463732406641,1.20187190828,0.215778209576,0.0581146866396,-1.19898113108,0.0139574381671,1.06994476031,-0.0189189948996,1.47707859138,0.36359572342,0.644606472501,0.290184865998,0.982194673339,-0.615789011862,0.818897184572,0.485426262989,-1.91032154277,0.2013389965,0.272675600423,1.65981629923,-0.521545945317,0.533246958985,-1.10346720374,0.82512817128,2.70974647056,-0.885396993721,-1.64311331427,-0.43672292269,0.916586894128,0.186749987377,-0.275394017307,0.709776254138,-0.55008790352,-0.0196376638007,0.129995819338,0.383643487753,-0.448546382267,-0.154817220664,-0.809799371962,0.0113685622671,0.153593258484,0.603814445468,-1.81286291174,0.409525865797,-0.035140376653,1.25570757195,-2.0656938115,1.87171683481,0.386910390912,0.230443554278,-0.503431543045,-1.29821599547,0.743895865351,0.0266373746629,-0.231147466448,1.3280540817
-0.455763895176,-0.149124446768,2.53474239374,-0.807048433411,-0.795740679362,-0.893666928703,0.17536423313,0.129158200498,0.804251513592,0.332198494812,-0.644436079334,0.160056767655,-0.188440050464,0.750035226103,1.50064699531,1.08768534541,0.962337139256,-0.418871490777,-1.44930003415,0.338196352205,-0.545084751894,-1.46561097245,-0.158633079255,0.119587145446,-1.23070575059,0.13003669826,2.28380152018,0.835730730445,-1.6446201934,-0.925503780938,0.808694608077,-0.352330192152,-1.29058356366,-0.749616555107,1.21807726125,0.0462070746734,0.419786212809,0.730182261323,-1.19598817673,-0.466756022558,-0.194684728026,0.984130456701,0.733038099639,0.530988247054,-0.180967333267,-0.0225660516127,0.965731072938,-0.167378846154,-0.481821610443,1.11198367089,1.14070851957,-0.0643334723483,0.717741732317,0.946684426972,-1.41497684873,0.389351693731,0.828894126971,0.79908689114,-1.25916165912,0.572744615147,0.451614113715,1.69522717708,-1.10145586447,-0.770333556327,0.310080500211,-0.476445028279,0.34594744158,-0.461954280013,-0.575142030135,-0.129526432139,-1.2474201981,1.38009689267,0.366210941037,0.549592499004,-1.30373232532,-0.394372964384,0.679621233373,-0.001686599913,-0.981804445232,0.957708688876,0.250807349797,1.18448500963,0.609973307288,1.10269884333,0.175135253801,-0.487351532547,-0.602692972561,-0.257624363676,0.340458974113,0.34045748018,0.320385538677,1.36886570649,-0.434378192551,0.52973708745,0.209320594843,1.55783658297,-1.49207534241,-0.045570729243,0.194239818777,0.978333796733,-1.10774726239,-0.352443869636,0.384938189196,-0.955571280174,-0.983954956866,0.554224569508,-0.134590101746,0.631645297849,-0.0444616268966,1.52577771489,1.40678063624,-1.26719553934,0.56695343422,0.454947379335,-0.735656440627,-1.43142581478,-1.5904275852,-0.187847506818,0.633887926104,-0.870934599251,0.853075287353,-0.769615240473,1.35578021547,1.97563069688,1.47772073895,-1.09345565388,-2.69739166575,0.694666479137,1.38037694964,-1.48708267118,1.0400026668,-1.2620972944,0.193896273663,0.122329541097,0.550496778431,-0.30737222998,0.156138519808,1.90042092219,0.837089793696,0.0298617680598,0.70497479918,0.388691256089,-1.30460511573,-0.419461339926,1.28211353928,-0.497634780607,-1.57733880245,-0.84987482042,1.04271493631,-0.556776702669,-0.740053554712,-0.347925598562,-0.213425929098,-0.295671685246,1.59165534936,1.77346708266,-0.968149695694,0.655400789964,0.724528861593,0.780310144478,-0.529014034779,-0.228876169668,-0.835342973076,-3.52946128956,0.439475805326,1.41655931972,0.529120518424,0.0741708894128,-1.3611860255,0.217698446827,-0.197367730858,-1.2706172883,-0.340560938043,-0.182801563613,0.698886443104,0.953405756413,0.0163667030572,0.649910146681,0.070835618362,0.691687519028,0.10253389532,1.91502269462,0.567760903321,0.484619472017,-0.346457518004,0.693009726788,-0.933400291782,-0.712359224483,1.43692217341,1.56212719335,1.49494093929,-1.93194149458
-1.12828732431,-0.313364923643,1.6388310594,-0.0946129633438,-0.0796002632181,-0.163768065159,-1.05231043161,-0.359006730419,0.500553382064,-1.09467658764,-0.0300428097242,-1.44239080632,-0.186976803995,0.832362687793,-1.15615582247,-1.91557862298,0.669239063314,0.491066337038,1.2338864782,0.235553740333,-2.19107722281,-2.9930859837,-0.249001667247,0.710747136185,0.406401627181,0.535682965802,1.21815385019,-1.9415728594,0.129620364705,0.176041443553,0.980016775165,0.29279152822,-1.20209521543,-0.0658430103561,0.406669955443,1.11016312932,0.764049376336,0.0780420825207,-0.39199706485,-1.35619466653,2.25222814402,1.03526138134,0.485972117112,-0.491271768753,-1.84542896454,0.15167474807,-2.2439148766,-0.253329858382,-1.77195889008,-1.51639609582,0.230564458481,-0.75453025322,-0.624474902089,-0.984591498952,-1.61250898377,0.0818734618753,-0.202798060274,-2.12342554171,1.00277914137,-0.546978681992,-1.31682748108,1.04861770551,-1.53599917525,-0.0950048757186,-0.0966733806305,-1.18946094423,-0.0545720656399,1.08443636178,0.990229788876,-0.856536946122,0.542942688415,1.42948139833,-1.42067994081,-1.41995891343,1.85652443504,-0.045744986097,1.53020337444,0.239910520876,0.60868665053,-1.73501977864,-1.37578419109,-1.16911000819,0.0210949395537,-1.38656171997,-0.967148084215,1.46535494428,-1.23684018705,-1.97738410929,0.602687559827,1.25941651741,-0.77179118746,1.23757216367,-2.73643199299,-0.57304599808,-1.82357840344,1.18476568376,-0.59312474428,-1.23522749216,-0.156650715102,0.648742112036,0.72118501584,-0.970856071727,-0.0535996378749,1.59243411821,1.5576959154,-1.19280049291,0.909487037877,-1.43667499568,0.557213993532,1.00418954511,0.147592274702,0.343652188922,0.673333659171,-0.565299327489,0.202749539244,-0.163828984613,-1.21429371699,0.560916564255,0.117712208122,-0.0732517322389,-0.38625649172,-2.31885355032,0.496948111678,0.0784721739649,0.423725518364,0.8005325676,0.438696291955,-1.83401521588,0.229100862131,-1.42347047842,-0.05738147136,-0.0272605345624,-0.502212047177,-2.52205884641,-1.48885016274,0.649820708517,-1.20421458604,-0.149929788212,-0.383264488898,0.655340258664,-1.92891151448,0.876528358647,1.52948869943,0.272974065231,0.756939251062,-0.185322893765,-0.488266086337,0.508501783137,-0.167772393211,-1.84250831183,0.746956898161,-0.355326729029,0.427171250248,-0.0380641360388,0.856655228804,-0.416010820159,-0.57690509494,-0.29773577449,-1.11845754828,-0.0341975230766,-0.272920120319,-1.12358171805,0.525241986795,1.16936022412,-1.14085943636,0.396948679858,0.250029353193,-1.01980832908,-1.53404455129,-0.319875242038,-1.98535891209,-1.25086921897,-0.329071826009,1.92434702893,-0.13233143189,-1.06671704517,2.55453760136,-1.27091576483,-0.782927653037,2.4594645693,0.208012795416,0.00802024686192,-0.279088454099,-0.384762999481,0.172596106196,0.400680612845,-0.90629714636,-0.690458466204,2.90804493271,-1.44062996288,-0.206147521642,-0.275791918556
-0.000290520405685,1.67165209084,-0.0624073334117,1.23800682633,0.451423198936,-0.293140093619,-0.128243601839,1.69231444515,-1.1793495637,0.0333620127741,0.160856116761,1.07274137931,0.0848734310204,0.00696383260091,2.4592683048,0.643250908046,-0.038682713035,1.35535961858,0.145931640016,0.442355069244,-1.47936094019,-1.01430890888,0.377027755452,-1.52184975729,-0.946026389919,-1.98820818849,-0.347998837527,1.38641055728,0.431209229022,-0.343397549468,0.67777402651,-0.412421564851,-0.150863913532,-0.858491682907,-1.63577829169,0.503171705537,-1.30229173002,0.0182223144514,1.17685148326,-1.63531142849,1.36577481879,-0.277366229493,0.156899730033,-1.5044871141,-0.718112588229,-0.206184288712,-1.05296375529,1.43522124741,-0.426966384748,-0.39794343961,0.482175258345,0.387023041622,-0.423394605752,2.49500760636,1.30166750773,-0.0515452254793,-1.76025148392,0.637573132647,-1.17453470141,-0.65104474989,-0.514308655855,0.826151873056,0.683380661476,-0.758207329375,0.0762340282859,0.59203831083,-0.500559016219,-1.26188915052,0.25775369219,1.60990322605,1.25459425273,1.79362259775,-0.225098942099,2.45918095966,-0.26289762142,-0.611794492551,1.09493964066,-0.639995507773,-0.680363755976,-1.39879160957,0.890142333498,-0.305840503175,0.0706180198117,1.73970857624,-0.299094143628,0.226487852708,-0.949845174824,0.149320888408,3.1203974028,-0.531056376472,1.16966886028,-0.96937348161,0.499743207017,0.216178787711,1.81631972177,2.55557980942,-0.258377901048,1.75006466782,0.277522060474,0.321776690805,1.08421469869,0.823342638953,0.0233263225442,0.918382773125,-0.595609219582,0.675894224782,-1.61699356891,0.527785518275,-1.28254253942,-0.86100403601,-1.03155505699,-0.204866293349,-0.126244608607,0.248174324212,0.0495191845663,-1.53839930851,0.461461054249,0.411238246506,0.0683096772569,-1.19144737267,0.327130752606,0.214614438066,-0.750344315224,-2.19091718889,-0.33026472339,-0.490512311996,0.0104687356376,0.808472840897,0.980514964346,0.940004946014,0.458025298423,-0.212116064091,-0.202097411901,0.682824637869,-1.07940306405,0.616171185498,0.995012824403,1.45007369889,0.347621998314,0.109753590628,-0.00646792756208,1.60862393483,1.03535073364,-0.0568763021308,1.31022984903,-0.316606982056,-1.95901465308,0.299858023077,-0.127349777184,-1.31154110515,-1.32472544224,-1.45021376043,0.100387452039,2.060755505,0.066021264297,-0.434433755914,1.25004486852,0.613619549735,-0.357149104012,0.0234010400628,0.608492136254,0.0791759612788,-1.25984359689,-0.241261564026,-0.59302911141,-0.295788874649,-1.37957073573,-0.180445301718,-0.877592156363,-0.451135521412,1.612006813,0.136598998764,-0.173032387586,-0.755213452686,-0.224568636044,-0.0974569952495,-0.741676753085,-1.29764467301,-0.486143461993,-0.517999237838,0.210661788771,0.0911802510662,-0.25110775365,0.136475418671,0.0954469155301,1.59441138538,0.278720698779,-1.29418649435,0.662085409404,-0.827618147938,1.44320874622,0.793411708373
0.376458362761,0.516854218141,0.4145957258,-0.291172016526,-1.78551103368,-3.068399077,0.938559933317,0.80190487673,1.32678300169,0.21379648497,-0.252959591425,0.705094080564,-1.35878335784,0.670952825323,-0.247933446014,-0.646368621129,0.234394362679,-0.125227490383,1.11967327614,0.0642973435713,1.05028206472,0.419083005794,0.114466176392,-0.592753293822,0.869434159175,-0.246334922013,-0.211109237019,0.601633629952,1.09101914451,-0.956177483403,-0.95348429881,0.518538105211,0.831290575084,-0.633525306722,-0.0806525983737,-1.30716012459,-0.935825116012,-1.74367876501,-1.30275850836,-0.0932364552014,-0.563667812702,1.07473825941,1.23786673246,-0.193191996459,0.770703641965,-1.22107303859,-0.265233984,-0.208504005809,0.0514120420808,-0.147725332654,-0.0144078425832,-0.0281396445714,0.501979967185,0.604007487038,0.355474306238,0.324565217324,1.12729763632,2.85430755343,1.42438437942,-0.334347527782,-0.358636476021,1.14695337666,-0.147051821223,0.0308703841679,1.50238537194,-0.0515666240797,2.76685311792,-0.192834672325,-1.32220416547,1.05659425393,-0.587787121595,-0.896834232336,-1.36810516678,1.08627067126,-1.40145486747,0.0168291558581,-1.33576247017,-0.196417774348,0.174107345721,-0.258083806656,1.14503433592,0.842701082125,-1.08624714471,-1.56687136633,0.216715141026,1.34789804128,-0.0687431846528,-0.440204739364,0.262635007018,0.977498781337,1.08494743376,-0.147177488251,1.58386514234,-2.62396883061,-1.20675326815,-0.262648136343,0.708066865326,1.1637905691,-0.550381636528,0.137593734686,-0.222389631197,-0.624223380499,-0.335698556344,0.662583709612,1.07400658412,-0.381181710254,0.430092019431,-0.895868107252,0.631892705822,-0.970392920067,-1.8058765593,-2.09965796585,-1.49597901303,-1.75005293873,-0.980220920604,0.238809166568,-1.40849133921,-0.823432368251,-0.927033328724,-0.389043551034,-0.351911564497,0.443101021074,-1.92066995497,0.81709244541,-1.30080940283,0.438137772488,0.230576837962,0.35288419617,-0.577147632059,-0.341317747114,-0.545683991208,-0.484237087088,0.728616392726,-1.28493820025,0.907872972883,1.57074308675,0.45865314565,-0.0298238905634,0.640727216611,1.68327968336,-0.986762308358,0.491114764148,-0.859798888698,0.280044868517,0.913551064708,-0.742979912785,-0.336420089644,-1.10890922479,1.75240617721,0.264002781069,-0.721392311453,1.59464721708,-1.48634314493,-0.878003289901,0.0279407756141,-0.456436814107,1.04473148364,0.036629577864,-2.01362197808,-1.17503373941,-0.181794833726,0.232643691278,-0.388056750147,1.05426227088,1.5944854304,-0.901953809344,-0.374958223609,1.37983799802,-1.57968836223,0.26975349178,-0.743297377272,-0.0719747050657,0.318592834575,0.147907356529,0.11359729994,0.0101651322481,-1.97298503166,-0.27957449916,-0.827796455206,0.117946457885,0.104620602839,1.2829372007,0.683513222049,-0.671796316271,-0.547962763859,0.660499557472,-1.28604036262,0.875164029471,-1.04118434983,0.590679629878,0.954597854331,0.47908238005
0.387841048217,1.03245106812,-2.08805168803,-1.04396569226,-1.31208986647,0.730503734415,0.771833685571,1.26865437165,0.342331598925,0.708324158031,0.417313444595,0.761801678872,-0.712599133326,-1.27008017342,0.352751302456,0.0954263402507,-1.15795474168,0.924677525392,-0.542016878535,0.374133562659,0.931539679093,-0.683028662708,-0.66822599011,-1.41335015365,1.18263267912,1.39437039435,0.212848447304,-2.12109749102,0.569891010968,-0.769348074437,-1.84206587996,0.885792525288,1.73348877841,-0.068288033477,-0.547095122802,0.875172144071,-1.24165623185,2.15147997948,-0.478446015176,1.0261616528,-0.530687612311,-0.247806595146,-0.0340635288207,0.44999626787,-0.182738916101,0.313874660175,0.945123244349,0.457948462451,-0.787107353979,1.2038876799,-0.283242809619,-1.88248803785,-1.05560800581,0.375409108008,-1.70659121572,1.39279894498,-0.296425882906,0.259234112791,-1.44260720682,2.15852610718,2.45042749351,1.95701110012,1.2310308665,0.991159369278,-0.00517413943824,-0.0734263130644,1.60554589888,-0.361229510152,0.389254173461,0.4787701221,0.746658737558,1.57783553482,-1.38300289373,1.48561631162,-0.0672197462181,-0.0635544512731,-0.145028277935,-1.17560121805,-0.839077910528,-1.74079919291,0.571710222189,-0.727437365052,-0.890833221544,0.32811458189,0.53680601187,-0.245015883824,0.849104001922,0.989193403748,-0.185979397594,-1.46242793917,2.74652954475,-1.25129715764,-1.57594329827,0.622149246214,1.233943582,0.252690040266,-0.668005228078,-0.544834717976,0.671518944802,0.631574076931,2.05127849477,0.242593305003,-0.377796135453,-1.22127899164,-0.306662629939,-0.864215955004,-1.07273082963,0.19372445072,-1.61949716029,1.20680011457,-1.82502506604,1.20797181141,0.448067268836,-1.09506982699,2.21082079369,-0.00765969828891,-0.969361562233,-0.234661292519,2.35601568564,0.960639261322,0.574164577506,-0.264343961508,0.995565151255,-0.209913407676,0.294713024437,0.0638597765642,0.738937249907,-0.457483256871,0.179868099323,0.944017562012,-0.992449506662,-0.618248965023,-1.66281714172,-0.650253333812,0.197635073703,-0.783789974305,-0.421867395548,0.660378231613,1.4052496142,-0.275308105466,0.480960056666,0.765219517186,-0.927663377031,0.673555113113,-2.00716983889,1.317171478,1.56011754036,-1.45751589994,0.952428883649,1.06686294501,-0.119023494741,-0.550992873545,-0.506000598501,0.961664015164,-2.04253614707,-1.51148740628,0.234820734336,0.756768371369,0.740005713716,-0.0192892706884,0.0665289879703,-0.732555295522,-0.465218131055,-1.60491922339,0.816783658834,0.692552754589,-0.78171374535,0.130643754836,1.35365298848,-2.00525473277,-0.674777406089,-1.13851774112,-0.654685128321,-1.5856873658,1.02080361986,-1.18854894669,1.51278974212,1.10426039419,-0.674112891745,-1.85846773018,-0.204252566967,0.961549495916,0.803570749988,-0.0242930492703,-1.24643653496,1.05059003315,-0.0309232765878,-0.872591644243,-0.0487027812617,-0.282585058883,-1.78760231169,-0.256928842421
0.991591121936,0.679667491016,-1.10682294632,0.562406287495,0.753111633097,0.0997951076701,-2.66096832279,-0.0670008215482,0.609281271511,0.0325607484427,1.40713276876,-0.157806031259,-0.943967870363,0.993275044006,-0.462941507056,-1.48346385542,0.443934919624,1.26407237269,-2.54786747765,0.0299593704774,-0.615621501934,-1.45882746634,-0.882409720958,-2.2132713012,0.0795428166757,-0.077756855514,0.241679230271,-1.23559993926,-0.127321777124,0.770798377666,-0.60269107733,-1.03535863088,0.747686313592,-0.665680468128,-0.534086149644,-0.00473665703109,1.49261688253,-0.447312835294,1.63010348878,-1.32568337631,-0.550282103324,-0.246767201325,0.282654063109,0.272522662974,1.96987575414,-0.861172943335,0.386627354769,0.735317526375,-0.355641323829,-0.0707156842544,-0.841213403579,2.03381970972,-0.751258525094,-1.26692524217,-1.02941562656,1.89706463765,-0.204654665796,-0.139494442652,-0.544398373156,-1.14744109281,-1.74077949494,0.933881813734,-1.23602882822,-2.24364654566,0.107443249967,-0.592289869669,1.04224197193,-0.437278024748,-0.87617151912,1.63956142242,-1.84724024526,-0.799915796731,-1.08772980282,0.40937612953,-1.7654231025,-0.929907083504,-1.57755718046,0.0306103337835,-0.829804356284,0.337369449853,-0.960022065997,-2.16740354349,-0.25988461121,-0.608826096448,-0.081715677577,3.07482085344,-0.246989242894,-0.67207593448,1.8857715807,0.467579907961,-0.646347298102,1.11510479945,-0.280192790681,-1.66756269663,0.588434296591,1.94009815964,1.59185276927,-1.13487818597,0.22244587673,-0.251000001858,0.18505000025,1.1268049888,0.191189837916,-1.73136275072,-0.120242619671,1.31532727346,1.29249829231,0.519130364986,0.0708750441737,-2.13662272573,1.04385128872,0.966288694516,-0.984921733325,-0.322556630073,-0.641076576724,-0.188099130083,-0.758740178522,-0.555197234821,-0.543453975311,-1.28710256718,-1.57096614108,0.0293043920684,-1.34558000042,-0.406059190881,-0.165896913105,-0.710273108286,-2.09974651842,0.178122519219,0.178054705901,-0.772743213063,0.463391990687,-0.795840382167,0.871251475649,0.748228689557,-0.613407207843,1.21568522678,-1.5660485721,0.724151973823,0.757897402916,0.456208811983,0.59110400213,0.856315463329,-1.34337288599,-1.09153341658,-0.727463826246,-0.373995011804,1.85869407547,-0.256873652277,2.06904054822,-1.47903192745,0.156844997775,0.116147879828,0.0563612299494,-0.279839032492,1.16257513584,0.0455282175491,0.25013358616,0.548425125613,-0.0116679414041,-0.64688407334,-1.14204480221,-1.78238021713,0.645785789986,-0.873559600478,-1.01142662886,-0.76669106229,-0.828700596385,0.954339857078,0.74663038871,-2.52490306747,1.01550549467,0.0587221431174,0.172060162647,-0.272625773565,-0.768936764036,0.274881842977,-1.04519592608,1.5449382946,-0.831997219014,1.68447955785,-1.77867726795,-1.31699007686,-1.15421841761,1.55514517046,-0.690159936924,-0.734983453807,-1.09885959924,-0.522585209971,-0.280495868329,-0.444247263587,-0.750892597378,-0.863063270044
-1.12508690593,0.912438910007,0.239973778217,-0.105527290669,-0.310035397444,0.0942820729576,-1.92321757831,-0.993436727853,0.545483233263,-0.616198436273,1.0344579343,0.996500734973,-1.01859437562,-2.54770103084,-0.406489905348,-0.0578265870075,-0.241600323709,-1.30111718744,0.386228957522,-0.345949406426,-0.124216880022,-1.69829820585,-0.913186372081,0.667317419835,1.4800922536,-0.831367423024,0.615260014343,-1.25920834939,0.686215710586,-0.926959124061,-0.206772042495,0.947877790518,2.35026759855,0.210403602711,-0.414574735034,-1.21278866465,0.269520664252,-0.373470531367,0.834519774868,1.2371558186,0.490379927479,-0.98993372389,0.851675437703,-1.45748393859,0.236944275812,-1.39722314995,1.86533959641,-0.80528072252,1.78098730423,-0.683753990165,-0.0608991819107,2.28912310403,-1.08367979134,-0.862623731314,-0.463505884591,0.607064926504,-0.377938741283,0.781916742046,-2.75044355978,-2.2654456751,-0.240850165964,-0.632960118571,-0.285556133705,0.106631805383,-1.5481687821,-0.310679936767,0.419072676087,-1.82724082713,0.209310281939,0.282069230677,-1.52783987803,-0.478232148496,-0.386488845898,0.840118196663,1.2095331041,0.504827617478,-0.50723463034,-1.33869949277,-0.0141009734625,-0.768866792355,1.37953084,-1.16622315868,0.170685140759,-0.455811705785,-0.00581482177815,-0.803742097751,1.16586514598,0.418504074753,-0.166092931295,-0.170684486836,-0.207530668688,-0.683585877824,-0.47439208108,-0.670513969805,1.72398565983,-0.0392969772698,0.489070576883,0.614641307133,-0.425623776087,-0.41460358615,0.863155125341,1.0961897339,-0.194333543362,-0.682212506748,-0.329110340934,0.239143011055,0.565662210104,-0.692181204619,-0.523317629513,-0.770603889477,-0.147744745084,0.380178627866,0.677457851201,1.80256224475,0.320720780818,-0.949929073991,1.17423528652,1.65799492883,0.148424252477,-1.15140443918,-0.459737019345,0.0509498324886,0.275914805901,0.0996173841177,-0.0323741975269,2.30591985534,-1.80777587235,0.17314556151,0.992558415471,0.927156174718,1.03878611371,0.517551900723,-0.326110648188,-0.413213226885,1.19112640372,-0.176480325776,-0.48236359173,0.599518730949,-1.76126995179,-0.320115621543,-1.61587920999,1.05692053096,-0.410322499365,-0.304063897852,0.442451249942,0.255897053303,2.07858961691,-1.8741995438,1.97339164564,-1.68779517985,-0.33635317811,0.740141580164,-0.747458682528,-0.904184508147,-1.56650984022,-0.304317623821,-0.503367814262,-0.594702675088,-0.467939158084,-0.929651886397,-1.58501109057,-0.320897324433,-0.406478874916,-0.648557228227,-2.22557539534,0.447294249127,-0.545628584009,0.6567474739,0.993108907833,-0.726671902877,-0.616133734338,-0.0451952020048,-0.425478688417,-1.39300388248,0.184086437793,-0.764937277357,-1.10315267515,0.312056276934,-0.327510668742,2.22974301491,-1.76366228931,-1.53580954099,1.05574849561,0.123700245092,0.209296579843,0.127267496402,0.949711406606,0.126510158264,-0.565134723498,1.09734022539,-0.510759570626,1.58321990783
-0.687073304131,1.88681506434,-0.28854423116,-1.40561335842,-0.305515764342,-0.197779884615,-1.94038469069,0.226544268303,0.195002421627,-0.8452754865,-2.20036632701,-0.0965872274859,0.954883522942,0.138630350277,-0.687411445956,-1.15356612367,0.110943288594,-0.793931601144,0.269324317712,-0.481917627289,-0.494476676872,-1.27194048175,-0.283148686786,0.044370724543,-0.562303950124,0.440737708525,-0.717700905238,-0.506248084136,2.14461134174,0.658823033727,0.429651067911,-0.10961626389,0.439941327047,-2.51772730733,-0.373742136789,0.363394067572,0.601341122399,0.848926237077,1.91969083887,0.613328723365,1.34551316435,0.799536412635,-0.620726483345,-0.474176825137,-1.37835566361,0.719743192367,0.700468496225,0.289415361499,0.549031488075,-0.391934561354,-1.02660964188,-0.975903702591,-0.0602220920771,1.35454201836,1.47193697876,0.113094319115,1.36749276376,0.0935181066879,-0.792527990357,0.730328310207,0.115847061027,0.427852708973,0.603437801306,-0.786495225398,0.227945661938,-0.100336294506,0.760175591689,-0.350447579526,-0.214158003019,-0.677065117311,-0.39027776419,0.373249685049,1.24369738975,0.360804148798,-0.206067288144,-0.330346701437,0.214665725499,-0.307118275937,-0.0613619567538,-1.08052480701,-0.156382892999,0.00887564902281,-0.742253175024,0.355182462022,-0.15293827411,0.548761339012,-0.832234370332,0.295885151025,-0.00617911791493,1.09916962802,-0.824859347745,0.54019856614,-0.140921548991,-0.818747692352,-0.260553958485,-0.188839992792,-0.368338159877,0.863283156085,-0.557786847008,-0.479594222456,-1.20730708205,1.31143028465,-1.12810745445,-0.830139229707,0.950046939507,0.107016988048,0.30243322152,1.91231059162,-0.652664347187,1.39537457299,0.0345018668,-0.0944801701613,-0.766544101079,-0.873650316355,1.46898235086,-0.117456872608,-0.828478378108,0.41462784806,1.69264846049,-0.298944922867,-0.671590310233,-1.78582347886,2.11086132677,0.159067343865,0.514851470775,-0.103938143061,-0.170187599892,-1.08904241091,1.55375624861,0.92517047621,1.06788283096,0.0455342384921,0.13358800678,0.37408566733,1.18498171859,-0.218575072859,-0.9144050727,-0.0691269860676,-0.675987246097,-0.478242440752,-1.21476363574,-0.508405729344,0.351058068619,-1.10253237557,-0.761141646989,-1.1083854332,-1.70151025078,-0.444491698113,0.451705864987,0.132387852029,-0.325715652804,0.130818754985,1.01367063262,0.984546935046,-0.77387268146,0.657336537496,0.697197514985,-0.0101520320228,-0.12380629966,-0.196009443449,1.19299054056,0.389223248172,-0.614100004747,1.08444972866,-0.447719703497,0.894309980085,1.3057713983,0.681363695932,0.411312933603,-0.235921372828,0.622376585637,-0.633417533299,2.22858045672,0.367394574529,2.17094315579,0.458391934587,-0.283539387942,0.19981184622,-0.709161181196,-0.401585077526,0.441342540521,-0.321187758048,-1.89573795799,1.45703056546,0.127483504679,0.0648720423092,0.820926434692,0.802134203946,-0.153906567501,-0.0324757255667,0.00993251013366,-0.197347571396
0.347766257334,0.637291798925,0.781278803588,1.53396568561,-0.0471175715538,0.465933149827,-0.340169925452,1.15978300278,1.65966788656,0.197128012931,0.0298902704785,-1.03158553554,-0.967302389118,-2.07262053409,0.405057455216,-0.101102014182,0.0461671826361,-0.0273991266493,-0.333680146386,0.364054016698,0.222878836883,-0.583398725211,-0.822474335585,1.5214976716,0.86041251727,0.0905823103054,1.05714598429,0.0497363680234,-0.235032339906,-1.23612064898,0.141563265253,-0.0816646111188,-0.447388853124,-1.72862502181,0.183842398817,0.363570597795,-0.216569174115,0.322024648659,-0.113571743864,0.32394934268,-0.14746565086,0.581050126529,-0.23165577731,-0.981039369251,0.00813106859237,0.162862811643,-0.715249776969,-0.622429994772,1.86628344733,0.907670010584,-0.667481482095,-2.74882469241,1.2844590437,0.82567153251,1.07588317468,1.00293434459,-1.13492821324,-1.0381429373,1.11549384088,-2.36783060764,-0.278200870269,0.0290580887776,-0.409055035036,1.12750205452,-2.08404752284,1.04644039195,-1.8022489955,0.0924634694564,0.693311562405,-0.742000186882,0.291837881855,0.442420608504,1.06351706372,-0.603229371243,-0.48806739792,-0.809723588032,-0.0966187852953,-0.00968796979728,-0.685585449108,-0.290666167808,2.08644904301,-0.736865243454,-1.33892673699,-0.797093632042,0.571229299837,-0.0950920636823,-1.83505576991,-0.252894114533,-0.169202565703,0.953847653416,0.581837683436,-0.870746725716,1.36930765878,1.54679794405,1.02939456978,1.35260940109,-0.99425894792,0.912061884455,-0.50722706013,-0.0728348763596,1.09595191113,-1.79871659978,0.543870748457,-1.8195709681,-0.0370673058173,0.791632553053,0.960797484426,0.214592025484,0.992954524399,1.03973962909,-1.46890829476,1.67913925679,-1.61916202198,0.974699007775,-1.0106068895,-0.0281351317157,1.34286473042,0.677636367154,-0.471260572639,1.27094848147,-1.09403948006,1.67955659636,0.546017119121,1.0054705737,-0.532674417428,-0.229565768948,0.950807155549,-0.213974933631,-0.639054631366,-0.473607271591,-0.261065633166,1.24523859193,-1.21882762961,0.796731380593,0.25741948547,0.465992991437,1.45688170801,1.14804243044,0.413274642875,-0.762877192589,0.342888256044,0.804569199783,-0.599090837525,0.360456089433,-0.262248464263,-0.316574567207,0.51952052597,-0.54245011786,1.65219669441,-0.062226619027,-1.20591902745,0.586586553274,1.02448015278,-1.41213369316,0.929714731008,0.743839255911,1.36064978473,-0.432704935164,-0.042948487767,0.0613113701998,-2.49716365037,-0.316003887257,-1.25373256215,-1.8431471765,-0.234023424805,0.154298204266,-0.965006276446,0.305710609404,-0.238691220335,-0.235170075062,0.368915460035,-0.813845107933,0.530350458891,-1.23053737669,-0.823247495702,-0.513090532705,-1.97193838486,0.194338081778,0.437034008056,-0.476947480467,1.24010663832,0.90232441726,1.40127024067,0.524937433864,-1.27046143974,0.49187174106,-0.498961145415,0.293525541184,-0.0936212820247,-0.357624067707,-0.297642870611,-0.131578034578
0.108609944419,1.86009435893,-0.613849939522,-0.0259392781915,1.09465067799,-2.96150671473,-0.630128867697,-0.354019617016,0.200897403267,-1.82796721867,0.366563651496,1.17943033453,-0.714781275842,-1.83496651522,-0.16350530846,-1.02690828559,0.180697176633,1.54690476881,-1.98675451848,0.759142937632,-0.618233852266,0.519224726881,0.394043305151,0.138779531534,-1.82647913805,-0.134357304461,-1.35770428163,0.71130287315,-1.07378763745,0.461573023829,-0.489731769753,-0.588873033922,0.802615666814,0.0998458953816,-0.414372447632,0.274954173953,-0.459587791525,0.378119992954,-0.472400163071,-0.183964933472,-1.00804938294,0.924637624537,0.324155814116,-1.10077005879,0.582292048261,-0.672148173481,0.0307405638592,0.273977650156,0.698856676778,-0.48789786279,-0.530506080069,-0.911415706885,0.696268835707,-1.78689852568,0.627342684535,-0.447587996443,0.316138038936,0.522899147344,2.0377770791,0.372276826904,-0.193648186355,0.854693390608,-0.542508175591,0.572192322023,0.336133139726,1.02677793514,0.10585730474,0.165541929558,0.390092149767,1.30264343602,0.0193154413724,-1.12280026796,0.477531599579,-2.05346512267,0.976726189412,-0.946122694455,0.326326580907,-1.10094363568,0.348456132949,0.112012691886,0.563953652413,1.39072152753,-0.473684729851,0.421192961704,-0.391057925423,-0.499808708764,0.564400222951,0.000429548550583,0.164286640173,0.478761972577,1.4927087424,-0.499103337264,0.0652177075698,0.963218293247,0.729014203188,-0.137546758889,-0.393335359659,-0.0825889534725,0.0995312730944,0.453946197883,0.110820866322,-1.34010692173,-0.174560309488,0.0514998768839,-0.563258124634,1.26440845544,0.140584039546,-1.84217827321,-0.384444874746,-0.358158911862,-0.130366442761,0.481126825932,0.636208768779,1.20679232721,-0.454060752411,0.97075529747,-0.953155199798,0.362716984369,0.681395567843,-0.0907163021196,1.11055744928,-1.24968005932,0.920803664339,0.896414253183,0.745078745334,0.197018091486,-1.07830421938,-0.550327664125,1.20858841825,-0.344225665217,-1.05941758743,1.20253860924,1.27114562597,0.390123412584,-0.833815829482,-0.200115194788,0.939688525886,-0.316526387488,-0.296449682822,0.0958578485196,-0.832121266533,-0.462838938365,0.385475990596,0.0668487665257,-0.936207626558,0.412654996829,0.705704706139,-0.530588138532,-0.974978754299,-0.791018187038,0.070199583614,-0.0196091277203,1.3871176404,0.321094376727,-1.16019187136,2.08004297549,-0.102636105565,-0.685870297327,-2.07671906669,-0.612125761798,-1.29877170134,-0.0964688555912,0.647347576356,-0.303661537458,-0.608394388875,1.0798877226,0.580325444356,0.237298044023,0.171865255389,-0.965112733147,0.0543128836464,0.473866330313,-1.12712019904,0.369882274239,1.8047267569,0.336689238272,0.539106496173,2.32620222702,-1.4394458258,0.923267177501,-0.195823030548,1.87297878537,1.8003778739,-1.83266615607,0.781939528267,0.409883198247,-0.359266006038,2.05898680461,0.678495065547,0.239901474178,-0.201880001048,0.723105722159
-0.00894647221375,-1.63689958765,-0.172760076909,0.125916539008,0.374724795537,-0.926218681178,-1.04106699466,-0.0261553032611,-0.851241399225,0.5714990554,0.380232433661,-0.0302326960709,0.127413972777,-0.597372117523,-0.61952671509,0.59523594667,0.623945036277,-0.117116737399,-1.08974051222,0.710571133552,-1.59317772936,-1.16532580222,-0.472823150531,1.35508359387,0.429206311876,0.220360682267,-0.0213517102852,-0.387897269499,-0.314796315539,-1.94312176854,-0.361453972378,-0.566388490379,-0.0293592885254,1.27884505003,-0.598267863628,-0.782939182117,-0.295256973522,0.891312882717,-0.943318652081,-0.259866291301,-0.438814101772,1.1002692015,-1.28897536723,-0.0288802305754,0.24225937976,1.23190119664,1.32721043902,1.90250769272,-0.631019335659,1.4627996089,-0.0901914803858,0.260598499634,-1.67090594227,0.823052163733,-2.34741354604,-0.113051976795,0.537449520403,-0.637248445879,0.698195511685,-1.87503144228,0.0896908632671,-0.905714252505,-0.0542331550247,1.84570093537,0.887412314041,0.275790487249,-0.998722629685,2.68358440051,0.70859655581,-1.58091801894,0.434485355992,0.828966568392,-0.972080888944,-1.08689158219,0.252498993813,-1.34042587087,-1.23558558261,-0.164819405275,0.451453894648,0.422221626986,-1.82594842524,-1.31703578171,-0.701716472843,-0.0906430329861,-0.446232432205,0.773693429433,-0.576601971046,0.589725080944,0.618354856071,0.268680134852,-1.30946526256,0.78261640218,-0.694007673793,0.809605300208,0.0919468541936,-0.611990001389,-0.374084409198,-1.29129100906,-1.21566052549,-0.461993250798,0.478889256909,-0.430199408269,0.381966595485,-0.290351574279,1.31977027364,2.73051603171,-2.34749297726,-1.27355353354,-0.538688050926,-1.44172859785,0.848560017613,-0.0267634432393,-1.2753557599,-0.591186235473,-1.63515872848,-0.0923709890003,-0.0777785274747,-0.701340786926,1.57544083002,0.347494911476,-0.219720000483,0.383839312138,0.177400356703,-0.552366404742,0.144048321053,-0.242402940224,1.8975047151,-0.901105185476,-0.700403021046,0.990771706053,0.787430280636,-0.0636394293231,0.10235025139,1.48339300745,0.649716402241,-0.0257278831826,-0.376253349224,0.0253724024037,1.47267233618,1.0732782795,1.27072709237,-1.14591979088,-0.77708788976,0.454911802218,-1.83032193622,-0.881463914869,0.120043041803,-0.274749813854,-1.09876978458,-0.213380015232,-0.338586322596,1.1035259344,-1.12907086027,-2.35416087597,2.20256550291,0.112367853057,1.85225884701,0.712085904617,1.56949398732,1.3866097616,-0.117571685398,-0.581361819179,-0.685965442754,-0.874822870928,2.26773443587,1.42433106248,0.573540372114,-0.0983954373249,0.350494210017,0.173273831687,0.483563163284,0.876212403998,0.416423842724,-0.172978788442,0.0244626455167,0.737787208943,1.2413450061,1.75917882908,0.23184834884,0.116246649211,-1.0288878256,-0.362267439483,-0.434796301237,-0.0223415573877,0.711246644912,0.85708957108,-0.634444482912,1.27936192539,-0.382269488495,-0.506384158957,0.355812518914,-0.0239873169248
0.656852420358,0.709358538952,0.322979386042,-0.464471660763,-1.13210789965,-1.04591627425,-1.86025547399,1.49888258369,0.309333235812,0.598587917343,0.682147996109,-0.000884830256339,0.0612608387424,-0.643100640035,0.839714289141,-1.22578076875,0.0983832131878,-1.59032818479,0.417762920431,-0.197945571918,-0.310100162802,-0.386320595735,0.309972318383,0.115713651328,-0.96301868629,-0.413477748117,0.595807560199,0.210949890341,-0.720265437029,0.746422574341,-0.580291613159,-1.18389734617,1.01851364104,1.88296593398,-0.810883687137,-0.517501305642,-0.127422833353,1.12410272257,-0.858603942482,-1.20034175829,0.931534066891,0.0116706549076,1.01106036632,-0.212882973944,-0.724668019911,1.2985808773,-1.16002255792,0.542217495113,0.856673907212,-0.338474772715,-0.122368716332,1.13077898384,-0.127174633198,1.53920713488,-2.05340971301,-0.0683479570361,-1.11064797342,-0.442363164705,-1.46934300436,-1.86330747292,0.494561038299,-1.80027697111,-0.199138766788,0.307570730394,-0.476016116813,0.285956556444,-0.65704320871,0.0153910984593,0.00683105072675,0.171671972216,1.64767487365,0.949038999459,-1.35856780848,-0.372137558068,0.856050569828,0.15467809097,0.415711187959,-0.416082784726,-1.28074334298,-1.53106089393,-0.438093117082,-0.319216562058,1.56145897656,0.0469918084687,0.88610847493,-0.122507162778,1.19667306515,0.140593414719,-1.07305759775,0.329819782299,-0.101049457149,-0.342788832507,-2.18832252259,0.539215244432,-0.808978192203,-0.0480379374755,0.425172906727,2.36021680289,0.0485482620032,-0.625447602523,-0.349058711471,0.0871759691446,0.772630513692,-1.31919111021,0.331147365294,-0.82048751282,0.427531485022,-0.420240003267,-1.18052036321,-0.483161824132,-0.00761744359341,1.38658753295,-0.837378078788,-0.0270660724265,-0.115846391908,2.07971117815,0.519055984372,-1.03818364601,-0.375787748938,1.08148715144,1.18107673303,-2.07707988036,0.673276694328,-1.6318914334,-0.178018608718,1.80744192681,-1.30164055981,-0.877097867307,2.1173510244,2.61779240915,1.09900821825,0.482148384842,-0.0995556963021,-1.05566925543,-0.12304023784,-0.311386466857,-0.0267472563768,0.982081950776,0.84928104285,-1.12560605037,0.252740088874,0.595796173931,-0.41021157238,-2.239870726,-1.25231822606,-2.25991506191,0.206638512111,-1.33450854795,-0.34534310464,1.86315703229,1.05325862022,-0.459925004926,0.0504812242322,-2.01345819364,-0.0308862246617,-0.122244301779,0.0616838628694,-0.500308986312,-0.427084361963,-0.511860571638,0.162269879878,-0.0530549219476,1.52810475308,-0.73636863397,-2.56345967952,1.49379524774,-0.928597839044,-1.60046701845,-1.12414430749,-0.413925699583,1.64623592412,-0.493241669027,0.0416851439651,-1.31855372866,1.16841548717,1.56175485942,0.112368212044,0.135933916502,-1.50568917017,0.188108133912,0.320546299155,1.9838114486,0.935608251259,-0.5772999595,1.67336061958,-0.261518609044,1.00819378387,0.447140455575,-0.949176886365,0.175335090591,0.651416336013,-1.00477749353
0.698480043405,0.938494048475,-0.329349831279,0.535426675381,-0.840161383313,-0.96683468138,-0.529255213376,-0.502747525697,1.26430300546,-0.0399289147796,-1.50017828583,1.37943352382,0.681884551791,3.17971367779,0.780726762201,-0.656961590855,0.772178083949,-0.673146263142,-1.32982169111,1.23538048047,1.98252469915,0.453120549283,1.66270048361,0.463220101435,0.323212373391,-0.274450063304,0.0677745028991,-0.054127507081,-0.0529449367137,0.698756972244,2.63116495372,-1.6923072355,-0.552689693577,-0.463628389418,0.124433068738,-0.843006617421,0.733561619772,-0.525888370029,0.49061747626,-0.180544455063,-0.200688155456,-0.147011113355,-0.215141929631,0.958528323083,1.2750939179,0.772379131339,1.92000936954,-0.00205331696085,-2.46165024638,-1.15304625449,-0.487338251602,-1.27555456249,-1.3582801435,-1.14421835418,0.607035948855,-1.23687588005,-0.78113911211,-1.20072765709,-0.0382680189887,1.7875291908,-1.54967265197,-1.20283863802,-0.759463236047,0.725480426417,-0.215030492614,0.536743656186,0.0695154329672,0.586957346961,-0.358594973681,0.990355521818,0.43283163678,-0.751468011827,0.428886259165,-1.84544422276,-1.16037303317,-0.0711195677122,1.27438640638,-0.104638085594,-0.496237229357,0.933655164108,-0.056539601239,1.09926261838,0.279098012659,-1.0658401809,0.601514101013,-0.0810042107332,-1.28065419999,0.0705965722242,-1.44731310777,1.01250185224,0.562622318186,-0.27113843265,-0.967512597673,-0.738167715715,-1.60624017564,-1.13101737685,-0.855279030892,-0.373120989214,-0.0637754018905,-0.0486062517784,1.4818424547,0.820053506302,-1.14658628221,-0.213620286454,2.05426919765,0.826862910066,-0.279376263079,-1.60213042015,-0.142222976261,0.0108206898119,0.59487597056,0.752301965095,-1.01449310333,-0.0979509535049,-0.00555147450552,-2.4685727954,-0.0656570599768,-0.681517902676,-2.17454689539,-1.8314930436,-0.0788118109931,-1.53093761635,-0.597759063948,-1.61390364011,0.816627325255,-0.471126713671,-1.57851341585,0.781324680873,0.144240268995,-0.432211628294,0.669934798547,-0.681514945807,0.464579655241,0.269816636332,-1.72489004538,-1.03975612107,0.14248473524,0.574786433832,-0.993504102506,-0.0116020781935,-1.71321109715,-0.905653110669,-0.684423474849,2.02043578505,-0.0201350829008,0.216847813165,0.665116173804,-0.524493066704,-1.21036171942,0.353752116438,-0.276545111237,-0.0330109466263,-0.168896394538,-2.30392218096,-0.291549916719,-0.0790764361111,-0.541925517711,-0.225971148073,0.418699342194,-1.30515283408,1.43122280822,-2.62073940291,-0.29987840845,-0.5589794481,-0.708168854245,0.209156364844,-0.888386131452,-1.95784726792,1.11473901284,-0.655190698596,-1.04835719869,-0.244096651762,0.118200267544,1.13716031679,-1.08235894901,-0.065051266802,-0.401060077094,1.34534734829,-0.841397083052,0.256131494319,1.47251831513,-1.3153146434,0.489839358641,-1.92160414735,0.82909331115,0.158375148519,-0.630573100555,1.30026836322,2.53923597687,0.936528521664,1.32519294222,2.42234211488
-1.86039263396,0.623337698964,1.07630268042,0.320429800802,0.613957195369,1.0401440404,-1.21617289118,-2.52420904509,0.599571273914,-1.24108364394,-1.4106029436,-0.0570120703283,1.66159084047,0.201879263956,0.824591243693,0.314389435744,1.33008415469,1.21250631595,-0.462052156946,-0.18348056034,-0.586127971866,-1.90191708275,0.756457278328,1.82206500079,-0.430291180395,0.744115454069,-2.07769639657,-0.880303471797,-1.28780202477,-1.20427630625,-0.833864392619,2.52908523676,-1.33637368826,0.824825010452,0.926984967055,-0.0141926511259,-0.183819166913,-0.479491567092,-0.00934238319625,-0.792243411608,-1.47023538427,0.219138461894,-0.423857150593,-0.467045243904,0.715227042248,-1.32616370533,-1.58675544776,-1.9012156466,-0.369781167323,0.641668695999,0.336795426243,-0.974801006104,1.26948980094,-0.639461012212,0.34916095334,-1.23111375365,2.02736945105,0.989890951878,0.429688230812,1.21952521092,-0.497051959944,0.311891025934,1.58180833677,-1.37363683787,0.576291924432,-0.57619387116,0.698403126291,-1.50460561152,-0.576016433734,0.275596197599,-1.52815609835,0.232545548833,-0.344774579833,0.392245850528,-0.867306071538,2.44549924727,1.64773667086,1.31927985677,0.983151600224,1.42853923314,-0.0235803066702,-0.634644880358,2.21297446069,0.910526204407,-0.00640736485321,0.94768633187,-0.364183261018,0.284521657432,-1.22164957244,2.17779235182,1.87615278552,0.765717619372,0.749310002574,1.83930957265,1.09743649536,-0.599892528773,-1.90931696473,-0.699417385103,-1.04696417942,0.506303655944,0.840746856846,-2.2186859536,0.94739571676,-1.04268676749,0.963818807537,-0.644845848282,-0.53526251023,0.217668804906,-0.930791722078,0.548171684748,0.437537242399,0.386275647023,-0.794284719671,1.35118415057,-1.00683872501,-2.17305841764,-0.171816433824,0.787553507288,-0.23195885116,0.4051139263,1.38173678719,-1.40002901328,1.02912130899,-1.105816945,0.663762005054,0.53616015356,0.451923532827,1.82350241637,0.0472250034951,0.188932441432,-0.909141646165,-0.152089181871,0.711473021326,-1.23480983617,-0.804090622621,-0.00327801257985,-1.17749887547,0.874265515434,-1.51115112615,0.492466861797,-1.24719772448,0.254821808644,-1.59415453778,-0.823584388864,0.183463544918,0.782841863672,0.851992133152,0.477870920768,1.38587459538,-0.141859006871,0.293627541385,-1.2393344725,-0.216706548678,0.838244754376,0.560012263793,-0.238089460734,0.202219755622,0.443565905199,-0.732660241784,-0.478035016222,-0.45085086657,0.527668496951,-0.0878818753065,-1.15567457682,-1.02401122954,-0.287365613772,-1.32887070314,-1.21787543723,0.0243207550721,0.244938343807,-0.915782365773,0.672871206248,-0.192734069924,-1.29747106029,1.19934084757,-0.149152714021,2.36133034488,-0.720237910448,-0.173652300781,-0.763650368071,0.701201475772,-0.0162591014124,-0.180195510247,-0.192596145638,0.598388860119,-1.26182398923,0.535734599549,0.404406538522,-1.11197879953,-0.305987036526,-0.455856049055,1.62432640798
0.548646700066,0.778350954128,-0.860393954952,-0.89774392863,-1.26059675329,-0.33669881135,-1.50478406073,0.461662357426,0.144264652699,1.68998199768,1.62302594804,1.35729902236,1.10200776465,0.695606259539,0.433040470274,-1.18326336167,0.19314801208,-1.40347262059,-0.943353735056,-1.92076331206,1.48340323688,0.149300007287,-1.5068114024,1.07570598325,-1.03499126533,-0.917841408515,1.40793663104,-0.195759902198,-0.904278192013,-1.98774965568,-1.1161287329,-1.23090036281,-1.3112578566,-2.52695503919,0.38544716494,0.279468155236,-0.627662354229,2.80569424243,-0.813256166005,0.512921905658,0.152360179402,-1.42994459671,1.68413106043,-0.223146349046,-0.948867661737,-0.631397651473,0.497037731698,1.02644672028,0.789476685146,0.0108670816018,0.278551063862,1.41050487292,0.961011242869,0.0495493046805,-0.528677327626,-0.46029777948,1.03378323852,-0.182882323698,0.637554047486,1.37546665613,1.18601109605,0.0105606988746,-1.60509084284,0.70627435219,-2.48953006368,-2.37210580668,-1.24528696834,0.974023320836,0.962267804617,-2.04108010854,0.897553336781,-0.728065669976,-0.825061705992,-1.41748256947,0.308352604241,-0.856241016106,-0.0767699189242,-0.408960065163,0.507243560279,-1.26364063941,-0.0947507598983,0.00109478475834,-0.360692672928,0.521634717363,-1.61685414161,-1.08045497012,-0.895570314529,-1.75048472735,-0.226882410765,-0.282568746783,-0.174523161725,0.133168148512,0.744036777285,-1.11901512922,-0.552847679053,-0.0784639848502,0.229516996433,0.913029699969,-1.19433454236,-0.396672001552,-0.331427609058,-0.432405136419,0.250632072247,-2.02389255175,-0.4254655133,1.45389776718,0.314200651231,0.616553734424,0.766958347095,-0.564232649916,-2.37988357753,0.0378181540034,-0.964559897358,-0.27386425963,1.03094341111,-0.531992800296,-0.49648694259,0.432082162857,-1.38490905089,1.69106636642,1.13886521402,-0.804599288606,0.739239065155,-0.176744500423,-0.0559064769985,-0.525937731913,-0.540030302094,-1.12470552325,0.375495988595,-1.03151764466,-0.319392725453,0.969111887192,-0.721883770283,0.753060610321,0.117307615155,-1.23617225381,0.437441668909,-0.0883156249852,-0.444381406914,-0.0920570444055,1.16942439176,-0.493348645688,0.678336409266,1.39109358913,-0.616126216396,-0.0346297863638,0.20247742793,1.63282881858,1.93663033551,0.965977659912,1.49195862092,-0.730519773709,-1.19009775883,-0.0454131642929,0.278782966583,0.578426223586,0.307641949918,1.38670287217,-0.447039186573,-0.00233224901971,0.0509943188588,0.731384064605,1.14150345209,-0.050236308082,0.417356130072,-0.937886063736,1.14325440124,0.184184622187,1.567414249,-0.832418021999,-1.11777290417,-0.947826811796,-0.790379947844,-1.85522971463,0.0583215684244,0.234881792804,-0.659693201945,-0.14304365022,2.26802266634,0.927331015992,0.605209729389,1.92174689084,-0.68322912715,-1.40124844129,1.87949963324,-2.63830661795,-0.0232625313128,0.347379129319,-0.475124588339,0.688448228697,0.529244777839,-0.536252427856
1.8764480606,-1.15897573829,1.33299008839,0.0323398510809,1.33906838746,-1.36361638134,0.505039482814,-0.118335691581,-1.46279748371,-0.366892331902,0.402445873755,1.0747507892,0.834736170378,-0.264759835893,-0.867602648495,0.948680147899,0.323158233092,-1.17941725578,1.08692617512,-0.483086295763,-1.54926136298,-0.899543207296,0.136271095616,-1.10302876404,-0.286674106574,-1.89104235884,-0.33196571864,-0.914890056242,1.01285676871,0.160635650213,0.13526410813,-0.291804178625,0.554715089527,0.306963902454,-0.330522947119,-0.126744895002,-0.118643962447,-0.0208580956276,-0.531813978452,0.175026254825,0.463096776372,0.36643584628,-0.411928211745,-0.373806196885,-0.0160163584933,-1.03641592468,-0.528198702423,0.396907795498,1.36826919796,-0.494122828536,1.93431551988,-0.858868198938,0.386597669455,0.11467524469,0.243776605131,-1.18122446588,-0.375110564568,-1.01562792974,1.04679245252,-0.68754573285,-0.280587610484,0.379416495725,-2.04769668328,-0.208503635375,-0.0609033965682,0.401885531108,-1.62497953529,2.19037220716,0.815279581381,0.963021432504,0.605638399449,0.581965709235,1.64608692189,0.292209130789,-0.328794465118,0.375775737513,0.430157711619,-1.90143164642,0.691283463651,-0.30575378613,-0.666542081205,-1.35859393547,-0.319052032453,0.0255072944101,0.015761319989,0.643410847542,-0.748860243375,2.10211113808,0.23194759829,0.409828686408,-0.627932675119,0.142467265715,-1.68807403088,-0.155225297568,0.144507531402,0.973452628978,1.77413790491,-0.937803368828,0.487113219175,-0.829898275407,0.792623775272,-2.24072190032,-0.376508385156,0.814633930552,-1.63673387359,-1.494274544,0.345383008373,0.619088566198,-0.6244440932,-0.715838762223,-0.0468891274463,-0.40434619,0.555198109176,0.244878169002,-0.170489254272,-1.5165634648,-0.152723817855,-0.124684164803,-0.466990450881,0.38583549834,0.226184435868,1.25104574108,0.00899478692306,-2.30052063644,-0.346145349516,-1.94929029104,0.174080601514,1.82370718359,1.04451644804,0.831375965837,0.157294020212,-0.623165604876,1.39220462075,-0.149923869439,0.165818904843,0.372530061604,0.18152543588,-0.857835438585,-0.336578669303,1.27667741584,1.94479734879,-0.499592996723,1.36924198613,1.22180546963,-0.457437789998,-1.01180771351,0.18774537452,0.168588468313,1.05819506857,-1.09349866314,1.43822489287,1.64254671824,-0.468302500269,1.88127853221,0.827761718044,0.646279247757,-0.574170273421,0.379289402968,0.0610959837818,2.37194753551,-0.549496850359,-1.26607026616,0.287029021463,-1.41751238649,0.339569109755,0.171790042482,1.06598373817,0.386797725162,-0.700127072156,0.302539358418,-0.0718569827693,-0.588684619742,1.60520866747,0.850080611457,1.13022977297,0.192469337484,0.869795972282,1.10025016908,-1.18278394685,0.45911857969,-1.39410503635,0.909624729185,0.684325174077,0.268311609499,0.882071185174,-0.339538616151,-1.34315880351,-1.45369972921,-0.50276429165,0.322057247809,2.1269139877,0.485022649871
-0.670783199395,-0.40153209415,-2.03362452402,1.4678968908,-0.949719178429,-2.36851375177,-0.972745793008,-0.432486328752,0.254523480742,0.599114129913,-0.187014881917,-0.609802680101,-0.112745607557,-0.806889259801,0.91175030647,-1.61121438436,-0.586695738078,-0.87099699983,-0.199574457248,-1.30767636065,0.685139597142,-0.0448129478202,-1.38161116458,1.43353399395,-0.847820506035,0.949323224786,0.567637395545,-0.859701190735,0.679617080656,-0.140674625202,-0.551857884198,-0.733424714318,-0.364139899923,-0.666809641576,-0.131884589641,-0.548914965955,-0.720360200582,-0.424641100473,0.724150765845,1.8406946977,0.647902457336,-1.29946290491,1.86795247857,-0.522996307247,-0.0224361225048,-0.387617390423,-0.117941622107,-0.728255544947,-0.253689331324,-0.243251005881,-0.199727062893,0.186021870109,0.837744781307,-1.57187754846,-1.54536160321,0.396846727225,0.26172850424,-1.4540243851,-0.182932350204,1.97406658073,0.107579523608,0.670693786967,-0.100599933973,1.2642178041,0.174135946132,1.30675980044,-0.788836126736,0.53562703013,-1.08724016927,0.303049109161,0.487338830249,0.0807983998035,1.77738099589,1.13024215681,0.28764688888,-0.782746260469,0.438523675379,-0.46981630787,0.85702487446,0.147410066184,0.182615177623,0.0084402580051,0.0317677765624,-2.02390406523,-0.830350651363,-1.09674782758,-1.3935241028,-0.558109992184,-0.0777033069295,-0.277469024093,-0.871320074542,1.05601321139,1.51649559364,-0.973269954651,-0.305154839176,0.992796371992,0.979495923607,0.500846394799,0.0729867400397,0.65686054405,0.130615247433,0.544075695102,0.224394873573,-0.572336677908,-0.790907861206,0.399244504,-0.827587278047,-0.00897324291107,-0.547571589806,1.55009818361,0.989022168837,-1.9441048779,-1.45271071236,-1.45356516046,-1.27882141323,-0.905684219512,-1.3168889866,0.0355789237106,-0.256134452256,-0.50020064993,-1.4196937798,-2.91523130531,-0.100688781002,-1.0400008654,3.2106532926,-0.478394422433,-0.513997947844,0.966434787009,-1.91916189417,-0.339153553417,-1.33869974239,0.854771341005,-0.543328346619,2.43701207396,-0.197955903432,-0.964537827563,0.514419444358,-0.111686924421,-1.92434786036,1.40049797911,0.66654891827,0.594401479709,1.17599901791,-0.656846978301,-0.469640481629,-1.63093651422,-0.613984289569,0.366712086592,-1.32001244606,-0.930952038642,2.35459466483,-0.166509082925,2.165176417,0.848488419517,1.43890857667,0.67538624904,-0.366252788757,-1.50493418421,-0.382650110759,0.683824305166,0.982696595079,0.462937558345,-0.238482990706,0.812901847103,-0.323457049062,-1.39344954205,-0.423318180243,0.248104265075,-1.04274737819,1.0827380987,-0.309733163966,-0.824049795594,-1.14954232628,-0.453964423587,0.446672018325,-1.16636891822,1.23011743426,0.794940065553,1.55428001435,-0.917415958661,0.687823929247,0.81093219123,0.00462588179086,1.90117920765,0.353564866077,0.367764464859,-0.0580226520226,-0.435716476633,-0.359168035654,0.84814103007,0.498766438147,0.107672787394
3.03555821923,-1.13797795962,0.965204522268,-1.44813506394,-1.07776863048,-0.242445267437,-0.867421116371,-0.808489748499,-0.434202262459,1.45508799921,0.581547475946,-1.54658428006,-2.36197699843,-0.273119545356,-0.995034651091,-0.338214491407,-0.929791247928,-0.883286851133,0.0943566976453,0.119013162768,0.594579052541,1.47137296777,0.451857973394,-0.220354098484,-0.451421724766,-1.10994465586,-1.6837270441,2.05300582322,0.109311660363,-0.363693658382,-1.04316484177,1.86635737972,-0.934328346062,-0.507893695895,2.10354004857,1.9269626067,0.789812541619,-1.57703978302,0.879018955711,1.77410235937,-0.968135827703,1.7310441537,-0.93355507453,0.884568569657,-0.786909271547,-1.57298522451,0.356147570048,0.303619323689,-1.55829973319,-1.38329855491,-2.00787375678,-0.347715985982,-1.00542587717,0.0729640328151,1.47393310254,-1.8432046934,0.932246637134,-0.204016409429,0.354241254366,1.04218265094,0.325706033996,0.371155223784,1.38196784879,-1.88016057937,0.686226752886,0.765555415825,-1.32939612977,0.650801686411,-0.862416951974,-1.09596077367,2.05464721922,-1.01641684665,-0.224539568789,1.53501307597,2.58331334095,-0.110575051278,-1.15014269731,-0.41677507875,-1.25956447069,0.213610261944,-0.201659473679,-0.817517008888,-0.0728678243645,0.692176844868,0.787483024898,0.415882847538,-0.425381135918,0.679725490675,0.257745831733,-0.818010782189,1.18728354868,0.374510805216,0.754114282863,0.00831111058323,1.77051826723,-0.267433940296,1.13812161199,0.207232441443,-0.831820310336,-0.531652531458,0.247925901607,-1.35562838677,-0.18270511046,0.251551873378,0.924395517985,-1.17480646806,0.477726914547,1.33619025577,-0.00503813914812,-0.60688425531,-1.16467629275,1.1636480817,0.191956588963,0.56672417194,-0.982223644776,-0.193354939868,1.79643608613,2.1716572454,-0.67706973848,-0.820423368082,-0.817743361783,-0.433289415025,-0.565799435345,0.339938069443,0.32217325354,0.7610569049,-0.37368241417,0.0282620915944,-0.168943728975,-0.865388132413,-1.03296400669,-0.665230304476,-1.64542435335,0.341588060124,-1.15907478795,0.0883067316257,-1.71219896413,0.956595642739,-0.246163562406,1.03384149705,-0.997513870612,-1.46629351539,-0.429654190546,-1.09470802823,0.0946050768704,0.803908131074,1.88908332564,-2.33600357913,0.882125177649,-0.853834350927,0.838903451272,1.75051711616,1.41850096379,0.127351690444,-1.22729030346,0.799320437708,-0.100833146529,-0.122975834753,0.6161638784,-0.206006117387,-0.545778757112,-0.213407729574,0.2655463229,-1.34592461437,1.03707540894,-0.274658655872,0.18206017579,0.0445716218358,-0.846766208543,0.735641377686,-0.297770186747,-0.658698518219,0.26998525824,0.988664980262,-2.09992659171,0.663435429665,-0.576438518101,-1.15101143704,0.592766997008,1.49508988788,-0.116097612631,-0.0333686093658,0.632671570916,0.0109424887669,-0.237223245557,-0.784947217542,-0.134222410787,-1.73760023164,-1.95945037899,-0.107341233151,-1.12282668785,-0.28193335219
-0.139300869416,1.8869214763,0.0816428554609,-0.327209570477,0.919279674817,0.414109744773,0.576466964207,0.655160674029,1.02188524317,3.09625964682,-0.429684803005,0.532394794888,0.370870246129,1.79634821222,-2.13102290789,0.745189837818,0.414620431876,0.598531831626,1.38540114655,0.675289285262,0.72001024071,0.897814361291,0.96063631743,-0.22185563808,0.724159667777,-1.10024712063,0.121161446041,1.16031863945,-0.233668793844,1.59304883264,-0.59081452555,1.20139279388,-1.57301223604,0.128678376331,-0.0703725692328,0.650399325009,0.204512592971,-1.2133421111,2.90532296625,0.437465728947,-0.698412485489,1.59930005294,0.037718619042,-0.565096917524,-1.26232093771,1.35035009478,0.0616936531836,0.10459267446,-1.38950491242,-0.00520006338678,-0.989257716673,-1.74463986306,0.0488752163622,-0.69921623686,-0.784243672475,0.0728813741672,0.198690197611,-1.26650184355,-1.01831630994,0.0174366990394,1.73311582873,0.236966405029,-2.43053563557,-0.235194025298,0.799238616558,-0.799608292502,-0.237063596068,-1.14144013195,-1.48863627827,0.187107050243,0.558061676734,-0.574145550196,-1.09576245165,0.797058036796,-1.1260073359,-0.486474592592,-0.787834610611,1.52603897992,-1.35137957371,-1.92097816733,0.165524845307,-0.0990129525469,0.21853824156,0.299185382507,-0.426594394308,0.0253729621548,1.15141988029,1.26900192994,0.728048026085,0.476610809504,-1.39089681546,-0.372534413572,-0.0432116346981,-0.189998095128,0.970025799684,-2.02820159252,1.22820183527,-0.671672025165,0.0876034496058,0.626749737146,-0.784276499578,0.256968481068,1.22561467643,-0.34578350087,1.94558556393,-0.846813323676,-1.53968811837,0.642090142391,-1.20295398304,-0.955752921904,1.26393330037,-0.501061957679,-0.0871407751908,-0.282404868036,-0.360763898683,-0.369011565679,-0.488764821167,-2.59919832927,-1.10054793554,-0.453231281744,-0.247003986274,-0.145778610323,0.842514964975,-0.000718179111085,0.115473069085,0.382697806743,0.558580984116,2.06843078826,0.126371846808,-0.228716833334,1.12894413159,-0.789318325673,0.296869492351,-1.29353446207,-0.644498934258,-0.6637954203,0.671641730886,0.593535264509,0.171051106206,1.9246922525,1.19937917073,0.632879534571,-0.561482951662,-0.37756713157,-0.763287597071,3.03404649697,-0.139310705462,0.740463714402,0.508629162509,0.182023781774,0.615673041305,-0.899016869795,-0.282324974512,-0.302861010839,0.789743232421,-1.1020897444,-0.651617547459,0.341546501318,0.672266244161,-0.683836521108,-0.79513141375,1.4565050726,0.06363084509,0.246511413951,-0.761656417355,0.166857992903,1.25209301027,0.227911184778,0.0874726899956,0.765019344794,0.380959906099,0.18463504197,-0.956706032179,0.200374159493,1.15368540154,-0.423467704677,0.135705176162,-0.69021917436,1.38055437687,0.642315142441,0.33362537513,-0.892961974878,1.32755353928,-0.724506033397,1.12041779652,-0.0280697856645,1.23370351667,-1.67132348922,-1.72325081621,0.962146650882,0.0603217245473,0.747007097859
0.998230893526,-1.30320492939,0.184125946904,0.00705874389623,-0.811119465099,-1.86577858297,-0.445988689791,-1.24906328613,1.45649878262,0.130965427802,0.907520364383,0.201421846116,1.42180415321,1.07690243313,0.747783764457,0.695135154001,-0.370024314615,-0.243789481079,-1.86267447246,-0.0944771584725,-1.69384782358,-0.366491984881,-0.954513518654,-2.34882583895,-0.51974808194,-0.0561128580096,-0.979641624047,-1.1842081873,0.703828007518,0.599345531269,1.17679569532,-0.40626861388,1.89120945911,0.139307273286,-0.865993011441,-0.415697252245,-0.423495443538,-0.0751665973555,0.248040750328,0.689906799702,0.483048172036,-1.02156622831,1.63078318321,-0.0338711680408,-0.272675555267,-0.293439118356,0.436608600517,-0.909200445274,0.886023582899,0.494583687545,-0.658074691879,-0.814594191509,-0.286709877384,0.0525468274868,-1.05163156427,0.602701486865,-0.114967211429,-2.32683422573,0.414806225392,-0.790830413753,0.208400818047,-1.55441346569,-2.22294546563,-1.60814590607,0.232628661185,1.06479199847,-0.919772090723,-0.659744537567,-1.973910712,-0.451495998827,1.02061987167,-0.980272639513,1.70523183065,-0.466689225393,0.508224863854,-0.623149024834,-1.80250782662,-0.494676157607,-0.415100787333,-1.09583285511,1.17172428146,0.66200121786,-1.38218615244,0.503849727006,1.23079611917,0.5354725528,0.134989181462,-1.6790570927,-0.645607664652,-1.28456999763,0.793226906074,-1.0599320229,0.231955425542,-1.69934703166,0.112277816272,-1.25712706195,0.40491964524,0.0308788915034,1.75954505425,-0.989929278993,0.600179094002,-0.41458780286,1.1186356973,-0.290565775348,-1.66862474273,0.14833144054,-0.707672566215,0.337844244875,-0.459613831492,-0.165955571046,0.135569071619,-1.0223944748,0.460349562763,-0.19675670336,0.193229929493,0.26540019606,-0.231218243059,0.63048802063,1.01342397815,-2.06927515604,-0.049882922123,-0.848288020452,0.490507375236,-0.518498919267,-0.0206271361763,-1.03642128739,0.09850945715,-0.67377024699,-1.76679360609,-1.07306801456,2.41306740351,1.55622873141,-0.606706326887,0.629948653431,0.201761532961,0.588403477242,-0.368350483145,0.344535383971,-0.985709582556,-1.30427732289,-0.663272475256,1.30782087004,-1.45393685853,-0.572731848267,-0.306032077413,-0.960686052349,0.910615950088,0.48265515458,-0.121478403199,0.795847573105,-1.38486131353,-0.178728351867,-1.13778929845,-0.826705680517,1.02631866474,1.39699147535,0.221496706664,-0.775412315349,-0.524992286476,0.231521089336,0.0494796508915,-0.325236804256,-0.945535165292,0.16755062809,-0.33782140867,0.461549760862,-1.0539511379,1.24407910285,0.771787013407,0.0325797965644,-0.58513306686,-1.01747834641,-0.824779085566,1.29522496611,-1.16895107052,0.198987691061,0.368037953929,1.15049157658,-0.226182044828,-0.14990813293,-1.79000902545,0.572699341989,0.997346718173,-0.33189551439,-2.49568478367,-0.804955926206,-1.13384403979,0.912488767223,-0.159053356374,-0.240252996424,0.172760756907,-0.996782277596
