0.000738472422635,-0.000509629517378,0.000442034278028,0.000185487193508,2.5604844029e-06,0.000482829505383,0.000226998588061,-0.000101344967691,0.000545223562919,0.000440986814205,-8.09313376654e-05,0.000310821706752,9.27437196021e-05,-5.96381703572e-05,0.000637771634045,0.000318142270491,-8.28341709272e-05,0.000435569083726,8.68723603381e-05,-1.43760208429e-05,0.0005983808438,0.000597577797486,-0.000298190318527,0.00037148970433,0.000102349835244,-0.000305469516851,0.000873996864896,6.68932303101e-05,-0.000260188820633,0.000864172773612,-0.00022870692787,-0.000263297264471,0.00116288137564,0.000104334718628,-0.000147118395572,0.000713660860231,0.000414868445166,-0.000193310099688,0.000449318837817,0.000579757015989,-1.07758760831e-05,0.000101896043386,0.000575975819567,-9.05769144022e-05,0.000185478278127,0.000774004488068,-0.000173167284243,7.00399794693e-05,0.000579232312472,-0.000300294032045,0.000391938902864,0.00024697593419,9.14724741577e-05,0.000332428774948,-0.000254741815744,0.000453792171682,0.000471826827352,-0.000150141471101,0.000605774355179,0.000215244299213,-0.000101531167598,-2.64372618901e-05,0.000798845612776,0.000702481829313,-0.000204489155042,0.000172884509024,0.000735670275474,-0.000338154866629,0.000273361774447,0.00100092754644,-0.000145383126261,-0.000184667236891,0.000380096413993,-0.000307393575329,0.000598174344627,0.000335980168933,3.08751761924e-07,0.000334588262597,0.000245413083959,0.000155375194548,0.000270088904783,-9.88131291682e-324,0.000590938783949,7.99383993375e-05,-9.88131291682e-324,0.00069838165662,-2.75044733262e-05,0.000245657334512,4.48705732162e-05,0.000380349275564,0.000318063648284,-0.000137579783877,0.00049039331888,0.000409734715642,-0.000165605520101,0.000426747987755,0.000194875639952,2.81004111629e-05,0.000447901132177,0.000353097962464,-2.00841362796e-05,0.00033786335711,5.95200951706e-05,0.000251165552979,0.000360191535143,-9.88131291682e-324,0.000899596298005,-0.000228719114714,-9.88131291682e-324,-3.47652255809e-05,0.000705642408873,3.66176400075e-05,-0.000166264521655,0.000800524064935,0.00053571366762,-0.000286999888108,0.000422163403778,0.000325353726475,-0.00017538781408,0.000520911270897,0.000266532018938,-0.000155061054064,0.000559406218418,0.000669015104759,-0.000195941048947,0.000197803127476,-3.75348678156e-05,-3.48206320922e-05,0.000743232683197,0.000134398659235,0.000107680874649,0.000428797649413,0.000231109471538,-5.83535841223e-05,0.000498121295874,0.000426005659253,-4.97234993544e-05,0.000294595023394,0.000425910248678,0.000156626853788,8.83400808283e-05,-2.5588880581e-05,0.00035713381158,0.000339332252287,0.00016892315586,0.000263909632123,0.000238044395312,0.000581889897109,0.000162712513729,-7.37252275489e-05,0.000276005450381,4.56419194988e-05,0.000349229813413,4.07505668434e-05,0.00032410660787,0.000306020008581,-7.76828950879e-05,0.000168255228807,0.000580304849573,4.94665599536e-05,-0.000105624229535,0.000727034852874,-5.82347435715e-05,0.000141337130324,0.000587774796541,3.70963500436e-05,0.000198697473736,0.000435083359514,0.000108966143636,0.000291498651086,0.000270412388571,0.000133186761866,0.00019724061397,0.000340449807453,0.000393925847882,0.000171028041656,0.000105923293754,0.000174190450241,0.000251565961431,0.000245120771628,0.00017338157581,0.000202942655379,0.000294552952103,0.000388269716017,7.08618801947e-05,0.00021174558708,0.000551215178985,8.13310604138e-05,3.83309438919e-05,0.000671808908585,3.04604416788e-06,-3.97776945984e-06
0.000678319705225,-0.000468492218943,0.000405099459598,0.000170073831685,1.42059683067e-06,0.000443432517366,0.000208532435023,-9.3453287499e-05,0.000499847798356,0.000404978862031,-7.48922755794e-05,0.000284840359427,8.56229413279e-05,-5.50884983328e-05,0.000584392502883,0.00029208376833,-7.66218458593e-05,0.000399465023409,8.00155903295e-05,-1.36203007582e-05,0.000548531656309,0.000548392229719,-0.000273853764889,0.00034038848105,9.37001686844e-05,-0.000280451438663,0.000801678215863,6.15497463362e-05,-0.000239642569857,0.000793019769407,-0.000209731009206,-0.000242284307689,0.00106694226275,9.61364442289e-05,-0.000134925819903,0.00065371632155,0.000380817670505,-0.000177643246601,0.00041175252197,0.000532370174535,-1.03549141845e-05,9.29116855265e-05,0.00052889629174,-8.34575483213e-05,0.000169488202459,0.000710182993875,-0.000159136368891,6.38803208932e-05,0.000531549076953,-0.000275748507307,0.000359126376229,0.000226950588746,8.34773899352e-05,0.000304498967198,-0.000233845244881,0.000416288724378,0.000432483466375,-0.000137599271788,0.000555262837714,0.000197263379953,-9.29978084e-05,-2.38910639543e-05,0.000731815818232,0.000644212926221,-0.000188120782878,0.000158834802538,0.000675115067263,-0.000311015579499,0.000250827458113,0.000918897726075,-0.000133850915015,-0.000170119865185,0.000348927977267,-0.000282371219754,0.000548370188364,0.000308772074576,-3.70889355622e-07,0.000306525760658,0.000225560147253,0.000141722707187,0.000247644091437,9.88131291682e-324,0.000542067819439,7.2859126436e-05,-9.88131291682e-324,0.000639997498192,-2.50705523148e-05,0.00022553610214,4.05995375096e-05,0.000348791306226,0.000292117434668,-0.000126883321962,0.000449692833172,0.000376210598502,-0.000152465027417,0.000391181374789,0.000179337031591,2.52898998211e-05,0.000410300014468,0.000323940542557,-1.86897104384e-05,0.000309676113759,5.46644688455e-05,0.000230299323738,0.000329963153299,9.88131291682e-324,0.000824361021552,-0.000209434075678,9.88131291682e-324,-3.18744853122e-05,0.00064680143119,3.39623104118e-05,-0.000152673078566,0.000733637714028,0.000492204659359,-0.000263791762983,0.000386514049503,0.000298690737337,-0.000161301950673,0.000477538159216,0.000244905822441,-0.000142925278128,0.000512946401559,0.000614519654097,-0.000180553163568,0.000180960455344,-3.44141935021e-05,-3.2688419959e-05,0.000682029559345,0.00012376353938,9.81280603363e-05,0.000393035346164,0.000211939532119,-5.4167607723e-05,0.000457155021488,0.000391087509679,-4.61195117472e-05,0.000269958947947,0.000390640512532,0.000143459050894,8.08273824552e-05,-2.37501205091e-05,0.000327679453684,0.000310997612704,0.000155244976098,0.000242022072614,0.00021765989717,0.000534316539651,0.000149148329958,-6.85379237335e-05,0.000253809861416,4.16815913804e-05,0.000319435493079,3.72470786563e-05,0.000297282816104,0.000280397051116,-7.09560314229e-05,0.000154045005085,0.000531837972216,4.53351457882e-05,-9.6946065578e-05,0.000666537865667,-5.33955557556e-05,0.000129353219964,0.000538969281667,3.40164781547e-05,0.000181950646996,0.000398959820726,9.95966022368e-05,0.000267313660555,0.000248016683084,0.000122420104765,0.000180662688254,0.000311844152861,0.000361252000091,0.000156725981808,9.6948963981e-05,0.000159393870702,0.000230712087853,0.000224820987322,0.0001587850887,0.000185978496075,0.000270163361105,0.000356171481498,6.48929609394e-05,0.000193862503442,0.000504928213402,7.46732325128e-05,3.53254999647e-05,0.000616163101678,2.55845024874e-06,-3.79460604813e-06
0.000872270833548,-0.00060089329382,0.000524788489531,0.000219951989871,5.70017467467e-06,0.000570513864714,0.000268045701798,-0.000118663230994,0.000646783558453,0.000521126360027,-9.40055498643e-05,0.000369045219095,0.00010829043608,-6.95603103383e-05,0.000757435903518,0.000376187247656,-9.63084250294e-05,0.000516287206633,0.000101974698005,-1.57912538545e-05,0.000709982585107,0.000707306699848,-0.000352363981833,0.000441223311246,0.000121781811534,-0.00036121382823,0.00103559804596,7.86997463853e-05,-0.000305476707677,0.00102294299055,-0.000271146135269,-0.000309760802352,0.00137707296688,0.000122363674368,-0.000174375023353,0.000848177378237,0.00049075751717,-0.000228101114591,0.000533509626683,0.000685249132929,-1.14156760316e-05,0.000122332572361,0.000680793136464,-0.000106254606835,0.000221627499633,0.000916458328968,-0.000204336528159,8.40442284497e-05,0.000685609475888,-0.00035495533048,0.000465511883845,0.000291446038225,0.000109608806419,0.000395111184611,-0.000301329287371,0.000537560462449,0.000559934854177,-0.000178246622143,0.000718883048094,0.00025552960331,-0.000120685374846,-3.23526865286e-05,0.000949204090628,0.000832763990755,-0.000240709548523,0.000204111587022,0.000870772643993,-0.000398261953229,0.000323655338494,0.00118370959988,-0.000170843449069,-0.000216700121539,0.000449545315342,-0.000363042693447,0.000709663407362,0.000396394084534,2.241755498e-06,0.000397530189221,0.000289481634111,0.000186381706531,0.000320302688612,9.88131291682e-324,0.000700113753317,9.60522759413e-05,9.88131291682e-324,0.00082922508352,-3.30590542605e-05,0.000290474773641,5.47706365626e-05,0.000450920619054,0.000375795319223,-0.000161048654815,0.000581419364849,0.000484394431417,-0.000194622925615,0.000506394523456,0.000229213794457,3.46882988887e-05,0.000532263935917,0.000418204134769,-2.3036128691e-05,0.000400998023181,7.03112914707e-05,0.000297845850469,0.000428008887314,9.88131291682e-324,0.00106820001238,-0.00027203398314,-9.88131291682e-324,-4.12377277067e-05,0.000837403756966,4.23077206308e-05,-0.000196528684564,0.000950386993186,0.000632404999132,-0.000338515946946,0.000502276977066,0.000384761483503,-0.000206596903784,0.000618001449537,0.000314579193174,-0.000181748049727,0.000663334885804,0.00079023256234,-0.000229811509924,0.000235744976842,-4.45256225205e-05,-3.9120423721e-05,0.000879812075495,0.000157849587721,0.000129431264106,0.000508885177431,0.000273977519082,-6.73080535022e-05,0.000589496563678,0.000503818620296,-5.74601150746e-05,0.000349807524038,0.000504735124258,0.00018618716553,0.000105243739463,-2.95282426892e-05,0.000422888989373,0.000402805282575,0.000199291738287,0.000312845860846,0.000284028430127,0.000687819330749,0.000193082132849,-8.47354343346e-05,0.000325186714033,5.46024279106e-05,0.000416376887313,4.86585231381e-05,0.000384046782644,0.000363460723476,-9.29068267605e-05,0.00020018871006,0.000688884145959,5.87165148212e-05,-0.00012498099552,0.000862430509956,-6.906381451e-05,0.00016829744489,0.000696932398878,4.39709763075e-05,0.000236316855644,0.00051587819731,0.000130119788252,0.00034557730356,0.000320468937446,0.000157073745386,0.000234444118505,0.000404648165367,0.000466980759759,0.000203076490252,0.000126108779239,0.000207494658072,0.000298184486166,0.000290486885021,0.000206144290828,0.000240957927072,0.00034906381136,0.000459965472422,8.4265743285e-05,0.000251934813548,0.000655066016847,9.6160552566e-05,4.49394598448e-05,0.000796172031857,4.28559291428e-06,-4.2915955098e-06
0.00067689516367,-0.00046751719659,0.000404226785481,0.000169709431462,1.39563436147e-06,0.000442499686742,0.000208095034403,-9.3265604376e-05,0.000498775322531,0.000404126282824,-7.47480516064e-05,0.000284226521345,8.54533315134e-05,-5.49800858407e-05,0.000583131506896,0.000291466934867,-7.64735658383e-05,0.000398611383534,7.98527105449e-05,-1.36015071717e-05,0.000547353549187,0.000547228510087,-0.000273277556483,0.00033965379896,9.34959816294e-05,-0.000279859276732,0.000799968047667,6.14229432876e-05,-0.00023915459642,0.000791336405697,-0.000209282392544,-0.000241785745225,0.00106467289034,9.59416055798e-05,-0.000134637533201,0.000652300680189,0.000380011793095,-0.000177272035559,0.000410864995022,0.00053124826698,-1.03439475269e-05,9.2700433106e-05,0.000527781685179,-8.32884081953e-05,0.00016911147558,0.000708673238711,-0.000158803947274,6.37354611284e-05,0.000530420905584,-0.000275167428185,0.000358351275161,0.000226476112135,8.32892364572e-05,0.000303839403975,-0.000233350721976,0.000415401739185,0.000431553735354,-0.000137302940898,0.000554069162448,0.000196838531014,-9.27963020852e-05,-2.38316146747e-05,0.000730232669323,0.000642835269096,-0.000187732514295,0.000158501997765,0.00067368236929,-0.000310371990346,0.000250294373619,0.000916956173996,-0.000133577158443,-0.00016977426299,0.000348190259762,-0.000281778608475,0.000547193101274,0.000308127377201,-3.85565132897e-07,0.000305862940496,0.000225089684454,0.00014140154319,0.000247113524924,-9.88131291682e-324,0.000540912041588,7.26927109756e-05,9.88131291682e-324,0.000638618127019,-2.50133744522e-05,0.000225059804121,4.04997356887e-05,0.000348045212754,0.000291503042999,-0.000126628914086,0.000448730623654,0.000375416989589,-0.000152153111721,0.000390340874698,0.000178968294897,2.52244741505e-05,0.000409411983518,0.00032325088268,-1.86561789959e-05,0.00030901004888,5.45494566663e-05,0.000229806065043,0.000329249230858,-9.88131291682e-324,0.000822583532776,-0.000208978780211,9.88131291682e-324,-3.18061670574e-05,0.000645410919624,3.38987018992e-05,-0.000152351313465,0.000732057364122,0.000491173987693,-0.000263241786704,0.000385672551579,0.000298059644696,-0.000160967951196,0.000476513059065,0.000244393481042,-0.000142636835237,0.000511848106762,0.000613229095437,-0.000180187534748,0.000180563191871,-3.43404496469e-05,-3.26364243437e-05,0.000680581626554,0.000123510989949,9.79035220762e-05,0.000392190240537,0.000211486312307,-5.40672676355e-05,0.000456185707893,0.000390261057945,-4.60332134934e-05,0.000269376908115,0.000389806510315,0.000143148117629,8.0650124623e-05,-2.37060616309e-05,0.000326982716179,0.000310328098014,0.000154920862299,0.000241504577017,0.000217179313247,0.000533190280064,0.000148827772043,-6.84132995434e-05,0.000253283590883,4.158831649e-05,0.000318732845187,3.71644991793e-05,0.000296648499561,0.000279791753822,-7.07976026114e-05,0.000153709573865,0.000530692781309,4.52375129151e-05,-9.67407256436e-05,0.000665107965292,-5.32811707823e-05,0.000129070440922,0.000537815482427,3.39436312466e-05,0.000181555285849,0.000398105835465,9.93757699135e-05,0.000266741865558,0.000247487117093,0.000122164927143,0.000180271197414,0.000311168628008,0.00036047948893,0.000156388077058,9.67371865766e-05,0.000159044777277,0.000230219010083,0.000224340965205,0.000158440416353,0.000185577696708,0.000269586639507,0.000355412340017,6.47520325715e-05,0.000193440379976,0.000503835054009,7.45156306716e-05,3.52540678836e-05,0.000614847283067,2.54742469123e-06,-3.78995519653e-06
-1.35812600762,0.913300920055,0.424232634731,0.743312697711,-0.634112690266,-0.129792460272,0.172856550335,-0.382149028739,0.188700025574,-0.945780650938,0.871363051365,0.0538251467341,0.159061232854,0.721059462827,-0.900713148498,-0.0490285717952,0.0899419172082,-0.0615057982453,-0.358860929937,-0.546802088555,0.885070565659,1.45207005195,0.0609459668307,-1.53360847157,0.806061226754,-0.397825727852,-0.428827951732,0.397452286402,-0.170564552845,-0.24748018639,0.908916402335,-0.107766534142,-0.82174232104,0.566070307753,-0.353975647375,-0.232687113201,0.384615032341,-0.210617916668,-0.194589568501,-0.338780679766,0.193367792386,0.12482043455,-0.930388593938,-0.110681146602,1.0204772877,0.182526454507,-0.440714469546,0.237595562207,-0.0365803599966,0.480990601039,-0.465002693871,-0.171418938614,0.0323958542194,0.118430631568,0.0670644213077,0.0497608431037,-0.137417717242,0.169964195784,-0.0462469161286,-0.144309732488,-0.379716624726,-0.220756566225,0.579880738127,-0.262166164171,-0.0295158551983,0.271089566539,-0.231532133092,0.416707766127,-0.205768085865,0.114961247718,-0.274067241146,0.138513540594,-0.514406721553,-0.611828624627,1.10564289335,-0.611255708888,0.431016376835,0.159646879214,-0.0631440913237,0.589315461227,-0.546763822732,-9.88131291682e-324,-0.516617314305,0.496024861475,-9.88131291682e-324,-0.172133968591,0.151541515759,-0.346272847771,0.366624394891,-0.0409439999525,-0.584522026525,-0.139407254467,0.70333682817,-0.147222071123,-0.753152903845,0.879782522148,0.278008031058,-0.274049090297,-0.0245513935932,-0.0686097416538,-0.0640030745289,0.112020363351,0.490193235831,-0.0732625661558,-0.437523122497,9.88131291682e-324,0.393401161654,-0.413993614484,9.88131291682e-324,0.554004192098,-0.574596644929,1.15960681559,0.086418914191,-1.2666181826,0.165260603955,-0.239050610616,0.0531975538229,2.43224222096,0.0184838624534,-2.47131853624,0.987397673911,-0.765723907634,-0.242266219109,-0.457425300757,0.984145682083,-0.547312834141,0.562539373624,0.77604913733,-1.35918096379,1.53260961028,-0.454769244962,-1.09843281813,-0.435164779769,0.00571613980731,0.408856187133,-0.258247294923,0.215905570579,0.0217492715086,-0.0770918797298,0.228389763512,-0.171890336611,0.520936262461,-0.531478855262,-0.0100498600282,-0.0730200499705,-0.0581449975697,0.110572594711,-0.396082361896,0.767420248604,-0.391930339534,0.0901225106427,0.20511169911,-0.31582666258,0.0532278818206,0.528559317425,-0.60237965208,0.355491517054,0.303738720894,-0.679822690778,0.262376648446,-0.311377885974,0.0284087846976,0.322467292109,-0.389197846697,0.0461381017616,0.0987259815894,-0.0549764602452,-0.0643419741757,-0.0429466421369,-0.139792934242,0.162147123549,-0.00182689149743,-0.0275165743638,0.00875101303109,0.41865938302,-0.3887302654,-0.0505215704466,-0.28134517206,0.195573868662,0.0651788505713,-0.886547191814,1.00742506429,-0.141470325303,-0.245778041635,-0.102903082819,0.328088671625,-0.170282204697,0.0358418379651,0.1138479139,0.206716762201,0.0470799536761,-0.27438916871
0.000733581886463,-0.000506287454799,0.000439025175396,0.0001842321539,2.46153856087e-06,0.000479625914595,0.000225497518633,-0.000100705800741,0.000541527889165,0.000438058796054,-8.0444071677e-05,0.000308704882682,9.21678010343e-05,-5.92703287117e-05,0.000633422134729,0.000316022786458,-8.23326708631e-05,0.000432629491463,8.63164296212e-05,-1.43173429838e-05,0.000594320520415,0.000593575531767,-0.000296211294075,0.000368955369363,0.000101644586028,-0.000303434510064,0.000868109531091,6.64595980252e-05,-0.000258522670346,0.000858382679376,-0.000227161760497,-0.000261591740592,0.00115507310814,0.000103670307984,-0.000146125698638,0.000708774997708,0.000412098469223,-0.000192036935012,0.000446258072842,0.00057590342088,-1.07447284263e-05,0.000101160914599,0.000572147132589,-8.99997513e-05,0.000184172225767,0.000768810523732,-0.000172026970183,6.95360535053e-05,0.000575352285605,-0.000298297777925,0.000389265099376,0.0002453485661,9.08187964579e-05,0.000330152244495,-0.000253041790967,0.000450739443502,0.000468621954523,-0.000149119619653,0.000601659824843,0.00021377940187,-0.000100835593075,-2.62276307727e-05,0.000793382830905,0.000697737446134,-0.000203160322622,0.000171742483544,0.000730742773029,-0.000335951083559,0.000271527917583,0.00099425501216,-0.000144447532419,-0.000183487872685,0.000377561083759,-0.000305359298385,0.00059411782168,0.000333769187055,2.49118126971e-07,0.000332301301873,0.000243799938968,0.000154258575161,0.000268261092927,-9.88131291682e-324,0.000586960580893,7.93590261633e-05,9.88131291682e-324,0.000693624760927,-2.73051538744e-05,0.00024402078273,4.4519179035e-05,0.000377779645289,0.000315953961045,-0.000136713508572,0.000487079154584,0.000407008178793,-0.000164539387649,0.000423850815911,0.000193614639038,2.78684163431e-05,0.000444836551674,0.000350724791852,-1.9972331e-05,0.000335567146208,5.91253965525e-05,0.000249466317299,0.0003577278932,9.88131291682e-324,0.000893466450241,-0.000227146843186,9.88131291682e-324,-3.45297665837e-05,0.000700849373639,3.64039948423e-05,-0.000165159174379,0.000795074786593,0.000532177188363,-0.000285114127943,0.000419256546634,0.000323184918172,-0.000174243886433,0.000517378575313,0.000264774347126,-0.000154077597972,0.000555622857901,0.000664584492508,-0.000194693711739,0.000196428826286,-3.72806510843e-05,-3.46518987095e-05,0.000738252156848,0.000133536125761,0.000106898994048,0.000425884487249,0.000229548556387,-5.80169736116e-05,0.000494788024281,0.000423165252704,-4.94334073248e-05,0.000292587761676,0.000423038866094,0.000155553481032,8.77272599294e-05,-2.54409632261e-05,0.000354736633585,0.000337023936699,0.000167811668431,0.000262127516739,0.000236380421882,0.00057802092781,0.000161607652542,-7.33089732969e-05,0.000274202858593,4.53183551766e-05,0.000346798393285,4.04645245873e-05,0.000321922920282,0.000303932162184,-7.71332793854e-05,0.000167096527686,0.000576356358754,4.91300311446e-05,-0.000104918127598,0.000722107703506,-5.78406361703e-05,0.000140359653329,0.000583800589898,3.68456789662e-05,0.000197332098849,0.000432141829236,0.00010820112215,0.000289529415239,0.000268589069672,0.00013231203581,0.000195889376006,0.000338118195241,0.000391265471029,0.00016986279709,0.000105191338946,0.000172983386597,0.00024986807817,0.000243468142289,0.000172191765886,0.000201560512544,0.000292567328627,0.000385656948914,7.0375274824e-05,0.000210287383318,0.000547442666343,8.07895523011e-05,3.80873884118e-05,0.000667278660067,3.00479256408e-06,-3.96384557427e-06
0.000677879250645,-0.000468190755364,0.000404829627169,0.000169961159558,1.41286864782e-06,0.000443144094247,0.000208397195353,-9.33952615819e-05,0.00049951618868,0.000404715251905,-7.48476888655e-05,0.000284650559407,8.5570504404e-05,-5.50549815229e-05,0.000584002599566,0.000291893047924,-7.65760048225e-05,0.000399201079349,7.99652319147e-05,-1.36144943896e-05,0.000548167384925,0.000548032413366,-0.000273675606143,0.000340161315229,9.36370327638e-05,-0.000280268346314,0.000801149436,6.15105413162e-05,-0.000239491700044,0.000792499281181,-0.000209592297428,-0.000242130161563,0.00106624058145,9.60762053687e-05,-0.000134836682156,0.000653278599237,0.000380568498383,-0.000177528472626,0.000411478096692,0.000532023289935,-1.03515283209e-05,9.2846360834e-05,0.00052855166443,-8.34052544857e-05,0.000169371712506,0.000709716183815,-0.000159033588022,6.38355266519e-05,0.000531200251922,-0.000275568842193,0.000358886712721,0.000226803886277,8.34192088315e-05,0.000304295027342,-0.000233692341416,0.000416014471273,0.000432195992592,-0.000137507645695,0.000554893752233,0.000197132015909,-9.29355017121e-05,-2.3872678607e-05,0.000731326302765,0.000643786956647,-0.000188000737069,0.000158731902874,0.000674672084017,-0.000310816592225,0.000250662630664,0.000918297411451,-0.000133766275328,-0.000170013013678,0.000348699880027,-0.000282187990184,0.000548006232603,0.000308572742073,-3.75433971996e-07,0.00030632081435,0.000225414686166,0.000141623395719,0.000247480040562,-9.88131291682e-324,0.000541710456168,7.28076662817e-05,-9.88131291682e-324,0.000639570993643,-2.50528711964e-05,0.000225388834298,4.05686731033e-05,0.000348560615048,0.000291927470315,-0.000126804666891,0.000449395319029,0.0003759652207,-0.000152368589654,0.000390921491404,0.000179223025443,2.52696652387e-05,0.000410025431768,0.000323727302147,-1.86793453531e-05,0.000309470165658,5.4628908273e-05,0.000230146808454,0.000329742405725,-9.88131291682e-324,0.000823811418142,-0.000209293295693,-9.88131291682e-324,-3.185336127e-05,0.00064637148372,3.3942646845e-05,-0.00015257359135,0.000733149066951,0.000491885986989,-0.000263621717374,0.000386253852832,0.000298495607856,-0.000161198683308,0.000477221197898,0.000244747412322,-0.00014283609951,0.000512606809639,0.000614120625721,-0.000180440120639,0.000180837617369,-3.43913918236e-05,-3.26723508335e-05,0.000681581865109,0.000123685456911,9.80586269072e-05,0.000392774038633,0.000211799397143,-5.41365895015e-05,0.000456855314813,0.000390831976358,-4.60928338458e-05,0.000269778979939,0.000390382640836,0.000143362908837,8.07725727748e-05,-2.37365004643e-05,0.000327464025173,0.00031079059774,0.00015514476414,0.00024186206376,0.000217511294552,0.000533968309141,0.000149049213214,-6.84993999049e-05,0.00025364714674,4.1652749137e-05,0.000319218226567,3.72215439488e-05,0.000297086686946,0.000280209891554,-7.09070424283e-05,0.000153941287559,0.000531483877322,4.53049576139e-05,-9.68825755757e-05,0.000666095740412,-5.33601879481e-05,0.000129265782337,0.000538612528058,3.39939541319e-05,0.000181828399017,0.000398695769304,9.95283177761e-05,0.000267136862311,0.000247852942363,0.000122341207277,0.000180541637567,0.000311635277602,0.000361013140769,0.000156621500963,9.68834807179e-05,0.000159285927849,0.00023055962906,0.000224672565536,0.000158678514359,0.00018585456808,0.000269985040007,0.000355936757244,6.48493851267e-05,0.00019373198008,0.00050459020414,7.46245031915e-05,3.53034151183e-05,0.000615756253365,2.55503867719e-06,-3.79316959277e-06
0.000710718659393,-0.000490657504592,0.000424972270586,0.000178369306623,2.01370199116e-06,0.000464650416774,0.000218479393551,-9.77119603159e-05,0.000524265992154,0.000424371494253,-7.81573611407e-05,0.000298819292275,8.94682915731e-05,-5.75458425797e-05,0.000613110976398,0.000306116259713,-7.99797650956e-05,0.00041889693077,8.37138361152e-05,-1.40365336212e-05,0.000575356122895,0.00057487290247,-0.000286960349138,0.000357120872053,9.83522733008e-05,-0.000293923191809,0.000840604343897,6.44304719992e-05,-0.000250723327529,0.000831326280923,-0.000219943726659,-0.000253611684357,0.00111858883641,0.000100559187793,-0.000141488174642,0.000685962412244,0.000399152545308,-0.000186083525693,0.000431964405773,0.000557890105103,-1.05918820441e-05,9.7735202325e-05,0.000554250450873,-8.72976357624e-05,0.00017808061028,0.000744540864399,-0.000166695011956,6.71875729481e-05,0.000557220891535,-0.00028896684647,0.000376779380326,0.000237738897796,8.77714603227e-05,0.000319523067271,-0.000245096761128,0.00043647646975,0.000453653716765,-0.00014434751571,0.000582442847264,0.00020693809384,-9.75880071607e-05,-2.52537600951e-05,0.000767875192649,0.00067557393749,-0.00019694345853,0.000166402946429,0.000707716698071,-0.000325642081069,0.000262958808391,0.000963068815329,-0.000140068951231,-0.00017796643871,0.00036571141138,-0.000295848854992,0.000575170869003,0.000323430295846,-1.93858082787e-08,0.00032162251535,0.000236256289784,0.000149053993534,0.000259723142073,9.88131291682e-324,0.000568374003905,7.66594214866e-05,9.88131291682e-324,0.000671410151576,-2.63767261863e-05,0.000236371443771,4.28861660476e-05,0.000365775815574,0.000306091670227,-0.000132655768475,0.000471597523637,0.000394263884642,-0.000159550031638,0.000410319572386,0.000187714011943,2.67920518011e-05,0.000430527361643,0.000339636370883,-1.94459724272e-05,0.000324843026934,5.72799978503e-05,0.000241528911004,0.000346224516536,-9.88131291682e-324,0.000864840145861,-0.000219806720469,9.88131291682e-324,-3.34300251928e-05,0.000678463450579,3.53999421668e-05,-0.000159992472685,0.00076962595591,0.00051564207477,-0.000276295613277,0.000405686963896,0.000313048225665,-0.00016889302788,0.000500878227602,0.000256555875019,-0.000149472424337,0.00053794997471,0.000643871463426,-0.000188853669465,0.000190015631424,-3.60933707337e-05,-3.38522285829e-05,0.000714979024708,0.000129498796476,0.000103255962692,0.000412278666223,0.000222256838426,-5.64345959145e-05,0.000479211182881,0.00040988987561,-4.80703777288e-05,0.000283213927513,0.000409624292233,0.000150542063428,8.48670697293e-05,-2.47457516231e-05,0.00034353567104,0.000326243505976,0.000162614115461,0.000253802276321,0.000228617033605,0.000559936243976,0.00015644728521,-7.13501037967e-05,0.000265771159341,4.38094054196e-05,0.000335452860629,3.91300984981e-05,0.000311720914436,0.000294182412458,-7.45701949474e-05,0.000161687550892,0.000557916069442,4.75582514685e-05,-0.000101618402162,0.000699093576085,-5.59997676875e-05,0.000135797380845,0.000565235812231,3.56744186526e-05,0.000190957970013,0.000418401036726,0.000104632302598,0.000280330174103,0.000260070948688,0.000128221221844,0.000189580378988,0.000327231824558,0.000378837452322,0.00016442105876,0.000101774914311,0.000167349937766,0.000241936172575,0.000235747315048,0.000166636653438,0.00019510587133,0.000283290900622,0.000373449595566,6.81034995153e-05,0.000203480330303,0.000529828015951,7.82585056827e-05,3.69469037563e-05,0.000646114178629,2.81572249786e-06,-3.89647573716e-06
0.000758421951384,-0.000523257943786,0.000454320479852,0.000190610230987,2.97562620829e-06,0.000495898630253,0.000233121259151,-0.000103947777747,0.000560311006049,0.00045293171912,-8.29121613114e-05,0.000319464929641,9.50874559058e-05,-6.11349007759e-05,0.000655531932316,0.000326789683718,-8.4873334166e-05,0.000447568137898,8.91372812461e-05,-1.46103089809e-05,0.000614957515182,0.000613910084992,-0.000306263955956,0.000381838358412,0.000105230377752,-0.000313772565496,0.000898026675196,6.86606134352e-05,-0.000266977508699,0.000887801382717,-0.000235014386719,-0.00027024918996,0.00119474806413,0.000107041065284,-0.000151170418594,0.000733613840762,0.00042617063413,-0.000198502528284,0.000461816381604,0.000595478360848,-1.08972797686e-05,0.000104903406366,0.000591595715189,-9.29282595915e-05,0.000190817031855,0.000795201211171,-0.000177818094911,7.21013711946e-05,0.000595065776172,-0.000308438390449,0.000402857101722,0.000253612944728,9.41456899281e-05,0.000341725852794,-0.000261678601046,0.000466251548279,0.000484911540219,-0.000154313767928,0.000622572797492,0.000221225457881,-0.0001043718654,-2.72971990586e-05,0.000821153551906,0.0007218480277,-0.000209906160208,0.000177542619959,0.00075577839129,-0.000347139616984,0.000280845713137,0.00102815236584,-0.000149195957827,-0.000189471920569,0.000390440877446,-0.000315691657304,0.000614735267303,0.000344997223543,5.60046626482e-07,0.000343927217284,0.000251991716777,0.000159942316142,0.00027755045453,-9.88131291682e-324,0.000607175696905,8.23087905502e-05,-9.88131291682e-324,0.000717804692445,-2.83202049946e-05,0.000252334360744,4.63116099252e-05,0.000390838516784,0.000326669880585,-0.000141107327888,0.000503921934753,0.000420858588001,-0.000169950454284,0.000438576353735,0.000200015255889,2.90531841767e-05,0.000460416047388,0.000362783418726,-2.05373515549e-05,0.000347238420279,6.11299952845e-05,0.000258102186894,0.000370252305268,9.88131291682e-324,0.000924625226486,-0.000235140739033,9.88131291682e-324,-3.57265201531e-05,0.000725211007605,3.74850253711e-05,-0.000170774085443,0.000822773547517,0.000550138071592,-0.000294690274775,0.000434036690631,0.000334202682874,-0.000180051795528,0.000535333600106,0.000273700862698,-0.000159066911978,0.000574850536732,0.00068708855314,-0.000201022375224,0.000203418309531,-3.85728034312e-05,-3.55004680362e-05,0.000763557758916,0.000137913211068,0.000110879907831,0.000440691368548,0.000237481118258,-5.97198786863e-05,0.000511723247879,0.000437595021091,-5.09014991248e-05,0.000302790965484,0.000437630355826,0.000161010528467,9.08436031572e-05,-2.61893836384e-05,0.000366916968406,0.000348756902682,0.000173456084326,0.000271184054028,0.000244844349102,0.000597674366843,0.000167223266512,-7.54131459056e-05,0.000283355008427,4.69647026462e-05,0.000359164776381,4.19195937766e-05,0.000333019585707,0.000314545307969,-7.99298728598e-05,0.000172988024236,0.000596426336073,5.08404912496e-05,-0.000108505587794,0.000747149583992,-5.98436302532e-05,0.000145330270399,0.000603997847299,3.81193654303e-05,0.000204274160129,0.000447090961892,0.000112092802505,0.000299536991426,0.000277854693517,0.000136753792686,0.000202758875983,0.00034997181878,0.0004047852983,0.000175785829352,0.000108913359799,0.000179121794883,0.000258496430838,0.000251866261731,0.000178240711876,0.000208586078119,0.000302657697454,0.000398933458663,7.28492708269e-05,0.000217701757963,0.000566621111133,8.35403765868e-05,3.93229997296e-05,0.000690299999784,3.21727395176e-06,-4.03278628364e-06
7.21635405561e-05,-5.02437603244e-05,4.21109192065e-05,1.77498274822e-05,-8.34162365304e-07,4.71150343211e-05,2.21947085549e-05,-1.03275237484e-05,5.21635146315e-05,4.29788166455e-05,-8.55314729963e-06,2.96050300922e-05,9.5533351331e-06,-6.18956026767e-06,6.06669245721e-05,3.09070369311e-05,-8.72136886398e-06,4.18450313711e-05,8.73531269253e-06,-1.89315222607e-06,5.71885389715e-05,5.77947937922e-05,-2.90983583068e-05,3.53342639526e-05,9.62410983652e-06,-2.97035692377e-05,8.41101588391e-05,6.6450883176e-06,-2.61885667371e-05,8.35741778574e-05,-2.1954996383e-05,-2.62428026862e-05,0.000112228498506,1.05296003789e-05,-1.41350674764e-05,6.76361665351e-05,4.02184677064e-05,-1.8975950161e-05,4.27881818926e-05,5.64437164109e-05,-1.58457129365e-06,9.17155432062e-06,5.60838367329e-05,-9.16497439767e-06,1.71118371026e-05,7.47248388234e-05,-1.70198681866e-05,6.32572880116e-06,5.60054902145e-05,-2.92585969505e-05,3.72838061739e-05,2.42250029433e-05,8.30466941679e-06,3.15010270778e-05,-2.47393144011e-05,4.37149623996e-05,4.50550514395e-05,-1.43152377826e-05,5.78340471885e-05,2.05118900317e-05,-9.61934707837e-06,-2.12360755137e-06,7.57736540678e-05,6.74200486485e-05,-2.0317852454e-05,1.6928503243e-05,7.11552976272e-05,-3.35218360055e-05,2.63972378164e-05,9.72287213195e-05,-1.45810094406e-05,-1.86170124409e-05,3.68833472319e-05,-3.00613035046e-05,5.720865571e-05,3.30147871607e-05,-7.36200511845e-07,3.17521127889e-05,2.41389545632e-05,1.40141214256e-05,2.58776234489e-05,9.88131291682e-324,5.68816808283e-05,7.14901860934e-06,-9.88131291682e-324,6.65132139825e-05,-2.48251454477e-06,2.38624093886e-05,3.66789072061e-06,3.65003993285e-05,3.10295224072e-05,-1.4048249548e-05,4.70494265787e-05,3.98595296741e-05,-1.66092346918e-05,4.07804044559e-05,1.94240243579e-05,2.13609225386e-06,4.2470582826e-05,3.40369296674e-05,-2.25312497503e-06,3.22468947452e-05,5.78919722262e-06,2.40737614913e-05,3.41677407235e-05,-9.88131291682e-324,8.56137472603e-05,-2.15830478225e-05,9.88131291682e-324,-3.33534760281e-06,6.73660470405e-05,3.95373511712e-06,-1.61927733982e-05,7.62697377196e-05,5.24944498395e-05,-2.8248580403e-05,3.97848300013e-05,3.16017728936e-05,-1.73825964364e-05,4.98115229808e-05,2.61416299338e-05,-1.57470613301e-05,5.3636130834e-05,6.53788276552e-05,-1.98326313984e-05,1.84845031811e-05,-3.60560928383e-06,-4.23990616373e-06,7.18762148852e-05,1.34940688909e-05,9.60600252072e-06,4.09306280262e-05,2.21886781532e-05,-6.37794127736e-06,4.82199625617e-05,4.13799962758e-05,-5.39116617343e-06,2.80418693351e-05,4.09484102302e-05,1.48353183534e-05,8.24697085452e-06,-2.79761796429e-06,3.44799935556e-05,3.23483238466e-05,1.65979812628e-05,2.53319935053e-05,2.21007246701e-05,5.66555846593e-05,1.55354984998e-05,-8.16038372103e-06,2.73009015936e-05,4.17014921103e-06,3.25596486332e-05,3.7620550806e-06,3.11799187496e-05,2.90887256079e-05,-7.12985691344e-06,1.58514455127e-05,5.53091108385e-05,4.70763843973e-06,-1.02421856767e-05,6.95652466749e-05,-5.58369659351e-06,1.32613552268e-05,5.63530408048e-05,3.53928830338e-06,1.87690093649e-05,4.17224017693e-05,1.00638775756e-05,2.79690536544e-05,2.59977682082e-05,1.30996869313e-05,1.86751832651e-05,3.22558292415e-05,3.78087216296e-05,1.62754014414e-05,9.94657636713e-06,1.63112943985e-05,2.41584126149e-05,2.35609924244e-05,1.63762068473e-05,1.93279733129e-05,2.83265192774e-05,3.73840209817e-05,6.69480649225e-06,1.99518719642e-05,5.22419059691e-05,7.90808527513e-06,3.88070819361e-06,6.45620732726e-05,1.84773529647e-08,-5.49851187978e-07
0.000739601385263,-0.000510400958035,0.000442729075295,0.000185776962475,2.58348361554e-06,0.000483569056439,0.000227345097635,-0.000101492455567,0.000546076860453,0.000441662749035,-8.10437275381e-05,0.000311310481025,9.28765922264e-05,-5.97230335407e-05,0.00063877594384,0.0003186315676,-8.2949850453e-05,0.000436247785379,8.70006560904e-05,-1.43894968842e-05,0.000599318343314,0.000598501791124,-0.000298647179798,0.000372074891197,0.000102512690026,-0.000305939315809,0.000875356128306,6.69933123482e-05,-0.000260573337207,0.000865509527384,-0.000229063684379,-0.000263690906275,0.00116468409316,0.000104488041703,-0.000147347591746,0.000714789052564,0.000415507923592,-0.000193603990407,0.00045002556934,0.000580646628141,-1.07829889139e-05,0.00010206586329,0.000576859683863,-9.07101089075e-05,0.000185779927569,0.000775203625508,-0.000173430511017,7.01563880308e-05,0.000580128085175,-0.000300754876719,0.000392556294061,0.000247351587567,9.16234655045e-05,0.00033295444945,-0.000255134288007,0.000454496974177,0.000472566816352,-0.000150377415913,0.000606724377106,0.00021558254133,-0.000101691783718,-2.64857203919e-05,0.000800107006631,0.000703577229325,-0.000204795862109,0.000173148135302,0.000736807878459,-0.000338663534177,0.000273785158238,0.00100246796113,-0.000145599054598,-0.000184939404005,0.000380681717658,-0.000307863178567,0.000599110963428,0.000336490538623,3.22628163471e-07,0.000335116335737,0.000245785449021,0.000155633129311,0.000270510924188,-9.88131291682e-324,0.000591857260947,8.00722415761e-05,9.88131291682e-324,0.000699480024469,-2.75505219491e-05,0.000246035142907,4.49517958225e-05,0.000380942563796,0.000318550667119,-0.000137779675705,0.000491158511109,0.000410364150899,-0.0001658515774,0.000427416929027,0.000195166678937,2.81540542999e-05,0.000448608769287,0.00035364586606,-2.01099068532e-05,0.00033839354332,5.96112078237e-05,0.000251557885189,0.000360760409512,-9.88131291682e-324,0.000901011680076,-0.000229082177557,-9.88131291682e-324,-3.4819591485e-05,0.000706749094009,3.66669027974e-05,-0.000166519695558,0.000801782295282,0.000536530028618,-0.000287435181227,0.000422834655131,0.000325854414518,-0.000175651853527,0.000521726941531,0.000266937756473,-0.000155288000853,0.000560279746899,0.000670037896214,-0.000196228898594,0.0001981205049,-3.7593565559e-05,-3.48594675008e-05,0.000744382535579,0.000134597718474,0.000107861500266,0.000429470283776,0.000231469862697,-5.8431196024e-05,0.000498890835848,0.000426661394456,-4.97903927075e-05,0.000295058500775,0.000426573194735,0.000156874708724,8.84815990608e-05,-2.56229871896e-05,0.00035768725398,0.000339865235732,0.00016917972417,0.000264321092787,0.000238428685562,0.000582783063883,0.000162967618917,-7.3821180276e-05,0.000276421522942,4.57166528817e-05,0.000349791326697,4.08166288632e-05,0.000324610776292,0.000306502097366,-7.78098401218e-05,0.000168522795896,0.000581216546748,4.95442623445e-05,-0.000105787244562,0.000728172484734,-5.83257388016e-05,0.000141562856937,0.000588692384383,3.71542231597e-05,0.000199012761987,0.000435762517374,0.00010914282804,0.000291953316255,0.000270833358223,0.000133388673357,0.000197552628431,0.000340988200736,0.000394540085149,0.000171297095989,0.000106092321389,0.000174469199041,0.000251957972583,0.000245502330895,0.000173656316657,0.000203261791673,0.000295011394192,0.000388872942245,7.09742445238e-05,0.000212082315753,0.000552086283755,8.14560709612e-05,3.83871478067e-05,0.000672854854383,3.05560746967e-06,-3.98095933061e-06
0.000771559529107,-0.00053222882484,0.000462421484648,0.000193986991235,3.2591295363e-06,0.000504506068146,0.000237152833636,-0.000105657895003,0.000570257250287,0.000460798710147,-8.42106116506e-05,0.000325164090423,9.66260152519e-05,-6.21172473189e-05,0.000667243420988,0.00033248574694,-8.62104476667e-05,0.000455476889645,9.06263276608e-05,-1.47601472535e-05,0.000625886008515,0.000624671002699,-0.000311581467109,0.000388662653335,0.000107130557857,-0.000319242070774,0.000913863701835,6.98231876391e-05,-0.000271441213279,0.000903370214557,-0.000239171968258,-0.000274822696339,0.00121574685352,0.00010881985097,-0.000153841126597,0.000746773464541,0.000433616096136,-0.000201921002915,0.000470057095703,0.000605833003458,-1.09722644272e-05,0.000106891449889,0.00060188369265,-9.44740673135e-05,0.000194342563581,0.000809168406115,-0.000180880172302,7.34639551078e-05,0.000605498031352,-0.00031380285708,0.000410057014644,0.000257982477423,9.59120173605e-05,0.000347857694137,-0.000266248543591,0.000474462397422,0.000493538335086,-0.000157064865902,0.000633647902515,0.000225169152307,-0.000106245482057,-2.7867721275e-05,0.000835865392249,0.000734612744009,-0.000213470332467,0.000180609777376,0.000769027247587,-0.000353052101366,0.000285777042701,0.00104608641275,-0.000151703662664,-0.000192630561165,0.000397255152219,-0.000321156140994,0.000625653177695,0.000350933558066,7.32588469189e-07,0.00035008604238,0.000256322498486,0.000162960654499,0.000282469035939,9.88131291682e-324,0.000617876248587,8.38759403274e-05,9.88131291682e-324,0.000730611937593,-2.88597486715e-05,0.000256732488855,4.72672869422e-05,0.000397752413122,0.000332337758832,-0.000143424942383,0.000512839372471,0.000428185647151,-0.000172808229749,0.000446374771516,0.000203396145771,2.9686257118e-05,0.000468669786029,0.000369165890353,-2.08333043364e-05,0.000353419602904,6.21900308482e-05,0.000262674716876,0.000376887441196,9.88131291682e-324,0.000941128845785,-0.000239376656864,9.88131291682e-324,-3.6360283602e-05,0.000738112472519,3.80526156359e-05,-0.000173744361457,0.000837443934742,0.000559635686347,-0.000299752930928,0.000441869433503,0.000340031772951,-0.000183121167601,0.000544841583569,0.000278420897627,-0.000161699791603,0.000585031082893,0.000698990697749,-0.000204362653366,0.000207124144529,-3.92571503344e-05,-3.59407471233e-05,0.00077695008638,0.000140224257245,0.000112995006904,0.000448532924771,0.000241680924842,-6.06136675416e-05,0.000520684931621,0.000445229499699,-5.16725723532e-05,0.000308195261572,0.000445354785395,0.000163901891924,9.24955115982e-05,-2.6582314385e-05,0.000373363583998,0.000354970919304,0.000176440266807,0.000275978768023,0.000249333154089,0.00060807095008,0.000170197107654,-7.65158688216e-05,0.000288191834526,4.78383478604e-05,0.000365722006531,4.26913743853e-05,0.000338893759981,0.00032016705455,-8.14139728188e-05,0.000176110213185,0.000607055948549,5.17462945813e-05,-0.000110403978633,0.000760409872971,-6.09042381806e-05,0.000147965011891,0.000614691415213,3.879347028e-05,0.000207952814823,0.000455005903813,0.000114157075457,0.00030483531632,0.000282759797145,0.000139101802585,0.000206398385915,0.000356252000418,0.000411943019538,0.000178922982555,0.000110886186825,0.000182375849877,0.000263064329044,0.00025631201,0.000181445603827,0.00021230721773,0.000307999367364,0.000405960980492,7.41601770356e-05,0.000221631031392,0.000576781517596,8.4995643341e-05,3.99750279827e-05,0.000702487009467,3.33263065146e-06,-4.06745119925e-06
0.000794499866132,-0.000547885830906,0.000476586287826,0.000199889106928,3.77345962534e-06,0.000519537756496,0.00024419172703,-0.000108636526121,0.000587645122136,0.000474537225706,-8.64664715759e-05,0.000335129568922,9.93032511399e-05,-6.38262737861e-05,0.000687723345702,0.00034243462294,-8.85342909999e-05,0.000469299991109,9.32216708627e-05,-1.5013311676e-05,0.000644991963869,0.000643471669003,-0.000320868043043,0.000400596697096,0.000110454708766,-0.000328795796048,0.000941541410336,7.18506934871e-05,-0.000279222376755,0.00093057200632,-0.000246439154121,-0.00028279998086,0.00125243945805,0.000111919290549,-0.000158508974143,0.000769790006651,0.000446621828807,-0.000207888387698,0.000484466881943,0.000623916705473,-1.10937334311e-05,0.000110377351007,0.000619851276926,-9.71682667246e-05,0.00020051731285,0.000833573177592,-0.000186225792297,7.5852937759e-05,0.00062372447133,-0.000323172150928,0.000422648002653,0.000265610058316,9.90075714406e-05,0.000358582693292,-0.000274231832321,0.000488811005463,0.000508621149913,-0.000161875353616,0.000653010935563,0.000232064741106,-0.00010952265662,-2.88719814089e-05,0.000861594961079,0.000756923509346,-0.000219687952465,0.00018596476617,0.000792174939773,-0.000363367988097,0.00029439337138,0.00107741244222,-0.000156076440104,-0.000198135679063,0.00040915780993,-0.000330697748253,0.000644740261374,0.000361295992887,1.04731751697e-06,0.000360857012648,0.000263881851701,0.000168251553708,0.000291066917636,-9.88131291682e-324,0.000636576160248,8.66241628011e-05,9.88131291682e-324,0.000753006715191,-2.98063921363e-05,0.000264414283686,4.89488205978e-05,0.000409837218768,0.000342235397371,-0.000147461558811,0.000528426484489,0.000440982796473,-0.000177791647385,0.000460009173962,0.000209292549631,3.08024417527e-05,0.000483105331665,0.000380318722761,-2.13453178232e-05,0.000364226918109,6.40407123161e-05,0.000270667630083,0.000388491980652,9.88131291682e-324,0.000969986941808,-0.000246786618763,-9.88131291682e-324,-3.74683017046e-05,0.000760668624754,3.90368144716e-05,-0.000178931984836,0.000863095493414,0.00057621730066,-0.00030858976756,0.000455572789953,0.000350213525285,-0.000188476894922,0.000561463692691,0.000286661045612,-0.000166287451731,0.000602826729173,0.000719773853505,-0.000210183942426,0.00021361041197,-4.04537180165e-05,-3.66954254546e-05,0.000800349466523,0.000144253174762,0.000116704328325,0.000462242819961,0.000249021754044,-6.21630039147e-05,0.000536341572918,0.000458565138329,-5.30100726468e-05,0.000317645257364,0.000458854826444,0.000168959337999,9.53861586074e-05,-2.72636385292e-05,0.000384628067549,0.000365835894034,0.000181649342458,0.000284359139184,0.000257191841408,0.000626228621627,0.000175396252997,-7.84245515699e-05,0.000296631690696,4.93687025361e-05,0.000377199929815,4.40426970255e-05,0.00034915982052,0.000329997805515,-8.40137948359e-05,0.00018157244837,0.000625641669516,5.33298943078e-05,-0.000113720601186,0.000783591029931,-6.27583166404e-05,0.000152575410486,0.000633383229202,3.99713163246e-05,0.000214388132755,0.000468840873968,0.000117771607505,0.000314096101803,0.000291332613745,0.000143199837249,0.000212764058353,0.000367236427446,0.000424453624892,0.000184408494085,0.000114338204068,0.000188070466464,0.000271048053555,0.000264081803038,0.000187051284096,0.000218813922033,0.000317335116918,0.000418241715599,7.64532885956e-05,0.000228505318854,0.000594551767241,8.75374247285e-05,4.11111310826e-05,0.000723786305747,3.53900889646e-06,-4.12499159325e-06
0.000783852208498,-0.000540619902312,0.000470008727957,0.000197148758783,3.53168334713e-06,0.000512560592011,0.000240924797461,-0.000107255195911,0.000579571432588,0.000468160321302,-8.54212350137e-05,0.000330501947854,9.80621029135e-05,-6.30340347615e-05,0.000678212965986,0.000337816481103,-8.74574252517e-05,0.000462881978289,9.20178098415e-05,-1.48971475326e-05,0.000636120371831,0.000634743782522,-0.00031655750549,0.000395054757107,0.000108910850214,-0.000324360986913,0.000928691170839,7.09100384217e-05,-0.000275612869468,0.00091794386519,-0.000243064953486,-0.000279098750412,0.00123540473802,0.000110481746503,-0.000156341723115,0.000759101010753,0.000440584525221,-0.000205118941678,0.000477775450601,0.000615522789928,-1.10388521905e-05,0.0001087570964,0.000611511209732,-9.59185605456e-05,0.000197648384956,0.000822243311711,-0.000183744844679,7.4742567111e-05,0.00061526316222,-0.000318823105593,0.000416800977517,0.000262070120378,9.75690015406e-05,0.000353601912224,-0.000270525879242,0.000482149399271,0.000501617514116,-0.000159641537615,0.000644019853431,0.000228862718322,-0.000108000693806,-2.84045872989e-05,0.000849646315245,0.000746564662527,-0.00021680302111,0.000183479392726,0.00078142897496,-0.000358581222044,0.000290393281223,0.00106287097521,-0.000154047795332,-0.000195582145739,0.000403632638888,-0.000326269094504,0.00063587748976,0.000356486846786,8.99110537981e-07,0.00035585507682,0.000260373668682,0.000165792579916,0.000287074785544,-9.88131291682e-324,0.000627894302235,8.53467319082e-05,9.88131291682e-324,0.000742607329524,-2.93662953855e-05,0.000260848504716,4.81663236944e-05,0.000404226205732,0.000337641356434,-0.000145589611888,0.000521189289597,0.000435042594224,-0.000175479677163,0.000453678117079,0.000206556896219,3.02826706871e-05,0.000476401467237,0.000375140918335,-2.11084225156e-05,0.000359208538318,6.3181777936e-05,0.000266956403012,0.000383102853194,9.88131291682e-324,0.000956586237563,-0.000243345203423,-9.88131291682e-324,-3.69538034646e-05,0.000750194837602,3.85810961383e-05,-0.000176524007138,0.000851183945139,0.000568521453469,-0.000304488722676,0.000449208303348,0.00034548720061,-0.000185991672376,0.000553745505905,0.000282836701348,-0.00016415965388,0.000594563986674,0.000710127428423,-0.000207483814758,0.000210597420475,-3.98980840078e-05,-3.63473772475e-05,0.000789486495396,0.000142384205971,0.000114980129132,0.000455876699041,0.000245613386319,-6.14456828242e-05,0.000529073330647,0.000452374730814,-5.23906876256e-05,0.000313256990951,0.00045258695225,0.000166610575605,9.40435062859e-05,-2.69481626569e-05,0.000379398495503,0.000360790701298,0.000179231856341,0.000280468156788,0.000253541021013,0.000617800255194,0.000172982089802,-7.75413108587e-05,0.000292715321959,4.86576317649e-05,0.000371868080414,4.34149065448e-05,0.000344393480219,0.000325432647373,-8.28057781392e-05,0.000179035532085,0.000617011280195,5.25945703304e-05,-0.000112180931525,0.000772827395336,-6.18974237371e-05,0.000150433977095,0.000624704480787,3.94245074859e-05,0.000211399341294,0.000462417185356,0.00011609236035,0.000309796316245,0.000287352357548,0.000141298065269,0.000209807798144,0.000362135170729,0.000418644972824,0.000181861226112,0.000112734835203,0.000185425355618,0.000267341266294,0.000260474412229,0.000184447942916,0.000215792440463,0.000313000650766,0.000412540156343,7.53883088876e-05,0.000225312568909,0.000586299268324,8.63575652208e-05,4.05842005931e-05,0.000713897355542,3.44243657721e-06,-4.09875797941e-06
0.00198083709453,-0.00134428973938,0.00124323666689,0.000514115916825,6.5006767362e-05,0.00130066133785,0.000605783253254,-0.000249190085378,0.00152319085419,0.0011869359728,-0.000182627396144,0.000875475445387,0.000220247975687,-0.000141039452682,0.00180057549902,0.00086086637521,-0.000189277457814,0.00120819510464,0.000218398810617,-1.31608502954e-05,0.00167454606174,0.00163388563617,-0.000804333755739,0.0010502321416,0.000292544056576,-0.000828922921405,0.00241616288686,0.000171384069583,-0.000658441587049,0.00236684153952,-0.00063580241113,-0.000679923826167,0.00319551025935,0.000259519246983,-0.000407716584226,0.00202798135928,0.00112642504843,-0.00051274280973,0.00126610178334,0.00156290719383,-3.69248916117e-07,0.00031724607713,0.00155404064601,-0.00022820907807,0.000553952454088,0.00212334343292,-0.000461013646431,0.000217454235557,0.00158342456364,-0.000812037431566,0.00110839688998,0.000654973559845,0.000279309184305,0.000945501277885,-0.000694040595376,0.00125075479347,0.00132306982399,-0.000422789825933,0.00169741882976,0.000605155018215,-0.000289072059931,-9.48534319862e-05,0.00226370951398,0.00194873982846,-0.000530329623527,0.000461373817121,0.00201254334531,-0.000882231477367,0.000749472154105,0.00271571232113,-0.000372080182398,-0.000463848116706,0.00103050251382,-0.000823781936166,0.00167306344439,0.000891004064368,4.12005921521e-05,0.000947579365525,0.000649598374795,0.000477905490223,0.000752280157042,9.88131291682e-324,0.00163004573225,0.000249738289792,9.88131291682e-324,0.00196776503964,-8.79810176051e-05,0.000664413720992,0.000158833993229,0.00105653630782,0.000854743609151,-0.000338254459276,0.00136329487219,0.00110761069783,-0.000424573104758,0.00119674642898,0.00050079182096,0.000107666453572,0.0012713257475,0.000970984678298,-3.97837807149e-05,0.000948583124473,0.000158167144621,0.000699524018693,0.00102209285873,9.88131291682e-324,0.00253304978728,-0.000653265765215,-9.88131291682e-324,-9.74264979445e-05,0.00197721051997,7.73420442473e-05,-0.000449179401673,0.00225162137947,0.00142851851884,-0.000759779074329,0.00121104457756,0.000882188488345,-0.000459008988033,0.00145660452174,0.000709453587521,-0.000387083182809,0.00155741361735,0.00179486062697,-0.000491927153715,0.000576850548791,-0.000105760479104,-5.14993770735e-05,0.00203704387823,0.000340701309022,0.000336890893068,0.00120219181996,0.000642006762468,-0.000122726787122,0.0013605040467,0.00115663842823,-0.000106907922937,0.00083005351675,0.00117830843461,0.000446454062102,0.00025502152534,-5.45933674483e-05,0.000981175385192,0.000953202004299,0.000447594386099,0.000731993729776,0.000700195906164,0.00157143984749,0.000455438547758,-0.000147094373228,0.000722121682075,0.000136743119261,0.00102091922072,0.000120169842653,0.000895936012789,0.000863678166599,-0.000233591114268,0.0004825468267,0.00163082830962,0.000138184953108,-0.000288730746132,0.00203032981505,-0.000162618810651,0.000408308042135,0.00163409479057,0.000101207227333,0.000568685657206,0.00120989113749,0.000322021411026,0.000809105154452,0.000748657456565,0.000351009069638,0.000560578681099,0.000968196271311,0.00109289358813,0.000481281539767,0.000305608894146,0.000504822937163,0.00069710280418,0.000677858280699,0.000492970782784,0.000571463078072,0.000815350161191,0.00106996848998,0.000202274949705,0.000607540582343,0.00156428439887,0.000220071309718,9.5428313473e-05,0.00185829530155,2.30484641784e-05,-1.55974367281e-06
0.000751429694368,-0.000518482048659,0.000450012106819,0.000188813987095,2.82801281161e-06,0.000491317752623,0.000230975372823,-0.000103036320366,0.000555020700068,0.000448744897414,-8.22191384182e-05,0.000316433993532,9.42669997135e-05,-6.06109907477e-05,0.000649303743566,0.000323758498053,-8.41598127594e-05,0.000443361067233,8.8343951995e-05,-1.45291189394e-05,0.000609144919472,0.000608184527581,-0.000303434024132,0.000378209249083,0.000104220082464,-0.000310862034268,0.000889601704334,6.80414244189e-05,-0.000264599534282,0.000879517862391,-0.00023280283478,-0.000267813521333,0.00118357610865,0.000106093216582,-0.000149749719126,0.000726616255073,0.000422208722575,-0.000196682793519,0.000457433823468,0.0005899677581,-1.08557623303e-05,0.000103847756761,0.00058612064094,-9.2104671928e-05,0.000188943783513,0.000787770088439,-0.000176188138521,7.1377802605e-05,0.000589515089496,-0.000305583591204,0.000399028254237,0.000251286941046,9.32075045355e-05,0.000338465306947,-0.000259246904846,0.000461883352692,0.000480323304684,-0.000152850666273,0.000616682353252,0.000219128065554,-0.000103375604096,-2.69949142435e-05,0.00081333027087,0.000715057874917,-0.000208008169619,0.000175910047235,0.000748729124402,-0.000343991390136,0.000278222018267,0.00101860901494,-0.000147860237933,-0.000187789024478,0.000386814747642,-0.000312783231174,0.000608928236064,0.000341837136982,4.70498684561e-07,0.000340652116861,0.000249686239162,0.00015833932193,0.000274934191441,-9.88131291682e-324,0.0006014830592,8.14766933283e-05,-9.88131291682e-324,0.000710993557114,-2.8033804585e-05,0.000249993864464,4.58051355341e-05,0.000387160752528,0.000323653351115,-0.00013987206213,0.000499178463541,0.000416959379831,-0.000168428305171,0.000434428677875,0.000198214616149,2.87180661097e-05,0.000456027070274,0.000359387815716,-2.03790238131e-05,0.000343950960624,6.0565759573e-05,0.000255669983285,0.000366724009676,-9.88131291682e-324,0.000915848266966,-0.00023288851444,9.88131291682e-324,-3.53894409583e-05,0.000718349193492,3.71817626244e-05,-0.000169193381948,0.000814971371848,0.000545082656562,-0.000291995185075,0.000429872281043,0.00033110079437,-0.000178417509997,0.000530276468158,0.000271188397822,-0.000157663941513,0.00056943529622,0.000680753848684,-0.000199242631213,0.000201448535056,-3.82088387167e-05,-3.52637343378e-05,0.000756432325587,0.000136682084216,0.000109756903739,0.000436520764573,0.000235247077999,-5.92422410182e-05,0.00050695491555,0.000433532478299,-5.04895906334e-05,0.000299916864867,0.000433521184849,0.000159473117763,8.99654499155e-05,-2.5979435616e-05,0.00036348716313,0.000345452025014,0.000171867499584,0.000268633511061,0.000242458741883,0.000592141562949,0.00016564156638,-7.48233767972e-05,0.000280779665365,4.6500541344e-05,0.000355679545815,4.15094507942e-05,0.000329894649202,0.000311555652533,-7.91414021603e-05,0.000171328056385,0.000590773098302,5.03587203432e-05,-0.000107495492495,0.00074009652468,-5.9279492798e-05,0.000143929623642,0.000598309621682,3.77607152894e-05,0.000202318259352,0.000442880777889,0.000110995824522,0.00029671858467,0.000275245343337,0.000135503770797,0.000200823591767,0.000346632389962,0.000400977770695,0.000174117412866,0.00010786456897,0.000177392004112,0.000256066506686,0.000249501241729,0.000176536564853,0.000206607091025,0.000299816096651,0.000395194800323,7.2152252211e-05,0.000215612699992,0.000561218253164,8.27659457872e-05,3.89755535781e-05,0.000683816863849,3.15671775114e-06,-4.01382907216e-06
0.000796504581042,-0.000549253609076,0.000477825281795,0.000200405228341,3.81957252228e-06,0.000520851452902,0.000244806788625,-0.000108896369144,0.000589165834281,0.000475737898401,-8.66629149975e-05,0.000336001270359,9.95366443466e-05,-6.39752411044e-05,0.00068951485052,0.000343304195408,-8.87367040996e-05,0.000470508762456,9.3448184019e-05,-1.50349228348e-05,0.000646662992574,0.000645115251735,-0.000321679662232,0.000401640664258,0.00011074557014,-0.000329630866108,0.00094396154973,7.20277192702e-05,-0.000279901561679,0.000932950096176,-0.000247074666998,-0.000283496569812,0.00125564749056,0.000112189744403,-0.000158917152654,0.000771803662014,0.000447758662367,-0.000208409755891,0.000485727347285,0.000625497176957,-1.11037758326e-05,0.000110682852636,0.000621421619374,-9.74034045043e-05,0.000201058038888,0.000835706821052,-0.000186692860741,7.60622934505e-05,0.000625317853195,-0.000323991042459,0.000423749443022,0.000266276476968,9.9278767381e-05,0.000359521009415,-0.000274929685987,0.000490065578041,0.000509940361704,-0.000162296134581,0.000654704494119,0.000232667894221,-0.000109809378085,-2.89602276103e-05,0.00086384585946,0.000758874507207,-0.000220230936053,0.000186432682611,0.000794198563965,-0.000364268975186,0.000295146664983,0.00108015058941,-0.000156458202331,-0.000198616133317,0.000410198192395,-0.000331531556306,0.000646409617675,0.000362201343747,1.07563388514e-06,0.000361799276126,0.000264542274974,0.000168715148612,0.000291818830168,-9.88131291682e-324,0.000638211219645,8.68650341157e-05,-9.88131291682e-324,0.000754965645556,-2.98893917936e-05,0.000265085699119,4.90965389769e-05,0.000410894015666,0.00034310037042,-0.00014781368832,0.000529789571662,0.000442101292478,-0.000178226734077,0.000461201695362,0.000209807391117,3.09006323481e-05,0.000484368230294,0.000381293832379,-2.13897739662e-05,0.000365172195349,6.42024200291e-05,0.000271366632925,0.000389507200811,9.88131291682e-324,0.000972511223482,-0.000247434969726,-9.88131291682e-324,-3.75652122583e-05,0.000762641466017,3.91224039053e-05,-0.000179385384983,0.000865339234838,0.000577666171117,-0.000309361798735,0.000456771881379,0.000351103484628,-0.000188944687483,0.000562917456614,0.00028738102856,-0.00016668776918,0.000604382994381,0.00072159006155,-0.000210691967546,0.000214178159756,-4.05583805889e-05,-3.67605226078e-05,0.00080239515696,0.000144604858728,0.000117029447508,0.000463441947524,0.000249663697016,-6.22977112993e-05,0.000537710268043,0.000459730794489,-5.31264158037e-05,0.00031847187508,0.000460035292705,0.000169401823189,9.56391378658e-05,-2.73228888762e-05,0.000385612913508,0.000366786229131,0.000182104445721,0.000285091969958,0.000257879838076,0.000627815602778,0.000175850980063,-7.85903290821e-05,0.000297368869978,4.95027290606e-05,0.000378204654725,4.41610081802e-05,0.000350057485545,0.000330857760037,-8.42414934125e-05,0.000182050411413,0.000627267335762,5.34683979028e-05,-0.000114010539645,0.000785618395507,-6.29204676311e-05,0.00015297889232,0.000635017829074,4.00742903993e-05,0.000214951217186,0.000470050746178,0.000118088077776,0.000314905932578,0.000292082243405,0.000143557837302,0.000213320977809,0.000368197438653,0.000425547633782,0.000184888318421,0.000114640301557,0.000188568865185,0.000271746186422,0.000264761202154,0.000187541723227,0.000219383075147,0.000318151455382,0.000419315483724,7.6653924838e-05,0.000229106845203,0.000596106402829,8.77595856876e-05,4.1210265244e-05,0.000725648749609,3.55734306784e-06,-4.1298389143e-06
0.00073828230753,-0.000509499605967,0.00044191728131,0.000185438398733,2.55661720952e-06,0.000482704966933,0.000226940236278,-0.000101320128753,0.000545079875341,0.000440872988559,-8.0912407971e-05,0.000310739402288,9.2721341313e-05,-5.96238776544e-05,0.000637602519217,0.000318059874624,-8.28146874023e-05,0.000435454795651,8.68507541595e-05,-1.43737489392e-05,0.000598222977651,0.000597422201903,-0.000298113384372,0.000371391165341,0.000102322412692,-0.000305390404538,0.000873767974724,6.68763759473e-05,-0.000260124064788,0.000863947671719,-0.000228646852979,-0.000263230973287,0.00116257780914,0.000104308897343,-0.000147079800698,0.000713470886228,0.000414760759706,-0.000193260608517,0.000449199831685,0.000579607207912,-1.07746754415e-05,0.000101867450403,0.000575826979492,-9.0554483176e-05,0.000185427486557,0.000773802560434,-0.000173122956974,7.00203794164e-05,0.000579081469129,-0.000300216427303,0.00039183494105,0.000246912674204,9.14470509179e-05,0.000332340257753,-0.000254675725187,0.00045367348768,0.000471702220379,-0.000150101740444,0.000605614380625,0.000215187342696,-0.000101504121825,-2.64291040008e-05,0.000798633208699,0.00070229737259,-0.000204437504358,0.000172840114642,0.000735478709291,-0.000338069205496,0.000273290479077,0.00100066814672,-0.000145346762505,-0.000184621401347,0.000379997851169,-0.000307314494971,0.00059801662667,0.000335894222655,3.06419076012e-07,0.000334499341141,0.000245350377547,0.000155331765011,0.000270017840317,9.88131291682e-324,0.000590784118765,7.99158641135e-05,9.88131291682e-324,0.000698196703039,-2.74967201672e-05,0.000245593712923,4.48568993448e-05,0.000380249370604,0.000317981635453,-0.000137546119354,0.000490264466772,0.000409628720856,-0.000165564082482,0.000426635344496,0.000194826627398,2.80913810091e-05,0.000447781974469,0.000353005698997,-2.00797951125e-05,0.000337774078993,5.95047519061e-05,0.000251099487569,0.000360095743397,-9.88131291682e-324,0.000899357962544,-0.000228657979667,9.88131291682e-324,-3.47560708672e-05,0.000705456053746,3.66093421692e-05,-0.00016622155118,0.000800312191883,0.000535576193185,-0.000286926584564,0.000422050374252,0.000325269412561,-0.00017534334917,0.00052077391948,0.00026646369299,-0.000155022833692,0.000559259123579,0.000668842868684,-0.000195892572161,0.000197749686351,-3.75249836973e-05,-3.48140879995e-05,0.000743039054572,0.000134365136074,0.000107650462495,0.00042868438431,0.000231048784569,-5.8340510979e-05,0.000497991709285,0.000425895236116,-4.97122319369e-05,0.000294516978696,0.000425798613453,0.000156585118108,8.83162513106e-05,-2.55831356246e-05,0.000357040615262,0.000339242503232,0.000168879949721,0.00026384034537,0.000237979687782,0.000581739490641,0.000162669556429,-7.37090641938e-05,0.000275935382761,4.56293360083e-05,0.000349135264104,4.07394432508e-05,0.000324021709542,0.000305938830077,-7.76615203019e-05,0.000168210174167,0.00058015132901,4.94534756136e-05,-0.000105596778636,0.000726843285899,-5.82194207681e-05,0.000141299121336,0.000587620282307,3.70866045791e-05,0.000198644383365,0.000434968994931,0.000108936393362,0.000291422089091,0.000270341500423,0.000133152759788,0.000197188074517,0.000340359148572,0.000393822415175,0.000170982735712,0.000105894831987,0.000174143513278,0.000251499949754,0.000245056519843,0.000173335312854,0.000202888916164,0.000294475753857,0.000388168136792,7.08429594856e-05,0.000211688886594,0.000551068495279,8.13100090768e-05,3.83214785222e-05,0.000671632779046,3.04443522224e-06,-3.97723139143e-06
0.0131384229178,-0.00672263028883,0.0161002899745,0.00291004299094,0.00852885568681,0.0110771839258,0.00245783947764,0.00187535282051,0.0181828903053,0.00720770484964,0.00309363914156,0.0122147386124,-0.0031826124683,0.00114083000169,0.0245578650696,0.00552460302275,0.00229577734551,0.0146957022352,-0.000933812930203,0.00289231686065,0.0205575786732,0.0141882282852,-0.00760241415792,0.0159302684763,0.00265325990408,-0.00718318952003,0.0270460122192,-0.000984590035618,0.000262553624444,0.0232381190145,-0.00646779074519,-0.000957435049532,0.0299413083979,-0.00212906453957,-0.0039494935745,0.0285946407176,0.00700037309175,-0.0012900609878,0.0168057704996,0.00884439338706,0.00375809886025,0.00991359035624,0.0110119077822,-0.00119043939355,0.0126946142147,0.0188017344056,-0.00370867355016,0.00742302174805,0.0121912607608,-0.00698713596495,0.0173119578076,0.00212803179275,0.00703288868437,0.0133551621265,-0.00664923931905,0.0129842720891,0.0161810498334,-0.00505638927069,0.0208225620132,0.00674990986106,-0.00373807864143,-0.00154014581055,0.0277943070556,0.0195637613349,-0.000214091541606,0.00316641281013,0.0178076557397,-0.00225231833164,0.00696074519561,0.0216682014269,-0.00181632190218,0.00266420307875,0.00621325522072,-0.00525758777738,0.02156041516,0.00431673774267,0.00553011767469,0.0126692271861,0.00421198442599,0.0107786140017,0.00752548417602,-9.88131291682e-324,0.0156556402562,0.00686044234723,9.88131291682e-324,0.027233936879,-0.00471785427533,0.00404582054145,0.00616641936004,0.0123038427019,0.00501370850914,0.0010703332685,0.0164320408261,0.00750112236057,-0.00215084482214,0.017165805065,-0.000874061850624,0.00495475252162,0.0184353919325,0.00865078680767,0.000773702322312,0.0130915934736,-0.000356028137705,0.0080100635653,0.014862047176,-9.88131291682e-324,0.0279005099485,-0.0053844273447,-9.88131291682e-324,-0.000517522091571,0.0230336046953,-0.00176948564967,-0.00401372942916,0.0282992976823,0.00776009782921,-0.0038620925174,0.0186180772919,0.00575483748681,-0.00222456202329,0.0189858071402,0.003974781411,-0.00117599279191,0.0197172939845,0.0121068235182,-0.00115399011377,0.0115632491991,-0.00203628967173,0.00232472916046,0.0222276431147,-0.000738635095906,0.00836829976536,0.0148864179338,0.00727259398675,0.00280835587109,0.0124351327456,0.00952585471383,0.00140959460115,0.0115806332884,0.0118656808862,0.00780951969149,0.00284088202575,-2.57388830879e-05,0.0103460963222,0.0121957251646,0.00176963426129,0.00763928687318,0.013107161469,0.0116069192473,0.00505064323832,0.00585852011795,0.00246367660245,0.00190268942164,0.0181497165796,0.0016869478348,0.00994884633433,0.0108802884345,-0.00497286657628,0.00758556800617,0.0199033811735,0.000231045774743,-0.00329634276587,0.0255813795949,-0.00214542237152,0.00628940874809,0.0183720962272,-0.000881337371636,0.00925689730315,0.0141405226719,0.00517568908979,0.00901161647213,0.00832877704165,0.000615099741657,0.0074814633106,0.0144195195514,0.0119461457151,0.00563185557764,0.0049380813107,0.00850263001867,0.00732541366862,0.00668803891619,0.00541900673176,0.00744406904797,0.00965300682378,0.0102251577402,0.00291071753356,0.0093802073297,0.0217774332342,0.00140821712487,-0.000669567755346,0.0185764503166,0.0020573140055,0.00188231828125
0.000676066387847,-0.000466949926795,0.000403719120368,0.000169497442437,1.38115480212e-06,0.000441956984181,0.000207840559918,-9.31563964581e-05,0.000498151417955,0.000403630269228,-7.46641187242e-05,0.000283869430915,8.53546345454e-05,-5.49169989808e-05,0.000582397945854,0.000291108077031,-7.63872742011e-05,0.000398114778588,7.97579391334e-05,-1.35905542842e-05,0.000546668196568,0.000546551499713,-0.000272942330271,0.000339226411978,9.33772028044e-05,-0.000279514772975,0.00079897315159,6.13491658562e-05,-0.000238870671446,0.000790357087014,-0.000209021410813,-0.000241495669599,0.00106335266183,9.58282370072e-05,-0.00013446982229,0.000651477166703,0.000379542957389,-0.000177056066871,0.0004103486909,0.000530595565576,-1.03375461044e-05,9.25775619429e-05,0.000527133231804,-8.31899936302e-05,0.00016889234324,0.000707794922511,-0.000158610546604,6.36512055112e-05,0.000529764576009,-0.00027482936993,0.000357900375337,0.000226200064204,8.31797969583e-05,0.000303455720256,-0.000233063023736,0.00041488573015,0.000431012875,-0.000137130554987,0.000553374755047,0.000196591381354,-9.26790812288e-05,-2.37970461105e-05,0.000729311708755,0.000642033818212,-0.000187506612325,0.000158308375528,0.000672848877428,-0.000309997541711,0.000249984245698,0.000915826632671,-0.000133417877326,-0.000169573173929,0.000347761076261,-0.000281433835922,0.000546508341076,0.00030775229493,-3.94073078956e-07,0.000305477359568,0.000224815970164,0.000141214740881,0.000246804870369,-9.88131291682e-324,0.000540239662058,7.25959193619e-05,-9.88131291682e-324,0.000637815700439,-2.49801190235e-05,0.000224782706064,4.04417011539e-05,0.000347611174199,0.000291145601104,-0.000126480880311,0.000448170860624,0.000374955287087,-0.00015197162867,0.000389851923002,0.000178753753801,2.51864346173e-05,0.000408895393001,0.000322849667506,-1.86366600873e-05,0.000308622573999,5.44825440208e-05,0.000229519113959,0.000328833923444,9.88131291682e-324,0.000821549507995,-0.000208713926574,9.88131291682e-324,-3.17664235355e-05,0.000644602004954,3.3861680083e-05,-0.000152164117897,0.000731138019235,0.000490574353064,-0.000262921811506,0.000385183039861,0.000297692492242,-0.000160773626662,0.000475916715837,0.000244095404899,-0.000142469001482,0.000511209177995,0.000612478268879,-0.000179974791831,0.000180332104369,-3.42975499853e-05,-3.26061421492e-05,0.00067973927355,0.000123364046066,9.7772925256e-05,0.000391698610094,0.000211222652387,-5.4008865626e-05,0.000455621794658,0.000389780251602,-4.59829863244e-05,0.000269038316137,0.000389321327722,0.000142967240824,8.05470128734e-05,-2.36804179142e-05,0.00032657738233,0.000309938617001,0.00015473229407,0.00024120352425,0.000216899763097,0.000532535048003,0.000148641290755,-6.83407573376e-05,0.000252977401554,4.15340615821e-05,0.000318324118285,3.71164640787e-05,0.000296279483891,0.000279439633453,-7.07054498595e-05,0.000153514448585,0.000530026582692,4.51807160927e-05,-9.66212658448e-05,0.000664276131168,-5.32146279945e-05,0.000128905946321,0.000537144263091,3.39012520777e-05,0.000181325297267,0.000397609032076,9.92473156895e-05,0.000266409224563,0.000247179041168,0.000122016464609,0.000180043457796,0.000310775659011,0.000360030081198,0.000156191506384,9.66139938378e-05,0.000158841708309,0.000229932161912,0.000224061711195,0.000158239912791,0.000185344538078,0.00026925113055,0.000354970705009,6.46700517686e-05,0.000193194824638,0.000503199135171,7.442394188e-05,3.5212504364e-05,0.000614081802889,2.54102128728e-06,-3.78724275858e-06
0.000678267481429,-0.000468456475214,0.000405067465656,0.000170060472243,1.41968004972e-06,0.000443398319581,0.000208516399968,-9.34464076594e-05,0.000499808479567,0.000404947606293,-7.48869893034e-05,0.00028481785488,8.56167242275e-05,-5.50845244708e-05,0.000584346272109,0.000292061154953,-7.66164108509e-05,0.00039943372777,8.00096195605e-05,-1.36196125187e-05,0.000548488464828,0.000548349566793,-0.000273832640946,0.000340361546024,9.36926826476e-05,-0.0002804297297,0.000801615518928,6.15450979512e-05,-0.000239624681847,0.000792958055771,-0.000209714562239,-0.000242266031104,0.00106685906519,9.61293020036e-05,-0.000134915250919,0.000653664420786,0.000380788126566,-0.00017762963813,0.000411719983436,0.000532329045079,-1.03545129655e-05,9.29039397548e-05,0.000528855429913,-8.34513480724e-05,0.000169474390028,0.000710127644775,-0.000159124182411,6.3875009504e-05,0.000531507717242,-0.000275727204729,0.000359097959359,0.000226933194595,8.34704912527e-05,0.000304474786022,-0.000233827115328,0.000416256206478,0.000432449380725,-0.000137588407698,0.000555219075411,0.000197247804155,-9.29904206795e-05,-2.38888838468e-05,0.000731757776399,0.000644162419357,-0.000188106549433,0.000158822601948,0.00067506254333,-0.000310991986185,0.000250807914719,0.000918826547757,-0.000133840879615,-0.000170107196273,0.000348900932153,-0.0002823494946,0.000548327034326,0.000308748440217,-3.71428525426e-07,0.000306501460179,0.000225542900317,0.000141710931533,0.000247624640021,-9.88131291682e-324,0.00054202544724,7.28530246303e-05,-9.88131291682e-324,0.000639946927659,-2.50684557841e-05,0.000225518640851,4.05958776656e-05,0.000348763953352,0.000292094910976,-0.00012687399625,0.000449657557145,0.00037618150449,-0.000152453593155,0.000391150560537,0.000179323514295,2.52875003859e-05,0.00041026745719,0.000323915258885,-1.86884815872e-05,0.000309651694569,5.46602525099e-05,0.000230281240096,0.000329936979264,9.88131291682e-324,0.0008242958552,-0.000209417383334,-9.88131291682e-324,-3.18719806393e-05,0.00064675045251,3.39599791194e-05,-0.000152661282547,0.000733579775297,0.000492166875096,-0.000263771601102,0.000386483197879,0.000298667601166,-0.000161289706574,0.000477500577282,0.000244887040124,-0.000142914704637,0.000512906136381,0.000614472342115,-0.000180539760571,0.000180945890329,-3.44114899114e-05,-3.26865150271e-05,0.000681976476809,0.000123754281466,9.81198273678e-05,0.000393004363041,0.000211922916424,-5.41639302332e-05,0.00045711948568,0.000391057211514,-4.6116348825e-05,0.00026993760918,0.000390609936916,0.000143447651317,8.08208836364e-05,-2.37485057198e-05,0.000327653910575,0.000310973067014,0.000155233094222,0.000242003100493,0.000217642277158,0.000534275250588,0.000149136577732,-6.85333564457e-05,0.000253790568829,4.16781714939e-05,0.000319409731548,3.72440509845e-05,0.000297259561258,0.000280374859627,-7.09502226921e-05,0.000154032707257,0.000531795987307,4.53315663923e-05,-9.69385376589e-05,0.000666485443137,-5.33913622076e-05,0.000129342852421,0.000538926981653,3.40138075183e-05,0.000181936152017,0.000398928512341,9.95885056569e-05,0.00026729269773,0.000247997268486,0.000122410750103,0.000180648335264,0.000311819386504,0.000361223678743,0.000156713593546,9.69411995835e-05,0.000159381071842,0.000230694010941,0.000224803389087,0.000158772452166,0.000185963801969,0.000270142217737,0.000356143650503,6.48877941433e-05,0.000193847027223,0.00050488813565,7.46674547575e-05,3.53228814671e-05,0.000616114862052,2.55804562462e-06,-3.79443580311e-06
0.00075197726644,-0.000518856087172,0.000450349419204,0.000188954628501,2.83949049021e-06,0.000491676479488,0.000231143423441,-0.000103107729669,0.000555434904701,0.000449072766092,-8.22734586014e-05,0.00031667129098,9.43312902778e-05,-6.06520456542e-05,0.000649791353845,0.000323995862574,-8.42157362247e-05,0.000443690472127,8.84060988198e-05,-1.45355131505e-05,0.000609600012807,0.000608632858716,-0.0003036556339,0.000378493373659,0.000104299173714,-0.000311089948424,0.000890261373182,6.80899245592e-05,-0.000264785812527,0.00088016648644,-0.000232975992732,-0.000268004298989,0.00118445089019,0.000106167471784,-0.00014986095726,0.000727164083953,0.000422518964257,-0.000196825306853,0.000457776941067,0.000590399287886,-1.08590539069e-05,0.000103930364494,0.000586549387289,-9.21691895821e-05,0.000189090400769,0.000788351961331,-0.000176315787824,7.14344249641e-05,0.000589949727647,-0.000305807145264,0.000399328016086,0.000251469103002,9.32809270265e-05,0.000338720568445,-0.000259437319418,0.000462225383934,0.000480682533958,-0.000152965215365,0.000617143538388,0.000219292275442,-0.000103453598976,-2.70185522866e-05,0.000813942749733,0.000715589528351,-0.000208156829085,0.000176037899204,0.00074928110545,-0.000344237966808,0.00027842745984,0.00101935632248,-0.000147964865755,-0.000187920858252,0.000387098697798,-0.000313010994683,0.000609382895356,0.000342084621486,4.77454028791e-07,0.000340908522958,0.000249866796193,0.000158464767454,0.000275139034818,9.88131291682e-324,0.000601928792529,8.15418059405e-05,-9.88131291682e-324,0.000711526812354,-2.80562138768e-05,0.000250177143147,4.58447438056e-05,0.00038744871152,0.000323889576543,-0.000139968841257,0.000499549863186,0.000417264719056,-0.000168547535255,0.000434753414674,0.000198355656907,2.87442638825e-05,0.000456370677684,0.000359653695355,-2.03914430134e-05,0.000344208346131,6.06099467458e-05,0.000255860415771,0.000367000235956,9.88131291682e-324,0.000916535430378,-0.000233064831906,-9.88131291682e-324,-3.54158322653e-05,0.000718886430738,3.72055408583e-05,-0.000169317164324,0.000815582221938,0.000545478563924,-0.00029220625522,0.000430198289775,0.000331343693263,-0.000178545509509,0.000530672414719,0.000271385159615,-0.000157773851567,0.000569859290427,0.000681249926695,-0.000199382053683,0.000201602725467,-3.82373345522e-05,-3.52823334846e-05,0.000756990266511,0.000136778523082,0.000109844779316,0.000436847296075,0.000235421997405,-5.92796938817e-05,0.000507328294948,0.000433850601354,-5.05218857462e-05,0.000300141882864,0.00043384292816,0.000159593477442,9.00341928703e-05,-2.59958973981e-05,0.000363755722786,0.000345710773082,0.000171991911166,0.000268833212974,0.000242645474331,0.000592574828343,0.000165765404222,-7.48696340921e-05,0.000280981369213,4.65368697657e-05,0.000355952359495,4.15415539277e-05,0.000330139329294,0.000311789715254,-7.92031127503e-05,0.000171458006228,0.000591215704998,5.0396440169e-05,-0.000107574586988,0.000740648745292,-5.9323662231e-05,0.000144039268614,0.000598754992093,3.77887982923e-05,0.000202471378138,0.000443210422034,0.000111081687644,0.000296939258944,0.000275449651883,0.000135601669836,0.000200975101487,0.000346893827151,0.000401275891381,0.000174248036456,0.000107946670638,0.000177527412836,0.000256256765303,0.000249686420332,0.000176669978444,0.000206762029611,0.000300038590416,0.000395487538473,7.22068193025e-05,0.000215776240697,0.000561641235952,8.28265896182e-05,3.90027729026e-05,0.000684324485896,3.16143891681e-06,-4.0153263406e-06
0.000676088921847,-0.000466965350752,0.000403732923109,0.000169503206182,1.38154807067e-06,0.000441971739963,0.000207847478956,-9.31593659323e-05,0.000498168381193,0.000403643755551,-7.46664010665e-05,0.00028387913973,8.53573182496e-05,-5.49187144166e-05,0.00058241789038,0.000291117834125,-7.63896206672e-05,0.000398128280757,7.97605160142e-05,-1.35908522719e-05,0.000546686830475,0.000546569907051,-0.000272951444881,0.000339238032045,9.33804321963e-05,-0.000279524139804,0.000799000201821,6.13511718623e-05,-0.000238878391528,0.00079038371388,-0.000209028506637,-0.000241503556813,0.00106338855764,9.58313195694e-05,-0.000134474382175,0.00065149955682,0.000379555704684,-0.000177061938998,0.000410362728532,0.000530613312128,-1.03377203585e-05,9.25809024443e-05,0.000527150862859,-8.31926695885e-05,0.000168898300945,0.000707818803145,-0.000158615805099,6.36534961681e-05,0.000529782421064,-0.000274838561528,0.000357912634673,0.000226207569853,8.31827723149e-05,0.000303466152051,-0.000233070846052,0.00041489975994,0.000431027580327,-0.000137135241941,0.000553393635117,0.000196598101043,-9.26822682907e-05,-2.3797985834e-05,0.000729336748341,0.0006420556088,-0.000187512754623,0.000158313640038,0.000672871539375,-0.000310007722967,0.000249992677807,0.000915857344111,-0.000133422208232,-0.000169578641661,0.000347772745464,-0.000281443210125,0.00054652695888,0.000307762493306,-3.93842044726e-07,0.000305487842956,0.000224823412376,0.0001412198195,0.000246813262346,-9.88131291682e-324,0.000540257943394,7.25985508211e-05,9.88131291682e-324,0.000637837517353,-2.49810231382e-05,0.000224790240168,4.04432788135e-05,0.000347622975233,0.000291155319751,-0.000126484905501,0.000448186079967,0.000374967840482,-0.000151976563258,0.000389865216991,0.000178759587213,2.5187468662e-05,0.000408909438338,0.000322860576166,-1.86371909057e-05,0.000308633108952,5.44843633351e-05,0.000229526915838,0.000328845215047,9.88131291682e-324,0.000821577621749,-0.000208721127541,9.88131291682e-324,-3.17675041206e-05,0.000644623998332,3.38626868322e-05,-0.00015216920763,0.000731163015012,0.000490590656893,-0.000262930511557,0.000385196348881,0.000297702474857,-0.000160778910339,0.0004759329297,0.000244103509479,-0.000142473565019,0.000511226549754,0.000612498683485,-0.000179980576458,0.000180338387189,-3.42987163822e-05,-3.26069658151e-05,0.000679762176412,0.00012336804154,9.77764757653e-05,0.000391711976913,0.000211229821011,-5.40104538021e-05,0.000455637127007,0.000389793324381,-4.59843521691e-05,0.000269047522006,0.000389334519339,0.000142972158586,8.05498162911e-05,-2.36811152655e-05,0.000326588402999,0.000309949206488,0.000154737421175,0.000241211709557,0.000216907363484,0.000532552863357,0.000148646360955,-6.83427300927e-05,0.000252985726811,4.15355366413e-05,0.000318335230761,3.71177700344e-05,0.000296289517055,0.000279449207128,-7.07079552742e-05,0.000153519753722,0.000530044695767,4.51822603233e-05,-9.6624513857e-05,0.000664298747753,-5.32164372251e-05,0.000128910418641,0.000537162512798,3.39024043129e-05,0.000181331550291,0.000397622539613,9.92508080631e-05,0.000266418268714,0.000247187417441,0.000122020501262,0.000180049649696,0.000310786343257,0.000360042300103,0.000156196850878,9.66173432367e-05,0.000158847229374,0.000229939961015,0.00022406930383,0.000158245364175,0.00018535087735,0.000269260252688,0.00035498271263,6.46722806997e-05,0.000193201500884,0.000503216424861,7.44264348428e-05,3.52136345112e-05,0.000614102615504,2.54119528459e-06,-3.78731657367e-06
0.000677555052836,-0.000467968859992,0.000404631021966,0.000169878228687,1.40718602478e-06,0.000442931800092,0.000208297651582,-9.33525492228e-05,0.000499272112445,0.000404521221405,-7.48148672883e-05,0.000284510860688,8.5531905306e-05,-5.50303095037e-05,0.000583715619005,0.000291752668445,-7.65422601324e-05,0.000399006806495,7.99281640541e-05,-1.3610218066e-05,0.000547899268817,0.000547767572626,-0.000273544472271,0.000339994114454,9.3590563242e-05,-0.000280133581584,0.000800760233149,6.14816836161e-05,-0.000239380647969,0.00079211617916,-0.000209490200435,-0.00024201669925,0.00106572411451,9.60318644429e-05,-0.000134771073371,0.000652956423732,0.000380385096013,-0.000177443992406,0.0004112761112,0.000531767965447,-1.03490333294e-05,9.27982826877e-05,0.000528298001491,-8.336676194e-05,0.000169285975255,0.000709372591694,-0.00015895793547,6.38025585798e-05,0.000530943501301,-0.000275436599776,0.000358710313282,0.000226695904861,8.3376387812e-05,0.000304144922132,-0.0002335797974,0.000415812609829,0.000431984402373,-0.000137440206024,0.00055462209302,0.000197035327815,-9.28896423458e-05,-2.38591484271e-05,0.000730966005578,0.000643473426975,-0.000187912375246,0.000158656163073,0.00067434602885,-0.000310670124623,0.000250541310583,0.000917855551271,-0.000133703974209,-0.000169934362258,0.000348531989603,-0.000282053123468,0.00054773834867,0.000308426021841,-3.78775045976e-07,0.000306169968011,0.000225307618275,0.000141550303317,0.000247359293212,9.88131291682e-324,0.000541447422442,7.27697923618e-05,-9.88131291682e-324,0.000639257073076,-2.50398582707e-05,0.000225280437993,4.05459590763e-05,0.000348390817736,0.000291787646721,-0.000126746769518,0.000449176337604,0.000375784610564,-0.000152297604322,0.00039073020856,0.000179139108776,2.52547747171e-05,0.000409823331314,0.000323570348354,-1.86717146704e-05,0.00030931858113,5.46027337591e-05,0.000230034551697,0.000329579929349,9.88131291682e-324,0.000823406893016,-0.000209189678215,-9.88131291682e-324,-3.1837813261e-05,0.00064605502807,3.39281713748e-05,-0.000152500363815,0.000732789407245,0.000491651426494,-0.000263496553815,0.000386062342131,0.000298351983225,-0.000161122671891,0.000476987903473,0.000244630813582,-0.000142770456397,0.000512356857627,0.000613826919789,-0.000180356911654,0.000180747206669,-3.43746090447e-05,-3.26605188637e-05,0.000681252342714,0.00012362798215,9.80075250126e-05,0.000392581707643,0.000211696252548,-5.4113755041e-05,0.000456634717301,0.000390643891698,-4.60731948192e-05,0.000269646517926,0.000390192837216,0.000143292145772,8.07322318171e-05,-2.37264739501e-05,0.000327305460692,0.000310638228064,0.000155071002314,0.000241744291192,0.000217401921299,0.000533711994166,0.000148976259963,-6.84710393209e-05,0.000253527378357,4.16315211806e-05,0.000319058315267,3.72027501408e-05,0.000296942328155,0.000280072136511,-7.08709864248e-05,0.000153864949085,0.000531223252149,4.52827381059e-05,-9.68358440752e-05,0.000665770320776,-5.33341559977e-05,0.000129201426529,0.000538349944275,3.39773755113e-05,0.000181738421549,0.000398501417745,9.94780597884e-05,0.000267006732176,0.00024773242284,0.000122283133989,0.000180452541012,0.000311481539807,0.00036083733129,0.000156544599798,9.68352837177e-05,0.000159206479934,0.000230447413564,0.000224563321303,0.000158600072854,0.000185763353214,0.000269853788739,0.000355763990655,6.48173122396e-05,0.000193635911909,0.000504341419986,7.45886360392e-05,3.52871587824e-05,0.000615456797155,2.55252905341e-06,-3.79211140284e-06
4.14110339139e-10,-2.88600756843e-10,2.40984758392e-10,1.01609644038e-10,-5.45299925017e-12,2.70337695898e-10,1.27359137762e-10,-5.95260238709e-11,2.98661226798e-10,2.46553300325e-10,-4.94783895881e-11,1.6941942995e-10,5.51110282167e-11,-3.57432219331e-11,3.47126534403e-10,1.7723701081e-10,-5.04354742736e-11,2.39692804151e-10,5.02709276943e-11,-1.11674989474e-11,3.27390911941e-10,3.31280727613e-10,-1.66966941753e-10,2.02180554825e-10,5.49854786071e-11,-1.70373022732e-10,4.81881884819e-10,3.81875961824e-11,-1.50758902456e-10,4.79065646962e-10,-1.25754814762e-10,-1.50916353957e-10,6.43165509413e-10,6.06165059708e-11,-8.09679140161e-11,3.86845748736e-10,2.30577776112e-10,-1.08941300701e-10,2.44857865283e-10,3.23756791899e-10,-9.41929093673e-12,5.21568397273e-11,3.21705337704e-10,-5.27957424468e-11,9.75847454359e-11,4.28242274748e-10,-9.77374441628e-11,3.59895101066e-11,3.21010806259e-10,-1.67857910481e-10,2.13341444908e-10,1.39057233256e-10,4.72663251589e-11,1.80170782275e-10,-1.4188550169e-10,2.50470449909e-10,2.57909392466e-10,-8.19352477793e-11,3.31042386732e-10,1.17387201731e-10,-5.50185317759e-11,-1.19028119627e-11,4.3341568443e-10,3.86132427291e-10,-1.16799845119e-10,9.71617585174e-11,4.07874008908e-10,-1.9266292012e-10,1.51283251895e-10,5.57588754659e-10,-8.39129790981e-11,-1.07181434871e-10,2.11481396668e-10,-1.72523933758e-10,3.27536877787e-10,1.89565171577e-10,-4.69893730483e-12,1.81628106417e-10,1.38614977077e-10,7.96950789217e-11,1.4818428469e-10,-9.88131291682e-324,3.25877801378e-10,4.06165393114e-11,-9.88131291682e-324,3.8063019829e-10,-1.41358576015e-11,1.36835350434e-10,2.06082478239e-11,2.09050742426e-10,1.78025254963e-10,-8.09946052924e-11,2.69463691016e-10,2.28618443777e-10,-9.55893407265e-11,2.33465237642e-10,1.11691014067e-10,1.18812690043e-11,2.42922057618e-10,1.95027890603e-10,-1.31153370446e-11,1.8458178713e-10,3.31899098467e-11,1.37861922958e-10,1.95442507883e-10,9.88131291682e-324,4.89875204099e-10,-1.2338086341e-10,-9.88131291682e-324,-1.91080879209e-11,3.85602428611e-10,2.29139230662e-11,-9.28900146174e-11,4.36470432238e-10,3.01324461585e-10,-1.62233566915e-10,2.27403446023e-10,1.81225681727e-10,-9.99077608281e-11,2.85176419787e-10,1.50070859242e-10,-9.07438033769e-11,3.07167284827e-10,3.75180463402e-10,-1.14244679282e-10,1.05558556567e-10,-2.06618697819e-11,-2.48579200282e-11,4.12014130501e-10,7.76543580026e-11,5.45561000692e-11,2.34283882616e-10,1.27091588015e-10,-3.70266447644e-11,2.76429397438e-10,2.37308997906e-10,-3.12737772215e-11,1.60459120007e-10,2.3457036708e-10,8.48488045136e-11,4.70751690955e-11,-1.62454517669e-11,1.97609543602e-10,1.85130248855e-10,9.529955708e-11,1.45085068397e-10,1.2610971521e-10,3.24988861779e-10,8.89238343326e-11,-4.74183554226e-11,1.56864808423e-10,2.37464776637e-11,1.858830546e-10,2.14484887622e-11,1.7862500923e-10,1.66420842696e-10,-4.06347117892e-11,9.05989229799e-11,3.16530129498e-10,2.69313183767e-11,-5.87318003314e-11,3.9829482264e-10,-3.19803692062e-11,7.576151493e-11,3.22713194967e-10,2.02429551748e-11,1.07313333574e-10,2.38938051942e-10,5.73848819112e-11,1.6018112956e-10,1.4892832922e-10,7.52153377774e-11,1.06796975835e-10,1.84482027077e-10,2.1654151833e-10,9.31233978257e-11,5.68294245329e-11,9.31632783064e-11,1.38370307747e-10,1.34960754635e-10,9.36145782486e-11,1.1060522425e-10,1.62274538188e-10,2.141783559e-10,3.82765854016e-11,1.1403939939e-10,2.98787427655e-10,4.5355341566e-11,2.23515714667e-11,3.69812054675e-10,-6.56253066592e-14,-3.25208867935e-12
0.000764114770449,-0.000527145625288,0.000457829854896,0.000192073165078,3.09748791348e-06,0.000499628347063,0.000234868279305,-0.000104689195771,0.000564619916518,0.00045634059389,-8.34753957707e-05,0.000321933801934,9.57546268263e-05,-6.15608974352e-05,0.000660605270663,0.000329257785832,-8.54532983265e-05,0.00045099451255,8.97827636736e-05,-1.46756713851e-05,0.000619691907764,0.000618572511252,-0.000308568089643,0.000384794578442,0.000106053455964,-0.00031614247242,0.000904888016508,6.91645132153e-05,-0.000268912411205,0.00089454689804,-0.000236815586707,-0.000272231447483,0.00120384603424,0.000107812192149,-0.000152327475679,0.000739314283581,0.000429396682535,-0.000199983926203,0.000465386243723,0.000599965123966,-1.09302567485e-05,0.000105764132832,0.000596053576351,-9.35983521336e-05,0.000192343775839,0.000801252714413,-0.000179145029601,7.26913152354e-05,0.000599585801796,-0.000310762833774,0.000405976032034,0.000255506483792,9.49105046432e-05,0.000344382011617,-0.00026365868895,0.000469808930954,0.000488648758048,-0.000155505544093,0.0006273706653,0.000222933878844,-0.000105183464046,-2.75440082519e-05,0.000827526472351,0.000727378176469,-0.000211450906264,0.000178871729849,0.000761518762416,-0.00034970205771,0.000282982295345,0.0010359230808,-0.000150282916604,-0.000190841164133,0.000393393464946,-0.000318059559335,0.00061946509444,0.000347569747979,6.34124995163e-07,0.000346595127078,0.000253868493547,0.000161249188766,0.000279681317741,-9.88131291682e-324,0.000611811726954,8.29872730975e-05,9.88131291682e-324,0.000723352771824,-2.85537717705e-05,0.00025424007189,4.67250738289e-05,0.000393833854335,0.000329125873221,-0.00014211213249,0.000507785259321,0.000424033424145,-0.000171189139835,0.000441954715744,0.000201480641235,2.9326959963e-05,0.000463991398859,0.000365548682778,-2.0665839161e-05,0.000349916156437,6.15893486487e-05,0.000260083134238,0.000373126517164,-9.88131291682e-324,0.00093177457692,-0.000236975576863,-9.88131291682e-324,-3.6001075026e-05,0.000730800075076,3.77313286611e-05,-0.000172061122188,0.000829128793575,0.000554253750687,-0.000296884215027,0.000437429464391,0.000336728398801,-0.000181382025721,0.000539452626974,0.000275746255866,-0.000160208301077,0.000579261045265,0.000692246025964,-0.000202470378666,0.000205023352757,-3.88692661411e-05,-3.56919745531e-05,0.00076936024075,0.000138914976007,0.000111795609818,0.000444088414229,0.000239300619827,-6.0107760351e-05,0.000515606140573,0.000440902983466,-5.12360800387e-05,0.000305132096619,0.000440976920604,0.00016226298104,9.15590984071e-05,-2.63598956239e-05,0.000369710046194,0.000351448849485,0.000174749291677,0.000273261304792,0.000246788403587,0.000602179267006,0.00016851157686,-7.58918438063e-05,0.000285451226235,4.73430261057e-05,0.00036200474771,4.22538363708e-05,0.000335564552216,0.000316980611467,-8.05725412142e-05,0.00017434040993,0.000601031131338,5.12328983681e-05,-0.000109328116897,0.00075289421858,-6.03031098784e-05,0.00014647146827,0.000608630641658,3.84114316799e-05,0.000205867603962,0.000450519964407,0.000112986789222,0.000301832415925,0.000279979794903,0.000137771340582,0.000204335423196,0.000352692236276,0.000407886288463,0.000177144845291,0.000109767866295,0.000180531212617,0.000260475427188,0.000253792360248,0.000179628983696,0.000210198074664,0.000304971941697,0.000401978159154,7.3417109448e-05,0.000219403731451,0.000571022391948,8.41709443134e-05,3.9605663791e-05,0.000695579952771,3.26700755709e-06,-4.04796027938e-06
0.000668956350237,-0.000462082821696,0.000399365177459,0.000167679197643,1.25824068422e-06,0.000437301267672,0.000205657380725,-9.22189971154e-05,0.00049280032239,0.000399375093669,-7.39432865702e-05,0.000280806898903,8.45072922719e-05,-5.43753503908e-05,0.000576106764122,0.00028802963426,-7.56462361797e-05,0.000393855307921,7.89445803562e-05,-1.34960133032e-05,0.000540790138944,0.000540744157918,-0.000270066519567,0.00033556106765,9.23586261407e-05,-0.000276559490855,0.000790439570716,6.07160678114e-05,-0.000236433992015,0.000781956630202,-0.000206782953491,-0.000239006521822,0.0010520281813,9.48552130985e-05,-0.000133031331148,0.000644414824052,0.000375521167232,-0.000175203160029,0.000405920698797,0.000524996266814,-1.02819878415e-05,9.15244270284e-05,0.000521570390254,-8.23453509434e-05,0.000167013666688,0.0007002609543,-0.000156951277628,6.29290293288e-05,0.000524134635654,-0.000271929313775,0.000354033384123,0.000223831710381,8.22416818178e-05,0.000300165313804,-0.000230595094819,0.000410459662074,0.00042637413875,-0.000135652107942,0.000547419092944,0.000194471720998,-9.16738208492e-05,-2.35010302313e-05,0.00072141355708,0.000635159660699,-0.00018556820221,0.000156647247514,0.00066569926474,-0.000306784598295,0.000247324039553,0.000906137035849,-0.000132050991195,-0.000167847338653,0.000344079396266,-0.000278476025253,0.000540635334986,0.000304534251343,-4.66149991348e-07,0.000302170604646,0.000222467590158,0.000139613556491,0.000244157559355,9.88131291682e-324,0.000534472363936,7.17663420605e-05,9.88131291682e-324,0.000630933822371,-2.46951163721e-05,0.000222405631567,3.9944689066e-05,0.000343888385366,0.000288079165145,-0.000125210200286,0.000443369741139,0.000370994559423,-0.000150414226095,0.000385658372678,0.000176912732894,2.48608230491e-05,0.000404465150055,0.000319408203173,-1.84688801923e-05,0.000305299383024,5.39084918931e-05,0.000227057946806,0.000325272267302,9.88131291682e-324,0.000812681372691,-0.00020644266669,-9.88131291682e-324,-3.142555491e-05,0.00063766426091,3.3543606277e-05,-0.000150558243492,0.000723253343212,0.000485429925119,-0.000260176524347,0.000380985305223,0.000294542925316,-0.000159106254424,0.000470802035108,0.000241538100005,-0.000141028489674,0.000505729095671,0.000606036959339,-0.000178148897237,0.000178350643893,-3.39296169167e-05,-3.23453860317e-05,0.000672513708948,0.000122102978501,9.66536278072e-05,0.000387482099691,0.000208961213709,-5.35070593151e-05,0.000450784551607,0.000385655741063,-4.5551478384e-05,0.000266134443321,0.000385159772504,0.000141416087442,7.96628460542e-05,-2.34600902121e-05,0.000323100553209,0.000306598243002,0.000153114455056,0.000238621348236,0.000214502902705,0.000526914078264,0.000147041905583,-6.77172778446e-05,0.000250350208338,4.10689418506e-05,0.000314819555816,3.67046241196e-05,0.000293114306956,0.000276419774923,-6.99154379615e-05,0.000151841180597,0.000524312963358,4.46935926073e-05,-9.55965373423e-05,0.000657141650734,-5.26438988086e-05,0.000127495411758,0.000531387193051,3.3537743401e-05,0.000179353028389,0.000393347934213,9.81459923339e-05,0.000263556124045,0.00024453658962,0.000120742682305,0.000178090400773,0.000307405622924,0.000356175447101,0.00015450564696,9.5557611941e-05,0.00015710043553,0.000227471806774,0.0002216664637,0.000156520446269,0.000183344887106,0.000266373372628,0.000351182585217,6.39670165322e-05,0.000191089104249,0.000497745546589,7.36373918494e-05,3.48557675627e-05,0.000607516056189,2.48642189504e-06,-3.76377208381e-06
0.000382863232834,-0.000265470582882,0.00022608980354,9.51273069679e-05,-1.760685411e-06,0.000250115831936,0.000117746913298,-5.3748822406e-05,0.000279484362599,0.000228324333147,-4.37941912659e-05,0.000158952311612,4.95018010648e-05,-3.19454649464e-05,0.000325926117377,0.000164444947901,-4.47250804202e-05,0.000223762586014,4.57543732066e-05,-8.83694962672e-06,0.000306565029915,0.000308116456817,-0.00015446039905,0.000189826395725,5.20082016198e-05,-0.000157936127135,0.000449410379011,3.5010857458e-05,-0.000137055134815,0.000445526730856,-0.000117436781591,-0.000137957296792,0.00059887653188,5.50673840119e-05,-7.55833642617e-05,0.00036399843374,0.000214204975902,-0.000100475828496,0.000229753306084,0.000300009259586,-7.10108314119e-06,5.05742770474e-05,0.000298061134568,-4.78348979252e-05,9.32562168513e-05,0.000398703861841,-9.00414903869e-05,3.4820082036e-05,0.000298623309754,-0.000155423933474,0.000200283077211,0.000128328293487,4.56193091788e-05,0.000169534850828,-0.000131608172961,0.000233478883431,0.000241611743016,-7.68148020997e-05,0.000310189411639,0.000110107843953,-5.17720113044e-05,-1.23999913634e-05,0.000407654456159,0.000360719750653,-0.000106973203506,8.97359063469e-05,0.000379318547842,-0.000176668553976,0.000140832459622,0.000517278251184,-7.64206121171e-05,-9.73751855753e-05,0.000196349279334,-0.000159428603245,0.000306561777399,0.000174714721319,-2.016096661e-06,0.000170783828836,0.000127687280492,7.72383503066e-05,0.000138556822696,-9.88131291682e-324,0.000303922977436,3.95594760518e-05,-9.88131291682e-324,0.000357127917139,-1.36454636475e-05,0.000126974532933,2.12209862016e-05,0.000195286934357,0.000164764654802,-7.30339754279e-05,0.000251751774119,0.000211925570056,-8.70432651307e-05,0.000218600148565,0.000102132224736,1.28357125502e-05,0.000228514516208,0.000181742918626,-1.12262732448e-05,0.00017296580811,3.08086515681e-05,0.000128872257806,0.000183801544119,-9.88131291682e-324,0.000459883513996,-0.000116401060499,-9.88131291682e-324,-1.78373458337e-05,0.000361319799325,2.00627018177e-05,-8.604247088e-05,0.000409462222555,0.000278160404485,-0.00014936573648,0.000214687785485,0.000168140414201,-9.16090888525e-05,0.000266951128142,0.000138461189571,-8.20579503971e-05,0.000287079214318,0.000346855717299,-0.000103510595857,0.000100137332054,-1.92656223166e-05,-2.04119585964e-05,0.000383160034402,7.07111922127e-05,5.32266789177e-05,0.000219544582361,0.000118684366651,-3.2155306012e-05,0.000256953392855,0.000220147850383,-2.72764230127e-05,0.000150611026119,0.000218901255549,7.9854504218e-05,4.47266937219e-05,-1.40963390357e-05,0.000183956856741,0.000173621935787,8.78436153211e-05,0.000135525974471,0.000120112863699,0.000301097887656,8.33249625493e-05,-4.0940396714e-05,0.000144040973466,2.28485117567e-05,0.000176592968268,2.0508962227e-05,0.000166631493413,0.000156341997853,-3.89557706455e-05,8.55546207669e-05,0.000296883603373,2.52973961553e-05,-5.45241699897e-05,0.000372709227325,-2.98805947844e-05,7.17119745146e-05,0.000301651073765,1.90152476196e-05,0.000101161048084,0.000223306157789,5.48438815213e-05,0.000149662606209,0.000138975965758,6.93086995806e-05,0.00010055867026,0.000173615083652,0.000202283558623,8.74324168956e-05,5.37664779693e-05,8.82901582309e-05,0.00012921966684,0.00012597262842,8.82989856037e-05,0.000103780468433,0.000151402999454,0.000199724300684,3.60849533416e-05,0.000107673199468,0.000281168297809,4.20553446996e-05,2.02588109861e-05,0.000345223275069,7.84583924365e-07,-2.5254055038e-06
-0.236291047026,0.953951148379,-0.527889966838,-0.343933106962,0.36698152127,0.166721720207,0.875553087577,-0.159718194745,-0.526064758315,-0.204727542918,0.267408841853,0.127088835579,-0.0796604756932,0.0219977822762,0.247432827929,0.0511046957453,-0.0873499958212,0.226015434591,-0.0903631864491,0.244613274662,0.0355200462996,-1.52629161503,0.20331676767,1.51274498186,-0.248055298069,0.0767227272148,0.361102705369,0.0959829341629,0.0254677856313,0.0683194147207,0.457912281514,0.0632506904758,-0.331392837475,-0.117591241116,0.300969960761,0.00639141487126,0.744200812073,-0.350981028276,-0.203449649284,0.0643541568754,0.169460678767,-0.0440447011297,-0.0905344481826,0.194470948835,0.085833633868,0.0883421543733,0.352451314112,-0.251023333969,0.540300643796,-0.101340431835,-0.249190077444,-0.222236896865,-0.0199277000915,0.431934731466,0.242106160033,-0.393134580047,0.340798554531,0.260326793733,-0.102038962039,0.0314823028217,0.880389662348,-0.136201150431,-0.554418377403,0.839576856214,-0.330216715818,-0.319590005879,0.175420166974,0.06882835738,-0.0544783898328,-0.431914599008,0.141333294772,0.480351438744,0.308966137035,0.00451211561528,-0.123708118134,0.465270216097,0.0450855342083,-0.320585615792,-0.654829159947,0.0123048996535,0.832294394809,9.88131291682e-324,-0.0507856768824,0.240555811397,-9.88131291682e-324,-0.0578273963877,0.247597530904,0.54155478806,0.051719607025,-0.403504260574,0.204502893853,-0.0946652686935,0.079932509357,-0.181162104196,0.265243959685,0.105688279029,0.204656956206,-0.0694961115378,0.0546092898439,0.227355605809,-0.185462333178,0.147876861888,0.627398807615,-0.318156192085,-0.119472481019,9.88131291682e-324,-0.261842653061,0.451612787577,9.88131291682e-324,0.763122362744,-0.573352228231,0.0312191566587,0.366130462734,-0.207579484876,0.170351692284,0.384707920214,-0.365289477986,-0.00812668720064,0.159928552105,0.0379682696097,-0.380560882191,0.0922360879034,0.478094928805,-0.0578088274024,0.165714397969,0.0818645639484,-0.106262961682,-0.105891995814,0.401925092009,0.397055731934,-0.784005851707,0.576720254286,-0.0720538331075,-0.208867253929,0.470691221553,0.0464487475916,0.379600172536,-0.236278785615,0.88685847076,0.632112884029,-1.32920122026,0.328617256536,0.570060610521,-0.708907732539,0.157041705613,0.44495436527,-0.412225936368,-0.143780978846,0.025522620119,0.308028493243,-1.08103643735,-0.171037077281,1.44184364914,-0.733408187347,0.0373803696139,0.88579795225,-0.379989691613,-0.693976969721,1.26373679582,0.629016822121,0.154593495574,-0.593840183181,-0.513114372422,-0.00732553415038,0.710210041088,-1.58243879111,0.747670306076,1.02453861954,-0.272015554728,-0.137872078927,0.599657768167,0.621364223561,0.0751849828426,-0.506779071891,0.724335493831,-0.617362461182,0.0827971018625,0.46077077462,-0.711338601807,0.440337961701,1.19504313056,-0.338794111232,-0.666478884789,0.585824316769,0.39632141432,-0.792375596574,-0.987157380283,-0.0497844475292,1.22671196231,0.809651219508,-0.0153587015659,-0.60452238343
