0.342250603386,-0.110880963956,0.119394148707,0.228124408258,-1.93749656708,2.37853906228,-0.126689596612,1.64652093042,-1.10611011915,-0.58651825202,-0.36152208045,-0.366458919606,-0.140372008757,-0.178172846832,-2.02467409828,0.676377742482,0.331419594056,2.5372788442,1.5050778977,1.62828277868,0.657154226512,-0.444106271442,0.789856748672,-0.0504560733257,0.725698934879,0.441807029575,1.35134521572,0.698139961849,0.782566321037,-1.18335021955,0.211298431093,0.611899548728,0.215030862317,0.352409815547,0.163071035898,1.90599462595,1.11886148711,0.994333814599,-0.949926822223,-0.547800045553,0.189217997749,1.35696039048,1.06240308696,0.811172286401,0.72512939704,-1.6769513208,-0.642381924932,0.0490743987645,0.415105533109,0.787878383451,-0.926330155505,-1.66512440875,-0.822800638386,0.730799178341,-1.06596978366,0.755321968006,-0.62275328163,-1.36173521958,-0.0782916294491,-0.246572605492,-0.0445174207223,-0.182660939627,-1.5655942524,-0.311394903984,-0.490254527553,-0.10983429164,-0.0971313001368,-0.587820786439,-0.558652476758,-0.891413408607,0.97826422328,-0.368235149265,-1.56327499414,0.29368353819,0.849634454219,-0.328501046285,0.316716555603,-0.564226046302,0.72843314903,0.242783466767,1.41526730077,-1.28628184177,-0.328059883475,-0.599969938287,-0.313526132126,1.12823870641,-1.70256191218,-0.990000534199,0.125811570982,-0.348685023704,0.687571549593,-0.238676165815,1.492175429,0.665407896738,0.585018354498,-2.96946982328,0.198485225568,0.585698788266,-0.730642405642,0.354101416952,-0.978832002359,1.49320627428,1.55493104583,0.336440775106,0.279446610606,-0.607684956963,2.14029934124,-0.761924208678,-2.31454476401,-0.886527605967,0.0830167929989,0.315436726141,1.16059113447,-0.0699407042245,1.36855376452,0.0817578924451,0.668267216562,-1.50166785499,-0.132320722331,0.359546733973,-0.546559955985,-0.870188771816,-0.582669127747,0.871767825648,-0.293529128603,0.142533154198,1.1087419161,0.652197469846,-0.765318932975,-0.0220301640473,2.62459724025,0.173520915224,-1.0158122119,-1.23372830297,2.07318789314,-1.60562734945,0.508771559481,1.75740235211,-1.6623093064,0.604688596784,-1.53793351637,-0.272948105776,0.743481747327,0.0425308187314,0.648588209674,0.465576445745,-0.457921171649,-2.24050391785,-0.490866188514,0.246815600239,0.0659903847825,0.326276847395,1.7519306004,0.566478032517,-0.634085899648,-0.559121838961,1.61873876479,1.61643067925,-0.910169535805,1.28901966648,-0.0537075775893,1.11874423158,1.01595109649,-0.694818704542,-2.41126802049,1.32280607437,-1.31326637787,-2.04812266546,-0.490497821644,0.345890777546,-1.11652318281,0.596637912112,0.479723777394,-0.398023823211,1.20366378063,1.13009895505,0.649967024818,-0.187741160987,-1.02616892474,0.0925300626342,-0.894948975097,-0.940593529372,1.1247487719,-0.229581024828,0.366471168136,-0.537076543902,-0.176325244819,1.6381475545,0.117298979251,-1.54770576352,-1.32617921601,-0.0895040925959
0.336423202763,-1.36645197887,0.0594190619385,-1.23212619444,-0.472965450329,0.221981737907,-0.54584373277,0.304078046853,-0.300605622924,0.215555422807,0.731832534313,0.450300467501,-0.591693063607,0.141093567454,-0.377034516062,-0.206276167303,0.314676718771,0.984882415241,0.740839815346,0.0719970131222,-0.613919742882,-0.091384110934,0.281786716427,0.785774639049,1.03368509742,-0.21946140803,0.284460806007,0.83020173167,-1.46202829182,1.25055397814,0.424219459207,-0.342866087404,0.792767139906,0.575373112968,0.456790628497,1.07191061528,-0.687319038507,0.756601093265,0.82319680421,0.799953626327,0.281860219905,0.351147346594,0.827937929492,1.52221031371,1.90402856438,-0.772977833615,-0.468767694369,1.01755207289,0.228032507188,1.44121987604,-0.135288319375,-1.4861867476,1.44721125333,0.140228641587,-0.462484984828,-0.460115862457,-0.283979755237,1.84663241264,1.18276994626,0.0314535526033,1.11571761661,-0.61706824731,1.47245376082,-1.22966691094,1.67254352838,-0.323245945493,1.48234379883,1.6296626456,1.19690476989,-1.69455790489,-0.726657733689,-1.46151012713,0.035910501057,0.917780878909,0.464946132518,0.483004846558,0.949940242579,-0.0139986037038,0.874909928529,0.551093725403,0.158579667621,2.08542079407,-1.22732859335,0.778993454212,-1.97130642077,-1.76263664824,0.682582310267,0.26943050877,0.630357736596,0.826370534762,-0.959952540946,0.443951568469,-1.61648783228,-1.38246474431,1.17799969801,0.94183105964,-0.982087037561,0.0646982299285,0.759651227709,0.33371263009,-3.06787176698,-0.170142712865,-1.01523699806,-0.384365246315,0.471117725965,0.908864407277,0.865007526156,-0.532143067473,0.27485325274,-0.863914321557,0.266048363916,0.00484470826653,-1.80416002138,1.05818668171,2.07876798191,-2.01648696188,0.0937842415209,0.350926771005,-1.66675045412,-0.0605165507156,1.19791872884,0.824756812249,-2.05056916577,0.228813181396,-0.223788910279,1.51282912936,-0.0161044428001,-0.603398277093,-0.661290762595,-0.479262227858,-0.398868190364,-0.367608265542,0.821468753068,-1.4176904479,-0.899829728322,-0.24531143207,0.346339382436,0.892669300892,-0.838699119609,0.343927590303,-0.232883239571,-0.201376812388,-0.229460081377,-0.0984905446416,-0.736153596626,-2.16851284233,1.31912365194,0.00296531021538,2.17052539016,-1.21268556509,0.174831456707,-0.343018672809,-1.03715646155,-0.804506021221,1.62153059102,-0.523929014889,1.08209303338,0.568294949197,0.6355141069,-0.307438693466,0.814165160074,0.22983768187,-0.100380483332,-0.200392530801,0.19631997341,-1.73635063906,-0.231593092159,-2.72641519507,-0.656530402362,0.180243915416,-0.668887184945,1.64701921408,0.967589625011,0.238819854458,1.20820161549,0.340603783298,-1.11556751249,-0.223681882935,0.580304868937,-1.0839124889,1.6425583905,-0.156994388276,0.737889128663,1.29166192851,0.684401509831,1.20611559863,-1.30562734738,-0.614730332398,0.126751064674,0.818906409294,1.13590567951,-0.442963583633
-2.86409181766,0.425432626457,1.29238706109,-0.13711374786,-0.094546884805,-0.239575104403,0.212226087495,-0.352217545574,-0.432106271859,0.488216589437,0.663748296509,0.757668453664,-1.20626168732,-0.130453017613,-0.48647475377,-0.537872972437,0.380292688058,-0.355003111967,-0.325866997285,-0.806311635869,0.828869376236,-0.779171956081,0.834897018292,0.778205775319,0.671952373264,1.35603013734,-0.4325921863,-1.62059532864,-0.50639349123,-0.226771723844,0.515200626937,-1.09361024607,-1.79887035571,1.19018126256,0.632529283635,-2.35097574224,-0.136219579354,-0.136998127849,0.389684523653,0.263729970004,0.779942968724,1.61158244069,0.20830447842,-0.574629447432,-0.719283564154,0.869243809504,2.19307403342,0.173000261276,-0.781083682464,0.0401214660364,0.561062993027,0.818163701229,1.88919685744,-0.250154358986,-1.35821579394,-0.474497689046,0.231594490353,-0.173439196766,-0.281107318381,1.38573036247,0.566562670264,1.0035512078,0.334935114423,-2.41452560809,-1.26508438001,0.262862110249,-1.40731594647,-1.97635793518,-1.69277421267,-0.327879104776,-0.586155941251,-0.102044163834,-0.107810250487,1.49214894338,-0.982318378577,-0.248078742599,-1.43802161287,-0.360344026569,-0.532455562417,-0.36808031856,0.908062695461,0.579641239863,0.789367191014,0.209312172868,1.29421959684,0.417404640034,-0.181037606234,-0.433253186667,0.476905044729,0.713721802075,-0.469912489971,1.45687468746,-0.918287084817,-1.3764484119,-0.582918695594,0.477547620691,1.65655946337,0.35737008586,-1.50699043292,0.0445629361407,2.3496957999,-0.613083600931,-0.354002457608,0.329155460933,-0.743364486154,1.47377710143,0.518312298591,0.209415146529,-0.988225501085,1.40385610981,-0.131499967909,0.067342399158,-0.567821314843,-1.95658168069,0.635562777241,-1.69655286294,-1.65560274775,0.133773011988,1.22902801402,1.15468617434,1.18799526126,0.0224532516192,-0.228766457004,0.396758959731,-0.0860555654373,-0.797984580408,-1.34204948544,-0.809124493199,0.799178312847,-0.205886561452,-0.299060253032,-0.43392561623,1.05881044033,0.30839970642,0.0984801905148,-2.60450930051,-2.09489267188,1.81603848111,1.34856720374,-0.487784481248,0.43725517725,-0.211667309001,1.19763489262,-1.36736485023,0.987695377911,-0.947274939885,-0.26127804991,-1.5699229376,0.119663401921,0.289745635736,-0.062939693572,-1.6107200887,-0.721909926136,-0.306231870917,2.24847854886,-0.769398142828,0.471166351864,-1.28795568328,-0.187510138893,0.107545794137,-0.722581033769,0.176029999425,-1.4283030716,-0.183011482539,-0.0892536098711,0.0943530655558,-0.21496677897,0.0391774564101,-0.189482137531,0.243748146456,2.21623618551,0.104279400074,1.29750878005,-1.14996009176,-0.205988451148,1.89723111675,-0.352495091373,0.770540775868,-0.200420058975,-0.207067011202,-0.858991806024,0.181509103785,0.608496115789,0.0835167804817,-1.75188932306,2.17294926333,-2.3892060488,0.0921752669743,0.301262787579,1.88211223108,-0.748001694442,-1.20464302857
-0.636671531975,0.375416118982,1.71564504119,-0.610372882553,-0.802960571282,-1.044504695,-0.189427298779,-0.707059359124,0.749131161107,0.264147315604,-1.81137608154,-1.38336282658,-0.958456614017,0.291942567697,-0.208626498187,1.04284263995,-0.0510109867048,0.320411781516,0.291310960311,0.537240926252,-1.43971075977,0.712173285329,-1.62388048059,-0.491955678657,0.619430901535,1.76099628463,0.525891087978,-0.807783733347,-0.841335368458,0.456523492773,0.0271307163783,0.37758234804,-2.7468601059,0.0847706640048,0.208943213084,-0.450801654036,-0.556346983893,1.4899581906,-1.05231137532,0.347807331013,0.0842165812349,0.280632898451,-2.1510164185,0.625066094505,-0.794141529254,0.998497384389,0.368323925312,1.12183797141,1.03670174802,0.966796674619,1.05385287237,-1.7830109855,-0.470907387025,-0.807989471015,0.0477317669808,0.00921038825647,-0.185360387611,-0.265613851681,0.568363559268,-0.566227279609,-0.598574288117,-1.58165301473,-0.383680293713,2.33230126915,-1.0002230935,-0.262839093418,-0.0915901716499,0.825151456816,0.599800276352,0.20022791711,1.12889457684,1.38513769836,1.84837046869,-0.168973524845,0.600108820849,2.16012707428,0.886512040626,-2.20704052568,-0.651927860578,-2.12817542403,-1.30388918929,-0.0108310789506,-0.743149022227,0.616158577197,0.19620752304,1.20430746608,-0.161515195104,-0.820903463584,-0.810669126411,1.01775467217,0.573907363014,-1.94037565408,0.697567832998,-0.00283513810636,-1.92408156512,1.93568741008,0.173175281973,-0.0499587025031,-0.786064230525,0.183687614401,-0.201197239434,0.480808675281,-1.9346239837,-1.91815001632,0.636740482555,-0.0203447230809,0.898897499047,-0.641021452191,0.885315183665,-0.304874979097,-1.51417544704,0.631702683825,0.32772158787,0.278817416232,1.81758249752,0.421924783285,-0.115943071878,2.49813729998,-1.131897651,-0.896444671889,-1.28601336486,-0.304288427449,0.215391591658,-1.68299692494,0.435627385305,-0.314975798065,-1.10790218893,0.270606404262,0.0558024445937,2.08605446689,-0.151875628542,-0.595847711623,0.44230116002,1.25066660191,-0.433050749334,-1.1479764888,0.0479087795957,0.854571951394,1.52865134777,-0.495804531092,-1.45235508516,0.0684446849472,1.27808559131,-1.17507168154,0.26398631834,0.0913877819946,-0.279050424827,0.156389718758,0.538347777089,-0.242922369502,1.09920700571,-0.120166715275,-0.359135584597,0.79168278918,-0.858633621158,0.176180193663,0.385158250644,1.82189625504,0.528472885108,1.80750102393,-0.387264552467,1.28231295316,0.249207235889,-0.646795850269,-1.14490614149,-0.203191247458,-1.20795627053,1.16180166385,1.60206014366,-1.43037203082,-0.0240417284927,-1.08846938691,0.0733691740104,-0.451161593869,-0.759095656567,-0.883864212179,-0.764911194799,0.693397237554,-0.586284694652,0.153322035438,-0.411072717943,0.0494276517433,-1.2728560193,-0.0249217118741,1.04884423419,-0.0376070487462,-0.0642561162863,2.2781076571,1.52519972877,-0.764847546868,-0.224261648453,-0.468801231164
0.601358259567,-1.36063839006,-1.60696741916,0.123831542163,-0.77885924865,-0.205560029286,-1.24810154278,-0.338477240532,0.936955638497,0.553116881019,0.023975078346,-0.575130815681,-1.0618029933,0.27849241456,0.745027869022,-0.574387879425,-0.194557638937,-0.0242558880811,-0.203866845036,1.12007057103,0.324045605744,-1.76711812238,0.452909108967,0.807508522913,1.21692693357,1.40462538315,-1.17444214366,0.337033294458,1.6691867932,0.125894305814,0.47043778099,0.308503378291,-1.28771922278,0.657157237803,1.38704344126,-0.593226038082,0.478915757115,-1.03819261159,-1.61021720899,0.035135733565,0.120737753221,-0.608071470323,-0.668577103888,0.830344553354,-1.64848021988,-0.673073711224,-1.13104187853,-3.50176165293,-0.455977519028,-1.09205978322,1.61265389647,1.11664892911,-0.00383896080485,-0.513792281453,-2.21946700127,-0.34995178383,0.762038246579,-1.37704816543,-0.890396573997,-1.36264304471,-0.369533370331,-1.73355318549,-1.8145531353,0.215397230474,-0.435560144077,-0.115258154259,1.72479023568,-0.715607394919,0.956812398581,-0.00642447046913,-0.279781968982,-0.461861490623,1.68225509251,0.61108757202,0.654781604568,1.68482913918,1.38783264341,0.307775953785,-0.146391308748,1.29564689795,-0.469550853771,-0.955506974408,-0.550224129464,0.114370571799,-1.21081311386,-2.17516625117,0.851655313017,-0.909403031121,-0.39164015425,0.154945891312,-0.557806247474,-0.668336766184,0.664034789592,0.496285440885,1.65839484566,-0.00426664738947,0.0409637496948,1.46627509121,0.427553589446,-0.961450871833,-1.15059853749,-2.40171793165,-1.36306942382,0.80685277721,0.257904565719,0.383634074809,0.248175790935,0.111318300723,0.144703263067,0.744601222446,-2.25586139557,-0.478042853747,-2.7718478092,0.232315616942,-0.363457592037,-1.08425639576,2.74065509663,0.0467468384339,1.08819301692,1.40154164743,-1.35593077736,1.02551205051,-0.583169645646,-0.386970737611,-1.30013640721,0.0285988432259,1.53074509099,-3.02376980051,-1.35635282183,1.20125884068,1.18940632935,0.527215751957,0.780262989972,1.35304762605,-0.430966109624,1.06007126946,1.43093199699,0.701247750348,0.0494361230185,1.43744449779,-0.45938137457,0.0471519950274,-2.66732195327,1.47762614349,-0.321060743496,-0.214129109948,0.423500754852,0.779380108679,0.14152256923,-0.0157094796472,0.554655812973,0.30179025795,1.57022602749,1.13600530983,0.0186136212872,-0.231645149618,-0.102906663225,-0.177341314279,0.0796547450351,0.148743722486,0.146003177068,-0.693610280053,0.314012977145,-0.502789776271,-0.952285099213,1.77230870406,0.254774544973,0.542339669616,0.1376164053,0.214393034635,-0.178770097101,-0.252446054473,0.701542455086,-0.252443033735,-0.865752046014,-0.981520400483,-0.274098304932,-2.22606863664,1.57318859437,2.00187097132,-0.0449289097292,0.270820658773,-1.15161626559,-0.390310924266,-0.61108240061,0.373073932244,1.96409461208,0.249946292445,0.653613613222,0.755345395253,-0.68322258975,-0.0371410065777
-0.549536854707,-0.496643508755,-1.59624120167,-0.210216577509,-0.0352511108177,-0.661340752039,0.332065574168,-0.509990999002,-0.276030683911,0.101979540544,-1.54375201663,0.887292698758,-0.438204190074,0.470134943905,0.153518934398,1.86690744911,2.52519935671,-2.16796806083,-0.347738877513,-0.867063625067,-0.518501350003,0.460522977443,0.967248631114,1.65715270272,1.31775645377,0.437138669854,1.81258438941,1.86566525033,0.607536953407,1.44548203296,-0.410143488916,1.41123655783,-0.158891412278,-0.323917952776,1.60224377418,-0.697948002794,-0.269913172608,-2.24374734819,0.656616863723,0.444050848953,1.58021229706,0.133302759266,1.82834829085,-0.825101102608,0.600657726047,-0.697136674024,-1.51395310633,-0.238046919808,0.519496448786,0.164480278704,-0.830435177951,0.018451541783,0.49782760148,-0.999582900582,0.541701461632,0.300722566671,-1.56285710276,-0.941666780363,-0.253962891683,0.783309320337,-0.703176122765,0.444108754982,-1.64353668222,0.129523183043,-0.0449439736342,-0.154097744373,-1.59360535745,-0.722544756131,1.387010366,-1.1256201578,-0.435059600129,-0.209803906009,-0.084228319144,-1.65288491927,-0.729951954281,-0.491976349039,0.33595549204,0.946082274492,-0.443926980433,0.139361175553,-1.0383424376,-1.34454555417,0.013047355043,-0.38198970717,1.41594642646,0.313211819883,0.443797094222,0.698241523912,-0.878793976658,-0.780474424585,0.279022845669,-0.0141605460603,-0.824286567253,0.745543950516,-0.858590727825,-1.01445889934,0.464929587151,0.454075454108,-0.5119869183,-0.939327911919,1.62922606399,1.2147192977,-0.372543773585,0.573219075276,-1.66346669309,0.50607890178,0.408188978655,-0.402207648335,0.862380513872,-0.422045776764,-0.0938528646046,-1.91816927741,-1.18175498173,-0.962385265969,-0.155295086123,0.345800164499,-0.116452043534,0.0579689990597,0.471565130411,-1.14953524371,-1.34987807801,0.369543211991,0.759283241688,1.71984628322,0.137484726018,-0.121358537588,0.147251085598,-0.494866437308,0.195568981055,0.296100560918,0.210283502705,1.54902201362,-0.671047525729,0.568088789404,0.0508628303374,-1.04212361829,-1.23549029918,0.419472402944,-3.24559230748,-2.19529605486,0.37683582024,-0.204724872909,-0.6974917136,-1.04869536923,1.25232518888,-0.983888168809,0.658334500017,-0.44368141175,0.491482034709,1.7870458985,-0.237385780152,-0.146736819093,-0.265983689704,0.592950631129,-0.398764138879,-0.0832018087336,-0.823833386269,-1.17232487702,-0.00670050666472,0.579626522466,-1.10123702402,-0.299776602613,1.48251853014,-0.227391501055,1.12184450854,-0.626812349939,-0.874359479663,-0.44785185555,0.591485058329,0.151796730774,-0.992740651675,0.786706680623,0.0585857654014,-0.645211093842,1.31241994494,-1.14822717993,-0.0639920793126,1.13358641173,-0.696214868864,-0.704736992124,-0.395986604165,0.819256676279,-0.853244991261,-0.643265480948,0.724774025191,-1.34406470949,0.620675804007,-1.3607395558,0.47947784502,0.298506037253,2.6548645502,0.319529602997
-1.01831064458,1.94157121983,0.0443503774839,0.00979458843381,1.51892604841,-0.853522700026,-1.97372831895,0.620540661284,0.151824744308,0.637703159942,-0.131153551685,-0.020600692875,1.44955814519,0.834600834838,0.349536973434,-2.66410556757,0.388435357961,1.99111029791,-0.804851726809,0.224358875303,-0.0763567328174,-0.469569019386,-0.980729656053,1.21399932008,-1.29642883775,0.706957886641,-0.633135337543,-0.405466778224,-2.35531249315,-0.402947389081,0.327456699201,1.3398769054,0.676325309635,-1.59336180058,0.688237857232,0.256969223751,1.47558585958,-0.869143628809,0.975971041693,-0.347351603007,0.310835656222,-0.498076195049,-0.955658381277,-0.724260537405,-1.04325885076,1.47403249156,-0.523906345008,0.781605177011,-1.29182273119,1.23183822566,0.440173840823,0.328005358388,-0.0556880583261,0.735805159439,0.771612173749,1.2916059152,2.15609729022,-0.0022638951968,-0.281797391165,1.75881801596,-1.90066627214,-0.222837471256,1.03884693284,0.80908669295,0.0698753880613,1.13296847451,0.828211187716,0.523613069175,0.329142747613,0.464758886687,1.2027294277,-0.153224066011,-0.782962043056,2.80600160022,-0.205930971126,-0.614781694578,-1.06920143971,0.857307357108,2.45527591993,-0.58535165388,1.70101724067,-0.647512725892,1.63363782709,-2.73036878495,-0.457078336455,0.0819039072701,-0.468800617878,-0.155267451699,0.545322674248,-0.306020315894,1.34265215451,-0.217532170952,-0.054869135104,-0.628708958074,1.43798396428,-0.629559297028,-0.699794092969,0.764677244687,0.205186080376,0.0828601631039,0.651271074152,-0.832719956584,-1.04264512525,0.539341785329,-1.53416037525,-0.569435329545,-0.421824073997,-0.189277331192,-0.778268102583,1.24171997711,0.4224549441,-0.022615053078,0.864340585812,0.149578756265,-0.928162101767,-0.712289419204,1.02474398469,0.373196721258,0.748268009182,-1.23046866678,-0.527729652517,1.56883945755,-0.886968554578,0.226310008468,1.81445527744,-0.780478676823,2.15255874298,-1.62702423832,1.65093631567,1.00571605704,1.53651571207,2.17807165337,0.86697108205,-1.38503662211,-1.0388859244,-0.673828176318,-0.662980720308,-0.816333639421,0.20818076444,-0.124437427965,1.11128091052,2.00104741836,-0.0395661946356,0.324774739347,-0.184888029628,1.28950537512,-0.233242591316,0.52282302844,-1.66165992014,1.26081221187,-0.93952329247,0.135711636024,-0.862809653274,1.1250382086,-0.22515287958,1.71486357421,-0.804161572909,-1.31560196608,-0.578259173596,-0.217129713992,1.16415672786,-0.41575489718,0.95422603008,0.91903052583,-0.905325039384,-0.373277428912,-0.397360318133,1.51338780682,1.40617359003,0.08522456267,-1.52217706612,0.790385260307,-0.261786629616,-0.200708653593,0.69451089585,1.95237288004,-0.60619003517,-1.50337528975,-0.327926534702,1.27992114872,2.59681971542,-1.32240664027,0.108972333151,-0.766985820705,0.875212974418,-1.11714724626,-0.539811845265,0.570979433712,-1.38486321862,-1.41173697356,1.32345983773,-0.410805556183
2.18009787553,1.4369400395,1.3958836574,0.0549856055509,0.977204220882,-0.882808762434,-1.62035895273,-1.41564070426,-1.20453116184,0.842197303194,1.57260099456,1.84874248731,-2.026625795,-2.03379509012,1.033945777,-0.926957545454,-0.338827179344,-0.374532485016,-0.732979729951,0.643740472945,-0.262465470087,0.605639567341,-0.0664760508345,0.717670709968,-0.941832511104,0.210168787573,-1.26432958259,-1.67161891244,-0.553400659511,0.824364544016,-0.773920163225,-0.0193765069624,-0.356409923202,-0.0315841360669,1.55424395491,-1.34799963901,-0.988858329686,0.805488753165,0.293836745903,0.329785173407,1.48449493377,0.270222706789,-0.696837714938,0.279639114613,0.754773461535,-0.0158213121429,1.44913957049,-0.118357220035,-0.20536828956,-0.577415755263,-1.78331991568,-0.482476261566,0.430210965231,1.70533456072,-0.695700632846,-0.273016856681,0.901894644743,0.323090031041,-0.0942141388108,0.0752411689066,0.214761225682,0.396113682069,-0.968282666251,1.26308882869,0.0164722124392,0.308017282956,-0.461267461798,0.551796191453,-0.394907870702,-2.44423774828,0.174479359869,0.809793089125,-0.542571650267,0.765038021013,-1.58684660026,0.177042535663,-1.19770184971,-1.20227922116,-0.732983650807,-0.842868990933,-0.0369550741724,0.613130138115,0.251171469896,0.707989351779,2.33702558994,1.29666579477,0.648620685335,-0.196295927305,0.0757694135619,-0.580696934107,0.693846262231,-0.0010960596024,-0.975510023872,-0.88429406085,1.31073267104,-0.0193270844132,-0.524675367573,1.35119217556,1.07759673302,0.13322682385,0.938526154187,0.773699980278,0.262775947955,-0.503590109611,0.0114576593327,-1.16802575107,-0.25359658089,-0.33353129597,0.860733645507,-0.873953318637,-0.55975498285,0.243778236509,0.600446427492,-0.295131980176,0.776272259007,-1.44627556737,0.762156344272,1.3138647734,-0.418140669877,1.62881201324,0.835662307419,0.166468155332,0.817477874282,0.094839432548,-0.401776498624,1.46013973414,-0.273778196838,0.402293666317,-0.965191918922,2.16041770083,0.822942364966,-1.90585692341,0.993343473555,-0.39978278318,0.331942322067,0.552409175725,1.83659638329,0.836249919399,-0.285261714127,-2.27010815766,-0.0153310060136,0.645864231287,-0.966670916749,1.4156350344,-1.09604096649,0.434626709261,-1.14223566513,-1.21062656912,0.066420907897,0.805537277067,-0.450652628655,-0.939194588608,1.8292026287,-0.3783466062,0.420234270777,-0.360418133162,-0.205897139384,-1.01058437631,-0.723260114132,-0.0386860122112,0.222190989737,-1.02350395761,0.323200275742,1.43734005421,0.395619556982,0.794194609409,0.558079436642,-1.44705732144,0.919779738974,1.33380920207,-0.964589354342,-1.27047950935,0.853691517991,-1.75396423131,-1.21789648223,-1.16102113532,-1.11771152865,0.822374656673,-0.0994523621587,-0.57302540089,0.533816101587,-0.0844307647937,1.46574531059,0.361870654365,-0.544851667733,0.616608598447,0.357165380164,1.53028554901,-0.269312326904,1.07009278328,-0.814472083654,-0.839846885733
0.0734542543599,0.897289894823,-2.4193429147,-0.180574043256,-0.766635208459,-0.569682056486,0.898523968048,-0.652683084853,0.498354400429,1.78744527108,0.73460603578,2.68486348861,-0.401853332774,-1.1649434772,-1.53020291507,0.420807180355,-0.25126548785,-0.70547073175,-0.739682867687,0.506615074396,0.623951371982,-0.445971852433,-0.920381216065,-0.382847975354,-0.280440697896,1.00133188648,-1.73172952661,-0.207509773733,0.275595861952,-0.477840813972,-0.777140807456,0.0632185820306,1.06791521436,1.17019772684,-0.632889098911,1.11041229732,0.969075757437,0.806370451919,-1.2099528607,-0.455045203107,-0.129181014569,0.647769075867,-2.70994394793,0.403441835698,1.39611330784,-1.99558550115,2.0065579712,-2.58041460712,0.322704442496,1.56376810908,2.47922230105,-2.07168189424,1.15913116082,2.01509096429,-0.687711003142,-0.712835152838,0.0244587350973,0.398821447592,0.768290844162,0.612168522774,-0.429000225747,2.38828592402,0.7797994488,-0.975418132845,1.28282596586,1.27989663098,0.640877499526,-1.59033415757,1.00108530542,-0.501221889972,-0.146063878525,0.704077967548,0.00245790033792,-0.0100388612493,1.76541933522,-0.921685421447,0.350571911407,-0.49364682164,0.441167300565,-2.10341536044,0.802805930248,-0.549433251985,1.09669771861,-0.398343875594,-0.901175050907,1.52721840527,-0.0948556831712,0.0663562683733,-0.183407444439,0.602983881391,-0.77479576378,-1.57623776914,0.0108042163153,-0.231737931014,1.37063503406,-0.887655435357,-0.798512765353,0.140776025588,0.558314290396,-0.908857471707,1.13813707296,0.246263003969,-0.760125048109,0.87205339321,-0.576126051293,0.314258085715,-0.0311127073116,0.955509474682,1.68660443579,-0.721457085477,0.366803233347,0.0491488600933,-0.904953259164,0.087130736028,1.42217790957,0.767091880617,-0.347979122708,-1.02362806987,-0.0236029090588,0.27722604621,-1.54821705607,1.12409035185,0.516651231003,-0.63444326558,-1.84031517215,0.17369181706,0.611084816765,-0.320280122384,0.955599168275,0.138989526321,-1.31301443268,-0.692611009085,-0.582106559235,-0.659978552568,1.24799864607,-0.423308012862,-0.0409061717797,1.07218948183,0.666107670315,0.587724122279,0.475888726718,0.077729227409,-0.329802642038,1.25491798182,-0.193614202955,-0.0875664581776,0.158908650656,0.0860587366817,0.0239713378168,0.957718935942,-0.752853168642,-0.903684158878,-0.521346268086,-0.102427328628,1.14465702172,0.953900797388,0.684338849068,-3.04926370312,-0.988341464771,-0.647172735291,2.06464532488,-1.51389841238,1.09254309037,1.85843477543,0.0711696091117,-0.484884769816,0.974888755676,0.580764610869,0.409057022602,-0.917989963997,1.49010159915,-0.0335696534735,1.13799886996,-0.568354652165,0.195666186229,-0.989769997694,-1.22309944054,1.62910758162,0.616524427146,1.29449183609,1.00408880787,-0.410858074702,-0.640213245556,-0.194827093608,1.03797450295,1.52451833995,-0.591379486162,-1.01203786164,-0.58151167013,0.658581129043,-1.25273819897,1.99152487193
1.33439308952,-1.48431691998,-0.882123560087,1.08441402208,-1.49895015692,0.231633651485,0.180024618209,0.103469352841,2.28477592977,-2.20615819823,0.985320505895,1.38006707854,-0.887429582421,1.12976234518,0.450362151748,1.59785797021,-0.270845248847,0.43754644199,-0.534727665187,0.212012640337,2.96087793557,-0.267338598022,-1.22440483661,0.768370918382,1.89951847807,0.500279620683,-0.751718347946,0.380735737429,0.992057119432,1.06852746064,1.79642784591,1.54792644064,0.0647012297759,0.715958447477,-0.767433391062,0.450700316727,-1.15791557261,-0.6022942988,-0.303055288578,0.824333430904,0.532020555737,0.751303151541,1.09398717959,-1.43004162808,-0.0836526967975,-0.647172008249,-0.0853158467655,0.0778346278419,-0.787323406973,-0.274046949304,-1.10424542505,-0.383643139452,-0.133396002491,2.0618044572,0.446170627603,-1.0199329824,-0.219981673515,2.12421426959,0.691277797077,-1.09608152357,-0.314505898254,-0.177230805312,1.32890413656,0.148857494164,0.351755375611,-0.75056059501,0.669819623602,-0.331465863979,-1.31530510251,-1.25244417822,-0.940470287206,0.726374928446,0.431614666056,0.416946185139,-0.509779156818,-0.0831586841221,0.769170729359,1.307194504,-0.0983442366503,-0.689139784353,-1.11158893204,0.156321862942,0.254465965192,-1.73148996615,-0.27305996223,-1.26865891392,1.25563784472,0.848714366244,-1.01549899118,-0.00463818828431,-1.39207859513,-2.16970443424,0.59800081262,-1.62327490045,-0.524831118628,0.00544402689228,0.268085049555,0.408725037243,0.0123581661562,0.620027587957,-0.541979586049,-0.202594866982,1.43070566353,-0.823111004202,-1.7312925612,-0.225848683787,0.986719826078,-0.476996316323,0.786091816513,-1.04713918595,0.510315747728,-0.724002228093,-1.35843030786,-0.446732500516,-0.420819925224,-1.54026854483,0.43959066752,-1.57621899373,0.198622775347,-0.201250327663,0.685385840163,-0.725602523641,0.248556240755,-1.58512977772,-1.12218976439,0.148173575677,-0.33952365115,0.319799390612,0.956608451657,0.0754940301219,-0.403103685528,-0.0713760015931,0.899691734552,-0.0142477421009,-0.682944579337,-0.260902653905,0.284671995578,-0.491387928167,-0.530335037039,0.50256081537,-0.154211436555,0.0521384522581,-0.0902772594655,-0.295188557744,-2.00816688769,0.0442682164806,-1.42113107449,0.45044413178,-1.16859361912,0.525020732999,-1.77731815774,-1.54635490912,-0.793502354334,1.16568100906,0.587796241903,0.132491918552,-0.540837363313,-0.65587882848,1.2237670629,-1.26594046939,-0.0170535434198,0.969227984084,-0.52823534269,1.30905146146,0.571292733046,0.474562499411,-0.663443943781,-1.01282174854,2.20530972029,-0.118667291275,0.646116308363,-0.630866138121,-0.0931446583954,0.454987395073,-0.810106700976,2.28916780435,0.878872930112,-1.058691895,0.204359754868,-0.317218302184,0.320931231409,-1.043962774,-0.0388425868356,0.947714070893,-0.882279230798,0.301595507771,1.54951443418,-0.566383653946,-0.500777955863,-0.417258597945,-0.730887385884,0.633915370755
0.463472435227,-1.47004275607,-0.191317926799,1.38434787038,0.917049754626,-0.171201602206,0.627796041985,-0.812209648853,-0.0675747393539,-1.78680965466,0.21572538923,-0.63356221689,1.16681954653,0.124018552252,-0.335722750469,-0.648158262944,0.46546446591,1.17755734063,1.65207870623,-1.39564931986,0.350017908414,1.78430656866,-0.45698146265,-0.734355413014,-0.68285347475,0.82058893858,1.02255407739,-0.357011109712,0.330948663166,0.265793025414,-1.49579359637,0.628009985724,-0.383945731973,-0.0490654245922,-0.463808878033,0.538016043188,-0.904524171557,-1.70239902645,-0.190064483018,0.452029051091,-0.168654055734,0.872662148359,2.30751115653,-0.410564639322,0.491735708395,-1.27123258953,-0.404212509748,0.567843958219,-0.484576737464,1.04602184797,-0.326619707211,-2.55201756634,-0.633835561926,1.13038076239,-1.43065631023,-0.062598617274,-2.41319273379,1.12811585,-0.933102102072,0.876271656291,2.04803003563,-1.32107046398,1.15239433199,-1.11242164216,1.51877093126,-2.3123042925,1.01381617321,-0.679625814066,0.873021025803,0.362201473118,1.59806754203,-0.017783941043,-0.589923884555,2.16622197037,0.0408449840632,0.0630942438939,0.0725975378779,0.34071200119,0.426631100651,-0.915311145172,-0.264241782033,-2.54972267624,1.05168034343,-2.24134826327,0.682836894936,0.274822284978,-0.304417185561,-2.06911144573,1.76099148675,2.06423802627,0.545364943664,0.0227158907005,0.694264751221,1.26635229389,0.73210726981,-1.87395754558,-0.272501463273,2.42170183364,2.81734455242,-0.000338197985684,0.141059193888,-0.238712024788,0.390362839381,-1.74834709387,0.172656502908,-0.104242904025,2.52175336665,0.546211233769,-2.23908744697,-0.387461106912,-0.10842889051,0.317621995775,-0.634514774823,0.371207953018,1.68126580556,-0.0741438482464,-1.0038528986,0.63322545403,0.911991750141,-0.215532495565,-0.0686108615264,-1.24949914536,-0.859595192514,0.511640626244,1.27386471958,-1.5942455406,-0.358073396639,-0.48804051197,1.58361667738,-1.10655985826,-0.325285939596,-1.03753114014,1.35034807981,0.0843925342209,0.206044670588,-2.40396068092,0.0048476576204,0.669169870982,-0.735594159161,-0.543409978298,1.06414847814,1.60945612271,-2.14246375304,1.69493103773,1.13501742292,-0.227763709808,-1.24032783617,0.170671255924,-0.923693028891,-1.73171911297,-0.930113886321,-0.00295659100938,-1.3518927046,1.34341918798,0.681078767953,-1.21637903294,0.0891007222029,-1.84096434325,-0.703977679545,-0.902611307816,0.492026050466,0.485726785948,-1.89642324209,0.978917251847,0.974401289899,-0.14755299879,-1.0152248295,0.799599838554,2.19147816225,-0.0976574305949,0.178349249873,0.98099571043,-0.96934623604,0.371023666009,-0.176850668023,-0.289541100931,1.79697461575,-0.688658059965,0.319681083686,-1.83739976282,2.67992551448,0.41505477701,-0.564685242227,-0.0291169282583,-1.30146375044,1.26166812977,-1.82081998524,1.27187922185,-1.13802538526,0.541915165732,0.0771744402508,0.621721970727
0.384426904976,0.43039613379,0.0910586052819,-1.07700535386,-1.31136962286,0.520513614843,-1.51310645252,0.607295492873,-0.684326822872,-0.478434950953,-1.17579103149,-0.177376395274,1.51064913303,0.112468837274,0.597413973738,0.15678669701,-2.04486696768,-1.00276199597,-0.95794670166,-0.133779220671,0.574700789949,-1.89070460563,-0.170110937518,0.520688246632,1.10024733725,-0.396739019644,-0.151757158059,3.08965796782,-0.256019016888,0.371393217623,0.31918076718,-0.142543034796,-0.109431969814,1.31460710804,0.954138569926,0.382889488297,-0.338716471996,-1.2857888707,-1.17355829991,1.59939102928,-1.07848629564,-0.40379238267,-0.944824524519,2.09072379223,-0.491582480766,-0.274160901199,-0.699604157063,1.52656707926,0.0505974082864,-0.787904711148,2.49638913211,0.0463521002066,0.845261869365,-0.20513108072,-0.990564260448,-0.00623152122434,0.221652143325,-1.72220711368,0.723052705293,1.23265107452,-0.588613311986,-0.724555252834,1.53367878957,-1.17854203521,-1.32472555972,-1.39692640397,-0.399195374741,1.48695164961,1.14125326866,0.711571858185,-1.26919604003,0.0990013649397,0.389539096382,-0.743472778125,-1.03934542534,-0.790786463619,0.31396023335,1.03452739912,-0.106714477389,-0.450452233963,-0.614001648094,0.132883085569,0.579987334632,-2.04955341951,0.197375891256,-1.01660982205,-0.416556217504,-0.59531904465,-1.73881378304,0.201201129534,1.14277958188,0.686142893711,-1.01858981438,0.325261791597,-1.37799696406,0.262658640489,0.925023153306,-1.44273707023,-0.1196553231,-1.80256370368,-1.06072319745,-0.802383602143,0.191983886189,0.0793007444037,-0.510392191419,0.371267400031,-0.84667971908,0.30659116666,0.766572892819,-2.02734051157,-1.5590402828,0.206929656913,2.21333295148,-0.751585259323,-0.26117577221,1.64063869487,-0.054203790144,0.841244207735,-0.241945871675,0.12170956998,0.427489502522,1.28306779448,-0.940132482608,-1.32739069103,0.617441987627,-0.849832298452,0.295386664629,-1.91929736549,1.70615760167,-0.157150516118,-1.54518811883,0.156416217296,-1.65067514874,0.92858884051,0.73512167899,-0.343353539068,-1.92415741004,-0.48837663267,0.646275177462,0.600242565972,0.638600727713,-0.0963545862342,-0.116830036716,-0.321968823707,0.30981522698,1.73041810629,0.874723516702,0.228258510044,-1.181165528,1.28134058867,0.676055585601,-0.190652599631,0.0901479547248,0.648034561661,-1.47105230009,1.78815222812,1.16757849926,0.249533526924,0.831300636271,-1.25249444506,1.36905634738,-0.194293126211,1.67882356344,0.617006850778,0.612488377872,-1.78241026398,-0.257279552469,-1.79557090395,-1.71428772993,-0.590832591278,-0.0748646714481,0.215826897584,-2.92961605034,1.05364777987,-0.155935530709,-1.51859581802,-1.21681155822,1.21093614994,0.54447411007,1.68196978808,0.85309892737,-0.640101414285,-1.03968114562,-0.202674742965,1.60291467671,0.610686372342,2.40655303279,-0.0384769506782,-0.371638820817,0.855527767705,2.64594741294,-1.86446440841
-0.65882479306,0.0578294838531,-1.94631122747,1.25898218226,0.97687903069,-0.325634953111,-0.434376359597,-0.91698010768,-0.355753030691,-0.129774283834,-0.458410813082,-0.125673469016,-0.0839742031443,1.32309947396,-1.11185126344,2.27362084968,-1.08784475344,-2.97726837003,-0.917975080007,-0.699789037348,-0.352899617416,-1.70632720999,-1.78871421821,0.343253487592,-0.887555764692,0.191880217029,1.55929753666,1.00155918924,-0.680715002099,0.981396276976,1.13406494505,1.09005374827,0.210262087792,-1.30227244474,-0.244056543378,2.28066378198,-0.571195702239,-0.190994779918,0.410876174714,-0.382673238154,-1.79730654384,-0.247502272153,-0.991774408189,-1.31853050523,0.432725311791,-1.60045021586,0.534752849149,-0.751838757985,-1.06950363871,-0.654557362644,0.482095264124,0.140626509972,-0.736483720242,-0.524476892179,-0.550620963637,0.836198277302,0.633622342345,0.946324581221,0.305981407698,-0.967451085638,-0.0336064621921,0.500674719796,0.576998118351,0.259853844358,-0.649947466011,-1.18256992145,1.06738969093,-1.94016657869,0.856618377139,0.143903832748,-2.40527183285,0.596080331562,0.731781109476,0.222631034232,-1.48060927657,-1.15232718553,0.725942047958,-1.77492433763,0.809958212536,1.39922176527,1.23001862901,-1.07560137714,1.02090856738,0.350611650597,1.17601058592,-0.802000966838,0.832282307943,1.33045165965,-0.199690298908,1.35323995757,-0.453316044121,-0.995529861807,1.20070739322,0.72933979061,-0.945755354164,0.0298532766761,0.0821923317629,-0.203153111536,-1.66702122919,0.980432154425,-0.976568750318,1.36599707655,-1.1059852571,-0.0695178828984,-0.0465338662175,0.0134586289882,1.05080096286,1.00534731559,-1.42682486617,1.01502942416,-1.45134646175,1.03421485416,0.495460531854,0.853114053367,0.365678277238,-0.672662820103,-0.54326390359,1.62188607897,0.143568987694,0.168255514982,-1.25033765792,-2.76877144636,-0.629140633402,-0.13519816291,-1.02827375077,0.399541241497,-0.307943427225,0.974176157225,0.124431675161,-1.16111122033,-0.64454972682,1.02737584509,-0.56286080136,1.02433424274,-2.28215861976,0.151913489112,2.60849761239,-0.0899138791582,0.304416885526,1.05551975106,0.184227832306,-0.178871337947,-1.03741273063,0.152266729053,2.00824633056,-0.119931975975,2.6234562483,0.073556189162,0.237867835511,0.395384431621,1.69783075488,0.180817971869,-0.0314873732488,-0.00991295676227,-0.373214049077,-1.03402695747,-1.00140434412,-0.779754603328,0.81164878055,-0.283067694806,0.350213206571,0.051537721194,1.94812946132,0.683282315171,0.140829752887,1.02974560065,2.19213606837,-1.67521127509,1.66585213728,-1.12349690604,0.532984567883,-0.841102557353,-1.3808461005,-0.27788934062,-0.573508847354,-0.155006212182,-1.95577600444,-0.49777426004,0.4686879186,2.16791363337,0.272129236559,1.5248017964,-2.36287238002,-0.656435464694,-1.355472769,1.48347384362,0.600903585332,1.01506478442,0.401779191676,-1.27369964325,-1.48179122918,-1.86297222685
0.105326849879,-0.311939917999,-0.24380796067,-1.04215126202,-1.17608559285,1.7821281945,0.206170906295,-0.586667669438,1.47314309565,0.934595857943,0.5214957584,0.448732773099,-0.192356848926,-0.764443461044,-0.42489917395,0.769382014864,-0.294137508842,-0.0422333067803,1.3362273409,-0.191005981546,-0.971908029656,-1.09033369901,0.35694122319,-0.0787710654558,-1.83831836494,-1.41039013185,-1.50501274567,0.0405312682444,-0.493269960042,-1.41235912226,-1.34224859677,-0.172070645894,0.761749276661,-1.24926560707,-1.72636214776,0.884652999716,1.07986781237,-1.08893551436,2.33395037219,-0.443508499911,0.230897576761,-0.257724834115,0.4571801374,-0.417386373068,1.64511108277,0.451720125894,-0.515676815179,1.4461470301,-0.0131887961604,-0.582248296142,-0.75524354244,0.577349246573,-0.792446064258,-0.0107183307808,0.708620496951,0.391435433648,2.96315352617,0.589637205696,-0.215594182766,-1.47849181575,-0.962326235519,-0.450601375419,0.103080739049,0.481927746744,-0.438774668614,-0.943043995988,-1.49230485159,-2.11264760118,-0.892745198862,0.890568581965,0.605186372011,-0.98444407485,-0.645820094491,-0.60163035613,0.706363793381,-0.0251766930199,1.00001725181,0.385942762441,-0.0663387927524,-0.850171856515,-1.36421076863,-0.0758599974028,0.00702211006878,-0.495830909796,1.10468229091,-0.763227504792,0.170321172892,-0.884072898191,0.331604354877,1.63479333178,0.340070090345,1.12035790465,0.0919608973207,1.27767353519,-0.928795839217,0.719379264394,-1.18249434302,-0.695609411551,0.923309798801,-2.09969014829,-0.79825291711,-0.628608316291,-1.03019566116,-1.75681909678,-0.317323835921,0.0325449299946,0.680854786535,-0.999588037233,-0.955332101557,-0.2939259636,1.08135582289,-1.27439553315,-1.83052353753,-0.706100313853,-0.817947421006,0.494263992434,-1.39739108192,1.30838022757,-0.0165304825521,-1.15733666113,0.0611439565618,-1.9452941597,-0.274694128932,0.155832111369,0.549719191462,-1.11868735151,-0.486794815727,1.81960235542,-2.84238596388,-0.706355300877,0.0882233262358,-1.05843403735,-0.0818674088576,-0.708824941122,-0.185597977274,0.639554584661,-0.463732452664,1.16091758321,0.215778209576,0.0177267357749,-1.19954755126,0.0139574381671,1.02899012492,-0.0189187306894,1.47707859138,0.322641352322,0.644606472486,0.290184865998,0.941240289574,-0.615788999205,0.818897184572,0.444471933639,-1.91032158452,0.2013389965,0.231721006856,1.65981652164,-0.521545945317,0.489643522231,-1.10081813811,0.82512817128,2.71182866044,-0.928433554692,-1.64311331427,-0.477677996475,0.91658759681,0.186749987377,-0.316349076609,0.709776942318,-0.55008790352,-0.0632407200154,0.132644504432,0.383643487753,-0.491583000683,-0.152734973359,-0.809799371962,-0.029586073057,0.153593522692,0.603814445468,-1.85646596795,0.412174550891,-0.035140376653,1.21210451574,-2.06304512639,1.87171683481,0.343307336386,0.233092237698,-0.503431543045,-1.33917063085,0.74389612955,0.0266373746629,-0.272102101771,1.32805434592
-0.455763895176,-0.145219548421,2.53474239297,-0.807048433411,-0.795069377054,-0.890433333386,0.17536423313,0.129829502806,0.807485108909,0.332198494812,-0.643764777026,0.163290362972,-0.188440050464,0.750706528411,1.50388059068,1.08768534541,0.963008441564,-0.41563789546,-1.44930003415,0.338982942236,-0.541966444296,-1.46561097245,-0.154613377987,0.119472341805,-1.23070575059,0.133929249443,2.28381386664,0.835730730445,-1.64394112952,-0.922277947185,0.808694608077,-0.351651128285,-1.28735772988,-0.749616555107,1.21875632513,0.049432908427,0.419786212809,0.733405912118,-1.19530692994,-0.466756022558,-0.190691061922,0.984041688218,0.733038099639,0.534086447606,-0.180160636195,-0.0225660516127,0.969635954623,-0.167378830217,-0.481821610443,1.11587669023,1.14072039785,-0.0643334723483,0.718536565576,0.94979449133,-1.41497684873,0.393256592078,0.828894126247,0.79908689114,-1.25593800831,0.573425861985,0.451614113715,1.69602833365,-1.09835212342,-0.770333556327,0.310888195509,-0.473347825952,0.34594744158,-0.458855610597,-0.574335801927,-0.129526432139,-1.24351531641,1.38009690862,0.366210941037,0.5534855176,-1.3037204463,-0.394372964384,0.680406342794,0.00143318829455,-0.981804445232,0.960921268549,0.25149966775,1.18448500963,0.613993477424,1.10258357077,0.175135253801,-0.486534216553,-0.599605390925,-0.257624363676,0.344373493155,0.34044785876,0.320385538677,1.36873778746,-0.430345375901,0.52973708745,0.213225476528,1.55783659892,-1.49207534241,-0.041665830896,0.194239818053,0.978333796733,-1.10452824711,-0.35175798726,0.384938189196,-0.951560774964,-0.984060564458,0.554224569508,-0.13056690265,0.631526996385,-0.0444616268966,1.52981245155,1.40665079721,-1.26719553934,0.567754123364,0.458051587815,-0.735656440627,-1.43154185479,-1.58640664761,-0.187847506818,0.637792807789,-0.870934583314,0.853075287353,-0.765710342126,1.3557802147,1.97563069688,1.47772426706,-1.08955428441,-2.69739166575,0.698686181132,1.38026214524,-1.48708267118,1.04391104629,-1.26210077625,0.193896273663,0.126342720296,0.550388496854,-0.30737222998,0.159240667973,1.90122367164,0.837089793696,0.0297457280583,0.708995736808,0.388691256089,-1.30070023404,-0.419461323989,1.28211353928,-0.49372988226,-1.57733880322,-0.84987482042,1.04272341019,-0.552880279003,-0.740053554712,-0.3479216023,-0.209525027736,-0.295671685246,1.59165932969,1.77736799987,-0.968149695694,0.655422831515,0.728411717664,0.780310144478,-0.528329542681,-0.225655764144,-0.835342973076,-3.52876841623,0.442687829651,1.41655931972,0.533025413635,0.0741708918248,-1.3611860255,0.221617895048,-0.197382281453,-1.2706172883,-0.337450874404,-0.182006729632,0.698886443104,0.957310638098,0.0163667189954,0.649910146681,0.0747550665832,0.691672968433,0.10253389532,1.91894214281,0.567746352726,0.484619472017,-0.342534587895,0.692991694303,-0.933400291782,-0.708454342074,1.43692218858,1.56212719335,1.49884582098,-1.93194147863
-1.12828732431,-0.312922256272,1.63938175809,-0.0946129633438,-0.0786069354175,-0.163768026919,-1.05231043161,-0.358013402612,0.500553420304,-1.09467658764,-0.0290494819236,-1.44239076809,-0.186976803995,0.8333560156,-1.15615578424,-1.91557862298,0.670232391121,0.491066375278,1.2338864782,0.236547068096,-2.19107718455,-2.9930859837,-0.247925203257,0.710664038247,0.406401627181,0.536033994576,1.21879618745,-1.9415728594,0.130568804802,0.1760863695,0.980016775165,0.293739968317,-1.20205028944,-0.0658430103561,0.40761839554,1.11020805531,0.764049376336,0.0788981487392,-0.391859765029,-1.35619466653,2.25322393559,1.03525895595,0.485972117112,-0.490507301983,-1.84520006529,0.15167474807,-2.24274681266,-0.253504556269,-1.77195889008,-1.51595346716,0.231115195835,-0.75453025322,-0.623870040703,-0.984202994297,-1.61250898377,0.0823161292444,-0.202247361598,-2.12342554171,1.00363520759,-0.546841382171,-1.31682748108,1.04947502992,-1.53586313357,-0.0950048757186,-0.0957716145417,-1.18936934425,-0.0545720656399,1.08474172976,0.990917786913,-0.856536946122,0.544110752348,1.42930670044,-1.42067994081,-1.41896558608,1.85652447377,-0.045744986097,1.53141811271,0.239689148612,0.60868665053,-1.73496933735,-1.37484126637,-1.16911000819,0.021712304775,-1.3861857192,-0.967148084215,1.46612317063,-1.23661504735,-1.97738410929,0.602996687494,1.26010075576,-0.77179118746,1.23801353507,-2.7358799984,-0.57304599808,-1.8224103395,1.18459098587,-0.59312474428,-1.23478482484,-0.156100016426,0.648742112036,0.721756236112,-0.970433925954,-0.0535996378749,1.59244160736,1.55868179229,-1.19280049291,0.909882354228,-1.43607694592,0.557213993532,1.00467090691,0.148104278944,0.343652188922,0.673548684904,-0.564520987181,0.202749539244,-0.163387574487,-1.21374176102,0.560916564255,0.118880272055,-0.0734264301287,-0.38625649172,-2.318410883,0.497498810354,0.0784721739649,0.42407779181,0.801173660198,0.438696291955,-1.83348945054,0.229568462874,-1.42347047842,-0.0568945550566,-0.0267540848204,-0.502212047177,-2.5217522207,-1.48816342232,0.649820708517,-1.20412544981,-0.149025558408,-0.383264488898,0.65578166879,-1.92835955851,0.876528358647,1.53065676337,0.272799367344,0.756939251062,-0.184880226395,-0.487715387661,0.508501783137,-0.16742258348,-1.84186475556,0.746956898161,-0.354882855663,0.427720742924,-0.0380641360388,0.857273800063,-0.415636025372,-0.57690509494,-0.297644136327,-1.11755582043,-0.0341975230766,-0.272868421294,-1.12264005098,0.525241986795,1.17009310945,-1.1405989556,0.396948679858,0.250762238521,-1.01954784832,-1.53404455129,-0.318843181526,-1.98539760655,-1.25086921897,-0.328132622668,1.92440119169,-0.13233143189,-1.06554898123,2.55436290347,-1.27091576483,-0.781895592525,2.45942587484,0.208012795416,0.00905230736968,-0.279127148557,-0.384762999481,0.173121716962,0.401148368125,-0.90629714636,-0.689841100942,2.90842093345,-1.44062996288,-0.204979457709,-0.275966616443
-0.000290520405685,1.6722042612,-0.062387722887,1.23800682633,0.453370590945,-0.294515704742,-0.128243601839,1.69426183718,-1.18072517479,0.0333620127741,0.16280350877,1.07136576822,0.0848734310204,0.00891122461449,2.45789269371,0.643250908046,-0.0367353210212,1.35398400749,0.145931640016,0.444594803696,-1.48102889376,-1.01430890888,0.377940543452,-1.52219076437,-0.946026389919,-1.98768926162,-0.347945983563,1.38641055728,0.42956782171,-0.341184361266,0.67777402651,-0.414062972163,-0.14865072533,-0.858491682907,-1.63741969899,0.505384893739,-1.30229173002,0.018999547862,1.17664603067,-1.63531142849,1.36580978878,-0.276829418575,0.156899730033,-1.50266922466,-0.719358696768,-0.206184288712,-1.05231170568,1.43514097868,-0.426966384748,-0.397392908621,0.482196508245,0.387023041622,-0.424703011867,2.49688779337,1.30166750773,-0.0509930551145,-1.76023187345,0.637573132647,-1.1737574681,-0.65125020241,-0.514308655855,0.828306469207,0.681797846224,-0.758207329375,0.0770791955004,0.59176492451,-0.500559016219,-1.26005926766,0.2564955901,1.60990322605,1.25524630234,1.79354232902,-0.225098942099,2.4597511012,-0.262895982052,-0.611794492551,1.09506705109,-0.639551137375,-0.680363755976,-1.39794026988,0.889862774691,-0.305840503175,0.0715428013589,1.7393555756,-0.299094143628,0.225055765066,-0.947841306294,0.149320888408,3.11867231834,-0.528759511096,1.16966886028,-0.967445812362,0.498387318651,0.216178787711,1.81697177138,2.55549954069,-0.258377901048,1.75061683818,0.277541671,0.321776690805,1.08291517123,0.825213947319,0.0233263225442,0.920600943143,-0.597255608716,0.675894224782,-1.61618113627,0.527544866598,-1.28254253942,-0.860164392777,-1.03182291937,-0.204866293349,-0.124141227066,0.246642723554,0.0495191845663,-1.5364699999,0.460103526522,0.411238246506,0.068961726882,-1.1915276414,0.327130752606,0.215166608431,-0.750324704698,-2.19091718889,-0.331631395483,-0.488573859021,0.0104687356376,0.809366018378,0.980193567761,0.940004946014,0.458576992611,-0.212095977393,-0.202097411901,0.684946975538,-1.08095362078,0.616171185498,0.996931554613,1.44872674957,0.347621998314,0.11168289924,-0.00782545528805,1.60862393483,1.03600278325,-0.0569565708673,1.31022984903,-0.316054811691,-1.95899504261,0.299858023077,-0.126524332735,-1.31179476865,-1.32472544224,-1.45154882845,0.102294300939,2.060755505,0.0647664650154,-0.432607175753,1.25004486852,0.61228819064,-0.355245964022,0.0234010400628,0.609063893698,0.0791759847236,-1.25984359689,-0.24058781178,-0.593131082772,-0.295788874649,-1.37890963148,-0.18053462512,-0.877592156363,-0.450568610101,1.61201168255,0.136598998764,-0.171132590045,-0.75654146933,-0.224568636044,-0.0968049456244,-0.74175702182,-1.29764467301,-0.485576550682,-0.517994368258,0.210661788771,0.0917471623779,-0.25110288407,0.136475418671,0.0959937401441,1.59443634168,0.278720698779,-1.29355405527,0.662024751191,-0.827618147938,1.44386079583,0.793331439638
0.376458362761,0.486155506268,0.414559327722,-0.291172016526,-1.81611015166,-3.06853506902,0.938559933317,0.771305758792,1.32664700967,0.21379648497,-0.283558709363,0.704958088539,-1.35878335784,0.640353707385,-0.248069438039,-0.646368621129,0.203795244741,-0.125363482408,1.11967327614,0.0349775711922,1.0488667272,0.419083005794,0.11097137658,-0.619993603963,0.869434159175,-0.277865186693,-0.210314082299,0.601633629952,1.07643467264,-0.972328121529,-0.95348429881,0.503953633382,0.815139936958,-0.633525306722,-0.0952370702004,-1.3233107628,-0.935825116012,-1.78675002814,-1.29042235522,-0.0932364552014,-0.578279311712,1.0586146485,1.23786673246,-0.238412806782,0.785189342337,-1.22107303859,-0.269083473557,-0.235389626209,0.0514120420808,-0.17833094152,-0.014537343674,-0.0281396445714,0.489636752092,0.585615592181,0.355474306238,0.293866505451,1.12726123817,2.85430755343,1.38131311629,-0.322011374635,-0.358636476021,1.11302162833,-0.143855182839,0.0308703841679,1.47199338669,-0.0519097486919,2.76685311792,-0.237094428765,-1.30867951906,1.05659425393,-0.591636611152,-0.923719852736,-1.36810516678,1.05562866434,-1.40154797052,0.0168291558581,-1.32120286614,-0.241712488388,0.174107345721,-0.294172392557,1.15038781182,0.842701082125,-1.0887808906,-1.59507273045,0.216715141026,1.32759078819,-0.0791710415503,-0.440204739364,0.242021027422,0.96737765097,1.08494743376,-0.186836833856,1.59278937797,-2.62396883061,-1.21060275767,-0.289533756743,0.708066865326,1.13309185719,-0.550418034605,0.137593734686,-0.217950902631,-0.659397219024,-0.335698556344,0.633256052795,1.07259913095,-0.381181710254,0.402045045099,-0.898556242883,0.631892705822,-0.977538641948,-1.82946594734,-2.09965796585,-1.53079901912,-1.74596804265,-0.980220920604,0.199056717945,-1.39947400055,-0.823432368251,-0.930882818281,-0.415929171434,-0.351911564497,0.412402309201,-1.92070635312,0.81709244541,-1.32556490754,0.43215816731,0.230576837962,0.349425794435,-0.604424340288,-0.341317747114,-0.57408565529,-0.486570532976,0.728616392726,-1.3188219854,0.911021648055,1.57074308675,0.443613312792,-0.0455191676618,0.640727216611,1.64352723472,-0.977744969701,0.491114764148,-0.863648378255,0.253159248117,0.913551064708,-0.773678624659,-0.336456487722,-1.10890922479,1.71295396416,0.272719884137,-0.721392311453,1.57081636808,-1.49324740591,-0.878003289901,0.0309955470543,-0.490226695501,1.04473148364,0.0374066765183,-2.0451341867,-1.17503373941,-0.210077704545,0.230191452146,-0.388056750147,1.05043847155,1.56757411978,-0.901953809344,-0.378770457798,1.35291512223,-1.57968836223,0.261292026264,-0.765571021715,-0.0719747050657,0.300164541637,0.135600539513,0.11359729994,0.00631564269507,-1.99987065205,-0.27957449916,-0.836257920722,0.0956728134415,0.104620602839,1.27447573516,0.661239577606,-0.671796316271,-0.554090783488,0.635892467136,-1.28604036262,0.871350938,-1.06810636843,0.590679629878,0.950748364774,0.45219675965
0.387841048217,1.04828512211,-2.08801275463,-1.04396569226,-1.28730394939,0.721590804795,0.771833685571,1.29344028873,0.333418669305,0.708324158031,0.442099361634,0.752888749252,-0.712599133326,-1.24529425634,0.343838372836,0.0954263402507,-1.1331688246,0.915764595772,-0.542016878535,0.399256410577,0.922289818592,-0.683028662708,-0.67241520147,-1.39328795488,1.18263267912,1.42251133861,0.20058049056,-2.12109749102,0.598129285417,-0.781713361458,-1.84206587996,0.914030799737,1.72112349133,-0.068288033477,-0.518856848353,0.86280685705,-1.24165623185,2.17748224821,-0.488575296473,1.0261616528,-0.507255827044,-0.25536539299,-0.0340635288207,0.47091323162,-0.18778289244,0.313874660175,0.940593181946,0.478351512276,-0.787107353979,1.2320247039,-0.295506846212,-1.88248803785,-1.02790702888,0.363581118526,-1.70659121572,1.40863299897,-0.29638694949,0.259234112791,-1.41660493809,2.14839682593,2.45042749351,1.98222629111,1.2216886629,0.991159369278,0.0124019528825,-0.0751294179656,1.60554589888,-0.340355399975,0.384253050702,0.4787701221,0.742128675155,1.5982385846,-1.38300289373,1.5137922691,-0.0795227162207,-0.0635544512731,-0.141612336823,-1.16314417177,-0.839077910528,-1.71677355716,0.563557573882,-0.727437365052,-0.895065286476,0.348219634248,0.53680601187,-0.227676257191,0.847637362702,0.989193403748,-0.17038180927,-1.46215254011,2.74652954475,-1.22915313672,-1.58221433178,0.622149246214,1.22941351963,0.273093090091,-0.668005228078,-0.529000663965,0.671557878218,0.631574076931,2.04314353027,0.266601256895,-0.377796135453,-1.2107306093,-0.301338024903,-0.864215955004,-1.05753097279,0.194397581283,-1.61949716029,1.20266039277,-1.80501235682,1.20797181141,0.473247446626,-1.10437701735,2.21082079369,0.00218135262455,-0.963329625722,-0.234661292519,2.35148562327,0.981042311147,0.574164577506,-0.248509907497,0.995604084671,-0.209913407676,0.309318411834,0.0651273765866,0.738937249907,-0.461711401642,0.19996923152,0.944017562012,-0.977590500844,-0.617234983423,-1.66281714172,-0.626439330047,0.189694057356,-0.783789974305,-0.423241691649,0.67762551513,1.4052496142,-0.265467054549,0.486991993177,0.765219517186,-0.932193439434,0.693958162938,-2.00716983889,1.33300553199,1.56015647376,-1.45751589994,0.967363079853,1.06780173614,-0.119023494741,-0.536391406307,-0.504729078317,0.961664015164,-2.0483377296,-1.48981283635,0.234820734336,0.749213775444,0.76343329706,-0.0192892706884,0.0941829093807,-0.744336229518,-0.465218131055,-1.60895734021,0.836694763071,0.692552754589,-0.78711411602,0.151917112928,1.35365298848,-2.00969245193,-0.654466699384,-1.13851774112,-0.666474184395,-1.55802532231,1.02080361986,-1.19307900906,1.5331927919,1.10426039419,-0.678550611034,-1.83815702347,-0.204252566967,0.957111776627,0.823881456693,-0.0242930492703,-1.25188823589,1.07191472147,-0.0309232765878,-0.877160640061,-0.0282607980231,-0.282585058883,-1.79213237406,-0.236525792596
0.991591121936,0.694146893106,-1.10682296158,0.562406287495,0.767679329991,0.099706797552,-2.66096832279,-0.0524331246544,0.609192961396,0.0325607484427,1.4217004657,-0.157894341374,-0.943967870363,1.00784274094,-0.463029817171,-1.48346385542,0.458502616518,1.2639840626,-2.54786747765,0.0445270777165,-0.615709822397,-1.45882746634,-0.867803457165,-2.21339817819,0.0795428166757,-0.063192921282,0.241594682807,-1.23559993926,-0.123159164036,0.781115151348,-0.60269107733,-1.03119601784,0.758003087274,-0.665680468128,-0.529923536556,0.00558011665283,1.49261688253,-0.435003456493,1.63227349675,-1.32568337631,-0.535773005395,-0.246796912482,0.282654063109,0.284841489445,1.97203631448,-0.861172943335,0.401230768034,0.735193499892,-0.355641323829,-0.0561545902073,-0.841295110855,2.03381970972,-0.749140314625,-1.25456406586,-1.02941562656,1.91154403977,-0.204654681107,-0.139494442652,-0.532088994355,-1.14527108484,-1.74077949494,0.946227991549,-1.2338956192,-2.24364654566,0.121925487586,-0.592292720514,1.04224197193,-0.424962023149,-0.87400813394,1.63956142242,-1.83263683195,-0.800039823214,-1.08772980282,0.423937208273,-1.76550479446,-0.929907083504,-1.57326675294,0.0407992929843,-0.829804356284,0.339516103455,-0.947689332828,-2.16740354349,-0.245281172295,-0.608950148584,-0.081715677577,3.08702295262,-0.244711955312,-0.67207593448,1.89797084435,0.469860031083,-0.646347298102,1.12964233083,-0.280250935236,-1.66756269663,0.603037709856,1.93997413318,1.59185276927,-1.12039878385,0.222445861419,-0.251000001858,0.189224792341,1.13710958346,0.191189837916,-1.71891829325,-0.118207690384,1.31532727346,1.29663784779,0.529470196296,0.0708750441737,-2.12424081625,1.04594876596,0.966288694516,-0.972572700013,-0.32042627661,-0.641076576724,-0.173643290716,-0.75871663111,-0.555197234821,-0.528850562046,-1.28722659364,-1.57096614108,0.0437837941522,-1.34558001568,-0.406059190881,-0.151503450043,-0.710187184582,-2.09974651842,0.192728798315,0.177927813573,-0.772743213063,0.467528695619,-0.785497700327,0.871251475649,0.760574882374,-0.611274013876,1.21568522678,-1.56599281388,0.738575602444,0.757897402916,0.47066465135,0.591127549542,0.856315463329,-1.32876947268,-1.09165744304,-0.727463826246,-0.359515609714,1.85869406021,-0.256873652277,2.08349262026,-1.4790046127,0.156844997775,0.130538502711,0.0564499938471,-0.279839032492,1.17708978516,0.0454929549639,0.25013358616,0.548333975625,0.00290259536046,-0.64688407334,-1.13986797776,-1.7700776548,0.645785789986,-0.860997759682,-1.00950908292,-0.76669106229,-0.816138755901,0.956257403379,0.74663038871,-2.51252118368,1.01760299754,0.0587221431174,0.184421323647,-0.270507547788,-0.768936764036,0.289485256242,-1.04531995254,1.5449382946,-0.819615335182,1.68657706072,-1.77867726795,-1.30460819307,-1.15212091474,1.55514517046,-0.688120734937,-0.722543269016,-1.09885959924,-0.507981781401,-0.280619910121,-0.444247263587,-0.736289184113,-0.863187296527
-1.12508690593,0.910407812991,0.239977935779,-0.105527290669,-0.306720254242,0.0889399902997,-1.92321757831,-0.990121584653,0.540141150608,-0.616198436273,1.03777307745,0.991158652318,-1.01859437562,-2.54438588769,-0.411831988003,-0.0578265870075,-0.238285180508,-1.30645927014,0.386228957522,-0.342632808762,-0.129560417146,-1.69829820585,-0.915211985583,0.66731609388,1.4800922536,-0.828076136621,0.609941788479,-1.25920834939,0.68951107814,-0.932281431068,-0.206772042495,0.951173158072,2.34494529144,0.210403602711,-0.41127936748,-1.21811097176,0.269520664252,-0.373486770974,0.832509075003,1.2371558186,0.493696596714,-0.995277332588,0.851675437703,-1.45748081568,0.234914213428,-1.39722314995,1.86331200595,-0.805280071589,1.78098730423,-0.680463226187,-0.0662168853524,2.28912310403,-1.08038318422,-0.867947277874,-0.463505884591,0.605033829488,-0.377934583721,0.781916742046,-2.75045979939,-2.26745637495,-0.240850165964,-0.632950096406,-0.287593095334,0.106631805383,-1.55019381752,-0.310681840739,0.419072676087,-1.82724238424,0.207284899533,0.282069230677,-1.52986746849,-0.478231497565,-0.386488845898,0.843413118199,1.20421124317,0.504827617478,-0.503918687093,-1.34404237549,-0.0141009734625,-0.765580308669,1.37421741681,-1.16622315868,0.16865484728,-0.455808351768,-0.00581482177815,-0.80907371007,1.16916981884,0.418504074753,-0.171430605143,-0.167373752452,-0.207530668688,-0.680280932296,-0.479723966076,-0.670513969805,1.72195806937,-0.0392963263416,0.489070576883,0.612610210117,-0.425619618525,-0.41460358615,0.861119310676,1.09619860908,-0.194333543362,-0.68422154722,-0.329128239925,0.239143011055,0.563633087819,-0.692179021792,-0.523317629513,-0.775940758447,-0.144434815577,0.380178627866,0.677464238228,1.80052891821,0.320720780818,-0.951945989453,1.17422526259,1.65799492883,0.146396662095,-1.15140378821,-0.459737019345,0.0489187354745,0.275918963463,0.0996173841177,-0.0344094320183,2.30592815042,-1.80777587235,0.17111579046,0.992561247066,0.927156174718,1.03675501446,0.517556060433,-0.326110648188,-0.413207289363,1.18909352678,-0.176480325776,-0.482365494361,0.597493694122,-1.76126995179,-0.322132537005,-1.61588923392,1.05692053096,-0.412350089747,-0.304063246921,0.442451249942,0.253865956287,2.07859377443,-1.8741995438,1.97135641248,-1.68778688622,-0.33635317811,0.738105823251,-0.747449865082,-0.904184508147,-1.56854624802,-0.304308155442,-0.503367814262,-0.600045353064,-0.464623419556,-0.929651886397,-1.58172009421,-0.326215260306,-0.406478874916,-0.650584584027,-2.22557497904,0.447294249127,-0.547655866906,0.656747817331,0.993108907833,-0.732006068764,-0.612826507923,-0.0451952020048,-0.430798077415,-1.38971143295,0.184086437793,-0.766964867739,-1.10315202418,0.312056276934,-0.332844834629,2.23305024137,-1.76366228931,-1.54114370682,1.05905572207,0.123700245092,0.203958254254,0.130578882531,0.949711406606,0.124478410314,-0.56512991501,1.09734022539,-0.512787161008,1.5832205588
-0.687073304131,1.89225045539,-0.288544235044,-1.40561335842,-0.3008472915,-0.197012970266,-1.94038469069,0.231212741145,0.195769335976,-0.8452754865,-2.19569785417,-0.0958203131378,0.954883522942,0.143298823119,-0.686644531607,-1.15356612367,0.115611761436,-0.793164686795,0.269324317712,-0.477249154481,-0.49370976249,-1.27194048175,-0.282307154217,0.0489645791644,-0.562303950124,0.446130691017,-0.717658500545,-0.506248084136,2.14925593924,0.659613823342,0.429651067911,-0.104971666311,0.440732116662,-2.51772730733,-0.36909753921,0.364184857187,0.601341122399,0.854233924204,1.91981853892,0.613328723365,1.35093125524,0.799553708919,-0.620726483345,-0.468828190351,-1.37826891118,0.719743192367,0.701302173363,0.294017071551,0.549031488075,-0.386549434335,-1.0265593817,-0.975903702591,-0.0555838975444,1.35533921096,1.47193697876,0.118529710185,1.36749275988,0.0935181066879,-0.78722030323,0.73045601027,0.115847061027,0.432439757662,0.604286139798,-0.786495225398,0.232639162097,-0.0995944074815,0.760175591689,-0.34510679632,-0.214063399023,-0.677065117311,-0.389444087052,0.377851395101,1.24369738975,0.366189271945,-0.206017024099,-0.330346701437,0.214733849678,-0.301751012928,-0.0613619567538,-1.07513275362,-0.15633955919,0.00887564902281,-0.741419494048,0.359784168237,-0.15293827411,0.553373290697,-0.831410934819,0.295885151025,-0.00082527533083,1.09925117264,-0.824859347745,0.544871030998,-0.140158626664,-0.818747692352,-0.259720281347,-0.18423828274,-0.368338159877,0.868718547155,-0.557786850892,-0.479594222456,-1.20646019606,1.31601878581,-1.12810745445,-0.824669294044,0.950012391044,0.107016988048,0.307877953828,1.91230124647,-0.652664347187,1.39612682984,0.0391849971282,-0.0944801701613,-0.761949193051,-0.8728098372,1.46898235086,-0.112734143702,-0.827765719824,0.41462784806,1.69348213765,-0.294343212815,-0.671590310233,-1.78038808781,2.11086132289,0.159067343865,0.519548838581,-0.10320012368,-0.170187599892,-1.08820087446,1.55835009933,0.92517047621,1.07331970789,0.0455327488147,0.13358800678,0.379422462379,1.1850803107,-0.218575072859,-0.913663061312,-0.0644336102704,-0.675987246097,-0.473519711846,-1.21405097748,-0.508405729344,0.351891745757,-1.0979306655,-0.761141646989,-1.10295004215,-1.70151025466,-0.444491698113,0.456403357152,0.133125747046,-0.325715652804,0.135508267328,1.01441650743,0.984546935046,-0.77378487917,0.662684122399,0.697197514985,-0.0101427156068,-0.118380228893,-0.196009443449,1.19762886335,0.390020312553,-0.614100004747,1.08453511585,-0.442369703424,0.894309980085,1.30660652785,0.68596395354,0.411312933603,-0.235169119818,0.627059719812,-0.633417533299,2.22937764549,0.372032772944,2.17094315579,0.459225611725,-0.27893767789,0.19981184622,-0.708408928186,-0.396901943351,0.441342540521,-0.320435505038,-1.89105482384,1.45703056546,0.128237247373,0.0695536868097,0.820926434692,0.802967884955,-0.149304861321,-0.0324757255667,0.0107661872641,-0.192745861344
0.347766257334,0.70103693812,0.780891039254,1.53396568561,0.0167187924682,0.46545416066,-0.340169925452,1.22361936672,1.65918889742,0.197128012931,0.0937266345005,-1.03206452468,-0.967302389118,-2.00878417015,0.404578466049,-0.101102014182,0.110003546662,-0.0278781158106,-0.333680146386,0.428415587817,0.221874640626,-0.583398725211,-0.80996710398,1.57234781493,0.86041251727,0.158651251772,1.05243441761,0.0497363680234,-0.170788682367,-1.23700693163,0.141563265253,-0.0174209535776,-0.448275135805,-1.72862502181,0.248086056356,0.362684315114,-0.216569174115,0.376369920208,-0.104559640551,0.32394934268,-0.0827324456605,0.579674296192,-0.23165577731,-0.923405666615,0.0138547408132,0.162862811643,-0.707095822422,-0.567226574456,1.86628344733,0.971910882093,-0.668364978731,-2.74882469241,1.34549410421,0.827993846843,1.07588317468,1.06667948373,-1.13531597759,-1.0381429373,1.16983911239,-2.35881850431,-0.278200870269,0.0935155384536,-0.410155109854,1.12750205452,-2.01633918223,1.0420894263,-1.8022489955,0.146656866456,0.702475540272,-0.742000186882,0.299991836402,0.49762402882,1.06351706372,-0.539376264067,-0.488563130232,-0.809723588032,-0.0908958427247,0.0479464624933,-0.685585449108,-0.239739275572,2.09887952564,-0.736865243454,-1.32985981107,-0.74280318315,0.571229299837,-0.0269185218682,-1.83987193684,-0.252894114533,-0.104992225255,0.952994687828,0.581837683436,-0.816651518646,1.37856982657,1.54679794405,1.03754852434,1.40781282136,-0.99425894792,0.97580702365,-0.507614824464,-0.0728348763596,1.09528277754,-1.7346900914,0.543870748457,-1.75522078779,-0.0380601113155,0.791632553053,1.02509136971,0.213655515024,0.992954524399,1.0489024336,-1.41471372444,1.67913925679,-1.55048873808,0.969383098662,-1.0106068895,0.0254643430394,1.35262263053,0.677636367154,-0.463106618092,1.32615190174,-1.09403948006,1.7433017355,0.545629354787,1.0054705737,-0.474337911119,-0.224544900394,0.950807155549,-0.2010799377,-0.588592252448,-0.473607271591,-0.201125024906,1.24865535856,-1.21882762961,0.861578905968,0.25592933496,0.465992991437,1.45216141961,1.21612009369,0.413274642875,-0.70927771783,0.352646156152,0.804569199783,-0.590936882978,0.415659509749,-0.262248464263,-0.252829428012,0.519132761636,-0.54245011786,1.71016387802,-0.056836427768,-1.20591902745,0.641094989606,1.03332909133,-1.41213369316,0.929019747026,0.807891614762,1.36064978473,-0.437014305661,0.0247182575959,0.0613113701998,-2.43663535527,-0.31317480745,-1.25373256215,-1.83490126744,-0.178911958977,0.154298204266,-0.956758056038,0.36081976387,-0.238691220335,-0.226920241957,0.424023001793,-0.813845107933,0.532285008898,-1.16911455184,-0.823247495702,-0.504936578158,-1.91673496459,0.194338081778,0.445283841161,-0.421839938709,1.24010663832,0.910574250365,1.45637778246,0.524937433864,-1.26562837321,0.550396049427,-0.498961145415,0.302067260065,-0.038805626035,-0.357624067707,-0.289488916064,-0.0763746142617
0.108609944419,1.83353210098,-0.606814961582,-0.0259392781915,1.05997908789,-2.94636240458,-0.630128867697,-0.388691207122,0.216041713414,-1.82796721867,0.33189206139,1.19457464468,-0.714781275842,-1.86963810532,-0.148360998313,-1.02690828559,0.146025586527,1.56204907896,-1.98675451848,0.724760068033,-0.603378262634,0.519224726881,0.461908246409,0.0513873103141,-1.82647913805,-0.174452375201,-1.33713649089,0.71130287315,-1.11246103154,0.480719137961,-0.489731769753,-0.627546428015,0.821761780946,0.0998458953816,-0.453045841725,0.294100288085,-0.459587791525,0.302438257065,-0.416245707145,-0.183964933472,-1.04124538565,0.938306347326,0.324155814116,-1.17720232113,0.639197030645,-0.672148173481,0.0983536277049,0.186837306352,0.698856676778,-0.527956090432,-0.509975132387,-0.911415706885,0.659572482498,-1.76972945238,0.627342684535,-0.474150254351,0.323173016876,0.522899147344,1.96209534322,0.42843128283,-0.193648186355,0.820940413136,-0.528282478082,0.572192322023,0.315634359629,1.02774943528,0.10585730474,0.0821115323602,0.453995267002,1.30264343602,0.0869285052181,-1.20994061179,0.477531599579,-2.08648837235,0.990222159145,-0.946122694455,0.374694131359,-1.16883846608,0.348456132949,0.0259641501477,0.630474914188,1.39072152753,-0.412817923435,0.340798875324,-0.391057925423,-0.519714107429,0.564778341661,0.000429548550583,0.138317763694,0.485203569099,1.4927087424,-0.584387004138,0.130974094473,0.963218293247,0.79662726703,-0.224687102693,-0.393335359659,-0.109151211383,0.106566251035,0.453946197883,0.123683807058,-1.37249714248,-0.174560309488,0.0264528539009,-0.55773838162,1.26440845544,0.109920245989,-1.83104175961,-0.384444874746,-0.296662213324,-0.211390421255,0.481126825932,0.595383970277,1.22808984579,-0.454060752411,0.898967600334,-0.900894782626,0.362716984369,0.749008631685,-0.177856645924,1.11055744928,-1.27624231727,0.927838642279,0.896414253183,0.67393137777,0.24863817908,-1.07830421938,-0.489497700807,1.12823117493,-0.344225665217,-1.09033325836,1.21392700022,1.27114562597,0.350558834714,-0.813778531581,-0.200115194788,0.94069653671,-0.337061678286,-0.296449682822,0.0240701513818,-0.779860849361,-0.462838938365,0.453089054438,-0.020291577286,-0.936207626558,0.386092738921,0.712739684079,-0.530588138532,-1.04608961114,-0.739434610145,0.070199583614,-0.0907196521866,1.43870088486,0.321094376727,-1.14416205193,2.0444858762,-0.102636105565,-0.67191252164,-2.11020412233,-0.612125761798,-1.34275524225,-0.0720125945887,0.647347576356,-0.235620373878,-0.695962832427,1.0798877226,0.649589985486,0.148506222925,0.171865255389,-0.89686977718,-0.0334573522913,0.473866330313,-1.10291614783,0.326150943082,1.8047267569,0.404302302114,0.451966152369,2.32620222702,-1.37120286989,0.835496941562,-0.195823030548,1.94122174128,1.71260763798,-1.83266615607,0.838794093232,0.333501353319,-0.359266006038,2.11956489048,0.598389699682,0.239901474178,-0.134266937206,0.635965378355
-0.00894647221375,-1.63030267987,-0.178351709734,0.125916539008,0.376206478121,-0.926695088806,-1.04106699466,-0.0246736206756,-0.851717806853,0.5714990554,0.381714116245,-0.0307091036983,0.127413972777,-0.595890434939,-0.620003122718,0.59523594667,0.625426718861,-0.117593145027,-1.08974051222,0.71116293307,-1.59276425396,-1.16532580222,-0.472557856011,1.35582357428,0.429206311876,0.226809002978,-0.0267947560353,-0.387897269499,-0.324967366912,-1.93194544217,-0.361453972378,-0.576559541752,-0.01818296219,1.27884505003,-0.608438915001,-0.771762855783,-0.295256973522,0.886732330577,-0.937732824991,-0.259866291301,-0.431395658029,1.09385603274,-1.28897536723,-0.0225528625758,0.23693728672,1.23190119664,1.32821517122,1.90250823539,-0.631019335659,1.46909748427,-0.0954840808128,0.260598499634,-1.68211815791,0.835269654284,-2.34741354604,-0.106455069007,0.531857887577,-0.637248445879,0.693614959545,-1.86944561519,0.0896908632671,-0.909521959298,-0.0494201732733,1.84570093537,0.878585999542,0.285622076709,-0.998722629685,2.69535295609,0.697833275249,-1.58091801894,0.435490088265,0.828967111077,-0.972080888944,-1.08618533971,0.252798026219,-1.34042587087,-1.23692991336,-0.162469799592,0.451453894648,0.427961298089,-1.83068282138,-1.31703578171,-0.696009990815,-0.0953442400588,-0.446232432205,0.758202101159,-0.56010536781,0.589725080944,0.61828675009,0.269753515791,-1.30946526256,0.789692312285,-0.700078308944,0.809605300208,0.0929515864681,-0.611989458704,-0.374084409198,-1.28469410128,-1.22125215827,-0.461993250798,0.482813191403,-0.433118067807,0.381966595485,-0.274777793644,1.30520176798,2.73051603171,-2.34130558729,-1.27873564856,-0.538688050926,-1.44042162209,0.848258316844,-0.0267634432393,-1.27342138856,-0.59211533188,-1.63515872848,-0.0849960464853,-0.0841481950314,-0.701340786926,1.57644556222,0.347495454161,-0.219720000483,0.390436219926,0.171808723878,-0.552366404742,0.138550726609,-0.235900070819,1.8975047151,-0.89524825813,-0.705254673436,0.990771706053,0.794357108347,-0.06956098208,0.10235025139,1.49426908523,0.639845599459,-0.0257278831826,-0.364156252292,0.014280580432,1.47267233618,1.08065322211,1.26435742481,-1.14591979088,-0.776083157487,0.454912344903,-1.83032193622,-0.874867007081,0.114451408978,-0.274749813854,-1.10200187163,-0.209142653298,-0.338586322596,1.09787789465,-1.12241754563,-2.35416087597,2.19691692047,0.119021710473,1.85225884701,0.70236689996,1.58021826698,1.3866097616,-0.120036877609,-0.577891352007,-0.685965442754,-0.882911126182,2.27682796609,1.42433106248,0.574544268571,-0.0983940588206,0.350494210017,0.169879057652,0.487963212269,0.876212403998,0.42304970045,-0.178599371205,0.0244626455167,0.738791941216,1.24134554877,1.75917882908,0.228453574805,0.120646698196,-1.0288878256,-0.365662213518,-0.430396252252,-0.0223415573877,0.71377342364,0.855568067301,-0.634444482912,1.28595829049,-0.387860578639,-0.506384158957,0.356817251187,-0.0239867742422
0.656852420358,0.713601848429,0.322375006491,-0.464471660763,-1.12965077833,-1.04473446559,-1.86025547399,1.50133970501,0.310515044421,0.598587917343,0.684605117436,0.000296978350417,0.0612608387424,-0.640643518708,0.84089609775,-1.22578076875,0.100840334517,-1.58914637613,0.417762920431,-0.200476957795,-0.303929846988,-0.386320595735,0.309114337953,0.120210561695,-0.96301868629,-0.409317974746,0.59528671676,0.210949890341,-0.715954828688,0.745750895929,-0.580291613159,-1.17958673777,1.01784196262,1.88296593398,-0.806573078796,-0.518172984054,-0.127422833353,1.12221711675,-0.853079406639,-1.20034175829,0.931033123143,0.0158105285871,1.01106036632,-0.209288704432,-0.724623359499,1.2985808773,-1.15638349171,0.5422173588,0.856673907212,-0.334806459879,-0.122398099236,1.13077898384,-0.128309485287,1.54398091684,-2.05340971301,-0.0641046475592,-1.11125235294,-0.442363164705,-1.47122861018,-1.85778293704,0.494561038299,-1.80275778144,-0.193019026421,0.307570730394,-0.477480953206,0.291060322767,-0.65704320871,0.0190982869895,0.00676279213164,0.171671972216,1.65131393986,0.949038863146,-1.35856780848,-0.369073624768,0.856625566463,0.15467809097,0.414541872559,-0.41127453939,-1.28074334298,-1.53241997677,-0.433095104328,-0.319216562058,1.56071391511,0.0513757998191,0.88610847493,-0.122497701226,1.20030253354,0.140593414719,-1.06733999038,0.327741104824,-0.101049457149,-0.33973893908,-2.18773348604,0.539215244432,-0.80533912595,-0.0480380737917,0.425172906727,2.36446011234,0.0479438824609,-0.625447602523,-0.347961985635,0.089718173241,0.772630513692,-1.31990189298,0.33549707796,-0.82048751282,0.4272159595,-0.416285547811,-1.18052036321,-0.483856310102,-0.0032840276954,1.38658753295,-0.838763049136,-0.0220421721389,-0.115846391908,2.08333606821,0.519070024236,-1.03818364601,-0.372148682685,1.08148701511,1.18107673303,-2.07283657091,0.672672314777,-1.6318914334,-0.17746695053,1.81052919846,-1.30164055981,-0.877351468185,2.1212435553,2.61779240915,1.10318973938,0.481605793622,-0.0995556963021,-1.05693896662,-0.118131596674,-0.311386466857,-0.0230672125373,0.982040836871,0.84928104285,-1.12198116031,0.252754128738,0.595796173931,-0.406572506127,-2.23987086233,-1.25231822606,-2.25567175246,0.20603413256,-1.33450854795,-0.346215168934,1.86766802648,1.05325862022,-0.45986480727,0.0540599565049,-2.01345819364,-0.0308258906849,-0.118665705818,0.0616838628694,-0.500225357885,-0.423529060441,-0.511860571638,0.165304192062,-0.0524503041953,1.52810475308,-0.733301780053,-2.56288760352,1.49379524774,-0.924924265472,-1.60050166207,-1.12414430749,-0.410236057874,1.64618521234,-0.493241669027,0.0458545464405,-1.31908420114,1.16841548717,1.56539392563,0.112368075731,0.135933916502,-1.50199952845,0.188057422144,0.320546299155,1.98750109032,0.935557539491,-0.5772999595,1.6775928525,-0.262111912026,1.00819378387,0.451383901371,-0.949781402233,0.175335090591,0.655055402266,-1.00477762986
0.698480043405,0.935586886659,-0.329349521201,0.535426675381,-0.842660041804,-0.967242874638,-0.529255213376,-0.505246184188,1.26389481213,-0.0399289147796,-1.50267694424,1.37902533049,0.681884551791,3.17721501938,0.780318568943,-0.656961590855,0.769679425458,-0.6735544564,-1.32982169111,1.23288286195,1.98211546593,0.453120549283,1.65951842129,0.463495311971,0.323212373391,-0.277370720301,0.0677883081546,-0.054127507081,-0.0558636026467,0.698768786437,2.63116495372,-1.69522590148,-0.552677879384,-0.463628389418,0.121514402798,-0.842994803228,0.733561619772,-0.526023444038,0.487845698526,-0.180544455063,-0.203190450278,-0.147415670277,-0.215141929631,0.95879511964,1.27192026952,0.772379131339,1.9168340639,-0.00178486303372,-2.46165024638,-1.15595911496,-0.487332242899,-1.27555456249,-1.3611907264,-1.144214623,0.607035948855,-1.23978304189,-0.781138802032,-1.20072765709,-0.0384030929963,1.78475741315,-1.54967265197,-1.20342123797,-0.761787487849,0.725480426417,-0.217940916139,0.536747227974,0.0695154329672,0.587231629994,-0.361776108459,0.990355521818,0.429656331098,-0.751199557897,0.428886259165,-1.8483567731,-1.16036733456,-0.0711195677122,1.27161883003,-0.104777361041,-0.496237229357,0.931603995559,-0.0573952844364,1.09926261838,0.275923436851,-1.06557245685,0.601514101013,-0.0820011071225,-1.28256415528,0.0705965722242,-1.44830674248,1.01058863518,0.562622318186,-0.272775983387,-0.968781898689,-0.738167715715,-1.60941548128,-1.13074892293,-0.855279030892,-0.37602815103,-0.0637750918167,-0.0486062517784,1.47951999629,0.819469112913,-1.14658628221,-0.216116454759,2.05385851421,0.826862910066,-0.282290193881,-1.60212334112,-0.142222976261,0.00956113260399,0.593228676019,0.752301965095,-1.01508380988,-0.100267098677,-0.00555147450552,-2.47020464753,-0.0669320596189,-0.681517902676,-2.17772220104,-1.83122458968,-0.0788118109931,-1.53384477819,-0.59775875387,-1.61390364011,0.814576518025,-0.471982758185,-1.57851341585,0.778142308511,0.144515789606,-0.432211628294,0.667027624352,-0.681514623353,0.464579655241,0.269230541485,-1.72721080227,-1.03975612107,0.142489798486,0.571874518854,-0.993504102506,-0.0132339302978,-1.71448609679,-0.905653110669,-0.687598780531,2.02070423897,-0.0201350829008,0.213940651349,0.665116483882,-0.524493066704,-1.21241103521,0.352894580472,-0.276545111237,-0.0350539573051,-0.16976023561,-2.30392218096,-0.293861381332,-0.0796718232512,-0.541925517711,-0.226368359952,0.416189702325,-1.30515283408,1.42831236663,-2.62073581325,-0.29987840845,-0.562152322443,-0.707902831641,0.209156364844,-0.891562190617,-1.95757806044,1.11473901284,-0.656450985674,-1.05000376332,-0.244096651762,0.118204308802,1.13424942371,-1.08235894901,-0.0682265724747,-0.400791623164,1.34534734829,-0.84265737013,0.25448492965,1.47251831513,-1.31657493037,0.488192793972,-1.92160414735,0.82783270162,0.156728906303,-0.630573100555,1.29709274751,2.53950474084,0.936528521664,1.32201763658,2.4226105688
-1.86039263396,0.628697141405,1.07779181421,0.320429800802,0.622436484476,1.0385133274,-1.21617289118,-2.51572975598,0.597940560979,-1.24108364394,-1.40212365449,-0.0586427832573,1.66159084047,0.210358553063,0.822960530758,0.314389435744,1.3385634438,1.21087560295,-0.462052156946,-0.175007395826,-0.587752560196,-1.90191708275,0.763381320481,1.82198953481,-0.430291180395,0.750876777677,-2.07760914398,-0.880303471797,-1.27932096449,-1.20590879039,-0.833864392619,2.53756629704,-1.3380061724,0.824825010452,0.935466027345,-0.0158251352467,-0.183819166913,-0.475690430961,-0.00629494315031,-0.792243411608,-1.46198918896,0.217740842829,-0.423857150593,-0.463238039454,0.718268413974,-1.32616370533,-1.57982525577,-1.90129726244,-0.369781167323,0.648430044874,0.336882653542,-0.974801006104,1.27534059705,-0.638463232094,0.34916095334,-1.22575431122,2.02885858484,0.989890951878,0.433489366943,1.22257265099,-0.497051959944,0.315485926181,1.58506201264,-1.37363683787,0.583363188232,-0.576416558785,0.698403126291,-1.50228751549,-0.571485953524,0.275596197599,-1.52122590636,0.23246393298,-0.344774579833,0.400496333148,-0.86870797798,2.44549924727,1.65629321669,1.31757188719,0.983151600224,1.4331052321,-0.0212977294651,-0.634644880358,2.21840939435,0.911939846896,-0.00640736485321,0.949881199629,-0.359529552607,0.284521657432,-1.22116652605,2.18415788156,1.87615278552,0.773142817111,0.748733381004,1.83930957265,1.10436668735,-0.599974144626,-1.90931696473,-0.694057942662,-1.04547504563,0.506303655944,0.846618573089,-2.21770909364,0.94739571676,-1.0399576455,0.967938261796,-0.644845848282,-0.52990932044,0.219164191283,-0.930791722078,0.548728354172,0.443829149157,0.386275647023,-0.792178978444,1.35592698548,-1.00683872501,-2.16703512636,-0.170991148944,0.787553507288,-0.225028659127,0.405032310447,1.38173678719,-1.39466957085,1.03061044278,-1.105816945,0.669781045717,0.536989689069,0.451923532827,1.82893732481,0.0486386712519,0.188932441432,-0.903782306504,-0.150599945354,0.711473021326,-1.23293290707,-0.799118975454,-0.00327801257985,-1.17772343127,0.881338647463,-1.51115112615,0.498490153087,-1.24637243969,0.254821808644,-1.58722434579,-0.823666004717,0.183463544918,0.788201306113,0.85348126689,0.477870920768,1.3918917679,-0.141027603135,0.293627541385,-1.23331540664,-0.215877038447,0.838244754376,0.566112945586,-0.237341566345,0.202219755622,0.442164055029,-0.724409815441,-0.478035016222,-0.446484947886,0.530151154439,-0.0878818753065,-1.15113971233,-1.02169751792,-0.287365613772,-1.32456467598,-1.21533288815,0.0243207550721,0.24699027157,-0.910985717362,0.672871206248,-0.190247156066,-1.29310939802,1.19934084757,-0.142222521988,2.36124872904,-0.720237910448,-0.171600373018,-0.75885371966,0.701201475772,-0.0142071736508,-0.175398861836,-0.192596145638,0.598951551365,-1.25553810435,0.535734599549,0.409847596811,-1.11057128162,-0.305987036526,-0.448925857022,1.62424479214
0.548646700066,0.778270788829,-0.856533703403,-0.89774392863,-1.2492952688,-0.344220209647,-1.50478406073,0.472963841965,0.136743254402,1.68998199768,1.63432743253,1.34977762405,1.10200776465,0.706907744078,0.425519071977,-1.18326336167,0.204449496619,-1.4109940189,-0.943353735056,-1.90893632861,1.4753563397,0.149300007287,-1.50602563438,1.07870030145,-1.03499126533,-0.914470687047,1.40834599586,-0.195759902198,-0.897918960434,-1.99032880103,-1.1161287329,-1.22454113124,-1.31383700195,-2.52695503919,0.391806396519,0.276889009896,-0.627662354229,2.81691266715,-0.820694504511,0.512921905658,0.165007817992,-1.43881214911,1.68413106043,-0.21460197351,-0.953631951036,-0.631397651473,0.500821539589,1.0264429986,0.789476685146,0.0177613418672,0.275436889838,1.41050487292,0.967077909027,0.0472627247604,-0.528677327626,-0.460377944779,1.03764349007,-0.182882323698,0.648772472237,1.36802831759,1.18601109605,0.0223876823664,-1.61313774002,0.70627435219,-2.48957603307,-2.36827975106,-1.24528696834,0.982230983628,0.957840228066,-2.04108010854,0.901337144672,-0.728069391622,-0.825061705992,-1.40672805767,0.301378178675,-0.856241016106,-0.0649829394469,-0.416966958399,0.507243560279,-1.26066043431,-0.0939508787264,0.00109478475834,-0.360243617642,0.52496574831,-1.61685414161,-1.08050830009,-0.891736898235,-1.75048472735,-0.226969936718,-0.278701134584,-0.174523161725,0.140547795496,0.740437216529,-1.11901512922,-0.549063871162,-0.0784677064974,0.229516996433,0.91294953467,-1.19047429081,-0.396672001552,-0.334607404218,-0.425445255023,0.250632072247,-2.02641383275,-0.419164146069,1.45389776718,0.311086081106,0.623448390784,0.766958347095,-0.563783594614,-2.37655254656,0.0378181540034,-0.9601167042,-0.274527366552,1.03094341111,-0.531587578876,-0.493112077785,0.432082162857,-1.38112524301,1.69106264474,1.13886521402,-0.804679453905,0.743099316704,-0.176744500423,-0.0598816446117,-0.518182478064,-0.540030302094,-1.12778000677,0.382350558343,-1.03151764466,-0.319509255727,0.973008503708,-0.721883770283,0.761855358057,0.112292953659,-1.23617225381,0.441275085215,-0.0883689550526,-0.444381406914,-0.0916518229777,1.17279925655,-0.493348645688,0.682120217157,1.39108986745,-0.616126216396,-0.034709951661,0.206337679479,1.63282881858,1.93266252857,0.97372555309,1.49195862092,-0.730971402531,-1.18586604383,-0.0454131642929,0.27833505941,0.582654217,0.307641949918,1.38187699696,-0.438433225042,-0.00233224901971,0.0526825952109,0.733475874495,1.14150345209,-0.0516221191315,0.42252202736,-0.937886063736,1.142696606,0.18852250369,1.567414249,-0.828634214098,-1.11777662584,-0.947826811796,-0.788806276228,-1.8530232999,0.0583215684244,0.238665600695,-0.659696923591,-0.14304365022,2.27180647433,0.927327294338,0.605209729389,1.92553069883,-0.683232848804,-1.40124844129,1.87938682458,-2.6344137231,-0.0232625313128,0.347302685664,-0.471268058442,0.688448228697,0.53302858573,-0.536256149502
1.8764480606,-1.12712075686,1.33296583907,0.0323398510809,1.37395366658,-1.36667092846,0.505039482814,-0.0834504124249,-1.46585203083,-0.366892331902,0.437331152916,1.07169624208,0.834736170378,-0.229874556732,-0.870657195682,0.948680147899,0.358043512253,-1.1824718029,1.08692617512,-0.448205491443,-1.55231143535,-0.899543207296,0.167806166036,-1.10273310248,-0.286674106574,-1.86549769145,-0.32567965405,-0.914890056242,1.0398291535,0.165493997426,0.13526410813,-0.264831793872,0.55957343674,0.306963902454,-0.303550562366,-0.121886547789,-0.118643962447,-0.0291681262664,-0.491673215842,0.175026254825,0.495654763456,0.365708591165,-0.411928211745,-0.375227742419,0.0172359190092,-1.03641592468,-0.496417758087,0.396957583135,1.36826919796,-0.468336762093,1.94036018536,-0.858868198938,0.413806570363,0.119297075751,0.243776605131,-1.14936948445,-0.37513481393,-1.01562792974,1.03848242188,-0.64740497024,-0.280587610484,0.414457165653,-2.05090662122,-0.208503635375,-0.0273204857789,0.400133352282,-1.62497953529,2.18921631017,0.84826621046,0.963021432504,0.637419343785,0.582015496872,1.64608692189,0.317970947881,-0.322725550243,0.375775737513,0.464442642305,-1.90388584518,0.691283463651,-0.314421162588,-0.626043972788,-1.35859393547,-0.287251313604,0.025537307527,0.015761319989,0.67682885943,-0.750447523293,2.10211113808,0.26363768072,0.409969335947,-0.627932675119,0.143149555724,-1.65692558898,-0.155225297568,0.176288475738,0.973502416615,1.77413790491,-0.905948387504,0.487088969813,-0.829898275407,0.789409770564,-2.20567716365,-0.376508385156,0.85360943829,-1.64387864929,-1.494274544,0.376770794313,0.619531512231,-0.6244440932,-0.683878177768,-0.0470189799384,-0.40434619,0.59002162939,0.241885380762,-0.170489254272,-1.50981225988,-0.127644290777,-0.124684164803,-0.435209506545,0.385885285977,0.226184435868,1.28290072251,0.00897053756601,-2.30052063644,-0.347090192386,-1.91651471619,0.174080601514,1.85526650342,1.04478786026,0.831375965837,0.188927680051,-0.622968532758,1.39220462075,-0.116857002876,0.164582770253,0.372530061604,0.180098021564,-0.8245772923,-0.336578669303,1.28342862076,1.96987687579,-0.499592996723,1.40102293045,1.22185525728,-0.457437789998,-0.979952732157,0.187721125158,0.168588468313,1.05757499028,-1.06104785278,1.43822489287,1.64184327446,-0.435768324504,1.88127853221,0.827008486603,0.67886321116,-0.574170273421,0.378474307572,0.0937418111389,2.37194753551,-0.521934460751,-1.26180192373,0.287029021463,-1.38373379755,0.33762125275,0.171790042482,1.09776427447,0.386847920885,-0.700127072156,0.334480168355,-0.0719670607414,-0.588684619742,1.60980624921,0.87731376172,1.13022977297,0.22425028182,0.869845759919,1.10025016908,-1.15084313688,0.459008501717,-1.39410503635,0.941565539122,0.684215096103,0.268311609499,0.913814922991,-0.339451621993,-1.34315880351,-1.42189453546,-0.502738753375,0.322057247809,2.15869493202,0.485072437508
-0.670783199395,-0.393151874354,-2.03365974487,1.4678968908,-0.941240473012,-2.36864745812,-0.972745793008,-0.424007623334,0.254389774288,0.599114129913,-0.178536176499,-0.609936386555,-0.112745607557,-0.798410554384,0.911616600016,-1.61121438436,-0.578217032661,-0.871130706284,-0.199574457248,-1.29841264695,0.684220882421,-0.0448129478202,-1.38160941437,1.44187724282,-0.847820506035,0.948568443026,0.576737176261,-0.859701190735,0.663431272475,-0.116143818069,-0.551857884198,-0.749610522499,-0.33960909279,-0.666809641576,-0.148070397822,-0.524384158822,-0.720360200582,-0.402355269084,0.710209933409,1.8406946977,0.656113558793,-1.29932900738,1.86795247857,-0.511171642894,-0.0259157879044,-0.387617390423,-0.109697687009,-0.728154481094,-0.253689331324,-0.234978594404,-0.199654475416,0.186021870109,0.834223150605,-1.5600109188,-1.54536160321,0.405226947021,0.261693283403,-1.4540243851,-0.160646518815,1.96012574827,0.107579523608,0.679296362209,-0.100857510256,1.2642178041,0.175129240409,1.31411150515,-0.788836126736,0.556514108568,-1.09978224883,0.303049109161,0.495582765347,0.0808994636575,1.77738099589,1.13847934747,0.287754697192,-0.782746260469,0.431400039329,-0.454347672859,0.85702487446,0.157120078875,0.181250163889,0.0084402580051,0.0408319407701,-2.02462323047,-0.830350651363,-1.09657780368,-1.38534912772,-0.558109992184,-0.0701463575042,-0.276680974557,-0.871320074542,1.07845190854,1.50240189549,-0.973269954651,-0.296910904078,0.992897435845,0.979495923607,0.509226614595,0.0729515192025,0.65686054405,0.128290703445,0.554745238048,0.224394873573,-0.56096843939,-0.793931100762,0.399244504,-0.843573397186,0.0153578751811,-0.547571589806,1.55850120941,0.988964142029,-1.9441048779,-1.45310010953,-1.44483076432,-1.27882141323,-0.883137714022,-1.3310904931,0.0355789237106,-0.247890517158,-0.500099586077,-1.4196937798,-2.90685108553,-0.100724001839,-1.0400008654,3.22544444667,-0.484840577578,-0.513997947844,0.966471757968,-1.91085386619,-0.339153553417,-1.34644367649,0.87086027412,-0.543328346619,2.44475938966,-0.19735822026,-0.964537827563,0.521933280969,-0.110855762071,-1.92434786036,1.42304448455,0.652347411739,0.594401479709,1.18424295303,-0.656745914448,-0.469640481629,-1.62255629444,-0.614019510406,0.366712086592,-1.30505916011,-0.937560325713,2.35459466483,-0.142690735565,2.14970306859,0.848488419517,1.46262586011,0.660013964492,-0.366252788757,-1.49515021712,-0.384089078888,0.683824305166,0.978587308879,0.475391843503,-0.238482990706,0.824888238479,-0.327098441478,-1.39344954205,-0.412222269176,0.245353352957,-1.04274737819,1.09032089539,-0.30897096168,-0.824049795594,-1.13771091748,-0.457450833451,0.446672018325,-1.1581249831,1.23021849803,0.794940065553,1.56186281104,-0.916653756375,0.687823929247,0.818514987891,0.00538808408598,1.90117920765,0.345058729632,0.384615600268,-0.0580226520226,-0.427437320695,-0.359102192639,0.84814103007,0.507010373245,0.107773851247
3.03555821923,-1.1705984486,0.965537972241,-1.44813506394,-1.09697354714,-0.255527389841,-0.867421116371,-0.827694665144,-0.447284384863,1.45508799921,0.562342559301,-1.5596664025,-2.36197699843,-0.292324462001,-1.00811677352,-0.338214491407,-0.948996164573,-0.896368973537,0.0943566976453,0.0997924542314,0.58151272203,1.47137296777,0.456803234631,-0.257586398766,-0.451421724766,-1.12694248894,-1.69901625003,2.05300582322,0.0887589605653,-0.375427997629,-1.04316484177,1.84580467995,-0.94606268531,-0.507893695895,2.0829873488,1.91522826744,0.789812541619,-1.60897119437,0.878663328007,1.77410235937,-1.00081869581,1.73143998277,-0.93355507453,0.851605622482,-0.786233363423,-1.57298522451,0.361108808418,0.266371046266,-1.55829973319,-1.40029620272,-2.02316314802,-0.347715985982,-1.02604195533,0.0612930718904,1.47393310254,-1.87582518238,0.932580087107,-0.204016409429,0.322309843029,1.04182702332,0.325706033996,0.342097904658,1.3787381289,-1.88016057937,0.652430160396,0.767064969279,-1.32939612977,0.6175054745,-0.86140777911,-1.09596077367,2.05960845754,-1.05366512404,-0.224539568789,1.5183488781,2.56769049972,-0.110575051278,-1.13450986878,-0.464694946276,-1.25956447069,0.20369523504,-0.224031485824,-0.817517008888,-0.068255827858,0.655277809314,0.787483024898,0.35729390856,-0.399079235974,0.679725490675,0.200332996218,-0.792884985723,1.18728354868,0.349557627582,0.746780421449,0.00831111058323,1.77547950555,-0.304682217719,1.13812161199,0.174611952418,-0.831486860363,-0.531652531458,0.24472816147,-1.3847176857,-0.18270511046,0.217820678315,0.925839673997,-1.17480646806,0.457651443906,1.32397868741,-0.00503813914812,-0.612108869396,-1.19173871769,1.1636480817,0.162565634622,0.563828087243,-0.982223644776,-0.233930958694,1.80472506593,2.1716572454,-0.67210850011,-0.857671645505,-0.817743361783,-0.46590990405,-0.565465985372,0.339938069443,0.267672664166,0.783270455233,-0.37368241417,0.0328739028587,-0.205842579288,-0.865388132413,-1.0530235002,-0.677457850009,-1.64542435335,0.313690867337,-1.16346463424,0.0883067316257,-1.69573367486,0.907843314348,-0.246163562406,0.993265478177,-0.98922489084,-1.46629351539,-0.424692952176,-1.13195630562,0.0946050768704,0.771287642049,1.88941677559,-2.33600357913,0.842580324171,-0.846576536495,0.838903451272,1.69601671199,1.44071432891,0.127351690444,-1.24454243015,0.78428552538,-0.100833146529,-0.137551348226,0.598452352831,-0.206006117387,-0.551756757418,-0.239716768319,0.2655463229,-1.34250472403,1.00136847948,-0.274658655872,0.18697364249,0.00737111608744,-0.846766208543,0.730766005477,-0.325181853575,-0.658698518219,0.258647747293,0.967715452147,-2.09992659171,0.668396668035,-0.613686795524,-1.15101143704,0.587891624799,1.46767822106,-0.116097612631,-0.0382439815816,0.605259904088,0.0109424887669,-0.229871072233,-0.8245864299,-0.134222410787,-1.73297244327,-1.99636520646,-0.107341233151,-1.11786544953,-0.319181629613
-0.139300869416,1.8968083428,0.08164485197,-0.327209570477,0.927777091715,0.415501190879,0.576466964207,0.663658090927,1.02327668927,3.09625964682,-0.421187386107,0.533786240994,0.370870246129,1.80484562917,-2.12963146179,0.745189837818,0.423117848774,0.599923277732,1.38540114655,0.683786702372,0.721401686609,0.897814361291,0.962020833736,-0.213351291389,0.724159667777,-1.09019264594,0.120995834313,1.16031863945,-0.225176909094,1.59444581092,-0.59081452555,1.20988467867,-1.57161525776,0.128678376331,-0.0618806844839,0.65179630326,0.204512592971,-1.20345477284,2.90532449103,0.437465728947,-0.688348056563,1.59912448708,0.037718619042,-0.554868816289,-1.26266017596,1.35035009478,0.0629113505048,0.113263840139,-1.38950491242,0.00468759256516,-0.989256509626,-1.74463986306,0.0572099297724,-0.697662087279,-0.784243672475,0.0827682406583,0.198692194116,-1.26650184355,-1.00842897168,0.0174382237462,1.73311582873,0.245463599449,-2.42914396703,-0.235194025298,0.807728118592,-0.798208931537,-0.237063596068,-1.131380846,-1.48880670116,0.187107050243,0.55927937406,-0.565474384517,-1.09576245165,0.806947689263,-1.1260081254,-0.486474592592,-0.788006765715,1.53609999797,-1.35137957371,-1.91108219395,0.165517735026,-0.0990129525469,0.219753942577,0.30785854448,-0.426594394308,0.0338630733769,1.152818632,1.26900192994,0.737935501762,0.476612196827,-1.39089681546,-0.36404108488,-0.0418161003913,-0.189998095128,0.97124349701,-2.01953042683,1.22820183527,-0.661785158678,0.0876054461149,0.626749737146,-0.782894478011,0.265475322496,1.22561467643,-0.335713042564,1.94540396867,-0.846813323676,-1.52963367137,0.641924558319,-1.20295398304,-0.954537443566,1.27260668503,-0.501061957679,-0.0784787585058,-0.281178021726,-0.360763898683,-0.36051902645,-0.487368497399,-2.59919832927,-1.09933023829,-0.444560116065,-0.247003986274,-0.135891743835,0.84251696148,-0.000718179111085,0.123959314782,0.384100424032,0.558580984116,2.06981330805,0.134878190003,-0.228716833334,1.13883175971,-0.789317090759,0.296869492351,-1.28347308422,-0.644671449119,-0.6637954203,0.673040259977,0.602025598419,0.171051106206,1.93318479174,1.20077549459,0.632879534571,-0.560265254336,-0.368895965891,-0.763287597071,3.04393336348,-0.139308708957,0.740463714402,0.51711457634,0.18342723094,0.615673041305,-0.890697442858,-0.280755538449,-0.302861010839,0.789391493676,-1.09184914267,-0.651617547459,0.341204948704,0.68249665978,-0.683836521108,-0.786799528928,1.45806205077,0.06363084509,0.246172578531,-0.751428718941,0.166857992903,1.25332035475,0.236572703229,0.0874726899956,0.766236819429,0.389631294465,0.18463504197,-0.955149886081,0.208706876392,1.15368540154,-0.422250007351,0.144376341841,-0.69021917436,1.38177185144,0.650986530807,0.33362537513,-0.891744500243,1.33622492764,-0.724506033397,1.12163403625,-0.0193971623822,1.23370351667,-1.6701077884,-1.71457765406,0.962146650882,0.0615394218685,0.755678263538
0.998230893526,-1.30389007969,0.184128043396,0.00705874389623,-0.811801904589,-1.86577919736,-0.445988689791,-1.24974572562,1.45649816823,0.130965427802,0.906837924893,0.201421231762,1.42180415321,1.07621999364,0.747783150103,0.695135154001,-0.370706754105,-0.243790095433,-1.86267447246,-0.0951595979002,-1.69384843805,-0.366491984881,-0.955196725107,-2.34882568637,-0.51974808194,-0.0567981607939,-0.979639375116,-1.1842081873,0.703828375835,0.59866210911,1.17679569532,-0.406268245563,1.89052603695,0.139307273286,-0.865992643124,-0.416380674404,-0.423495443538,-0.0758494009296,0.248040500046,0.689906799702,0.482365268155,-1.02156637825,1.63078318321,-0.0345542069954,-0.27267557016,-0.293439118356,0.435925656176,-0.909200554789,0.886023582899,0.493898646954,-0.658072705135,-0.814594191509,-0.286707795562,0.0518616918096,-1.05163156427,0.602016336524,-0.114965114937,-2.32683422573,0.41412342182,-0.790830664035,0.208400818047,-1.55509611699,-2.22294586822,-1.60814590607,0.231945822949,1.06479178277,-0.919772090723,-0.660429410827,-1.9739088926,-0.451495998827,1.01993692734,-0.980272749028,1.70523183065,-0.467372169502,0.508224754111,-0.623149024834,-1.80250705965,-0.49535997842,-0.415100787333,-1.09583300842,1.17104138089,0.66200121786,-1.3828711932,0.503851713925,1.23079611917,0.53478951594,0.134989164469,-1.6790570927,-0.646293013615,-1.28456770241,0.793226906074,-1.06061620653,0.231956555314,-1.69934703166,0.111594871931,-1.25712717151,0.40491964524,0.0301937411597,1.75954715082,-0.989929278993,0.600177240294,-0.415269002993,1.1186356973,-0.291249447489,-1.66862412445,0.14833144054,-0.707674895086,0.337163519902,-0.459613831492,-0.166640823709,0.135571270432,-1.0223944748,0.459664552754,-0.196754747195,0.193229929493,0.264715902691,-0.231217003536,0.63048802063,1.01274103382,-2.0692752656,-0.049882922123,-0.848973170793,0.490509471728,-0.518498919267,-0.0213117052615,-1.03641977214,0.09850945715,-0.674455549943,-1.76679135697,-1.07306801456,2.41306533673,1.5555477443,-0.606706326887,0.629263427875,0.201763704668,0.588403477242,-0.368350712044,0.343852559016,-0.985709582556,-1.30496161623,-0.663271235733,1.30782087004,-1.45461980286,-0.572731957782,-0.306032077413,-0.96137120269,0.91061804658,0.48265515458,-0.122162985565,0.795849101631,-1.38486131353,-0.179412658761,-1.13778804542,-0.826705680517,1.02563446742,1.3969926189,0.221496706664,-0.775412189782,-0.525675465899,0.231521089336,0.0494796228796,-0.325919830095,-0.945535165292,0.166869612751,-0.337823447177,0.461549760862,-1.05463263096,1.24407754207,0.771787013407,0.031896640329,-0.585132964471,-1.01747834641,-0.82546212475,1.29522495153,-1.16895107052,0.19830474672,0.368037844414,1.15049157658,-0.226865201066,-0.149908030541,-1.79000902545,0.572016185751,0.997346820562,-0.33189551439,-2.49568695283,-0.805636810927,-1.13384403979,0.911803726396,-0.159051369396,-0.240252996424,0.172077812566,-0.996782387111
