0.342250603386,-0.113855891674,0.119367198829,0.228124408258,-1.94046170921,2.3785023269,-0.126689596612,1.64355578829,-1.10614685453,-0.58651825202,-0.364487222654,-0.366495655001,-0.140372008757,-0.181137989036,-2.02471083366,0.676377742482,0.328454451852,2.53724210882,1.5050778977,1.6253149855,0.657120142136,-0.444106271442,0.789699652987,-0.0533008552404,0.725698934879,0.438681109396,1.35146925832,0.698139961849,0.779442029912,-1.18322780607,0.211298431093,0.608775257603,0.215153275848,0.352409815547,0.159946744773,1.90611703943,1.11886148711,0.991430963028,-0.950025848247,-0.547800045553,0.186213384178,1.35696312642,1.06240308696,0.808121031519,0.725178774336,-1.6769513208,-0.642385376047,0.0460759722856,0.415105533109,0.784903456814,-0.926357106472,-1.66512440875,-0.825776636363,0.73077329873,-1.06596978366,0.752347040288,-0.622780231508,-1.36173521958,-0.0811944810215,-0.246671631516,-0.0445174207223,-0.185527059317,-1.56573001037,-0.311394903984,-0.493373254615,-0.109717442173,-0.0971313001368,-0.590694097907,-0.558781042884,-0.891413408607,0.978260772165,-0.371233575742,-1.56327499414,0.290681661685,0.849634453133,-0.328501046285,0.316738972672,-0.56725034098,0.72843314903,0.239797651231,1.41525123867,-1.28628184177,-0.328039035738,-0.602992663619,-0.313526132126,1.12522162763,-1.70254671096,-0.990000534199,0.122938291546,-0.348813621864,0.687571549593,-0.241614355716,1.49211174129,0.665407896738,0.585014903383,-2.97246824974,0.198485225568,0.582723860548,-0.73066935552,0.354101416952,-0.978970361921,1.4903427562,1.55493104583,0.333463086193,0.279422421921,-0.607684956963,2.13716257803,-0.761789323056,-2.31454476401,-0.886405084698,0.0798923941344,0.315436726141,1.15760097121,-0.0699524184628,1.36855376452,0.078819701462,0.668203529948,-1.50166785499,-0.132324173447,0.356548307496,-0.546559955985,-0.873163699534,-0.582696077625,0.871767825648,-0.296620928606,0.142623076609,1.1087419161,0.652067324033,-0.768190664774,-0.0220301640473,2.62161412158,0.173502156277,-1.0158122119,-1.23660426795,2.07306198051,-1.60562734945,0.508888434196,1.75428359986,-1.6623093064,0.601750405795,-1.53799720301,-0.272948105776,0.743478296212,0.0395323922525,0.648588209674,0.462601518027,-0.457948121527,-2.24050391785,-0.493957963274,0.2469054974,0.0659903847825,0.323336040929,1.75186952931,0.566478032517,-0.634028279636,-0.56218133657,1.61873876479,1.61658173248,-0.913322466644,1.28901966648,-0.0566539494215,1.11868872584,1.01595109649,-0.694785409931,-2.41430319268,1.32280607437,-1.31326987828,-2.0511210426,-0.490497821644,0.345988999961,-1.11962328284,0.596637912112,0.479670947902,-0.400972871301,1.20366378063,1.1300955039,0.646968598341,-0.187741160987,-1.02607070237,0.0894299626246,-0.894948975097,-0.940495306956,1.12164867187,-0.229581024828,0.366588149488,-0.540195402855,-0.176325244819,1.63817105333,0.114273602891,-1.54770576352,-1.32618266716,-0.0925025190748
0.336423202763,-1.43154968126,0.0593846039705,-1.23212619444,-0.458974278167,0.142858405412,-0.54584373277,0.318069219015,-0.379728955419,0.215555422807,0.745823706477,0.371177135006,-0.591693063607,0.155084739616,-0.456157848557,-0.206276167303,0.328667890933,0.905759082746,0.740839815346,0.0860640488453,-0.693118938937,-0.091384110934,0.21632293539,0.786106259757,1.03368509742,-0.287035625537,0.286902863174,0.83020173167,-1.44632054116,1.16971406709,0.424219459207,-0.327158336794,0.711927228962,0.575373112968,0.472498379107,0.991070704234,-0.687319038507,0.696698496139,0.817967241002,0.799953626327,0.211305399163,0.356570007,0.827937929492,1.45916231707,1.9019444008,-0.772977833615,-0.534289300283,1.01794151844,0.228032507188,1.37366369713,-0.132864300883,-1.4861867476,1.44302360089,0.0792841336887,-0.462484984828,-0.52521356482,-0.28401421321,1.84663241264,1.12286734918,0.0262239893916,1.11571761661,-0.60297329907,1.39322665223,-1.22966691094,1.6921024993,-0.40793707674,1.48234379883,1.56666714541,1.19476810978,-1.69455790489,-0.792179339603,-1.46112068158,0.035910501057,0.850190242115,0.467404608994,0.483004846558,0.962300952437,-0.091491473892,0.874909928529,0.469880038261,0.174661194431,2.08542079407,-1.29273987772,0.779272578273,-1.97130642077,-1.7430383149,0.597851816581,0.26943050877,0.565299396665,0.826296714354,-0.959952540946,0.465561462197,-1.70322988637,-1.38246474431,1.11247809211,0.942220505231,-0.982087037561,-0.000399472435668,0.759616769736,0.33371263009,-3.12703370675,-0.176112933446,-1.01523699806,-0.472427887785,0.494048207112,0.908864407277,0.798639318501,-0.530907020142,0.27485325274,-0.929297693435,0.266299575454,0.00484470826653,-1.7900486538,0.978943153879,2.07876798191,-1.99241859167,0.00458371098394,0.350926771005,-1.73227206002,-0.0601271051243,1.19791872884,0.759659109885,-2.05060362378,0.228813181396,-0.196599767884,1.4205078266,-0.0161044428001,-0.668827600166,-0.660993599862,-0.479262227858,-0.465294222904,-0.366314393334,0.821468753068,-1.48819434801,-0.89445798851,-0.24531143207,0.261636801284,0.912239721705,-0.838699119609,0.367995960505,-0.322083770105,-0.201376812388,-0.294981687291,-0.0981010990503,-0.736153596626,-2.23361054472,1.31908919393,0.00296531021538,2.19770308255,-1.30499541796,0.174831456707,-0.315811491744,-1.12949580287,-0.804506021221,1.64834832645,-0.615878910697,1.08209303338,0.573822961726,0.564853934029,-0.307438693466,0.809924652142,0.16894602946,-0.100380483332,-0.201270135641,0.132065417908,-1.73635063906,-0.317104003361,-2.70603644425,-0.656530402362,0.114750222018,-0.668525651876,1.64701921408,0.906610659129,0.234666659988,1.20820161549,0.275082177384,-1.11517806694,-0.223681882935,0.514811175539,-1.08355095578,1.6425583905,-0.222488081674,0.738250661732,1.29166192851,0.617613944212,1.20777100374,-1.30562734738,-0.680217480362,0.1271060523,0.818906409294,1.07038407361,-0.442574138042
-2.86409181766,0.415175414318,1.29214616039,-0.13711374786,-0.0979200174945,-0.246700084577,0.212226087495,-0.35559067826,-0.439231252033,0.488216589437,0.660375163823,0.75054347349,-1.20626168732,-0.133826150299,-0.493599733944,-0.537872972437,0.376919555372,-0.362128092141,-0.325866997285,-0.80857519418,0.820634821686,-0.779171956081,0.825902786114,0.776701894621,0.671952373264,1.35073989831,-0.437800060105,-1.62059532864,-0.510338309097,-0.233325018826,0.515200626937,-1.09755506392,-1.80542365075,1.19018126256,0.628584465768,-2.35752903728,-0.136219579354,-0.140565834689,0.382754117627,0.263729970004,0.776947547191,1.60407974928,0.20830447842,-0.577571221704,-0.726839902751,0.869243809504,2.18259484166,0.172981340148,-0.781083682464,0.0344558418078,0.556230504394,0.818163701229,1.88597228489,-0.257427899309,-1.35821579394,-0.484754901185,0.23135358963,-0.173439196766,-0.284675025221,1.37879995651,0.566562670264,1.00128789551,0.326700313887,-2.41452560809,-1.27292426283,0.260203880197,-1.40731594647,-1.97943419384,-1.70019606682,-0.327879104776,-0.596635132987,-0.102063084962,-0.107810250487,1.4862424185,-0.986909966491,-0.248078742599,-1.43985319866,-0.369010553673,-0.532455562417,-0.371449670381,0.90093393441,0.579641239863,0.780238474387,0.207942776637,1.29421959684,0.410006410472,-0.184137489533,-0.433253186667,0.467089485835,0.713039248107,-0.469912489971,1.45497145338,-0.926881963474,-1.3764484119,-0.59339788733,0.477528699563,1.65655946337,0.347112873721,-1.50723133362,0.0445629361407,2.3425845176,-0.616470431509,-0.354002457608,0.321354001066,-0.746061139166,1.47377710143,0.509511690152,0.207717642109,-0.988225501085,1.39472763909,-0.132869610131,0.067342399158,-0.569468341259,-1.96543276707,0.635562777241,-1.70304768492,-1.65960603851,0.133773011988,1.21854882226,1.15466725319,1.18799526126,0.012196039479,-0.229007357727,0.396758959731,-0.0919841425071,-0.802554116212,-1.34204948544,-0.817877824648,0.797433531438,-0.205886561452,-0.309345821022,-0.434138161094,1.05881044033,0.305204024327,0.0911777597458,-2.60450930051,-2.09799230922,1.80864000554,1.34856720374,-0.494279303365,0.433251886501,-0.211667309001,1.18715570086,-1.36738377138,0.987695377911,-0.957532152024,-0.261518950633,-1.5699229376,0.11329341759,0.285617507202,-0.062939693572,-1.61702405089,-0.726104076764,-0.306231870917,2.24219350775,-0.773611214583,0.471166351864,-1.29428277809,-0.191681156905,0.107545794137,-0.727115687232,0.170066540016,-1.4283030716,-0.192331347664,-0.0904318576228,0.0943530655558,-0.225459914573,0.0391724791513,-0.189482137531,0.233269200704,2.21621701834,0.104279400074,1.28999433901,-1.15294376361,-0.205988451148,1.88675192499,-0.352514012501,0.770540775868,-0.210899004727,-0.207086178314,-0.858991806024,0.171030158033,0.608476948677,0.0835167804817,-1.76215572398,2.17271755137,-2.3892060488,0.0819369759646,0.301002965731,1.88211223108,-0.758480886178,-1.20466194972
-0.636671531975,0.390140059972,1.71414731429,-0.610372882553,-0.789669623137,-1.04456942897,-0.189427298779,-0.693768410979,0.749066427106,0.264147315604,-1.79808513348,-1.38342756055,-0.958456614017,0.305233515842,-0.208691232188,1.04284263995,-0.0377200385691,0.320347047515,0.291310960311,0.550531849681,-1.43977546904,0.712173285329,-1.61188052976,-0.490729415412,0.619430901535,1.77572019162,0.524393395037,-0.807783733347,-0.82810717731,0.456521515768,0.0271307163783,0.390810539188,-2.74686208295,0.0847706640048,0.222171404232,-0.450803631041,-0.556346983893,1.50317908261,-1.05230605329,0.347807331013,0.0975043272185,0.280571366601,-2.1510164185,0.638348125349,-0.79419734596,0.998497384389,0.380324225681,1.12306388518,1.03670174802,0.981520906444,1.05235485466,-1.7830109855,-0.471234726014,-0.794435917905,0.0477317669808,0.0239343292547,-0.186858114474,-0.265613851681,0.581584451304,-0.566221957505,-0.598574288117,-1.56836214486,-0.383744949443,2.33230126915,-0.9869942245,-0.262841748246,-0.0915901716499,0.839931539298,0.598246408005,0.20022791711,1.14089487717,1.38636361213,1.84837046869,-0.155747019877,0.600108530018,2.16012707428,0.898576056918,-2.20587832791,-0.651927860578,-2.12701340199,-1.29182499722,-0.0108310789506,-0.729651019721,0.615886788815,0.19620752304,1.21753610839,-0.161517623227,-0.820903463584,-0.795945412106,1.01625717199,0.573907363014,-1.92559251376,0.696010906797,-0.00283513810636,-1.91208126479,1.93691332385,0.173175281973,-0.0352347615043,-0.787561957388,0.183687614401,-0.187706089704,0.480543739683,-1.9346239837,-1.91692049131,0.64873717171,-0.0203447230809,0.913620270349,-0.642518009359,0.885315183665,-0.291377030133,-1.51444718186,0.631702683825,0.342509859827,0.277255358399,1.81758249752,0.436707632791,-0.117499707251,2.49813729998,-1.11989735067,-0.895218758123,-1.28601336486,-0.289564486459,0.213893864795,-1.68299692494,0.450348273324,-0.316470471948,-1.10790218893,0.28410408202,0.0555309809743,2.08605446689,-0.137152507764,-0.597344618259,0.44230116002,1.2654521944,-0.434610127627,-1.1479764888,0.0479062979094,0.867800647224,1.52865134777,-0.481021681586,-1.45391172037,0.0684446849472,1.29008589164,-1.17384576777,0.26398631834,0.106111722994,-0.28054815169,0.156389718758,0.553068838246,-0.244417216526,1.09920700571,-0.105445502488,-0.360630583247,0.79168278918,-0.845138322139,0.17591110878,0.385158250644,1.82183485017,0.541760504187,1.80750102393,-0.386093966727,1.29436858156,0.249207235889,-0.648348375789,-1.1301274019,-0.203191247458,-1.20951180038,1.17658340778,1.60206014366,-1.4183717841,-0.0228157611638,-1.08846938691,0.0854250002553,-0.449991205984,-0.759095656567,-0.87186391181,-0.763685281033,0.693397237554,-0.574284447845,0.154548002767,-0.411072717943,0.0614278985484,-1.27163005204,-0.0249217118741,1.06234138771,-0.0378779880609,-0.0642561162863,2.2916056843,1.52492791563,-0.764847546868,-0.212261348084,-0.467575317398
0.601358259567,-1.3415012856,-1.60430884681,0.123831542163,-0.742931807832,-0.219691793187,-1.24810154278,-0.302549799714,0.922823874596,0.553116881019,0.0599025191628,-0.589262579582,-1.0618029933,0.314419855378,0.730896105121,-0.574387879425,-0.158630198119,-0.0383876519846,-0.203866845036,1.17742582195,0.288486031768,-1.76711812238,0.493821670937,0.78839163786,1.21692693357,1.44502691976,-1.19304800341,0.337033294458,1.70237891043,0.114497865421,0.47043778099,0.341695495599,-1.29911566321,0.657157237803,1.42023555849,-0.604622478475,0.478915757115,-1.03055656711,-1.5960575764,0.035135733565,0.177268544892,-0.642806585086,-0.668577103888,0.856344884269,-1.6526848739,-0.673073711224,-1.13275577063,-3.4782520839,-0.455977519028,-1.07285689077,1.6152466808,1.11664892911,0.018190314717,-0.514025880059,-2.21946700127,-0.330814679338,0.764696819004,-1.37704816543,-0.882760529633,-1.34848341212,-0.369533370331,-1.71175760627,-1.81455303757,0.215397230474,-0.375665489736,-0.153357131684,1.72479023568,-0.713464280488,0.976464961057,-0.00642447046913,-0.281495861129,-0.438351921564,1.68225509251,0.632949036966,0.654715816537,1.68482913918,1.41633781021,0.301066463866,-0.146391308748,1.32480345475,-0.476911733613,-0.955506974408,-0.533168783952,0.119110903215,-1.21081311386,-2.15618320455,0.854467943205,-0.909403031121,-0.413414657367,0.198516071347,-0.557806247474,-0.635161456745,0.652655157052,0.496285440885,1.65668095356,0.019242921672,0.0409637496948,1.48541219567,0.430212161871,-0.961450871833,-1.11777862189,-2.41274217033,-1.36306942382,0.854619136534,0.231933883309,0.383634074809,0.309950770455,0.0713389981012,0.144703263067,0.726096896241,-2.2155613925,-0.478042853747,-2.73151215837,0.213775643045,-0.363457592037,-1.05114687435,2.72934125216,0.0467468384339,1.08647912482,1.42505121646,-1.35593077736,1.04464915497,-0.580511073221,-0.386970737611,-1.24834582016,-0.0013960669223,1.53074509099,-2.98551581097,-1.37281113448,1.20125884068,1.2085548548,0.529862903457,0.780262989972,1.37671210945,-0.432834916171,1.06007126946,1.39818495549,0.755790468772,0.0494361230185,1.4705540192,-0.470695219079,0.0471519950274,-2.66903584537,1.50113571252,-0.321060743496,-0.194992005456,0.426159327277,0.779380108679,0.198665092201,-0.0510563257065,0.554655812973,0.332382200964,1.56142976139,1.13600530983,0.0256959952383,-0.216931846656,-0.102906663225,-0.217199198929,0.141308306593,0.148743722486,0.14929800601,-0.67510943208,0.314012977145,-0.520423152921,-0.912856045645,1.77230870406,0.241668645016,0.577241246482,0.1376164053,0.177119470782,-0.119700856332,-0.252446054473,0.703967428896,-0.23307233063,-0.865752046014,-0.98323429263,-0.250588735873,-2.22606863664,1.53591503052,2.06094021211,-0.0449289097292,0.23354709492,-1.0925470248,-0.390310924266,-0.65100311597,0.434790324526,1.96409461208,0.245573827876,0.679781754706,0.755345395253,-0.684936481897,-0.0136314375163
-0.549536854707,-0.494372661397,-1.5927853973,-0.210216577509,-0.0290940426064,-0.661771168469,0.332065574168,-0.503833930795,-0.276461100341,0.101979540544,-1.53759494834,0.886862282328,-0.438204190074,0.476292012112,0.153088517968,1.86690744911,2.531356425,-2.16839847722,-0.347738877513,-0.861116013003,-0.518722310292,0.460522977443,0.957518441483,1.67260954416,1.31775645377,0.430660738749,1.82478897246,1.86566525033,0.605523123058,1.45322251507,-0.410143488916,1.40922272745,-0.151150930158,-0.323917952776,1.6002299438,-0.690207520674,-0.269913172608,-2.22264954047,0.641245707819,0.444050848953,1.58522214332,0.134019564827,1.82834829085,-0.812176048261,0.59345932348,-0.697136674024,-1.51516460705,-0.231108767299,0.519496448786,0.166311580359,-0.826539827829,0.018451541783,0.500583610121,-0.996612257429,0.541701461632,0.302993414029,-1.55940129839,-0.941666780363,-0.232865084,0.767938164433,-0.703176122765,0.466580521113,-1.66028179656,0.129523183043,-0.0467930718916,-0.146521994337,-1.59360535745,-0.704766273446,1.37495853519,-1.1256201578,-0.436271100861,-0.2028657535,-0.084228319144,-1.64759781317,-0.729512408568,-0.491976349039,0.335030309067,0.952734109235,-0.443926980433,0.137209271578,-1.03046388196,-1.34454555417,0.00817059375091,-0.371386294108,1.41594642646,0.327892048707,0.434843517166,0.698241523912,-0.859993802207,-0.793547947257,0.279022845669,-0.0119632785729,-0.82075718296,0.745543950516,-0.859802228558,-1.00752074679,0.464929587151,0.456346301466,-0.508531113882,-0.939327911919,1.61560143097,1.23407058237,-0.372543773585,0.571877552144,-1.65639851822,0.50607890178,0.402001321559,-0.390293339468,0.862380513872,-0.410398383985,-0.0997736056058,-1.91816927741,-1.17104825277,-0.967365343152,-0.155295086123,0.34843697769,-0.113362204956,0.0579689990597,0.470353629679,-1.14259709116,-1.34987807801,0.371814059349,0.762739046106,1.71984628322,0.131681000065,-0.109828159853,0.147251085598,-0.508052431351,0.214481626881,0.296100560918,0.212614534519,1.55241763368,-0.671047525729,0.586161812257,0.038516459262,-1.04212361829,-1.22791972221,0.417628477698,-3.24559230748,-2.19265924168,0.379925658818,-0.204724872909,-0.698703214333,-1.04175721668,1.25232518888,-0.981617321451,0.661790304435,-0.44368141175,0.485673135733,1.79858144922,-0.237385780152,-0.144231312287,-0.262762544724,0.592950631129,-0.403196784583,-0.0730425112474,-0.823833386269,-1.16350312186,-0.00979561007819,0.579626522466,-1.10173253663,-0.293554438191,1.48251853014,-0.23099000054,1.13116965969,-0.626812349939,-0.87890091802,-0.437583765425,0.591485058329,0.167109384111,-1.00232665324,0.786706680623,0.0650122129494,-0.645910889613,1.31241994494,-1.14943868065,-0.0570539268061,1.13358641173,-0.680902215527,-0.714322993689,-0.395986604165,0.834569329616,-0.862830992826,-0.643265480948,0.736691058555,-1.35025509096,0.620675804007,-1.36540686105,0.489871801941,0.298506037253,2.65365304948,0.326467755506
-1.01831064458,1.94157487662,0.044398172956,0.00979458843381,1.51897749943,-0.85352269874,-1.97372831895,0.620592112265,0.151824745594,0.637703159942,-0.131102100704,-0.0206006915794,1.44955814519,0.834652285819,0.34953697472,-2.66410556757,0.388486808942,1.99111029922,-0.804851726809,0.224410326284,-0.0763567315217,-0.469569019386,-0.980681857494,1.21400297381,-1.29642883775,0.706961542103,-0.63308754072,-0.405466778224,-2.35526104235,-0.402947387533,0.327456699201,1.3399283562,0.676325311183,-1.59336180058,0.688289307965,0.256969225299,1.47558585958,-0.869092177912,0.975971043079,-0.347351603007,0.310887106704,-0.498076193242,-0.955658381277,-0.72420908673,-1.04325884924,1.47403249156,-0.523858546334,0.781608830625,-1.29182273119,1.23184188122,0.440221637541,0.328005358388,-0.0556366088654,0.735805162271,0.771612173749,1.29160957199,2.15614508569,-0.0022638951968,-0.281745940268,1.75881801732,-1.90066627214,-0.222786020417,1.03884693413,0.80908669295,0.0699268402958,1.13296847457,0.828211187716,0.523616724481,0.329190544584,0.464758886687,1.20277722635,-0.153220412397,-0.782962043056,2.80605305121,-0.205930969882,-0.614781694578,-1.06915364264,0.857311012278,2.45527591993,-0.585347999491,1.70106503854,-0.647512725892,1.63363783032,-2.73031733588,-0.457078336455,0.0819553589002,-0.468800617223,-0.155267451699,0.545326330447,-0.305972519818,1.34265215451,-0.217528515438,-0.0548213383372,-0.628708958074,1.43803176293,-0.629555643414,-0.699794092969,0.764680901504,0.205233875858,0.0828601631039,0.651271076979,-0.832668507139,-1.04264512525,0.539345440641,-1.53411257824,-0.569435329545,-0.421820417095,-0.189229535812,-0.778268102583,1.24171998022,0.422506393341,-0.022615053078,0.864344241069,0.149626553288,-0.928162101767,-0.712285762444,1.02479178026,0.373196721258,0.748315807856,-1.23046501313,-0.527729652517,1.56884311434,-0.886920759096,0.226310008468,1.81445893375,-0.780430880846,2.15255874298,-1.62702423514,1.65098776493,1.00571605704,1.53651936902,2.1781194487,0.86697108205,-1.38503296676,-1.03883812746,-0.673828176318,-0.662980719794,-0.816282187637,0.20818076444,-0.124433771205,1.11132870609,2.00104741836,-0.0395183959652,0.324778392961,-0.184888029628,1.28950903191,-0.233194795834,0.52282302844,-1.66165626336,1.26086000746,-0.93952329247,0.135715292448,-0.862761857405,1.1250382086,-0.225152876775,1.71491502373,-0.804161572909,-1.31560196468,-0.578207722779,-0.217129713992,1.16416038234,-0.415707099335,0.95422603008,0.919078323174,-0.905321384445,-0.373277428912,-0.39731252085,1.51339146182,1.40617359003,0.0852723611924,-1.52217341238,0.790385260307,-0.261738831318,-0.200704999608,0.69451089585,1.95242067869,-0.606186381556,-1.50337528975,-0.327878736181,1.27992480246,2.59681971542,-1.32235884168,0.108975986914,-0.766985820705,0.875212977671,-1.1170957972,-0.539811845265,0.570979436916,-1.38481176955,-1.41173697356,1.32350763638,-0.410801902569
2.18009787553,1.35854304425,1.39546380766,0.0549856055509,0.908293726372,-0.892715112891,-1.62035895273,-1.48455119873,-1.21443751232,0.842197303194,1.50369050009,1.83883613683,-2.026625795,-2.10270558459,1.02403942652,-0.926957545454,-0.407737673855,-0.384438835473,-0.732979729951,0.574834710332,-0.27237655244,0.605639567341,-0.124678994007,0.69705680817,-0.941832511104,0.123690217409,-1.25666785737,-1.67161891244,-0.629097412669,0.821244452199,-0.773920163225,-0.095073260119,-0.359530015018,-0.0315841360669,1.4785472019,-1.35111973086,-0.988858329686,0.780607908728,0.239900745358,0.329785173407,1.41558917231,0.260311623298,-0.696837714938,0.236944757503,0.718650973666,-0.0158213121429,1.4088293786,-0.156863873044,-0.20536828956,-0.645996842324,-1.79355567357,-0.482476261566,0.364977882645,1.69175079839,-0.695700632846,-0.351413851852,0.901474794934,0.323090031041,-0.119094983247,0.0213051683659,0.214761225682,0.371323308725,-1.02230913789,1.26308882869,-0.0802356437073,0.325908294124,-0.461267461798,0.527419167264,-0.449347691474,-2.44423774828,0.134169167905,0.771286436116,-0.542571650267,0.696037084147,-1.59666250835,0.177042535663,-1.21690103256,-1.26189688334,-0.732983650807,-0.907685733625,-0.0509551764552,0.613130138115,0.211285859634,0.669058117062,2.33702558994,1.24407506902,0.622394566081,-0.196295927305,0.0414895488305,-0.625233914342,0.693846262231,-0.0695867330347,-0.985836195416,-0.88429406085,1.27042247915,-0.0578337374176,-0.524675367573,1.27279518031,1.07717688328,0.13322682385,0.89194295888,0.741466330618,0.262775947955,-0.589332214959,0.0183829197223,-1.16802575107,-0.338688141627,-0.327256580193,0.860733645507,-0.869723539617,-0.642801606838,0.243778236509,0.558178420848,-0.331680818513,0.776272259007,-1.52458214885,0.761646080833,1.3138647734,-0.458450861841,1.59030536027,0.835662307419,0.0880711601617,0.817058024473,0.094839432548,-0.498062792532,1.4776091831,-0.273778196838,0.34451057295,-0.986225670522,2.16041770083,0.755743555439,-1.91747495889,0.993343473555,-0.424155046747,0.277497740666,0.552409175725,1.85448565328,0.739543804404,-0.285261714127,-2.34841473914,-0.0158412694515,0.645864231287,-1.00698110871,1.37712838143,-1.09604096649,0.35622971409,-1.14265551487,-1.21062656912,-0.0298671271702,0.82300846716,-0.450652628655,-1.01758339941,1.82877459462,-0.3783466062,0.38035211297,-0.399352820332,-0.205897139384,-1.00259150365,-0.810069831775,-0.0386860122112,0.157371283901,-1.03750109683,0.323200275742,1.38959305789,0.36454970837,0.794194609409,0.510330700251,-1.47812543002,0.919779738974,1.33761439934,-1.0472113966,-1.27047950935,0.839687905789,-1.81877746404,-1.21789648223,-1.20133132721,-1.15621818162,0.822374656673,-0.0956471648571,-0.655647443161,0.533816101587,-0.0806255674899,1.38312326834,0.361870654365,-0.529428434996,0.522368520737,0.357165380164,1.49039520684,-0.308238829721,1.07009278328,-0.854782275618,-0.878353538742
0.0734542543599,0.896915781794,-2.41934288551,-0.180574043256,-0.7670062989,-0.569685049902,0.898523968048,-0.653054175294,0.498351407013,1.78744527108,0.734234945339,2.68486049529,-0.401853332774,-1.16531456765,-1.53020590839,0.420807180355,-0.251636578291,-0.705473725166,-0.739682867687,0.506243942879,0.623948419638,-0.445971852433,-0.920676799722,-0.382926475554,-0.280440697896,1.00095888631,-1.73173061034,-0.207509773733,0.275225645285,-0.477844681156,-0.777140807456,0.0628483653668,1.06791134727,1.17019772684,-0.633259315578,1.11040843023,0.969075757437,0.805996025815,-1.20995251843,-0.455045203107,-0.12955424467,0.647768222103,-2.70994394793,0.403069446706,1.39611161291,-1.99558550115,2.00626130709,-2.58049202686,0.322704442496,1.56339398733,2.47922233888,-2.07168189424,1.15905206674,2.01479597463,-0.687711003142,-0.713209265867,0.0244587642626,0.398821447592,0.767916418058,0.612168865022,-0.429000225747,2.38791449368,0.779796795239,-0.975418132845,1.28245509017,1.27989342291,0.640877499526,-1.59070769729,1.00108476128,-0.501221889972,-0.146360542663,0.704000547837,0.00245790033792,-0.0104129538058,1.76541934395,-0.921685421447,0.350278826313,-0.493727820392,0.441167300565,-2.10349663403,0.80251312004,-0.549433251985,1.09640098417,-0.398421225077,-0.901175050907,1.52684725977,-0.0948586215627,0.0663562683733,-0.183781827191,0.602984180289,-0.77479576378,-1.57660888254,0.0108012457597,-0.231737931014,1.37033836995,-0.887732855068,-0.798512765353,0.140401912559,0.558314319558,-0.908857471707,1.1378420931,0.24618389993,-0.760125048109,0.871972398781,-0.576419140722,0.314258085715,-0.0314851421947,0.955507825712,1.68660443579,-0.721754118631,0.366726182659,0.0491488600933,-0.905323597062,0.0871269900752,1.42217790957,0.766720776019,-0.347982101972,-1.02362806987,-0.0238995731975,0.277148626499,-1.54821705607,1.12371623884,0.516651260165,-0.63444326558,-1.84068604171,0.17368860275,0.611084816765,-0.320575735207,0.955520697241,0.138989526321,-1.31338794799,-0.69261157757,-0.582106559235,-0.660352139661,1.24799814931,-0.423308012862,-0.0409094089517,1.0718186352,0.666107670315,0.587353017681,0.475885747454,0.077729227409,-0.330099306176,1.25484056208,-0.193614202955,-0.087940571195,0.158908679818,0.0860587366817,0.023600439229,0.957715750674,-0.752853168642,-0.904056149962,-0.521348360848,-0.102427328628,1.14436245033,0.953821284913,0.684338849068,-3.04926569045,-0.988713561291,-0.647172735291,2.06456621368,-1.51419338497,1.09254309037,1.85843252419,0.0707977765764,-0.484884769816,0.97488437672,0.580394905971,0.409057022602,-0.918286926917,1.49002447824,-0.0335696534735,1.13770390938,-0.568433775439,0.195666186229,-0.990066661832,-1.22317686028,1.62910758162,0.616227464226,1.29441471518,1.00408880787,-0.411155037622,-0.640290366499,-0.194827093608,1.03767810859,1.52444065052,-0.591379486162,-1.01233455495,-0.581589060684,0.658581129043,-1.25303486308,1.99144745219
1.33439308952,-1.48250191274,-0.882116126686,1.08441402208,-1.50015799071,0.234663925823,0.180024618209,0.102261519097,2.2878062041,-2.20615819823,0.984112672151,1.38309735287,-0.887429582421,1.12855451139,0.453392426086,1.59785797021,-0.272053082591,0.440576716328,-0.534727665187,0.211902366561,2.96281064992,-0.267338598022,-1.22147928093,0.767267803247,1.89951847807,0.502158401367,-0.751774688063,0.380735737429,0.991032766794,1.07137425382,1.79642784591,1.54690208805,0.0675480230033,0.715958447477,-0.7684577437,0.453547109962,-1.15791557261,-0.599172306202,-0.304354840588,0.824333430904,0.534742001736,0.750404146145,1.09398717959,-1.42821415295,-0.083657731309,-0.647172008249,-0.0835003877992,0.0778416094658,-0.787323406973,-0.272180705409,-1.10428922838,-0.383643139452,-0.133335385288,2.0635662806,0.446170627603,-1.01811797516,-0.219974240114,2.12421426959,0.694399789675,-1.09738107546,-0.314505898254,-0.177218163658,1.33071393545,0.148857494164,0.351815896292,-0.748798675099,0.669819623602,-0.329658359077,-1.31529016675,-1.25244417822,-0.938654828243,0.726381910065,0.431614666056,0.418819862416,-0.509830393513,-0.0831586841221,0.769014923916,1.30917275001,-0.0983442366503,-0.686146447049,-1.11275982885,0.156321862942,0.257371550734,-1.73257311115,-0.27305996223,-1.26851577467,1.25731714602,0.848714366244,-1.01360136544,-0.00471337342432,-1.39207859513,-2.17089186146,0.601010680425,-1.62327490045,-0.523015659665,0.00545100851597,0.268085049555,0.410540044451,0.0123655995503,0.620027587957,-0.539072173835,-0.203679838598,1.43070566353,-0.820407984706,-1.73217314004,-0.225848683787,0.989646676894,-0.478100726556,0.786091816513,-1.04411068505,0.50910968735,-0.724002228093,-1.35841256287,-0.444927804994,-0.420819925224,-1.54150720879,0.442651772017,-1.57621899373,0.20043823431,-0.201243346044,0.685385840163,-0.723787516433,0.248563674156,-1.58512977772,-1.12214913408,0.149955385974,-0.33952365115,0.322717512953,0.955512769905,0.0754940301219,-0.401286931475,-0.071370315055,0.899691734552,-0.011370517153,-0.683999363696,-0.260902653905,0.286474212395,-0.491367704387,-0.530335037039,0.501322151466,-0.151150332058,0.0521384522581,-0.0884618004992,-0.295181576125,-2.00816688769,0.0460832236763,-1.42112364112,0.45044413178,-1.16851269193,0.526762246387,-1.77731815774,-1.54632681565,-0.791708007236,1.16568100906,0.587817353771,0.134293247276,-0.540837363313,-0.655733107637,1.22544378269,-1.26594046939,-0.0180576226734,0.972054503924,-0.52823534269,1.30799485041,0.574171784664,0.474562499411,-0.661628538134,-1.01281471363,2.20530972029,-0.116728916867,0.646000374559,-0.630866138121,-0.091375401612,0.455040578882,-0.810106700976,2.29098326331,0.878879911731,-1.058691895,0.206298129276,-0.317334235988,0.320931231409,-1.04202439967,-0.0389585206505,0.947714070893,-0.880346542932,0.301485260509,1.54951443418,-0.564575628365,-0.50076354084,-0.417258597945,-0.729071926921,0.633922352374
0.463472435227,-1.49066417839,-0.190822772726,1.38434787038,0.891485855706,-0.16576397159,0.627796041985,-0.837773547773,-0.0621371087431,-1.78680965466,0.19016149031,-0.628124586274,1.16681954653,0.0984546533301,-0.330285119853,-0.648158262944,0.43990056699,1.18299497129,1.65207870623,-1.41895724223,0.353199562453,1.78430656866,-0.440301571686,-0.771161572285,-0.68285347475,0.799488761904,1.02352798577,-0.357011109712,0.305045983816,0.27156943646,-1.49579359637,0.602107306374,-0.378169320927,-0.0490654245922,-0.489711557383,0.543792454233,-0.904524171557,-1.73145518637,-0.181134591362,0.452029051091,-0.185012419402,0.868894243716,2.30751115653,-0.442355713564,0.503400514327,-1.27123258953,-0.389309914415,0.53281509458,-0.484576737464,1.02540035229,-0.326124479773,-2.55201756634,-0.656704538906,1.13312347099,-1.43065631023,-0.0832200396637,-2.4126975798,1.12811585,-0.962158262046,0.885201547947,2.04803003563,-1.34437597868,1.15557357839,-1.11242164216,1.49498465802,-2.3086442876,1.01381617321,-0.711433361458,0.884702304899,0.362201473118,1.61297013736,-0.0528128046807,-0.589923884555,2.14609562877,0.0408450574227,0.0630942438939,0.084458122885,0.30872514787,0.426631100651,-0.945938436489,-0.253740759022,-2.54972267624,1.06834376119,-2.27813794947,0.682836894936,0.252550677696,-0.302271846585,-2.06911144573,1.74188473016,2.06321851452,0.545364943664,-0.0145313648322,0.711385738454,1.26635229389,0.747009865143,-1.9089864092,-0.272501463273,2.40108041132,2.81783970641,-0.000338197985684,0.146195371962,-0.263974471169,0.390362839381,-1.76641375158,0.170596892316,-0.104242904025,2.50153662535,0.546301706703,-2.23908744697,-0.37079528142,-0.145220984291,0.317621995775,-0.65879412452,0.37536103442,1.68126580556,-0.111391030417,-0.986731984692,0.63322545403,0.926894345474,-0.250561359204,-0.0686108615264,-1.27012056768,-0.859100038441,0.511640626244,1.23990734808,-1.58041443733,-0.358073396639,-0.47185577508,1.5473056722,-1.10655985826,-0.347279976471,-1.03566337161,1.35034807981,0.0660291659272,0.204281770584,-2.40396068092,0.00699540425394,0.646895856043,-0.735594159161,-0.58065716047,1.08126939214,1.60945612271,-2.12756115771,1.65990217411,1.13501742292,-0.248385132205,-1.23983268218,0.170671255924,-0.959162658643,-1.71637575147,-0.930113886321,-0.0364352816308,-1.3385402823,1.34341918798,0.682628940965,-1.23805547421,0.0891007222029,-1.84048533216,-0.724582958935,-0.902611307816,0.464893684634,0.492732883473,-1.89642324209,0.988681591584,0.944510681855,-0.14755299879,-1.00002318927,0.764271930035,2.19147816225,-0.0827524276017,0.143317978566,0.98099571043,-0.96610837329,0.34765953495,-0.176850668023,-0.274638505598,1.76194575213,-0.688658059965,0.334586086675,-1.87243103415,2.67992551448,0.429959779999,-0.599716513534,-0.0291169282583,-1.288426516,1.22850462702,-1.82081998524,1.28628666313,-1.17255909489,0.541915165732,0.0920770355829,0.586693107088
0.384426904976,0.442991692643,0.0910066586026,-1.07700535386,-1.29884401419,0.520531618377,-1.51310645252,0.619821101513,-0.684308819338,-0.478434950953,-1.16326542282,-0.17735839174,1.51064913303,0.124994445914,0.597431977272,0.15678669701,-2.03234135901,-1.0027439924,-0.95794670166,-0.123169239151,0.5766344206,-1.89070460563,-0.171104319334,0.534225240632,1.10024733725,-0.384390294223,-0.151562271301,3.08965796782,-0.243812934575,0.371730747491,0.31918076718,-0.130336952483,-0.109094439946,1.31460710804,0.966344652239,0.383227018165,-0.338716471996,-1.2741135909,-1.17268996759,1.59939102928,-1.06796860701,-0.401766459123,-0.944824524519,2.10405377524,-0.492368851588,-0.274160901199,-0.698436177716,1.5379427121,0.0505974082864,-0.775310251695,2.49633828488,0.0463521002066,0.855798085298,-0.203123684468,-0.990564260448,0.00636403763447,0.221600196637,-1.72220711368,0.734727985115,1.23351940684,-0.588613311986,-0.712936476381,1.53460362527,-1.17854203521,-1.31434502295,-1.39476332862,-0.399195374741,1.50057931331,1.14016921706,0.711571858185,-1.26802806062,0.110376997776,0.389539096382,-0.730930265342,-1.03934432597,-0.790786463619,0.313105599855,1.04792564477,-0.106714477389,-0.439728750755,-0.612181519126,0.132883085569,0.579291633523,-2.03631410618,0.197375891256,-1.00531449756,-0.415307929911,-0.59531904465,-1.72530343636,0.200234395033,1.14277958188,0.698760048244,-1.01866335673,0.325261791597,-1.37682898465,0.274034273325,0.925023153306,-1.43014151146,-0.119707269788,-1.80256370368,-1.06171401546,-0.78884917186,0.191983886189,0.089965512946,-0.508513347784,0.371267400031,-0.836240496426,0.308695556189,0.766572892819,-2.02702741775,-1.54680976448,0.206929656913,2.22475794061,-0.750466636248,-0.26117577221,1.65325694885,-0.0542784318909,0.841244207735,-0.240777892328,0.133085202816,0.427489502522,1.29566335325,-0.940184429296,-1.32739069103,0.627820063147,-0.847666761797,0.295386664629,-1.92023880069,1.71964264897,-0.157150516118,-1.53258753504,0.156359245659,-1.65067514874,0.940261277908,0.735992853778,-0.343353539068,-1.92190032749,-0.478090103039,0.646275177462,0.612860819899,0.638526085975,-0.0963545862342,-0.115662057369,-0.310593190871,0.30981522698,1.74301366506,0.874671570014,0.228258510044,-1.17069344533,1.28341211814,0.676055585601,-0.18002879007,0.0920677573411,0.648034561661,-1.47180412334,1.80144766356,1.16757849926,0.249795550249,0.84358222513,-1.25249444506,1.38165414423,-0.194347310892,1.67882356344,0.618173142565,0.623865698261,-1.78241026398,-0.256111546438,-1.78419529778,-1.71428772993,-0.588655816991,-0.0644978335542,0.215826897584,-2.92766060079,1.06423594246,-0.155935530709,-1.51742783861,-1.20543592538,1.21093614994,0.546650884357,1.69233662592,0.85309892737,-0.637924639998,-1.02931430778,-0.202674742965,1.6051484226,0.620996238602,2.40655303279,-0.0372570246568,-0.360315134663,0.855527767705,2.64711539235,-1.85308877557
-0.65882479306,0.106838368713,-1.9404554973,1.25898218226,1.03130302944,-0.325194336815,-0.434376359597,-0.862556108903,-0.355312414395,-0.129774283834,-0.403986814305,-0.12523285272,-0.0839742031443,1.37752347268,-1.11141064713,2.27362084968,-1.03342075472,-2.97682775372,-0.917975080007,-0.645414704826,-0.352409334865,-1.70632720999,-1.73382361441,0.343227498812,-0.887555764692,0.240947868785,1.56509449993,1.00155918924,-0.631102558223,0.986648448172,1.13406494505,1.1396661922,0.215514258984,-1.30227244474,-0.194444099503,2.28591595321,-0.571195702239,-0.17989637402,0.454642383899,-0.382673238154,-1.73972267848,-0.250221522381,-0.991774408189,-1.30731878097,0.476378202569,-1.60045021586,0.589621556926,-0.751842850685,-1.06950363871,-0.605561273221,0.487963789769,0.140626509972,-0.686991987388,-0.519104009966,-0.550620963637,0.885207162155,0.639478072564,0.946324581221,0.317079813596,-0.923684876452,-0.0336064621921,0.515756866008,0.616780587222,0.259853844358,-0.595480865565,-1.1821719068,1.06738969093,-1.93488214691,0.906198560456,0.143903832748,-2.35040312504,0.596076238862,0.731781109476,0.27748285389,-1.48059648112,-1.15232718553,0.775429445783,-1.76954712031,0.809958212536,1.4360764954,1.24802851401,-1.07560137714,1.06987187873,0.356512954369,1.17601058592,-0.784036930612,0.869182886786,1.33045165965,-0.187183978277,1.395598252,-0.453316044121,-0.951373154471,1.21141530096,0.72933979061,-0.890886646387,0.0298491839771,0.0821923317629,-0.154144226683,-1.66116549902,0.980432154425,-0.936836465283,1.38112940662,-1.1059852571,-0.0205660569002,-0.0406210771383,0.0134586289882,1.09215109429,1.01886179925,-1.42682486617,1.02470054914,-1.40615297171,1.03421485416,0.504758510176,0.898680690117,0.365678277238,-0.628493317307,-0.532568791299,1.62188607897,0.198437695471,0.168251422282,-1.25033765792,-2.71976256143,-0.623284903183,-0.13519816291,-0.981284819607,0.407416925445,-0.307943427225,1.02321103087,0.13026141661,-1.16111122033,-0.603221491439,1.04091222482,-0.56286080136,1.0339805695,-2.2369403314,0.151913489112,2.60610600495,-0.0326576566191,0.304416885526,1.09968925385,0.194922944597,-0.178871337947,-0.982544022817,0.152262636353,2.00824633056,-0.0709230911245,2.62931197847,0.073556189162,0.282067144551,0.406049737647,1.69783075488,0.227735340662,-0.0235401269715,-0.00991295676227,-0.326292587579,-1.02608380386,-1.00140434412,-0.779805460049,0.86656425235,-0.283067694806,0.391109253394,0.0655062894551,1.94812946132,0.737731629812,0.141245053323,1.02974560065,2.24700529371,-1.67521588535,1.66585213728,-1.10792038448,0.572272661502,-0.841102557353,-1.36961748808,-0.234253337962,-0.573508847354,-0.100137504406,-1.95578009714,-0.49777426004,0.484264440075,2.20720172698,0.272129236559,1.54037831796,-2.32358428641,-0.656435464694,-1.35343262724,1.53629831693,0.600903585332,1.06407776207,0.407630829195,-1.27369964325,-1.42692252137,-1.86297631955
0.105326849879,-0.247090660215,-0.24380795988,-1.04215126202,-1.15273919147,1.8236310517,0.206170906295,-0.563321268042,1.51464595285,0.934595857943,0.544842159796,0.49023563029,-0.192356848926,-0.741097059648,-0.383396316759,0.769382014864,-0.270791107446,-0.000730449596762,1.3362273409,-0.167659579982,-0.930405172625,-1.09033369901,0.421790728761,-0.078771312441,-1.83831836494,-1.38857788921,-1.46197572976,0.0405312682444,-0.471457846932,-1.36932197679,-1.34224859677,-0.150258532784,0.804786422136,-1.24926560707,-1.7045500346,0.927690145191,1.07986781237,-1.09047043308,2.40033454943,-0.443508499911,0.254243991778,-0.216221990545,0.4571801374,-0.417387097796,1.70996106605,0.451720125894,-0.450827292389,1.44614676588,-0.0131887961604,-0.560436036105,-0.712206543898,0.577349246573,-0.770633342122,0.0323182056595,0.708620496951,0.456284691432,2.96315352695,0.589637205696,-0.217129101438,-1.41210763851,-0.962326235519,-0.450602154738,0.167930776949,0.481927746744,-0.373925498188,-0.94304390783,-1.49230485159,-2.11264830932,-0.82789523214,0.890568581965,0.670035894801,-0.984444339058,-0.645820094491,-0.579818095303,0.749400791137,-0.0251766930199,1.02336385818,0.427445414658,-0.0663387927524,-0.82835900554,-1.32117436101,-0.0758599974028,0.0718716322302,-0.49583117338,1.10468229091,-0.721725572724,0.193668499418,-0.884072898191,0.373106374303,1.65814057094,0.340070090345,1.14370430648,0.133463754087,1.27767353519,-0.863946316427,0.719379000186,-1.18249434302,-0.630760153767,0.923309799592,-2.09969014829,-0.73340347054,-0.628608504294,-1.03019566116,-1.6904350359,-0.31885863827,0.0325449299946,0.745704025173,-0.99958801729,-0.955332101557,-0.252423622322,1.10470274022,-1.27439553315,-1.83052433495,-0.641250257765,-0.817947421006,0.560647392003,-1.39892522294,1.30838022757,0.0483190402446,-1.15733692535,0.0611439565618,-1.88044490181,-0.274694128142,0.155832111369,0.614568304824,-1.11868720631,-0.486794815727,1.88445186019,-2.84238621012,-0.706355300877,0.153072582095,-1.05843403474,-0.0818674088576,-0.7088256503,-0.120748009495,0.639554584661,-0.46373230703,1.22576669613,0.215778209576,0.084110135343,-1.20108169228,0.0139574381671,1.09383964781,-0.0189189948996,1.47707859138,0.387490610106,0.644606473277,0.290184865998,1.00608946041,-0.615788911464,0.818897184572,0.509321064377,-1.91032145667,0.2013389965,0.296570401811,1.65981638533,-0.521545945317,0.531146325861,-1.07747168317,0.82512817128,2.73364143912,-0.885397074786,-1.64311331427,-0.412827953127,0.916586812036,0.186749987377,-0.25149896232,0.709776086629,-0.55008790352,-0.0217383781026,0.155991421113,0.383643487753,-0.448546463452,-0.13092225201,-0.809799371962,0.0352634497396,0.153593258484,0.603814445468,-1.81496362607,0.435521467572,-0.035140376653,1.25360685762,-2.03969820972,1.87171683481,0.384809675573,0.256439157083,-0.503431543045,-1.27432110872,0.743895866127,0.0266373746629,-0.207252578981,1.3280540817
-0.455763895176,-0.189751904374,2.53474239371,-0.807048433411,-0.794927106905,-0.935107958794,0.17536423313,0.129971772955,0.762810483501,0.332198494812,-0.643622506877,0.118615737564,-0.188440050464,0.75084879856,1.45920596519,1.08768534541,0.963150711713,-0.460312520868,-1.44930003415,0.33876574294,-0.586281600269,-1.46561097245,-0.200017998227,0.120344606788,-1.23070575059,0.0888959610259,2.28431479973,0.835730730445,-1.64452324988,-0.966228182095,0.808694608077,-0.352233248621,-1.33130796485,-0.749616555107,1.21817420477,0.00548267351341,0.419786212809,0.689305521602,-1.19573889462,-0.466756022558,-0.23540412384,0.984222394885,0.733038099639,0.48999465296,-0.180601196807,-0.0225660516127,0.925103615306,-0.167378846154,-0.481821610443,1.07135621324,1.14070851954,-0.0643334723483,0.718107868754,0.905690832904,-1.41497684873,0.348724236125,0.828894126943,0.79908689114,-1.30003839884,0.572993897239,0.451614113715,1.69579146742,-1.14264761245,-0.770333556327,0.309984367792,-0.516976353491,0.34594744158,-0.502434594461,-0.575289173321,-0.129526432139,-1.28804765579,1.38009689267,0.366210941037,0.508965041372,-1.30373232532,-0.394372964384,0.680139518337,-0.0428323425112,-0.981804445232,0.916786038778,0.251102542258,1.18448500963,0.569101667962,1.10294302502,0.175135253801,-0.487452765342,-0.643219197399,-0.257624363676,0.299826416131,0.340462580532,0.320385538677,1.36967927902,-0.475819222666,0.52973708745,0.168693137211,1.55783658297,-1.49207534241,-0.0861981868496,0.194239818749,0.978333796733,-1.1491832871,-0.351635302549,0.384938189196,-0.996290580962,-0.983863113711,0.554224569508,-0.176026126464,0.632453864936,-0.0444616268966,1.48490097525,1.40702991829,-1.26719553934,0.567004444983,0.414268910933,-0.735656440627,-1.43061224225,-1.63186861527,-0.187847506818,0.593260468472,-0.870934599251,0.853075287353,-0.810242698078,1.35578021544,1.97563069688,1.47762460651,-1.1339869791,-2.69739166575,0.653281560185,1.38113441089,-1.48708267118,0.999324103473,-1.26204618866,0.193896273663,0.0816050449337,0.550593816962,-0.30737222998,0.115607194596,1.90032478977,0.837089793696,0.030675340541,0.663533769065,0.388691256089,-1.34523257342,-0.419461339926,1.28211353928,-0.538262238213,-1.57733880248,-0.84987482042,1.04261880387,-0.597308027905,-0.740053554712,-0.347508451335,-0.254470533957,-0.295671685246,1.59207249658,1.7324224778,-0.968149695694,0.655761826047,0.683540367871,0.780310144478,-0.528403716597,-0.270113945482,-0.835342973076,-3.5287998656,0.398186923773,1.41655931972,0.488493155798,0.0741707944079,-1.3611860255,0.177065888823,-0.197362630484,-1.2706172883,-0.381554532137,-0.182435427153,0.698886443104,0.912778298781,0.0163667030572,0.649910146681,0.0302030603569,0.691692619402,0.10253389532,1.8743901366,0.567766003695,0.484619472017,-0.38714118176,0.693065932909,-0.933400291782,-0.752986682088,1.43692217338,1.56212719335,1.4543134816,-1.93194149458
-1.12828732431,-0.313290433366,1.64791467169,-0.0946129633438,-0.0704421558525,-0.163768069937,-1.05231043161,-0.349848623053,0.500553377286,-1.09467658764,-0.0208847023585,-1.44239081112,-0.186976803995,0.841520795159,-1.15615582727,-1.91557862298,0.67839717068,0.49106633226,1.2338864782,0.244711847829,-2.19107722776,-2.9930859837,-0.239620707216,0.710524278742,0.406401627181,0.535980313386,1.22701460521,-1.9415728594,0.139574164172,0.175245746674,0.980016775165,0.302745327687,-1.20289091231,-0.0658430103561,0.41662375491,1.10936743244,0.764049376336,0.0877343023849,-0.392531182125,-1.35619466653,2.26138625154,1.03526137639,0.485972117112,-0.481356686937,-1.84618594378,0.15167474807,-2.23475677397,-0.253329858382,-1.77195889008,-1.51632160555,0.239648070793,-0.75453025322,-0.616148269011,-0.983760029446,-1.61250898377,0.081947952154,-0.193714447962,-2.12342554171,1.01247136126,-0.547512799267,-1.31682748108,1.05830993012,-1.53653329733,-0.0950048757186,-0.087292420601,-1.18968380166,-0.0545720656399,1.08504497395,0.998779279262,-0.856536946122,0.552100791005,1.42948139833,-1.42067994081,-1.4108008108,1.85652443504,-0.045744986097,1.53993432145,0.239337676398,0.60868665053,-1.73577675788,-1.36586910929,-1.16911000819,0.0211694299632,-1.37747810781,-0.967148084215,1.47527002145,-1.23759716164,-1.97738410929,0.603296167248,1.26796601259,-0.77179118746,1.23764665875,-2.72734838543,-0.57304599808,-1.81442030081,1.18476568376,-0.59312474428,-1.23515300189,-0.14756710279,0.648742112036,0.722055203128,-0.96256815643,-0.0535996378749,1.59110430418,1.56818383201,-1.19280049291,0.910357225165,-1.42838708042,0.557213993532,1.00479815267,0.156141769738,0.343652188922,0.674165128808,-0.556972694542,0.202749539244,-0.163754489559,-1.20521010943,0.560916564255,0.126870310712,-0.0732517322389,-0.38625649172,-2.31877906005,0.50603172399,0.0784721739649,0.424022866078,0.809393322473,0.438696291955,-1.83371786817,0.237961617005,-1.42347047842,-0.0567341415078,-0.0187497618249,-0.502212047177,-2.52145023412,-1.48030067248,0.649820708517,-1.20443744347,-0.140548828182,-0.383264488898,0.655414753718,-1.91982790692,0.876528358647,1.53864680206,0.272974065231,0.756939251062,-0.185248403488,-0.479182474025,0.508501783137,-0.167475045497,-1.83364755697,0.746956898161,-0.35525223862,0.436254862424,-0.0380641360388,0.856729719213,-0.406927207983,-0.57690509494,-0.29795863657,-1.10907658361,-0.0341975230766,-0.273677099678,-1.11366663613,0.525241986795,1.1771140175,-1.13945512716,0.396948679858,0.257783146571,-1.01840401988,-1.53404455129,-0.310183022303,-1.98589302927,-1.25086921897,-0.319156744193,1.92359004969,-0.13233143189,-1.05755894254,2.55453760136,-1.27091576483,-0.773235433302,2.45893045212,0.208012795416,0.0177124665948,-0.279622571242,-0.384762999481,0.173777553194,0.408657268443,-0.90629714636,-0.690383975926,2.917128545,-1.44062996288,-0.196989419052,-0.275791918556
-0.000290520405685,1.67096440113,-0.0629266532843,1.23800682633,0.44767591924,-0.29059982349,-0.128243601839,1.68856716544,-1.17680929359,0.0333620127741,0.157108837065,1.07528164942,0.0848734310204,0.00321655290354,2.46180857491,0.643250908046,-0.0424299927323,1.35789988869,0.145931640016,0.438019537559,-1.47623241806,-1.01430890888,0.375332576178,-1.52136158761,-0.946026389919,-1.98879579593,-0.348618239687,1.38641055728,0.429975422797,-0.343370752812,0.67777402651,-0.413655371076,-0.150837116876,-0.858491682907,-1.63701209794,0.503198502193,-1.30229173002,0.0201963219537,1.17367046617,-1.63531142849,1.3615656165,-0.274364036797,0.156899730033,-1.50423871301,-0.719567998875,-0.206184288712,-1.0541707649,1.43522124741,-0.426966384748,-0.39863112931,0.481655938473,0.387023041622,-0.425369336272,2.49577532728,1.30166750773,-0.0522329151795,-1.76077080378,0.637573132647,-1.17256069394,-0.654225766965,-0.514308655855,0.825585610432,0.682739914523,-0.758207329375,0.0744125195956,0.592652809951,-0.500559016219,-1.26122151184,0.255879043961,1.60990322605,1.25338724312,1.79362259775,-0.225098942099,2.45797395005,-0.26289762142,-0.611794492551,1.09060355942,-0.636866436141,-0.680363755976,-1.40012069082,0.890264405145,-0.305840503175,0.069342078124,1.73977750834,-0.299094143628,0.22843561308,-0.952999944765,0.149320888408,3.12347898215,-0.535344965402,1.16966886028,-0.972601441434,0.501764157266,0.216178787711,1.81511271216,2.55557980942,-0.258377901048,1.74937697811,0.277002740602,0.321776690805,1.08303828973,0.823312038306,0.0233263225442,0.91464030071,-0.593073756744,0.675894224782,-1.61816997787,0.527754917628,-1.28254253942,-0.858510708639,-1.03525539391,-0.204866293349,-0.126191469072,0.246914175105,0.0495191845663,-1.54162726831,0.463482004498,0.411238246506,0.0671026676847,-1.19144737267,0.327130752606,0.213926748366,-0.750863635096,-2.19091718889,-0.331566912208,-0.490417132757,0.0104687356376,0.807296981495,0.980483814176,0.940004946014,0.457337059203,-0.212634834435,-0.202097411901,0.682904024537,-1.0806894603,0.616171185498,0.995627323524,1.44825219016,0.347621998314,0.106525630804,-0.00444697730954,1.60862393483,1.03414372403,-0.0568763021308,1.31022984903,-0.317294671756,-1.95953397294,0.299858023077,-0.128651966002,-1.31144592589,-1.32472544224,-1.45161603157,0.10058271357,2.060755505,0.0646189931918,-0.434238494383,1.25004486852,0.615933408155,-0.360669972004,0.0234010400628,0.607624977598,0.0788361103617,-1.25984359689,-0.24264749303,-0.592850191978,-0.295788874649,-1.38083033523,-0.180392711706,-0.877592156363,-0.448573261925,1.60823754388,0.136598998764,-0.172783986509,-0.756668863332,-0.224568636044,-0.0986640048217,-0.741676753085,-1.29764467301,-0.483581202506,-0.5217685069,0.210661788771,0.0937425105556,-0.254877022712,0.136475418671,0.0985279453699,1.5901233459,0.278720698779,-1.29487418406,0.661566089532,-0.827618147938,1.44200173661,0.793411708373
0.376458362761,0.499461271899,0.414751798994,-0.291172016526,-1.80198324786,-3.06916373588,0.938559933317,0.785432662546,1.32601834281,0.21379648497,-0.269431805609,0.704329421709,-1.35878335784,0.654480611139,-0.248698104869,-0.646368621129,0.217922148495,-0.125992149238,1.11967327614,0.0433129786351,1.05402955655,0.419083005794,0.0985486905783,-0.594072681055,0.869434159175,-0.257896330262,-0.216784701805,0.601633629952,1.07620193822,-0.958597150172,-0.95348429881,0.503720898937,0.828870908315,-0.633525306722,-0.0954698046484,-1.3095797914,-0.935825116012,-1.74621650799,-1.31745763848,-0.0932364552014,-0.585041416508,1.07887499014,1.23786673246,-0.185010630683,0.745285403141,-1.22107303859,-0.282470857047,-0.208504005809,0.0514120420808,-0.165118278896,-0.0142517693872,-0.0281396445714,0.476717801558,0.612032779618,0.355474306238,0.307172271082,1.12745370955,2.85430755343,1.42184663644,-0.349046657883,-0.358636476021,1.14518029258,-0.162515610185,0.0308703841679,1.48685712504,-0.0532752501835,2.76685311792,-0.19064091773,-1.34163479313,1.05659425393,-0.605023994642,-0.896834232336,-1.36810516678,1.06903379817,-1.40145486747,0.0168291558581,-1.36054794524,-0.188869172376,0.174107345721,-0.283891284348,1.15360494057,0.842701082125,-1.10815224175,-1.56220314238,0.216715141026,1.35158107516,-0.0896630916036,-0.440204739364,0.264453341624,0.958443573689,1.08494743376,-0.163805775638,1.58325655663,-2.62396883061,-1.22399014124,-0.262648136343,0.708066865326,1.14639762286,-0.550225563334,0.137593734686,-0.242264300287,-0.621585584458,-0.335698556344,0.640952761998,1.07840065868,-0.381181710254,0.410217350341,-0.893230311211,0.631892705822,-0.973086736211,-1.82041961617,-2.09965796585,-1.49207663235,-1.77119219247,-0.980220920604,0.222180879181,-1.40909992492,-0.823432368251,-0.944270201771,-0.389043551034,-0.351911564497,0.425708074832,-1.92051388174,0.81709244541,-1.31649372298,0.436585219579,0.230576837962,0.336810637168,-0.578310946098,-0.341317747114,-0.566878047533,-0.480279903806,0.728616392726,-1.28725659639,0.892954495993,1.57074308675,0.456944519547,-0.0453521375047,0.640727216611,1.66665139599,-0.987370894023,0.491114764148,-0.877035761745,0.280044868517,0.913551064708,-0.760372859027,-0.33626401645,-1.10890922479,1.73672185706,0.26245022816,-0.721392311453,1.57313135894,-1.48206415987,-0.878003289901,0.00642491749157,-0.45215782903,1.04473148364,0.0304226198884,-2.02465189317,-1.17503373941,-0.202700921802,0.236312906306,-0.388056750147,1.03731336611,1.5941974622,-0.901953809344,-0.392296367276,1.37993926863,-1.57968836223,0.27172789958,-0.762508658115,-0.0719747050657,0.326774200351,0.122489117705,0.11359729994,-0.00707174079728,-1.97298503166,-0.27957449916,-0.825822047406,0.0987351770412,0.104620602839,1.28491160846,0.664301941206,-0.671796316271,-0.549945539338,0.645245459902,-1.28604036262,0.857771083229,-1.0410282766,0.590679629878,0.937360981284,0.47908238005
0.387841048217,1.05281358232,-2.08921226326,-1.04396569226,-1.2780529453,0.715668752233,0.771833685571,1.30269129282,0.327496616743,0.708324158031,0.451350365747,0.74696669669,-0.712599133326,-1.23604325225,0.337916320274,0.0954263402507,-1.12391782051,0.90984254321,-0.542016878535,0.407079570564,0.917795610157,-0.683028662708,-0.64996711106,-1.41240709374,1.18263267912,1.41488076187,0.21154001876,-2.12109749102,0.55932229917,-0.739577423671,-1.84206587996,0.87522381349,1.7632594292,-0.068288033477,-0.5576638346,0.904942794837,-1.24165623185,2.17044136443,-0.478205461155,1.0261616528,-0.505449802308,-0.253842466172,-0.0340635288207,0.47732320367,-0.190863912926,0.313874660175,0.964325183319,0.457948462451,-0.787107353979,1.2242501941,-0.284403384836,-1.88248803785,-1.06489357787,0.403896619025,-1.70659121572,1.41316145918,-0.297586458123,0.259234112791,-1.42364582187,2.15876666123,2.45042749351,1.99080746721,1.21643643833,0.991159369278,0.0207929375219,-0.0801914510529,1.60554589888,-0.332889852466,0.380116454745,0.4787701221,0.765860676528,1.57783553482,-1.38300289373,1.50481825058,-0.0672197462181,-0.0635544512731,-0.149708972032,-1.15171858497,-0.839077910528,-1.75663238763,0.606745355901,-0.727437365052,-0.871561620602,0.328044919924,0.53680601187,-0.218198447637,0.841488504709,0.989193403748,-0.164766524179,-1.46443887363,2.74652954475,-1.21609966129,-1.5919388557,0.622149246214,1.25314552096,0.252690040266,-0.668005228078,-0.524472203788,0.670358369585,0.631574076931,2.03307124702,0.280002491711,-0.377796135453,-1.19235870008,-0.316380982514,-0.864215955004,-1.09093807738,0.231133637428,-1.61949716029,1.22692207469,-1.82594508722,1.20797181141,0.483172064509,-1.11097268367,2.21082079369,0.0275377980857,-0.985357119635,-0.234661292519,2.3752176246,0.960639261322,0.574164577506,-0.24398144732,0.994404576038,-0.209913407676,0.321840676619,0.0559340633577,0.738937249907,-0.438063802606,0.17965058403,0.944017562012,-1.00971369446,-0.581782838235,-1.66281714172,-0.623004589376,0.189588268237,-0.783789974305,-0.428632533541,0.686345308568,1.4052496142,-0.240110609095,0.464964499264,0.765219517186,-0.908461438061,0.673555113113,-2.00716983889,1.3375339922,1.55895696513,-1.45751589994,0.979556535831,1.05893723182,-0.119023494741,-0.524013074693,-0.513778458381,0.961664015164,-2.01555634822,-1.51926526616,0.234820734336,0.749493733766,0.766482290288,-0.0192892706884,0.0594949043939,-0.706319272972,-0.465218131055,-1.57548718016,0.806553554593,0.692552754589,-0.75998990005,0.128121848509,1.35365298848,-1.98520243456,-0.675627765316,-1.13851774112,-0.627358192521,-1.59381236263,1.02080361986,-1.16934700773,1.51278974212,1.10426039419,-0.654060593549,-1.85931808935,-0.204252566967,0.981601794112,0.802720390761,-0.0242930492703,-1.26285036353,1.08620580072,-0.0309232765878,-0.852229130055,-0.0498633564798,-0.282585058883,-1.76840037273,-0.256928842421
0.991591121936,0.664504394529,-1.10682277634,0.562406287495,0.738197716199,0.0995460980549,-2.66096832279,-0.0819147384459,0.609032261897,0.0325607484427,1.39221885185,-0.158055040873,-0.943967870363,0.978361127105,-0.46319051667,-1.48346385542,0.429021002726,1.26382336303,-2.54786747765,0.0150454350988,-0.615870493066,-1.45882746634,-0.897557697073,-2.2132862516,0.0795428166757,-0.0929049831175,0.241664431362,-1.23559993926,-0.139672880345,0.767986554376,-0.60269107733,-1.04770973413,0.744874490302,-0.665680468128,-0.546437252865,-0.00754848032393,1.49261688253,-0.451589729292,1.61921745623,-1.32568337631,-0.565196038148,-0.247016193019,0.282654063109,0.26850976651,1.95872572412,-0.861172943335,0.371464428256,0.735317526375,-0.355641323829,-0.0858787807405,-0.841213233607,2.03381970972,-0.76240838517,-1.27093830859,-1.02941562656,1.88190154117,-0.204654495824,-0.139494442652,-0.548675267154,-1.15832712536,-1.74077949494,0.929853929352,-1.24716387035,-2.24364654566,0.0922952733001,-0.592304819515,1.04224197193,-0.441306060065,-0.887306410313,1.63956142242,-1.86240317179,-0.799915796731,-1.08772980282,0.394213203017,-1.7654231025,-0.929907083504,-1.58967426084,0.0275644876817,-0.829804356284,0.326219420357,-0.96403496302,-2.16740354349,-0.275047726177,-0.608825907996,-0.081715677577,3.07055892776,-0.257890243736,-0.67207593448,1.88149453519,0.456694026939,-0.646347298102,1.10019071255,-0.280441630327,-1.66756269663,0.573271370078,1.94009815964,1.59185276927,-1.15004128245,0.222446046702,-0.251000001858,0.172698709129,1.12399335344,0.191189837916,-1.74506062502,-0.1217076719,1.31532727346,1.28014700121,0.516318729593,0.0708750441737,-2.14089978971,1.03296542614,0.966288694516,-0.988934818798,-0.333706471109,-0.641076576724,-0.203013216953,-0.758989018168,-0.555197234821,-0.558616901824,-1.28710256718,-1.57096614108,0.0141412955823,-1.34557983044,-0.406059190881,-0.181045059743,-0.710287888156,-2.09974651842,0.162974373134,0.178039925471,-0.772743213063,0.45102574917,-0.798637067168,0.871251475649,0.744200635759,-0.624542080554,1.21568522678,-1.56606352195,0.709003997158,0.757897402916,0.441294725113,0.590855162484,0.856315463329,-1.35853581252,-1.09153341658,-0.727463826246,-0.389158108291,1.85869424545,-0.256873652277,2.05389240161,-1.47904670733,0.156844997775,0.100984764299,0.056361418958,-0.279839032492,1.14741202033,0.0455284065577,0.25013358616,0.548161146559,-0.0265668888642,-0.64688407334,-1.15319481376,-1.78639313209,0.645785789986,-0.887506297038,-1.01264285886,-0.76669106229,-0.842647292386,0.953123626568,0.74663038871,-2.529179943,1.00461944369,0.0587221431174,0.168047266183,-0.283775803615,-0.768936764036,0.259718916464,-1.04519592608,1.5449382946,-0.836274094529,1.67359350687,-1.77867726795,-1.32126695239,-1.16510446859,1.55514517046,-0.691640127447,-0.748666189795,-1.09885959924,-0.537748306458,-0.280495698357,-0.444247263587,-0.766055523891,-0.863063270044
-1.12508690593,0.889624826449,0.239952922439,-0.105527290669,-0.332922975851,0.0943347120309,-1.92321757831,-1.01632430627,0.545535872337,-0.616198436273,1.01157035591,0.996553374047,-1.01859437562,-2.57058860923,-0.406437266274,-0.0578265870075,-0.264487902116,-1.30106454837,0.386228957522,-0.368840535433,-0.124160690348,-1.69829820585,-0.936025921331,0.667322029757,1.4800922536,-0.854182565904,0.615240217888,-1.25920834939,0.663382682756,-0.92696103556,-0.206772042495,0.925044762688,2.350265687,0.210403602711,-0.437407762864,-1.2127905762,0.269520664252,-0.37343727263,0.811651576802,1.2371558186,0.467485840531,-0.989874576271,0.851675437703,-1.45750378556,0.21412918348,-1.39722314995,1.8425046571,-0.80528072252,1.78098730423,-0.706568073723,-0.060920037687,2.28912310403,-1.10651573946,-0.86262272254,-0.463505884591,0.584250842946,-0.377959597061,0.781916742046,-2.75041030103,-2.28831387319,-0.240850165964,-0.632979498905,-0.308371692698,0.106631805383,-1.57100537341,-0.310678284788,0.419072676087,-1.82723875903,0.18647327451,0.282069230677,-1.55067481734,-0.478232148496,-0.386488845898,0.817283257334,1.2095331041,0.504827617478,-0.530125746467,-1.33864331598,-0.0141009734625,-0.791684842634,1.37951395092,-1.16622315868,0.147867506604,-0.455829010961,-0.00581482177815,-0.803706940394,1.14299504927,0.418504074753,-0.166035266181,-0.19357709128,-0.207530668688,-0.706452600453,-0.474360297786,-0.670513969805,1.70115072052,-0.0392969772698,0.489070576883,0.591827223575,-0.425644631865,-0.41460358615,0.840336444741,1.0961734752,-0.194333543362,-0.705086166911,-0.329071620102,0.239143011055,0.542843529504,-0.692197463348,-0.523317629513,-0.770549774965,-0.170633798927,0.380178627866,0.677458267325,1.77972688932,0.320720780818,-0.97279579662,1.17426706984,1.65799492883,0.125589313148,-1.15140443918,-0.459737019345,0.0281357489348,0.275893950123,0.0996173841177,-0.0551899330608,2.30590065151,-1.80777587235,0.150326868033,0.992542169614,0.927156174718,1.01597204302,0.517531032071,-0.326110648188,-0.41321470939,1.16829294691,-0.176480325776,-0.482361939751,0.576682139637,-1.76126995179,-0.342982344172,-1.61584742667,1.05692053096,-0.433157438694,-0.304063897852,0.442451249942,0.233082969745,2.07856876113,-1.8741995438,1.95057591005,-1.68781438368,-0.33635317811,0.717326903952,-0.747478945648,-0.904184508147,-1.58932451636,-0.304337886941,-0.503367814262,-0.59464601875,-0.490830753751,-0.929651886397,-1.60782263228,-0.32092072203,-0.406478874916,-0.671389638608,-2.2255779243,0.447294249127,-0.568463952336,0.656747902897,0.993108907833,-0.726635093542,-0.639005483004,-0.0451952020048,-0.425498535414,-1.41581897481,0.184086437793,-0.787772216686,-1.10315267515,0.312056276934,-0.327473859407,2.20687126621,-1.76366228931,-1.53577273165,1.03287674691,0.123700245092,0.209354257837,0.104374879081,0.949711406606,0.103696074706,-0.565155579276,1.09734022539,-0.533594509955,1.58321990783
-0.687073304131,1.86816683271,-0.288544263107,-1.40561335842,-0.305481478374,-0.216462434184,-1.94038469069,0.226578554271,0.176319872058,-0.8452754865,-2.200332041,-0.115269777055,0.954883522942,0.138664636245,-0.706093995525,-1.15356612367,0.110977574562,-0.812614150713,0.269324317712,-0.481883341205,-0.513159226557,-1.27194048175,-0.30181987228,0.0443936464347,-0.562303950124,0.422066554856,-0.717678015174,-0.506248084136,2.14722342538,0.63756268644,0.429651067911,-0.107004180205,0.41868097976,-2.51772730733,-0.371130053104,0.342133720285,0.601341122399,0.830251797743,1.91971701463,0.613328723365,1.32426439806,0.802136915292,-0.620726483345,-0.495474689372,-1.37570606295,0.719743192367,0.681820232627,0.289415361499,0.549031488075,-0.410582793012,-1.0266096738,-0.975903702591,-0.0575725233881,1.33324418606,1.47193697876,0.0944460874566,1.36749273184,0.0935181066879,-0.811202429691,0.730354485942,0.115847061027,0.42786081921,0.584781427472,-0.786495225398,0.230557528792,-0.121596424959,0.760175591689,-0.371722489812,-0.211531356342,-0.677065117311,-0.408926027788,0.373249685049,1.24369738975,0.3421558852,-0.206067288144,-0.330346701437,0.214700228531,-0.325801042568,-0.0613619567538,-1.09915825875,-0.156397704887,0.00887564902281,-0.760901406569,0.355182429963,-0.15293827411,0.551347030013,-0.853468324939,0.295885151025,-0.024853525422,1.09919577192,-0.824859347745,0.540232884053,-0.159604130509,-0.818747692352,-0.279202222083,-0.188839992792,-0.368338159877,0.844634924427,-0.557786878955,-0.479594222456,-1.22597801868,1.31145295762,-1.12810745445,-0.851373401144,0.952632847343,0.107016988048,0.283762284921,1.91233326459,-0.652664347187,1.37670016561,0.0345280105891,-0.0944801701613,-0.766558880907,-0.892283800126,1.46898235086,-0.117422554695,-0.847160959626,0.41462784806,1.67400019692,-0.298944922867,-0.671590310233,-1.80447171049,2.11086129485,0.159067343865,0.517463369574,-0.125198305454,-0.170187599892,-1.10771356445,1.55377913855,0.92517047621,1.0492348163,0.0455339895994,0.13358800678,0.352810757159,1.18760836512,-0.218575072859,-0.935665203153,-0.0665151192149,-0.675987246097,-0.478208122839,-1.23344621724,-0.508405729344,0.332409805021,-1.10253237557,-0.761141646989,-1.12703366483,-1.7015102827,-0.444491698113,0.454317763786,0.111127689636,-0.325715652804,0.133453575787,0.992387548226,0.984546935046,-0.771237860659,0.63605345309,0.697197514985,-0.00752860723853,-0.145077988045,-0.196009443449,1.19564014112,0.367925384054,-0.614100004747,1.08709908031,-0.469017318725,0.894309980085,1.28713769754,0.681349133054,0.411312933603,-0.254595812276,0.622402761488,-0.633417533299,2.20728259252,0.370044175161,2.17094315579,0.439743670989,-0.283539387942,0.19981184622,-0.727835620644,-0.401558901675,0.441342540521,-0.339862197496,-1.89571178209,1.45703056546,0.108809314118,0.0648979692656,0.820926434692,0.783485972288,-0.153906599448,-0.0324757255667,-0.00871575346863,-0.197347571396
0.347766257334,0.624894610058,0.785500955207,1.53396568561,-0.0552921185567,0.465932659588,-0.340169925452,1.15160845572,1.65966739632,0.197128012931,0.0217157234756,-1.03158602578,-0.967302389118,-2.08079508115,0.405056964977,-0.101102014182,0.0379926356332,-0.0273996168895,-0.333680146386,0.355434712324,0.223323104015,-0.583398725211,-0.834451232667,1.52529953142,0.86041251727,0.0748280189747,1.06472523837,0.0497363680234,-0.231336143116,-1.24799188297,0.141563265253,-0.0779684143271,-0.459260087161,-1.72862502181,0.187538595607,0.351699363758,-0.216569174115,0.313183309221,-0.112905441668,0.32394934268,-0.156189093269,0.581598531696,-0.23165577731,-0.992896701583,0.0118133636829,0.162862811643,-0.723424814213,-0.622429994772,1.86628344733,0.895272821717,-0.663259330476,-2.74882469241,1.29236349035,0.809592048554,1.07588317468,0.990537155714,-1.13070606163,-1.0381429373,1.10665250144,-2.36716430544,-0.278200870269,0.0202172395784,-0.40838922308,1.12750205452,-2.09592028189,1.05013811373,-1.8022489955,0.0797410879677,0.697858906653,-0.742000186882,0.283662844611,0.442420608504,1.06351706372,-0.611404408487,-0.48806739792,-0.809723588032,-0.0901138912085,-0.0243679011263,-0.685585449108,-0.287088010752,2.07469584877,-0.736865243454,-1.35176868324,-0.79242672305,0.571229299837,-0.107186367551,-1.83113650331,-0.252894114533,-0.181821299389,0.958291349862,0.581837683436,-0.883143424339,1.37352932017,1.54679794405,1.02121953254,1.35260940109,-0.99425894792,0.899664695588,-0.503004908511,-0.0728348763596,1.0948770609,-1.80581678677,0.543870748457,-1.83122065731,-0.0335926538502,0.791632553053,0.959722634182,0.207491838484,0.992954524399,1.02667613804,-1.46401984097,1.67913925679,-1.63558212524,0.982944073824,-1.0106068895,-0.0405318303409,1.34708639181,0.677636367154,-0.479435609883,1.27094848147,-1.09403948006,1.66715940746,0.55023927074,1.0054705737,-0.54876932809,-0.221645895526,0.950807155549,-0.230173982334,-0.631030619907,-0.473607271591,-0.258338623575,1.23433654509,-1.21882762961,0.783564241732,0.262411587092,0.465992991437,1.46057942979,1.13616967139,0.413274642875,-0.775273891212,0.34710991743,0.804569199783,-0.607265874769,0.360456089433,-0.262248464263,-0.328971756074,0.523742677589,-0.54245011786,1.63610178374,-0.0543067456053,-1.20591902745,0.573848745075,1.02904292374,-1.41213369316,0.916976922809,0.748402026861,1.36064978473,-0.429244184897,-0.0545842752754,0.0613113701998,-2.49303659792,-0.328305976965,-1.25373256215,-1.84992217085,-0.235423467671,0.154298204266,-0.97188540886,0.304414704573,-0.238691220335,-0.24356665713,0.369137004858,-0.813845107933,0.518493126558,-1.2268550816,-0.823247495702,-0.521265569949,-1.97193838486,0.194338081778,0.428637425988,-0.476725935644,1.24010663832,0.893927835192,1.40149178551,0.524937433864,-1.26795597498,0.481191239046,-0.498961145415,0.281128352317,-0.0893991304027,-0.357624067707,-0.305817907855,-0.131578034578
0.108609944419,1.86666900259,-0.674208905945,-0.0259392781915,1.02665997111,-2.94730033066,-0.630128867697,-0.422010323908,0.215103787359,-1.82796721867,0.298572944604,1.1936367186,-0.714781275842,-1.9029572221,-0.149298924368,-1.02690828559,0.112706469741,1.56111115288,-1.98675451848,0.690950865743,-0.603826103182,0.519224726881,0.33931825942,0.139720254464,-1.82647913805,-0.12852201878,-1.41732389014,0.71130287315,-1.16255545535,0.496556518901,-0.489731769753,-0.6776408518,0.837599161886,0.0998458953816,-0.50314026551,0.309937669025,-0.459587791525,0.351156759359,-0.499221252276,-0.183964933472,-1.06000378178,0.922807700603,0.324155814116,-1.12623999638,0.553977663062,-0.672148173481,-0.0230437589444,0.273977650156,0.698856676778,-0.481323219172,-0.590865046492,-0.911415706885,0.60759548408,-1.75200949685,0.627342684535,-0.441013352825,0.255779072513,0.522899147344,2.0108138455,0.345455737699,-0.193648186355,0.813523772919,-0.555122880708,0.572192322023,0.265170420969,1.04395633111,0.10585730474,0.201170316315,0.300679440213,1.30264343602,-0.0344688814312,-1.12280026796,0.477531599579,-2.10724944545,0.976726189412,-0.946122694455,0.240128044906,-1.06852942248,0.348456132949,0.0999359797043,0.522246041788,1.39072152753,-0.467311451224,0.361035360277,-0.391057925423,-0.54374897332,0.554556164705,0.000429548550583,0.197883737992,0.391380551952,1.4927087424,-0.506735077739,0.0190651252382,0.963218293247,0.675229880388,-0.137546758889,-0.393335359659,-0.0760143098537,0.0391723066719,0.453946197883,0.0984483228947,-1.38151870107,-0.174560309488,0.0594609177546,-0.625003488307,1.26440845544,0.128211496118,-1.88359005255,-0.384444874746,-0.324763179033,-0.217546498393,0.481126825932,0.65465875958,1.13455801362,-0.454060752411,0.963123556995,-0.999307782115,0.362716984369,0.627611245043,-0.0907163021196,1.11055744928,-1.24310541566,0.860444697916,0.896414253183,0.734474992995,0.153837521019,-1.07830421938,-0.544693743436,1.14917017474,-0.344225665217,-1.07084940798,1.16018610697,1.27114562597,0.425550434342,-0.923027174046,-0.200115194788,0.956866921838,-0.387489106245,-0.296449682822,0.0882261080464,-0.878273848861,-0.462838938365,0.331691667796,0.0668487665257,-0.936207626558,0.419229640447,0.645345739716,-0.530588138532,-0.985582506638,-0.834198757505,0.070199583614,-0.0294735221189,1.34319771198,0.321094376727,-1.17005626576,2.03612304707,-0.102636105565,-0.687162228329,-2.12921145849,-0.612125761798,-1.32688472156,-0.122140158189,0.647347576356,-0.37412705997,-0.591713189166,1.0798877226,0.526097594867,0.237741570712,0.171865255389,-0.991874601746,0.0272904294443,0.473866330313,-1.15259013663,0.341567889041,1.8047267569,0.282904915472,0.539106496173,2.32620222702,-1.46620769438,0.896244723304,-0.195823030548,1.84621691679,1.77335541967,-1.83266615607,0.797530161974,0.340508241743,-0.359266006038,2.06556144827,0.618136099124,0.239901474178,-0.255664323848,0.723105722159
-0.00894647221375,-1.61186927163,-0.174368846325,0.125916539008,0.348299809438,-0.876372148519,-1.04106699466,-0.0525802893559,-0.801394866566,0.5714990554,0.353807447562,0.0196138365803,0.127413972777,-0.623797103622,-0.569680182431,0.59523594667,0.597520050178,-0.0672702047412,-1.08974051222,0.685448096228,-1.54463314543,-1.16532580222,-0.444392537908,1.35007452778,0.429206311876,0.249098115535,-0.0266675969955,-0.387897269499,-0.345824046878,-1.88867249068,-0.361453972378,-0.597416221718,0.0250899893685,1.27884505003,-0.629295594967,-0.728489904225,-0.295256973522,0.935254531574,-0.963838754378,-0.259866291301,-0.405188393443,1.09006503974,-1.28897536723,0.0263687997945,0.210431895948,1.23190119664,1.35063198552,1.90250769272,-0.631019335659,1.48782992492,-0.0918002498046,0.260598499634,-1.70434219551,0.87990996352,-2.34741354604,-0.0880216608139,0.535840750987,-0.637248445879,0.742137160542,-1.89555154459,0.0896908632671,-0.911619136301,-0.0249067246714,1.84570093537,0.857094181016,0.329530166835,-0.998722629685,2.73673508304,0.678867419868,-1.58091801894,0.45790690255,0.828966568392,-0.972080888944,-1.06347003569,0.252498993813,-1.34042587087,-1.26011626941,-0.116867171867,0.451453894648,0.449142888825,-1.82944814052,-1.31703578171,-0.675384208091,-0.09355375118,-0.446232432205,0.762593449927,-0.542080444987,0.589725080944,0.662603325571,0.247853211906,-1.30946526256,0.757800185507,-0.645769910562,0.809605300208,0.115368400751,-0.611990001389,-0.374084409198,-1.26626069304,-1.21726929491,-0.461993250798,0.509520989413,-0.437409594218,0.381966595485,-0.255120449907,1.30796069585,2.73051603171,-2.31686124478,-1.28076371948,-0.538688050926,-1.39617817962,0.82643114589,-0.0267634432393,-1.27594475696,-0.567175691827,-1.63515872848,-0.117187205674,-0.0295407642424,-0.701340786926,1.59886237652,0.347494911476,-0.219720000483,0.408869628117,0.175791587287,-0.552366404742,0.115338957444,-0.190272030059,1.8975047151,-0.87106580343,-0.707020856528,0.990771706053,0.813052947079,-0.0658405492072,0.10235025139,1.53784563875,0.618685317523,-0.0257278831826,-0.322513669638,-0.00494573062351,1.47267233618,1.04846206279,1.31896485555,-1.14591979088,-0.753666343202,0.454911802218,-1.83032193622,-0.85643359889,0.118434272387,-0.274749813854,-1.12747914823,-0.161249105067,-0.338586322596,1.07110945352,-1.07323283279,-2.35416087597,2.17014902203,0.168205880513,1.85225884701,0.699476574328,1.60552486417,1.3866097616,-0.150701117988,-0.524810840033,-0.685965442754,-0.910153423406,2.32648653491,1.42433106248,0.596958565297,-0.0983920839458,0.350494210017,0.215913531767,0.464345009761,0.876212403998,0.471672873096,-0.204806272254,0.0244626455167,0.761208755501,1.2413450061,1.75917882908,0.27448804892,0.0970284956882,-1.0288878256,-0.319627739403,-0.45401445476,-0.0223415573877,0.756087464878,0.835670297673,-0.634444482912,1.30439224141,-0.383878257911,-0.506384158957,0.379234065472,-0.0239873169248
0.656852420358,0.685528631834,0.345840204707,-0.464471660763,-1.14029365819,-1.03869960416,-1.86025547399,1.49069682515,0.316549905876,0.598587917343,0.673962237591,0.00633183981067,0.0612608387424,-0.651286398553,0.846930959205,-1.22578076875,0.090197454669,-1.5831115147,0.417762920431,-0.190704476877,-0.318310346298,-0.386320595735,0.340332712112,0.0843841691476,-0.96301868629,-0.421405026618,0.602765750243,0.210949890341,-0.712585565524,0.737773614384,-0.580291613159,-1.17621747468,1.0098646811,1.88296593398,-0.803203815632,-0.526150265599,-0.127422833353,1.13831370778,-0.873784016159,-1.20034175829,0.9459921047,-0.00375647135362,1.01106036632,-0.198195940951,-0.740324141352,1.2985808773,-1.16099164638,0.542217495113,0.856673907212,-0.362304679833,-0.0995078976679,1.13077898384,-0.119969935971,1.53103334919,-2.05340971301,-0.0921778641564,-1.08778715474,-0.442363164705,-1.45513201915,-1.87848754661,0.494561038299,-1.79328265593,-0.207102170401,0.307570730394,-0.452872665854,0.261844017037,-0.65704320871,-0.00868531583902,0.0299383765733,0.171671972216,1.64670578519,0.949038999459,-1.35856780848,-0.373106646521,0.856050569828,0.15467809097,0.422915557104,-0.424256242321,-1.28074334298,-1.53950007257,-0.430623026856,-0.319216562058,1.553055923,0.0544257735779,0.88610847493,-0.099610491699,1.17280730563,0.140593414719,-1.0971342848,0.352927380847,-0.101049457149,-0.373835409689,-2.15824503382,0.539215244432,-0.809947280656,-0.0480379374755,0.425172906727,2.33638689576,0.071409080671,-0.625447602523,-0.341595862307,0.0787440315271,0.772630513692,-1.32759329031,0.338580456917,-0.82048751282,0.434994334186,-0.428671940885,-1.18052036321,-0.491811657572,6.33013969576e-05,1.38658753295,-0.837341953673,-0.0280712859902,-0.115846391908,2.048664601,0.549133473105,-1.03818364601,-0.376756837391,1.08148715144,1.18107673303,-2.10090978749,0.696137512993,-1.6318914334,-0.177735976429,1.80619020607,-1.30164055981,-0.869598292248,2.1088823609,2.61779240915,1.07514158525,0.505045929404,-0.0995556963021,-1.0643188162,-0.115359765552,-0.311386466857,-0.0508597957872,1.00522540174,0.84928104285,-1.15665262752,0.282817577607,0.595796173931,-0.411180660833,-2.239870726,-1.25231822606,-2.28374496904,0.229499330776,-1.33450854795,-0.345060472351,1.86190531155,1.05325862022,-0.475545001256,0.0651321321107,-2.01345819364,-0.0465062209919,-0.107593393899,0.0616838628694,-0.516211887632,-0.412150549092,-0.511860571638,0.131186904878,-0.022941035398,1.52810475308,-0.744554064411,-2.55624333757,1.49379524774,-0.929566326709,-1.60046761922,-1.12414430749,-0.415141567915,1.64648270401,-0.493241669027,0.0563721769561,-1.33420985008,1.16841548717,1.56078577096,0.112368212044,0.135933916502,-1.50690503853,0.188354913798,0.320546299155,1.98259558024,0.935855031145,-0.5772999595,1.64924720667,-0.238374284597,1.00819378387,0.423310548457,-0.9263160677,0.175335090591,0.65044724756,-1.00477749353
0.698480043405,0.978452294986,-0.329360300065,0.535426675381,-0.80136836448,-0.965679922481,-0.529255213376,-0.463954506864,1.26545776439,-0.0399289147796,-1.46138526703,1.38058828275,0.681884551791,3.21850669659,0.7818815211,-0.656961590855,0.810971102782,-0.671991504243,-1.32982169111,1.27417401243,1.98367894493,0.453120549283,1.70279599517,0.463072367593,0.323212373391,-0.234344596126,0.0676168134508,-0.054127507081,-0.0128910048912,0.698650818152,2.63116495372,-1.65225330372,-0.552795847669,-0.463628389418,0.164487000557,-0.843112771513,0.733561619772,-0.524881792493,0.529558676452,-0.180544455063,-0.161853586131,-0.145897904954,-0.215141929631,0.958567886529,1.31500213216,0.772379131339,1.95995714725,-0.00205331696085,-2.46165024638,-1.11308800797,-0.487348720388,-1.27555456249,-1.318382398,-1.14416832196,0.607035948855,-1.19691763353,-0.781149580896,-1.20072765709,-0.0372614414481,1.82647039101,-1.54967265197,-1.20298681936,-0.719367276959,0.725480426417,-0.17497601836,0.536636959661,0.0695154329672,0.586860158522,-0.31855000752,0.990355521818,0.472779414514,-0.751468011827,0.428886259165,-1.80549644505,-1.16037303317,-0.0711195677122,1.31317990911,-0.103483810619,-0.496237229357,0.973604415711,-0.0565410751097,1.09926261838,0.319056772353,-1.06585116284,0.601514101013,-0.0798914498455,-1.2418191832,0.0705965722242,-1.44629657456,1.05143309678,0.562622318186,-0.232334945033,-0.966368307559,-0.738167715715,-1.56629239793,-1.13101737685,-0.855279030892,-0.333162742703,-0.0637858706741,-0.0486062517784,1.52194840582,0.819895332934,-1.14658628221,-0.174784727181,2.05538141611,0.826862910066,-0.239270311978,-1.60228859355,-0.142222976261,0.0118377361364,0.63380670197,0.752301965095,-1.01448359522,-0.0580126838675,-0.00555147450552,-2.42976930777,-0.0645127698624,-0.681517902676,-2.13459911768,-1.8314930436,-0.0788118109931,-1.49097936983,-0.597769532734,-1.61390364011,0.856692268295,-0.471243878979,-1.57851341585,0.821430661229,0.144082066368,-0.432211628294,0.70989301581,-0.681525385338,0.464579655241,0.269719961076,-1.6848455924,-1.03975612107,0.142378038715,0.614840908086,-0.993504102506,0.0272014094223,-1.71206680699,-0.905653110669,-0.644475697115,2.02043578505,-0.0201350829008,0.256806059676,0.665105705018,-0.524493066704,-1.17029677638,0.35363495113,-0.276545111237,0.00690677574792,-0.168866339184,-2.30392218096,-0.251632194346,-0.0790463807545,-0.541925517711,-0.225004647153,0.45768061901,-1.30515283408,1.47113050932,-2.62069932628,-0.29987840845,-0.519082186521,-0.708118338089,0.209156364844,-0.84844783256,-1.9578377891,1.11473901284,-0.654184634234,-1.00941548534,-0.244096651762,0.11823983099,1.17706853105,-1.08235894901,-0.0251034890718,-0.401060077094,1.34534734829,-0.84039101869,0.295073207688,1.47251831513,-1.31430857899,0.52878107201,-1.92160414735,0.830109815045,0.197306422358,-0.630573100555,1.34022660974,2.53922550811,0.936528521664,1.36514071993,2.42234211488
-1.86039263396,0.605145918105,1.11951935434,0.320429800802,0.636082950917,1.04304317791,-1.21617289118,-2.50208328951,0.602470411397,-1.24108364394,-1.38847718802,-0.054112932842,1.66159084047,0.224005019504,0.827490381176,0.314389435744,1.35220991027,1.21540545346,-0.462052156946,-0.161338992853,-0.583244646317,-1.90191708275,0.781497969401,1.82204920279,-0.430291180395,0.725923659307,-2.03447970877,-0.880303471797,-1.26567485475,-1.20137858333,-0.833864392619,2.55121240678,-1.33347596534,0.824825010452,0.949112137126,-0.0112949281633,-0.183819166913,-0.426312723575,-0.0374963336836,-0.792243411608,-1.44519472483,0.219122695516,-0.423857150593,-0.413882271773,0.687088963145,-1.32616370533,-1.56173055472,-1.9012156466,-0.369781167323,0.62347691514,0.380012100137,-0.974801006104,1.28456839572,-0.629514713971,0.34916095334,-1.24930553455,2.07058612497,0.989890951878,0.482867074329,1.19137126037,-0.497051959944,0.362170731965,1.55655352376,-1.37363683787,0.59843352357,-0.573310577263,0.698403126291,-1.49465929945,-0.560937852836,0.275596197599,-1.50313120531,0.232545548833,-0.344774579833,0.417270743562,-0.867306071538,2.44549924727,1.66987962119,1.3221617994,0.983151600224,1.40330024598,0.0266835735288,-0.634644880358,2.19479849172,0.953727066362,-0.00640736485321,0.99796606956,-0.389438105669,0.284521657432,-1.21170321474,2.19287088717,1.87615278552,0.74462670102,0.795425813952,1.83930957265,1.1224613884,-0.599892528773,-1.90931696473,-0.717609165962,-1.0037475055,0.506303655944,0.82257225689,-2.17548646061,0.94739571676,-1.06792718305,1.01408411614,-0.644845848282,-0.553437110186,0.260868297891,-0.930791722078,0.558133854373,0.452599965806,0.386275647023,-0.787221701435,1.36914602536,-1.00683872501,-2.19414933604,-0.125700622446,0.787553507288,-0.206933958126,0.4051139263,1.38173678719,-1.41822079418,1.07233798291,-1.105816945,0.642686930295,0.582260121348,0.451923532827,1.80532643352,0.0904258793528,0.188932441432,-0.927332044155,-0.108873890846,0.711473021326,-1.22484771211,-0.789027853658,-0.00327801257985,-1.17461558154,0.896407114572,-1.51115112615,0.471375943445,-1.20108191311,0.254821808644,-1.56912964474,-0.823584388864,0.183463544918,0.764650082813,0.895208807046,0.477870920768,1.36479952065,-0.0957590390815,0.293627541385,-1.26040953341,-0.170606594787,0.838244754376,0.538937202935,-0.191989506843,0.202219755622,0.443565964651,-0.707635408198,-0.478035016222,-0.47900475761,0.580847281019,-0.0878818753065,-1.14061317684,-1.01404773654,-0.287365613772,-1.31091021119,-1.21081103613,0.0243207550721,0.29810137539,-0.943920504325,0.672871206248,-0.139571097793,-1.32560913942,1.19934084757,-0.124127820987,2.36133034488,-0.720237910448,-0.120489269198,-0.791788506623,0.701201475772,0.0369039301717,-0.208333648799,-0.192596145638,0.608336600679,-1.24674683675,0.535734599549,0.386214757663,-1.06876212561,-0.305987036526,-0.430831156021,1.62432640798
0.548646700066,0.773541636824,-0.86025281322,-0.89774392863,-1.27937376779,-0.322589972396,-1.50478406073,0.442885342893,0.158373491653,1.68998199768,1.60424893354,1.37140786125,1.10200776465,0.676829245006,0.447149309228,-1.18326336167,0.174370997547,-1.3893637817,-0.943353735056,-1.94056295532,1.49853470453,0.149300007287,-1.49084475361,1.05507115883,-1.03499126533,-0.900993272715,1.38642031972,-0.195759902198,-0.871328909824,-2.02536711346,-1.1161287329,-1.1979510806,-1.34887531438,-2.52695503919,0.418396447129,0.241850697476,-0.627662354229,2.8000034379,-0.812233537046,0.512921905658,0.116607485778,-1.39886007866,1.68413106043,-0.236218961081,-0.940463225277,-0.631397651473,0.492369556124,1.02644672028,0.789476685146,0.0060577642976,0.278692205594,1.41050487292,0.969556821065,0.0363355509163,-0.528677327626,-0.465107096784,1.03392438026,-0.182882323698,0.631863242961,1.37648928512,1.18601109605,-0.00923894461073,-1.58995937491,0.70627435219,-2.45761036447,-2.40869368145,-1.24528696834,0.939152113966,0.992470835912,-2.04108010854,0.892885161207,-0.728065669976,-0.825061705992,-1.42215074505,0.308352604241,-0.856241016106,-0.0965626078963,-0.393835551761,0.507243560279,-1.27118925332,-0.0918703215556,0.00109478475834,-0.366524618955,0.522798487818,-1.61685414161,-1.04853527114,-0.932158189052,-1.75048472735,-0.231691728302,-0.282427604813,-0.174523161725,0.114249992251,0.758286757968,-1.11901512922,-0.557515854627,-0.0784639848502,0.229516996433,0.908220382665,-1.19419340062,-0.396672001552,-0.315595147701,-0.452905773354,0.250632072247,-2.06151000928,-0.392516231347,1.45389776718,0.330033112588,0.596053097489,0.766958347095,-0.570064596176,-2.37871980684,0.0378181540034,-0.962843229465,-0.28024910309,1.03094341111,-0.550910956557,-0.482236961907,0.432082162857,-1.38957722647,1.69106636642,1.13886521402,-0.80940860591,0.739380206887,-0.176744500423,-0.0241279195435,-0.562384464939,-0.540030302094,-1.10888001615,0.355002305946,-1.03151764466,-0.324195088479,0.969246074641,-0.721883770283,0.717166774728,0.148533275177,-1.23617225381,0.400853794151,-0.056395925799,-0.444381406914,-0.110975200667,1.18367437243,-0.493348645688,0.673668233692,1.39109358913,-0.616126216396,-0.0394391036679,0.202618569662,1.63282881858,1.96840889296,0.929530926886,1.49195862092,-0.72039866936,-1.20488703876,-0.0454131642929,0.288904070932,0.563636943665,0.307641949918,1.39510730839,-0.460111798371,-0.00233224901971,0.0604213840414,0.717288823847,1.14150345209,-0.0406750554464,0.403126701866,-0.937886063736,1.1368626035,0.185908244352,1.567414249,-0.837086197807,-1.11777290394,-0.947826811796,-0.803452559879,-1.84682527819,0.0583215684244,0.23021361723,-0.659693201945,-0.14304365022,2.26335449056,0.927331016227,0.605209729389,1.91707871506,-0.683229126915,-1.40124844129,1.87469727002,-2.63817243024,-0.0232625313128,0.342569812015,-0.474983446607,0.688448228697,0.524576602265,-0.536252427856
1.8764480606,-1.16246941231,1.33302630404,0.0323398510809,1.33538170839,-1.36338716063,0.505039482814,-0.122022370655,-1.462568263,-0.366892331902,0.398759194681,1.07498000991,0.834736170378,-0.268446514967,-0.867373427774,0.948680147899,0.319471554018,-1.17918803507,1.08692617512,-0.486768827554,-1.54903628957,-0.899543207296,0.133712401923,-1.10392752868,-0.286674106574,-1.89364141551,-0.332824120327,-0.914890056242,1.01762269989,0.152412260675,0.13526410813,-0.287038247442,0.54649169999,0.306963902454,-0.325757015936,-0.13496828454,-0.118643962447,-0.0250689684491,-0.531060563986,0.175026254825,0.455677345046,0.370397819239,-0.411928211745,-0.381092719866,-0.01218729387,-1.03641592468,-0.531656160777,0.396907795498,1.36826919796,-0.497616502577,1.93435173553,-0.858868198938,0.390462949764,0.107352506024,0.243776605131,-1.1847181399,-0.375074348882,-1.01562792974,1.04258157966,-0.686792318384,-0.280587610484,0.374976402183,-2.0467140481,-0.208503635375,-0.0597251907287,0.397249866905,-1.62497953529,2.1821548511,0.820039479066,0.963021432504,0.602180941095,0.581965709235,1.64608692189,0.288751672435,-0.328794465118,0.375775737513,0.430067052457,-1.90479844561,0.691283463651,-0.305661621036,-0.670091704653,-1.35859393547,-0.322541559208,0.0255393628091,0.015761319989,0.643831491632,-0.752738345821,2.10211113808,0.227696362498,0.410622463839,-0.627932675119,0.138744370956,-1.68780859449,-0.155225297568,0.141050073048,0.973452628978,1.77413790491,-0.941297042869,0.487149434861,-0.829898275407,0.793620738522,-2.24517632198,-0.376508385156,0.807168102757,-1.63272550419,-1.494274544,0.346379971624,0.61463414459,-0.6244440932,-0.720085850728,-0.0460994972979,-0.40434619,0.551616417333,0.245002402488,-0.170489254272,-1.52028635958,-0.152458381453,-0.124684164803,-0.470447909235,0.38583549834,0.226184435868,1.24755206706,0.00903100260744,-2.30052063644,-0.345003359365,-1.95388973952,0.174080601514,1.82111227422,1.04365389904,0.831375965837,0.157392218807,-0.62672126182,1.39220462075,-0.158137078195,0.170574655245,0.372530061604,0.176889771677,-0.856657232746,-0.336578669303,1.27295452106,1.94506278518,-0.499592996723,1.36578452775,1.22180546963,-0.457437789998,-1.01530138753,0.187781590206,0.168588468313,1.05933705874,-1.09809811162,1.43822489287,1.64279409099,-0.472007331403,1.88127853221,0.828009090822,0.642574416623,-0.574170273421,0.382360905841,0.0545670225508,2.37194753551,-0.545671933025,-1.27335264185,0.287029021463,-1.4172431261,0.335842391006,0.171790042482,1.06251609899,0.386807905942,-0.700127072156,0.298324338314,-0.0710994210192,-0.588684619742,1.59792214449,0.853909676081,1.13022977297,0.18901187913,0.869795972282,1.10025016908,-1.18699896701,0.459876141439,-1.39410503635,0.905409709081,0.685082735826,0.268311609499,0.881411822011,-0.342336711344,-1.34315880351,-1.45719340323,-0.502728075964,0.322057247809,2.12345652932,0.485022649871
-0.670783199395,-0.419899755592,-2.0334324222,1.4678968908,-0.973360226525,-2.36304826326,-0.972745793008,-0.456127376848,0.259988969244,0.599114129913,-0.210655930013,-0.604337191599,-0.112745607557,-0.830530307897,0.917215794972,-1.61121438436,-0.610336786174,-0.865531511328,-0.199574457248,-1.33291413827,0.692201815122,-0.0448129478202,-1.40054402465,1.43429129444,-0.847820506035,0.931794992347,0.566990068386,-0.859701190735,0.697982667881,-0.177215772025,-0.551857884198,-0.715059127093,-0.400681046746,-0.666809641576,-0.113519002416,-0.585456112778,-0.720360200582,-0.444005830047,0.725339935826,1.8406946977,0.630079605134,-1.2998156123,1.86795247857,-0.537975441463,-0.0256325478905,-0.387617390423,-0.136117181705,-0.728255544947,-0.253689331324,-0.261618667323,-0.199534961048,0.186021870109,0.834740457762,-1.5870487845,-1.54536160321,0.378479065783,0.261920606085,-1.4540243851,-0.202297079778,1.9752557507,0.107579523608,0.645863568894,-0.0939452754992,1.2642178041,0.147788160678,1.31493202628,-0.788836126736,0.519616365075,-1.08940506378,0.303049109161,0.469163270651,0.0807983998035,1.77738099589,1.11206659721,0.28764688888,-0.782746260469,0.456402540998,-0.505870733091,0.85702487446,0.151628566178,0.160221118027,0.0084402580051,0.0118033856394,-2.02211523391,-0.830350651363,-1.12268805348,-1.38575943643,-0.558109992184,-0.0956634088695,-0.277684481749,-0.871320074542,1.03218006145,1.52215318396,-0.973269954651,-0.323330398774,0.992796371992,0.979495923607,0.482478733357,0.073178841883,0.65686054405,0.154606928712,0.501908454226,0.224394873573,-0.609285384232,-0.772134714477,0.399244504,-0.803595596768,-0.051140483788,-0.547571589806,1.53054135219,0.990403440663,-1.9441048779,-1.47689360331,-1.44755782916,-1.27882141323,-0.929517369449,-1.31123139628,0.0355789237106,-0.274310011854,-0.50020064993,-1.4196937798,-2.93359896676,-0.100496679157,-1.0400008654,3.18411340534,-0.470030094732,-0.513997947844,0.947309825091,-1.91821249181,-0.339153553417,-1.31395076062,0.811846799647,-0.543328346619,2.4194046794,-0.198524068492,-0.964537827563,0.522591670214,-0.138034709875,-1.92434786036,1.37666482917,0.67220650861,0.594401479709,1.15782345831,-0.656846978301,-0.469640481629,-1.64930417567,-0.613792187724,0.366712086592,-1.34655233332,-0.922587710941,2.35459466483,-0.193888399231,2.17438017366,0.848488419517,1.41152926039,0.684590005744,-0.366252788757,-1.50772305012,-0.398036804475,0.683824305166,0.981096899178,0.44636169465,-0.238482990706,0.768377609844,-0.297108371404,-1.39344954205,-0.460427492126,0.26703801736,-1.04274737819,1.06497009862,-0.310140723466,-0.824049795594,-1.16452146046,-0.45716084897,0.446672018325,-1.18454447782,1.23011743426,0.794940065553,1.53651201427,-0.917823518161,0.687823929247,0.793164191136,0.0042183222889,1.90117920765,0.378721407338,0.324432364002,-0.0580226520226,-0.454084138075,-0.358975933809,0.84814103007,0.480590878549,0.107672787394
3.03555821923,-1.15849686179,0.9625548315,-1.44813506394,-1.07449661643,-0.26888587439,-0.867421116371,-0.805217734485,-0.460642869412,1.45508799921,0.58481948996,-1.573024887,-2.36197699843,-0.269847531342,-1.02147525804,-0.338214491407,-0.926519233914,-0.909727458086,0.0943566976453,0.12231279248,0.568110829893,1.47137296777,0.428635167847,-0.220299885873,-0.451421724766,-1.13054538631,-1.68629490657,2.05300582322,0.115457075926,-0.393007666886,-1.04316484177,1.8725027953,-0.963642354566,-0.507893695895,2.10968546415,1.89764859823,0.789812541619,-1.60992394936,0.888734529103,1.77410235937,-0.990341860435,1.73008159348,-0.93355507453,0.852509903829,-0.778019198656,-1.57298522451,0.332978977112,0.303619323689,-1.55829973319,-1.40381745708,-2.01052344754,-0.347715985982,-0.99918549506,0.0435550577553,1.47393310254,-1.86372359557,0.929596946366,-0.204016409429,0.321357088033,1.05189822432,0.325706033996,0.364711664407,1.36524281519,-1.88016057937,0.688509609783,0.740103965993,-1.32939612977,0.621474539662,-0.856258398159,-1.09596077367,2.03147862631,-1.01641684665,-0.224539568789,1.51184448306,2.58331334095,-0.110575051278,-1.14295289319,-0.447133475773,-1.25956447069,0.196994672388,-0.208212477069,-0.817517008888,-0.093359110837,0.689499538402,0.787483024898,0.408422515347,-0.441089396667,0.679725490675,0.227483740475,-0.810917283869,1.18728354868,0.380432509998,0.725023985144,0.00831111058323,1.74734967432,-0.267433940296,1.13812161199,0.186713539276,-0.834470001104,-0.531652531458,0.231242961193,-1.36211403928,-0.18270511046,0.231981053961,0.920797744463,-1.17480646806,0.461043974133,1.32970460326,-0.00503813914812,-0.63711873087,-1.1576104101,1.1636480817,0.188080892043,0.547431275916,-0.982223644776,-0.187433235086,1.76734578841,2.1716572454,-0.700238331416,-0.820423368082,-0.817743361783,-0.453808317192,-0.568449126113,0.339938069443,0.327105801202,0.7329557643,-0.37368241417,0.00768897681334,-0.171539207136,-0.865388132413,-1.04959273446,-0.671770169623,-1.64542435335,0.31228852907,-1.15294384987,0.0883067316257,-1.73765041396,0.958878499636,-0.246163562406,1.03976320186,-1.02660416831,-1.46629351539,-0.452822783482,-1.09470802823,0.0946050768704,0.783389228907,1.88643363488,-2.33600357913,0.887057725311,-0.881935491527,0.838903451272,1.75553149216,1.3903179949,0.127351690444,-1.22227592746,0.771137468796,-0.100833146529,-0.123828950952,0.593848401659,-0.206006117387,-0.536916299918,-0.245438779706,0.2655463229,-1.34360202234,1.01158422394,-0.274658655872,0.1588771054,0.0445860992901,-0.846766208543,0.702729595657,-0.288026997658,-0.658698518219,0.237926592412,0.997555053153,-2.09992659171,0.640266836729,-0.576438518101,-1.15101143704,0.559855214979,1.50483307692,-0.116097612631,-0.0662803913936,0.642414760005,0.0109424887669,-0.263595162443,-0.781743893593,-0.134222410787,-1.75811913381,-1.96210006975,-0.107341233151,-1.14599528076,-0.28193335219
-0.139300869416,1.8792224844,0.0815639820799,-0.327209570477,0.91851120493,0.407100349396,0.576466964207,0.654392204142,1.01487584784,3.09625964682,-0.430453272892,0.525385399511,0.370870246129,1.79557974236,-2.13803230322,0.745189837818,0.413851961989,0.591522436249,1.38540114655,0.674520815334,0.713000845381,0.897814361291,0.953542519774,-0.222539705681,0.724159667777,-1.10726204482,0.120398505015,1.16031863945,-0.233864459785,1.5854666333,-0.59081452555,1.20119712798,-1.58059443538,0.128678376331,-0.0705682351764,0.642817125694,0.204512592971,-1.2211186377,2.90532162759,0.437465728947,-0.706082878651,1.59919258086,0.037718619042,-0.572081904305,-1.26311381611,1.35035009478,0.0539157879236,0.10459267446,-1.38950491242,-0.012899055266,-0.989336590052,-1.74463986306,0.0480034644992,-0.706122350257,-0.784243672475,0.0651823822889,0.198611324232,-1.26650184355,-1.02609283654,0.0174353603906,1.73311582873,0.236199273796,-2.43754636959,-0.235194025298,0.799046742137,-0.807194283335,-0.237063596068,-1.14903031298,-1.48882396246,0.187107050243,0.550283811479,-0.574145550196,-1.09576245165,0.789280171541,-1.1260073359,-0.486474592592,-0.788606872102,1.51903337614,-1.35137957371,-1.92867296906,0.165441781763,-0.0990129525469,0.210839249639,0.29910650917,-0.426594394308,0.025182426423,1.14383255076,1.26900192994,0.720350372902,0.476530597431,-1.39089681546,-0.373224010075,-0.0502999034537,-0.189998095128,0.962247934433,-2.02820159252,1.22820183527,-0.679371017042,0.0875245762248,0.626749737146,-0.791295215412,0.256209331641,1.22561467643,-0.353367038882,1.94539123671,-0.846813323676,-1.54670683422,0.641330992964,-1.20295398304,-0.963450575131,1.26385308832,-0.501061957679,-0.0871449653997,-0.290178543091,-0.360763898683,-0.369701162182,-0.495853089922,-2.59919832927,-1.10832580079,-0.453231281744,-0.247003986274,-0.1534776022,0.842436091596,-0.000718179111085,0.115360068045,0.375032942526,0.558580984116,2.06141586404,0.125608905827,-0.228716833334,1.1212413482,-0.789393407491,0.296869492351,-1.30112464312,-0.644686618428,-0.6637954203,0.664055740053,0.593343390088,0.171051106206,1.92400265604,1.19229090197,0.632879534571,-0.569260816917,-0.37756713157,-0.763287597071,3.02634750508,-0.139389578841,0.740463714402,0.508516161469,0.174358917557,0.615673041305,-0.899813938483,-0.289305771077,-0.302861010839,0.788946163733,-1.10907054095,-0.651617547459,0.340754961527,0.665279918689,-0.683836521108,-0.795924292194,1.44952008573,0.06363084509,0.245643453694,-0.768566322354,0.166857992903,1.24432312676,0.227903203005,0.0874726899956,0.757242818225,0.380958567401,0.18463504197,-0.96369101896,0.199581281005,1.15368540154,-0.431245569932,0.135705176162,-0.69021917436,1.37277785031,0.642313803743,0.33362537513,-0.900738501447,1.3275522006,-0.724506033397,1.11271635179,-0.0281462061758,1.23370351667,-1.67902248112,-1.72332968957,0.962146650882,0.0525438592873,0.747007097859
0.998230893526,-1.30414146535,0.18411077499,0.00705874389623,-0.812068700775,-1.8657810552,-0.445988689791,-1.2500125218,1.45649631039,0.130965427802,0.906571128707,0.20141937387,1.42180415321,1.07595319746,0.747781292211,0.695135154001,-0.370973550291,-0.243791953325,-1.86267447246,-0.0954263942791,-1.69385029572,-0.366491984881,-0.955465598389,-2.3488254671,-0.51974808194,-0.0570497656961,-0.979656424279,-1.1842081873,0.703830838474,0.598390992394,1.17679569532,-0.406265782924,1.89025492019,0.139307273286,-0.865990180485,-0.41665179112,-0.423495443538,-0.0761181599632,0.248040605012,0.689906799702,0.482096545048,-1.02156630923,1.63078318321,-0.0348230211337,-0.27267541009,-0.293439118356,0.435656892598,-0.909200445274,0.886023582899,0.493647151543,-0.658089863793,-0.814594191509,-0.286724904126,0.0516101463089,-1.05163156427,0.601764950863,-0.114982383343,-2.32683422573,0.413854662779,-0.790830559069,0.208400818047,-1.55536255603,-2.2229480832,-1.60814590607,0.231678972632,1.06478997909,-0.919772090723,-0.66068084706,-1.97392611047,-0.451495998827,1.01966816377,-0.980272639513,1.70523183065,-0.467640933312,0.508224863854,-0.623149024834,-1.80250454308,-0.495631149101,-0.415100787333,-1.09583510115,1.17077481951,0.66200121786,-1.38312268853,0.503834555222,1.23079611917,0.53452300969,0.13498701666,-1.6790570927,-0.64654405521,-1.28458531504,0.793226906074,-1.06086608664,0.231937781385,-1.69934703166,0.111326108353,-1.25712706195,0.40491964524,0.0299423555011,1.75952988231,-0.989929278993,0.600194705554,-0.415555122336,1.1186356973,-0.291520459664,-1.66862176635,0.14833144054,-0.707656954663,0.336876925399,-0.459613831492,-0.166891961739,0.13555375439,-1.0223944748,0.45941527263,-0.196774121145,0.193229929493,0.264466132305,-0.231235887216,0.63048802063,1.01247227025,-2.06927515604,-0.049882922123,-0.849224556454,0.490492203322,-0.518498919267,-0.0215616528158,-1.03643847868,0.09850945715,-0.674707154811,-1.7668084062,-1.07306801456,2.41308338689,1.55526104013,-0.606706326887,0.629012343805,0.201746134671,0.588403477242,-0.368352502506,0.343585695417,-0.985709582556,-1.30521138663,-0.663290119413,1.30782087004,-1.45488856643,-0.572731848267,-0.306032077413,-0.961622588351,0.910600778174,0.48265515458,-0.122412919836,0.795830381828,-1.38486131353,-0.17966249682,-1.13780686142,-0.826705680517,1.02538451973,1.39697391238,0.221496706664,-0.775412024732,-0.525944285013,0.231521089336,0.0494797961992,-0.326188657481,-0.945535165292,0.166583082103,-0.337805570605,0.461549760862,-1.05492107508,1.24409733204,0.771787013407,0.0316282340895,-0.585133212308,-1.01747834641,-0.82573093866,1.2952251113,-1.16895107052,0.198035983142,0.368037953929,1.15049157658,-0.227133607308,-0.149908278378,-1.79000902545,0.571747779509,0.997346572725,-0.33189551439,-2.49566865486,-0.805923762941,-1.13384403979,0.911552231221,-0.159068528288,-0.240252996424,0.171809048988,-0.996782277596
