0.342250603386,-0.113818984357,0.119367198829,0.228124408258,-1.94042479716,2.3785023222,-0.126689596612,1.64359270034,-1.10614685923,-0.58651825202,-0.364450310612,-0.366495659724,-0.140372008757,-0.181101076994,-2.02471083836,0.676377742482,0.328491363894,2.53724210412,1.5050778977,1.62535589477,0.657116140198,-0.444106271442,0.789699707426,-0.0532640023644,0.725698934879,0.438677166627,1.35151010841,0.698139961849,0.77943806406,-1.1831869329,0.211298431093,0.608771291751,0.215194149017,0.352409815547,0.159942778921,1.9061579126,1.11886148711,0.991471867555,-0.950029845459,-0.547800045553,0.186254293432,1.35695912449,1.06240308696,0.808117093476,0.725219619697,-1.6769513208,-0.64234846873,0.0460759722856,0.415105533109,0.784940364131,-0.926357106472,-1.66512440875,-0.825735791002,0.730769360687,-1.06596978366,0.752383947605,-0.622780231508,-1.36173521958,-0.0811535764921,-0.246675628728,-0.0445174207223,-0.185486150063,-1.5657340123,-0.311394903984,-0.493373200176,-0.109680589299,-0.0971313001368,-0.590657185865,-0.558781047607,-0.891413408607,0.978297679482,-0.371233575742,-1.56327499414,0.290718569002,0.849634453133,-0.328501046285,0.316779858841,-0.567254319832,0.72843314903,0.239838496592,1.41524730062,-1.28628184177,-0.327998131211,-0.602996660831,-0.313526132126,1.12522168209,-1.70250985806,-0.990000534199,0.122975198863,-0.348813621864,0.687571549593,-0.241577443674,1.49211173659,0.665407896738,0.5850518107,-2.97246824974,0.198485225568,0.582760767865,-0.73066935552,0.354101416952,-0.978970330561,1.49037963215,1.55493104583,0.333503959362,0.279418456069,-0.607684956963,2.1371626094,-0.7617524471,-2.31454476401,-0.886364180171,0.0798883969233,0.315436726141,1.15760103035,-0.0699155703114,1.36855376452,0.0788566135047,0.668203525225,-1.50166785499,-0.13228726613,0.356548307496,-0.546559955985,-0.873126792217,-0.582696077625,0.871767825648,-0.296620874167,0.142659929483,1.1087419161,0.652067378472,-0.7681538119,-0.0220301640473,2.6216510058,0.173502179358,-1.0158122119,-1.23656335868,2.07305797858,-1.60562734945,0.50892528707,1.75428365432,-1.6623093064,0.601787317837,-1.53799720771,-0.272948105776,0.743515203529,0.0395323922525,0.648588209674,0.462638425344,-0.457948121527,-2.24050391785,-0.493957908835,0.246942350274,0.0659903847825,0.323376945456,1.75186553212,0.566478032517,-0.633987375109,-0.562185333782,1.61873876479,1.61662257783,-0.913326404687,1.28901966648,-0.0566171012701,1.11868878498,1.01595109649,-0.694748538696,-2.41430315658,1.32280607437,-1.31323300704,-2.0511210065,-0.490497821644,0.346025907278,-1.11962328284,0.596637912112,0.479667009859,-0.40093202594,1.20366378063,1.13013241121,0.646968598341,-0.187741160987,-1.02603379506,0.0894299626246,-0.894948975097,-0.940458399639,1.12164867187,-0.229581024828,0.36662503372,-0.540195379774,-0.176325244819,1.63820796064,0.114273602891,-1.54770576352,-1.32614575985,-0.0925025190748
0.336423202763,-1.42549269221,0.0593846039705,-1.23212619444,-0.447845174476,0.137786290765,-0.54584373277,0.329198322706,-0.384801070066,0.215555422807,0.756952810168,0.366105020359,-0.591693063607,0.166213843307,-0.461229963204,-0.206276167303,0.339796994624,0.900686968099,0.740839815346,0.0991276887201,-0.700125589769,-0.091384110934,0.224354905407,0.784131278782,1.03368509742,-0.280938191706,0.286862418382,0.83020173167,-1.43894705522,1.16839757021,0.424219459207,-0.319784850867,0.710610732076,0.575373112968,0.479871865034,0.989754207348,-0.687319038507,0.704690021363,0.816032704817,0.799953626327,0.224369039042,0.349563356168,0.827937929492,1.47033186554,1.89683184136,-0.772977833615,-0.528232311241,1.01794151844,0.228032507188,1.37972068618,-0.132864300883,-1.4861867476,1.43791104145,0.0904536821699,-0.462484984828,-0.519156575778,-0.28401421321,1.84663241264,1.13085887444,0.0242894532061,1.11571761661,-0.589909659191,1.38622000139,-1.22966691094,1.70013446934,-0.409912057715,1.48234379883,1.57779624909,1.18969599516,-1.69455790489,-0.786122350561,-1.46112068158,0.035910501057,0.856247231157,0.467404608994,0.483004846558,0.976640644405,-0.0997741768201,0.874909928529,0.464767478821,0.185830742913,2.08542079407,-1.28474835246,0.777338042088,-1.97130642077,-1.73500634486,0.595876835606,0.26943050877,0.571356385707,0.826296714354,-0.959952540946,0.476690565888,-1.70830200099,-1.38246474431,1.11853508116,0.942220505231,-0.982087037561,0.00565751660499,0.759616769736,0.33371263009,-3.11772568464,-0.179363966519,-1.01523699806,-0.473744384671,0.501421693039,0.908864407277,0.807947340614,-0.534158053215,0.27485325274,-0.921306168211,0.264365039269,0.00484470826653,-1.77694456914,0.971896058253,2.07876798191,-1.98128948799,-0.00048840366456,0.350926771005,-1.72621507097,-0.0601271051243,1.19791872884,0.765716098927,-2.05060362378,0.228813181396,-0.188567797867,1.41853284561,-0.0161044428001,-0.660795630149,-0.662968580837,-0.479262227858,-0.457961181769,-0.36759044543,0.821468753068,-1.47513070815,-0.901464639342,-0.24531143207,0.259661820309,0.920271691722,-0.838699119609,0.379125064196,-0.327155884752,-0.201376812388,-0.288924698249,-0.0981010990503,-0.736153596626,-2.22755355567,1.31908919393,0.00296531021538,2.20573505259,-1.30697039895,0.174831456707,-0.30781996652,-1.13143033905,-0.804506021221,1.65633985171,-0.617813446882,1.08209303338,0.568710402286,0.576023482511,-0.307438693466,0.802877556516,0.182050114127,-0.100380483332,-0.20959328336,0.146445554671,-1.73635063906,-0.32542715108,-2.69165630748,-0.656530402362,0.12080721106,-0.668525651876,1.64701921408,0.917780207611,0.229554100548,1.20820161549,0.281139166426,-1.11517806694,-0.223681882935,0.520868164581,-1.08355095578,1.6425583905,-0.216431092632,0.738250661732,1.29166192851,0.624946985347,1.20649495161,-1.30562734738,-0.67416049132,0.1271060523,0.818906409294,1.07644106266,-0.442574138042
-2.86409181766,0.408251237038,1.29214616039,-0.13711374786,-0.0995428044379,-0.252001474912,0.212226087495,-0.3572134652,-0.444532642368,0.488216589437,0.658752376883,0.745242083155,-1.20626168732,-0.135448937239,-0.498901124279,-0.537872972437,0.375296768432,-0.367429482476,-0.325866997285,-0.808990263374,0.814125713602,-0.779171956081,0.820637267124,0.775043236334,0.671952373264,1.34426666155,-0.438251000642,-1.62059532864,-0.516812780509,-0.233774724695,0.515200626937,-1.10402953531,-1.80587335661,1.19018126256,0.622109994356,-2.35797874314,-0.136219579354,-0.14628229422,0.381546399881,0.263729970004,0.776532477997,1.59757064121,0.20830447842,-0.578743068107,-0.732592233628,0.869243809504,2.1756706644,0.172981340148,-0.781083682464,0.0275316645279,0.556230504394,0.818163701229,1.88021995402,-0.258599745712,-1.35821579394,-0.491679078465,0.23135358963,-0.173439196766,-0.290391484752,1.37759223875,0.566562670264,1.00087282631,0.320191205803,-2.41452560809,-1.27818978185,0.25854522191,-1.40731594647,-1.98105698081,-1.70549745717,-0.327879104776,-0.603559310267,-0.102063084962,-0.107810250487,1.47931824124,-0.986909966491,-0.248078742599,-1.44026950251,-0.375518427087,-0.532455562417,-0.377202001258,0.899762088007,0.579641239863,0.774522014856,0.206735058891,1.29421959684,0.404740891482,-0.18579614782,-0.433253186667,0.460165308555,0.713039248107,-0.469912489971,1.45334866641,-0.932183353809,-1.3764484119,-0.60032206461,0.477528699563,1.65655946337,0.340188696441,-1.50723133362,0.0445629361407,2.33731776397,-0.618127855124,-0.354002457608,0.320904295197,-0.752535610578,1.47377710143,0.504244936491,0.206060218494,-0.988225501085,1.38901117954,-0.134077327877,0.067342399158,-0.569432469915,-1.97239281567,0.635562777241,-1.70467047189,-1.66490742886,0.133773011988,1.211624645,1.15466725319,1.18799526126,0.00527186219916,-0.229007357727,0.396758959731,-0.0972496614995,-0.804212774499,-1.34204948544,-0.823143343638,0.795774873151,-0.205886561452,-0.316271232972,-0.434136926426,1.05881044033,0.304788955134,0.0846686516604,-2.60450930051,-2.09965096754,1.80337448652,1.34856720374,-0.495902090305,0.427950496166,-0.211667309001,1.1802315236,-1.36738377138,0.987695377911,-0.964456329304,-0.261518950633,-1.5699229376,0.1080278986,0.283958848915,-0.062939693572,-1.62274051044,-0.72731179451,-0.306231870917,2.2364770482,-0.774818932329,0.471166351864,-1.30003510896,-0.192853003308,0.107545794137,-0.734075735856,0.17010241136,-1.4283030716,-0.199290161618,-0.0903972209483,0.0943530655558,-0.232418728527,0.0392071158258,-0.189482137531,0.226345023424,2.21621701834,0.104279400074,1.28882249261,-1.15869609448,-0.205988451148,1.87982774773,-0.352514012501,0.770540775868,-0.217823182007,-0.207086178314,-0.858991806024,0.164105980753,0.608476948677,0.0835167804817,-1.76908113591,2.17271878602,-2.3892060488,0.0750127986847,0.301002965731,1.88211223108,-0.765405063458,-1.20466194972
-0.636671531975,0.382920337112,1.71414731429,-0.610372882553,-0.796841924252,-1.04461685072,-0.189427298779,-0.700940712094,0.749019005362,0.264147315604,-1.80525743462,-1.3834749823,-0.958456614017,0.298061214727,-0.208738653932,1.04284263995,-0.0448923396855,0.320299625771,0.291310960311,0.54335945535,-1.43982279759,0.712173285329,-1.61910062978,-0.490729038252,0.619430901535,1.76850018481,0.524393678982,-0.807783733347,-0.835326445929,0.456521061525,0.0271307163783,0.383591270569,-2.7468625372,0.0847706640048,0.214952135613,-0.450804085284,-0.556346983893,1.49595926649,-1.05230596006,0.347807331013,0.0903319328877,0.280524038071,-2.1510164185,0.631175540289,-0.794244483755,0.998497384389,0.373104502821,1.12306388518,1.03670174802,0.974301183584,1.05235485466,-1.7830109855,-0.471281863809,-0.801608502965,0.0477317669808,0.0167146063951,-0.186858114474,-0.265613851681,0.574364635231,-0.566221864289,-0.598574288117,-1.57553453919,-0.383792277973,2.33230126915,-0.994214324521,-0.262841371086,-0.0915901716499,0.832759238183,0.598198986261,0.20022791711,1.13367515427,1.38636361213,1.84837046869,-0.162966742737,0.600108530018,2.16012707428,0.891404400775,-2.20592639461,-0.651927860578,-2.12706053979,-1.2989975823,-0.0108310789506,-0.736870835794,0.615886882031,0.19620752304,1.21031600837,-0.161517246067,-0.820903463584,-0.803165134966,1.01625717199,0.573907363014,-1.9327648149,0.695963485053,-0.00283513810636,-1.91930098769,1.93691332385,0.173175281973,-0.0424544843638,-0.787561957388,0.183687614401,-0.194925451537,0.480543378653,-1.9346239837,-1.91692094556,0.641517903091,-0.0203447230809,0.906400908516,-0.642518370389,0.885315183665,-0.298596846206,-1.51444708863,0.631702683825,0.335337181553,0.277208313816,1.81758249752,0.429535331676,-0.117547128995,2.49813729998,-1.12711707357,-0.895218758123,-1.28601336486,-0.296784209319,0.213893864795,-1.68299692494,0.443128173304,-0.316470094788,-1.10790218893,0.276883982,0.0555313581343,2.08605446689,-0.144371492436,-0.597345356447,0.44230116002,1.25827980007,-0.434657456157,-1.1479764888,0.0479066750694,0.860580547204,1.52865134777,-0.488193982701,-1.45395914212,0.0684446849472,1.28286616874,-1.17384576777,0.26398631834,0.0988920001352,-0.28054815169,0.156389718758,0.545848738226,-0.244416839366,1.09920700571,-0.112665318562,-0.360630490031,0.79168278918,-0.852358138212,0.175911201996,0.385158250644,1.82178771237,0.534587919127,1.80750102393,-0.38614101131,1.28719590328,0.249207235889,-0.64839615856,-1.137299342,-0.203191247458,-1.20955958317,1.16941146768,1.60206014366,-1.425591507,-0.0228157611638,-1.08846938691,0.0782524151938,-0.450038343779,-0.759095656567,-0.87908363467,-0.763685281033,0.693397237554,-0.581504170705,0.154548002767,-0.411072717943,0.0542081756889,-1.27163005204,-0.0249217118741,1.05512240301,-0.0378787262489,-0.0642561162863,2.2843859614,1.52492791563,-0.764847546868,-0.219481070944,-0.467575317398
0.601358259567,-1.35426720682,-1.60430884681,0.123831542163,-0.761768147533,-0.213621374722,-1.24810154278,-0.321386139415,0.928894293061,0.553116881019,0.0410661794648,-0.583192161117,-1.0618029933,0.295583515677,0.736966523586,-0.574387879425,-0.17746653782,-0.0323172335195,-0.203866845036,1.1775313357,0.275614596764,-1.76711812238,0.506414375713,0.763033011855,1.21692693357,1.43867777106,-1.19946477597,0.337033294458,1.69602787162,0.108082983026,0.47043778099,0.335344456764,-1.30553054564,0.657157237803,1.41388451968,-0.61103736087,0.478915757115,-1.02438063488,-1.61499942987,0.035135733565,0.177374058662,-0.65567802009,-0.668577103888,0.843925317113,-1.65303122794,-0.673073711224,-1.14552169185,-3.4782520839,-0.455977519028,-1.08562281199,1.6152466808,1.11664892911,0.0178439606444,-0.526445447215,-2.21946700127,-0.34358060057,0.764696819004,-1.37704816543,-0.876584597399,-1.36742526559,-0.369533370331,-1.71165209252,-1.8274244726,0.215397230474,-0.36307278496,-0.178715757689,1.72479023568,-0.732300620189,0.982535379522,-0.00642447046913,-0.294261782361,-0.438351921564,1.68225509251,0.620183115734,0.654715816537,1.68482913918,1.41644143384,0.288196919001,-0.146391308748,1.32445710071,-0.489331300769,-0.955506974408,-0.526992851718,0.10016904975,-1.21081311386,-2.14359049978,0.8291093172,-0.909403031121,-0.426180578599,0.198516071347,-0.557806247474,-0.653997796446,0.658725575517,0.496285440885,1.64391503234,0.019242921672,0.0409637496948,1.47264627445,0.430212161871,-0.961450871833,-1.10518780727,-2.43809890623,-1.36306942382,0.848204254139,0.225582844474,0.383634074809,0.322541585089,0.0459822622342,0.144703263067,0.732272828475,-2.23450324597,-0.478042853747,-2.72498987207,0.194487435503,-0.363457592037,-1.06998321407,2.73541167063,0.0467468384339,1.0737132036,1.42505121646,-1.35593077736,1.03188323375,-0.580511073221,-0.386970737611,-1.23575311539,-0.0267546929274,1.53074509099,-2.9729231062,-1.39816976051,1.20125884068,1.19578704348,0.529864793593,0.780262989972,1.3768176232,-0.445706351175,1.06007126946,1.37282632946,0.768383173548,0.0494361230185,1.45171767948,-0.464624800614,0.0471519950274,-2.68180176659,1.50113571252,-0.321060743496,-0.207757926688,0.426159327277,0.779380108679,0.211257796977,-0.0764149517116,0.554655812973,0.338558133198,1.54248790792,1.13600530983,0.0318719274727,-0.235873700121,-0.102906663225,-0.217545553004,0.128888739437,0.148743722486,0.130009798468,-0.668587145769,0.314012977145,-0.539709470322,-0.906335649478,1.77230870406,0.222382327615,0.583761642649,0.1376164053,0.16435354955,-0.119700856332,-0.252446054473,0.69154786174,-0.233418684705,-0.865752046014,-0.996000213861,-0.250588735873,-2.22606863664,1.5231491093,2.06094021211,-0.0449289097292,0.220781173688,-1.0925470248,-0.390310924266,-0.663770927343,0.434792214662,1.96409461208,0.232807906644,0.679781754706,0.755345395253,-0.697702403129,-0.0136314375163
-0.549536854707,-0.490423813086,-1.5927853973,-0.210216577509,-0.0250074734084,-0.661908889354,0.332065574168,-0.499747361599,-0.276598821226,0.101979540544,-1.53350837913,0.886724561443,-0.438204190074,0.480378581308,0.152950797083,1.86690744911,2.53544299421,-2.16853619809,-0.347738877513,-0.85743413905,-0.518455335938,0.460522977443,0.956739836649,1.6773369973,1.31775645377,0.430286829156,1.82911173035,1.86566525033,0.605194411525,1.4575000749,-0.410143488916,1.40889401591,-0.146873370311,-0.323917952776,1.59990123226,-0.685929960827,-0.269913172608,-2.2191053874,0.641650403061,0.444050848953,1.58890401729,0.134286539181,1.82834829085,-0.812412236967,0.597644360499,-0.697136674024,-1.51121575873,-0.231108767299,0.519496448786,0.17026042867,-0.826539827829,0.018451541783,0.50476864714,-0.996848446131,0.541701461632,0.30694226234,-1.55940129839,-0.941666780363,-0.229320930932,0.768342859675,-0.703176122765,0.470262395066,-1.66001482221,0.129523183043,-0.0475716767277,-0.141794541189,-1.59360535745,-0.70067970425,1.37482081432,-1.1256201578,-0.43232225255,-0.2028657535,-0.084228319144,-1.64364896485,-0.729512408568,-0.491976349039,0.338757381081,0.952955885531,-0.443926980433,0.141394308597,-1.03070007066,-1.34454555417,0.0117147468197,-0.370981598866,1.41594642646,0.327113443873,0.439570970314,0.698241523912,-0.856044953896,-0.793547947257,0.279022845669,-0.0078767093751,-0.820894903845,0.745543950516,-0.855853380247,-1.00752074679,0.464929587151,0.460295149777,-0.508531113882,-0.939327911919,1.61486802423,1.23875283744,-0.372543773585,0.576155111991,-1.65672722976,0.50607890178,0.401267914786,-0.385611084381,0.862380513872,-0.406854230917,-0.0993689103637,-1.91816927741,-1.17168913674,-0.96277561089,-0.155295086123,0.352523546886,-0.113499925841,0.0579689990597,0.47430247799,-1.14259709116,-1.34987807801,0.37576290766,0.762739046106,1.71984628322,0.130902395231,-0.105100706705,0.147251085598,-0.508831036185,0.219209080029,0.296100560918,0.21660858089,1.5523724356,-0.671047525729,0.58984368621,0.0387834336173,-1.04212361829,-1.22319226907,0.416849872864,-3.24559230748,-2.18857267247,0.379787937933,-0.204724872909,-0.694754366022,-1.04175721668,1.25232518888,-0.97766847314,0.661790304435,-0.44368141175,0.484894530899,1.80330890236,-0.237385780152,-0.140687159219,-0.262357849482,0.592950631129,-0.399652631515,-0.0726378160053,-0.823833386269,-1.15931808483,-0.0100317987853,0.579626522466,-1.09714280438,-0.294195322138,1.48251853014,-0.226445466338,1.1305739738,-0.626812349939,-0.874356383818,-0.438179451317,0.591485058329,0.171058232422,-1.00232665324,0.786706680623,0.0647760242422,-0.641725852594,1.31241994494,-1.14548983233,-0.0570539268061,1.13358641173,-0.676953367216,-0.714322993689,-0.395986604165,0.838518177927,-0.862830992826,-0.643265480948,0.740685104926,-1.35030028904,0.620675804007,-1.36145801273,0.489871801941,0.298506037253,2.6576018978,0.326467755506
-1.01831064458,1.94157488314,0.044398172956,0.00979458843381,1.51897750667,-0.853522699476,-1.97372831895,0.620592119519,0.151824744858,0.637703159942,-0.13110209345,-0.0206006923199,1.44955814519,0.834652293073,0.349536973984,-2.66410556757,0.388486816196,1.99111029848,-0.804851726809,0.224410333538,-0.0763567322626,-0.469569019386,-0.98068185093,1.21400297374,-1.29642883775,0.706961548666,-0.633087540766,-0.405466778224,-2.35526103571,-0.402947387681,0.327456699201,1.33992836284,0.676325311035,-1.59336180058,0.688289314633,0.256969225151,1.47558585958,-0.869092171394,0.975971043079,-0.347351603007,0.310887113958,-0.498076193979,-0.955658381277,-0.724209079426,-1.04325885004,1.47403249156,-0.523858539816,0.781608830625,-1.29182273119,1.23184188774,0.440221637541,0.328005358388,-0.0556366096523,0.735805169575,0.771612173749,1.29160957851,2.15614508569,-0.0022638951968,-0.28174593375,1.75881801732,-1.90066627214,-0.222786013163,1.03884693339,0.80908669295,0.0699268468597,1.1329684745,0.828211187716,0.523616731735,0.329190543848,0.464758886687,1.20277723287,-0.153220412397,-0.782962043056,2.80605305773,-0.205930969882,-0.614781694578,-1.06915363527,0.857311011436,2.45527591993,-0.585348000279,1.70106504583,-0.647512725892,1.63363783684,-2.73031733588,-0.457078336455,0.0819553654641,-0.468800617269,-0.155267451699,0.545326336965,-0.305972519818,1.34265215451,-0.217528508184,-0.0548213390777,-0.628708958074,1.43803176945,-0.629555643414,-0.699794092969,0.764680908022,0.205233875858,0.0828601631039,0.651271083647,-0.832668507287,-1.04264512525,0.539345440493,-1.5341125716,-0.569435329545,-0.421820410427,-0.18922953596,-0.778268102583,1.24171998674,0.422506393341,-0.022615053078,0.864344248373,0.1496265525,-0.928162101767,-0.71228575519,1.02479177952,0.373196721258,0.748315814374,-1.23046501313,-0.527729652517,1.56884312086,-0.886920759096,0.226310008468,1.81445894029,-0.780430880892,2.15255874298,-1.6270242286,1.65098776486,1.00571605704,1.53651937568,2.1781194486,0.86697108205,-1.38503295952,-1.0388381282,-0.673828176318,-0.66298071984,-0.816282181073,0.20818076444,-0.124433763951,1.11132870535,2.00104741836,-0.0395183894479,0.324778392961,-0.184888029628,1.28950903843,-0.233194795834,0.52282302844,-1.66165625682,1.26086000739,-0.93952329247,0.135715298966,-0.862761857405,1.1250382086,-0.225152870257,1.71491502373,-0.804161572909,-1.31560196548,-0.578207715475,-0.217129713992,1.16416038154,-0.415707092031,0.95422603008,0.919078322281,-0.905321377035,-0.373277428912,-0.397312521743,1.51339146923,1.40617359003,0.0852723677097,-1.52217341238,0.790385260307,-0.261738824014,-0.200705000396,0.69451089585,1.95242068521,-0.606186381556,-1.50337528975,-0.327878729663,1.27992480246,2.59681971542,-1.32235883516,0.108975986914,-0.766985820705,0.875212984291,-1.1170957973,-0.539811845265,0.570979443434,-1.38481176955,-1.41173697356,1.3235076429,-0.410801902569
2.18009787553,1.3791553361,1.39546380766,0.0549856055509,0.931217074892,-0.895026169566,-1.62035895273,-1.46162785021,-1.21674856901,0.842197303194,1.52661384861,1.83652508014,-2.026625795,-2.07978223607,1.02172836983,-0.926957545454,-0.384814325335,-0.386749892148,-0.732979729951,0.59777975788,-0.27470930814,0.605639567341,-0.120956051305,0.713946157314,-0.941832511104,0.127391461083,-1.23975680919,-1.67161891244,-0.619003048192,0.831762379566,-0.773920163225,-0.0849788956409,-0.349012087651,-0.0315841360669,1.48864156638,-1.34060180346,-0.988858329686,0.801241899602,0.239879046333,0.329785173407,1.43853421983,0.257978867598,-0.696837714938,0.242957057853,0.733250965165,-0.0158213121429,1.42944167045,-0.156863873044,-0.20536828956,-0.625384550478,-1.79355567357,-0.482476261566,0.379577874144,1.69776309875,-0.695700632846,-0.330801560006,0.901474794934,0.323090031041,-0.0984609923729,0.0212834693404,0.214761225682,0.394268356273,-1.02464189362,1.26308882869,-0.0765127010063,0.342797643268,-0.461267461798,0.550342515784,-0.451658748149,-2.44423774828,0.154781459751,0.771286436116,-0.542571650267,0.716649375993,-1.59666250835,0.177042535663,-1.18756286425,-1.27062275984,-0.732983650807,-0.893085742126,-0.0449428761063,0.613130138115,0.231919850508,0.669036418037,2.33702558994,1.24779801177,0.639283915225,-0.196295927305,0.0621018406764,-0.625233914342,0.693846262231,-0.0466633845153,-0.988147252091,-0.88429406085,1.291034771,-0.0578337374176,-0.524675367573,1.29340747216,1.07717688328,0.13322682385,0.902059022382,0.751962558963,0.262775947955,-0.578814287592,0.0284772842005,-1.16802575107,-0.328572078125,-0.316760351848,0.860733645507,-0.849089548743,-0.642823305863,0.243778236509,0.564212420223,-0.317102526037,0.776272259007,-1.50165880033,0.759335024158,1.3138647734,-0.437838569995,1.59030536027,0.835662307419,0.108683452007,0.817058024473,0.094839432548,-0.49433984983,1.49449853223,-0.273778196838,0.348233515652,-0.969336321378,2.16041770083,0.782748968088,-1.92386807972,0.993343473555,-0.401209999199,0.275164984966,0.552409175725,1.87137500241,0.743266747106,-0.285261714127,-2.32549139062,-0.0181523261246,0.645864231287,-0.986368816879,1.37712838143,-1.09604096649,0.376842005936,-1.14265551487,-1.21062656912,-0.0261441844692,0.839897816304,-0.450652628655,-0.996949408549,1.8287528956,-0.3783466062,0.400986103844,-0.399374519357,-0.205897139384,-0.987991512135,-0.804057531425,-0.0386860122112,0.171949576377,-1.03146709746,0.323200275742,1.39777822961,0.376976828546,0.794194609409,0.518515871919,-1.46569830986,0.919779738974,1.35822669119,-1.0472113966,-1.27047950935,0.845700206139,-1.80417747251,-1.21789648223,-1.18071903536,-1.15621818162,0.822374656673,-0.075034873011,-0.655647443161,0.533816101587,-0.060013275644,1.38312326834,0.361870654365,-0.502423022347,0.515975399936,0.357165380164,1.51100749869,-0.308238829721,1.07009278328,-0.834169983772,-0.878353538742
0.0734542543599,0.897126926742,-2.41934288551,-0.180574043256,-0.766796306767,-0.569683897092,0.898523968048,-0.652844183161,0.498352559823,1.78744527108,0.734444937472,2.68486164809,-0.401853332774,-1.16510457553,-1.53020475559,0.420807180355,-0.251426586158,-0.705472572356,-0.739682867687,0.506454014724,0.623949492736,-0.445971852433,-0.920462895652,-0.382929234675,-0.280440697896,1.00117271066,-1.73173328972,-0.207509773733,0.275439610561,-0.477847501487,-0.777140807456,0.0630623306443,1.06790852697,1.17019772684,-0.633045350301,1.11040560993,0.969075757437,0.806207250472,-1.20995259815,-0.455045203107,-0.129344172825,0.647769295201,-2.70994394793,0.40328211825,1.39611008633,-1.99558550115,2.00647245204,-2.58049202686,0.322704442496,1.56360513228,2.47922233888,-2.07168189424,1.15905054016,2.01500864617,-0.687711003142,-0.712998120919,0.0244587642626,0.398821447592,0.768127642715,0.612168785309,-0.429000225747,2.38812456556,0.779797868337,-0.975418132845,1.28266899424,1.27989066377,0.640877499526,-1.59049770517,1.00108591408,-0.501221889972,-0.146149397715,0.704000547837,0.00245790033792,-0.0102018088594,1.76541934395,-0.921685421447,0.35048903908,-0.493726888216,0.441167300565,-2.10349816061,0.802725791584,-0.549433251985,1.09661220884,-0.39842130479,-0.901175050907,1.52706116384,-0.0948613806844,0.0663562683733,-0.183570682243,0.602984180289,-0.77479576378,-1.57639889042,0.0108023985705,-0.231737931014,1.3705495149,-0.887732855068,-0.798512765353,0.140613057507,0.558314319558,-0.908857471707,1.13805613809,0.24618099989,-0.760125048109,0.87196957845,-0.576205175445,0.314258085715,-0.0312710972053,0.955504925672,1.68660443579,-0.721542893974,0.366726102946,0.0491488600933,-0.905110845805,0.0871253837637,1.42217790957,0.766930768152,-0.347980949162,-1.02362806987,-0.0236884282511,0.277148626499,-1.54821705607,1.12392738379,0.516651260165,-0.63444326558,-1.84047213764,0.173685843629,0.611084816765,-0.320361831137,0.95551793812,0.138989526321,-1.31317666212,-0.692611718491,-0.582106559235,-0.660142067816,1.24799922241,-0.423308012862,-0.0409121680733,1.07203253927,0.666107670315,0.587563009814,0.475886900264,0.077729227409,-0.329888161228,1.25484056208,-0.193614202955,-0.0877294262486,0.158908679818,0.0860587366817,0.023814343297,0.957712991553,-0.752853168642,-0.903844925305,-0.521348440561,-0.102427328628,1.144573675,0.9538212052,0.684338849068,-3.04926721703,-0.988500889747,-0.647172735291,2.06456460737,-1.51398063368,1.09254309037,1.85843077697,0.0710106687553,-0.484884769816,0.974882629487,0.58060779815,0.409057022602,-0.918075781969,1.49002447824,-0.0335696534735,1.13791658092,-0.568435302038,0.195666186229,-0.989855516884,-1.22317686028,1.62910758162,0.616438609174,1.29441471518,1.00408880787,-0.410943892674,-0.640290366499,-0.194827093608,1.03788939446,1.5244405096,-0.591379486162,-1.01212341,-0.581589060684,0.658581129043,-1.25282371813,1.99144745219
1.33439308952,-1.48061534675,-0.882116126686,1.08441402208,-1.50093019346,0.237322694584,0.180024618209,0.101489316343,2.29046497287,-2.20615819823,0.983340469397,1.38575612164,-0.887429582421,1.12778230864,0.456051194847,1.59785797021,-0.272825285345,0.443235485089,-0.534727665187,0.211882551695,2.96471703079,-0.267338598022,-1.21882008866,0.766495176996,1.89951847807,0.504065205738,-0.751794926425,0.380735737429,0.992939143964,1.07135444265,1.79642784591,1.54880846526,0.067528211839,0.715958447477,-0.76655136653,0.453527298796,-1.15791557261,-0.596533352306,-0.305107228475,0.824333430904,0.53472218687,0.752310527016,1.09398717959,-1.42896611732,-0.0810192009109,-0.647172008249,-0.0816138217913,0.0778416094658,-0.787323406973,-0.270294139401,-1.10428922838,-0.383643139452,-0.13069685489,2.06281431623,0.446170627603,-1.01623140917,-0.219974240114,2.12421426959,0.697038743571,-1.09813346335,-0.314505898254,-0.177237978524,1.33262031632,0.148857494164,0.354475088552,-0.74957130135,0.669819623602,-0.330430561831,-1.31263139798,-1.25244417822,-0.936768262235,0.726381910065,0.431614666056,0.420706428424,-0.509830393513,-0.0831586841221,0.768994681857,1.3110795581,-0.0983442366503,-0.683507916651,-1.11351179322,0.156321862942,0.26001050463,-1.73332549904,-0.27305996223,-1.2658565824,1.25654451974,0.848714366244,-1.01171479945,-0.00471337342432,-1.39207859513,-2.17166406421,0.603669449185,-1.62327490045,-0.521129093657,0.00545100851597,0.268085049555,0.412426610459,0.0123655995503,0.620027587957,-0.536413408776,-0.204452037654,1.43070566353,-0.820427795872,-1.73026676283,-0.225848683787,0.992305441953,-0.478872925612,0.786091816513,-1.04147173116,0.508357299463,-0.724002228093,-1.35841213936,-0.443041662485,-0.420819925224,-1.54227941154,0.445310540778,-1.57621899373,0.202324800318,-0.201243346044,0.685385840163,-0.721900950425,0.248563674156,-1.58512977772,-1.11948994181,0.149182759723,-0.33952365115,0.325376705213,0.954740143654,0.0754940301219,-0.399400792664,-0.0713698878569,0.899691734552,-0.0113903320161,-0.682092982825,-0.260902653905,0.285701586144,-0.488708512127,-0.530335037039,0.500549948712,-0.148491563297,0.0521384522581,-0.0865752344913,-0.295181576125,-2.00816688769,0.0479697896842,-1.42112364112,0.45044413178,-1.16585349966,0.525989620136,-1.77731815774,-1.54368786176,-0.792460395123,1.16568100906,0.590456307667,0.133540859389,-0.540837363313,-0.653094577239,1.22469181832,-1.26594046939,-0.0161714801644,0.972054927423,-0.52823534269,1.30988142012,0.574171780964,0.474562499411,-0.65974196843,-1.01281471731,2.20530972029,-0.114842350859,0.646000374559,-0.630866138121,-0.092127366002,0.45767910928,-0.810106700976,2.2928698293,0.878879911731,-1.058691895,0.208184695284,-0.317334235988,0.320931231409,-1.04013783368,-0.0389585206505,0.947714070893,-0.878460404121,0.30148568771,1.54951443418,-0.562689062357,-0.50076354084,-0.417258597945,-0.727185360913,0.633922352374
0.463472435227,-1.48920474799,-0.190822772726,1.38434787038,0.892944592513,-0.165763278012,0.627796041985,-0.836314810966,-0.0621364151666,-1.78680965466,0.191620227117,-0.628123892696,1.16681954653,0.0999133901381,-0.330284426275,-0.648158262944,0.441359303797,1.18299566488,1.65207870623,-1.42065856352,0.356360314093,1.78430656866,-0.441594501298,-0.768409212287,-0.68285347475,0.801355890356,1.02312028772,-0.357011109712,0.307938422225,0.270136428436,-1.49579359637,0.604999744783,-0.379602328951,-0.0490654245922,-0.486819118974,0.542359446209,-0.904524171557,-1.73315581405,-0.1779745333,0.452029051091,-0.186713740656,0.872054995356,2.30751115653,-0.440489278688,0.502993509842,-1.27123258953,-0.387850484027,0.53281509458,-0.484576737464,1.02685978269,-0.326124479773,-2.55201756634,-0.657111543391,1.13498990586,-1.43065631023,-0.0817606092762,-2.4126975798,1.12811585,-0.963858889721,0.888361606009,2.04803003563,-1.34607729997,1.15873433002,-1.11242164216,1.49369172844,-2.3058919276,1.01381617321,-0.709974624651,0.884702998477,0.362201473118,1.61442956776,-0.0528128046807,-0.589923884555,2.14755505917,0.0408450574227,0.0630942438939,0.083782111593,0.310860589548,0.426631100651,-0.946345440974,-0.251874324146,-2.54972267624,1.06664313351,-2.27497789141,0.682836894936,0.251257748084,-0.299519486587,-2.06911144573,1.74334416056,2.06321851452,0.545364943664,-0.0130726280215,0.711386432032,1.26635229389,0.748469295531,-1.9089864092,-0.272501463273,2.40253984172,2.81783970641,-0.000338197985684,0.14592775231,-0.26224742113,0.390362839381,-1.76784675959,0.173489330725,-0.104242904025,2.5012690057,0.548028756742,-2.23908744697,-0.372495909095,-0.142060926229,0.317621995775,-0.660087747709,0.378114087993,1.68126580556,-0.10993229361,-0.986731291114,0.63322545403,0.928353775862,-0.250561359204,-0.0686108615264,-1.26866113728,-0.859100038441,0.511640626244,1.2386144185,-1.57766207733,-0.358073396639,-0.473148704692,1.5500580322,-1.10655985826,-0.344795236122,-1.03668868161,1.35034807981,0.0643278446757,0.207442522224,-2.40396068092,0.00974776425181,0.645602926431,-0.735594159161,-0.579198423663,1.08127008573,1.60945612271,-2.12610172731,1.65990217411,1.13501742292,-0.246925701817,-1.23983268218,0.170671255924,-0.960455588255,-1.71362339147,-0.930113886321,-0.0381359093056,-1.33538022425,1.34341918798,0.68092831329,-1.23489541616,0.0891007222029,-1.84089233663,-0.722716524059,-0.902611307816,0.467646738207,0.491439260284,-1.89642324209,0.990409335199,0.94424236863,-0.14755299879,-0.998295445645,0.76400361681,2.19147816225,-0.0812929972142,0.143317978566,0.98099571043,-0.964241938414,0.347252530465,-0.176850668023,-0.27317907521,1.76194575213,-0.688658059965,0.336045517063,-1.87243103415,2.67992551448,0.431419210387,-0.599716513534,-0.0291169282583,-1.28594177563,1.22747931702,-1.82081998524,1.28774609353,-1.17255909489,0.541915165732,0.0935364659704,0.586693107088
0.384426904976,0.444392351857,0.0910066586026,-1.07700535386,-1.29742114867,0.520509412105,-1.51310645252,0.621243966993,-0.68433102561,-0.478434950953,-1.1618425573,-0.177380598012,1.51064913303,0.126417311394,0.597409771,0.15678669701,-2.03091849349,-1.0027661987,-0.95794670166,-0.123597026379,0.578462867039,-1.89070460563,-0.171130449935,0.535652030444,1.10024733725,-0.382565772113,-0.151986134198,3.08965796782,-0.241984394259,0.371302866389,0.31918076718,-0.128508412167,-0.109522321048,1.31460710804,0.968173192555,0.382799137063,-0.338716471996,-1.2745635844,-1.17083931488,1.59939102928,-1.06839639423,-0.399938012684,-0.944824524519,2.10590050361,-0.492814920757,-0.274160901199,-0.697035518502,1.5379427121,0.0505974082864,-0.773909592481,2.49633828488,0.0463521002066,0.855352016129,-0.201276956082,-0.990564260448,0.00776469684643,0.221600196637,-1.72220711368,0.734277991615,1.23537005955,-0.588613311986,-0.713364263609,1.53643207168,-1.17854203521,-1.31437115353,-1.39333653881,-0.399195374741,1.50200217883,1.14014701076,0.711571858185,-1.26662740139,0.110376997776,0.389539096382,-0.729529606128,-1.03934432597,-0.790786463619,0.312681830831,1.04975007302,-0.106714477389,-0.440174819924,-0.61033479074,0.132883085569,0.578841640023,-2.03446345347,0.197375891256,-1.00534062814,-0.413881140099,-0.59531904465,-1.72390277713,0.200234395033,1.14277958188,0.700182913724,-1.01868556303,0.325261791597,-1.37542832542,0.274034273325,0.925023153306,-1.42874085223,-0.119707269788,-1.80256370368,-1.06173612785,-0.787426400254,0.191983886189,0.0895376318432,-0.506684807468,0.371267400031,-0.836262608822,0.310118327795,0.766572892819,-2.02747741125,-1.54495911177,0.206929656913,2.22475401625,-0.749062052708,-0.26117577221,1.65467981437,-0.0543006381635,0.841244207735,-0.239377233114,0.133085202816,0.427489502522,1.29706401248,-0.940184429296,-1.32739069103,0.627793932546,-0.846239971985,0.295386664629,-1.92026493127,1.72106943878,-0.157150516118,-1.53118285765,0.156355227454,-1.65067514874,0.93983349068,0.737821300217,-0.343353539068,-1.92047353768,-0.47811623364,0.646275177462,0.614283685379,0.638503879703,-0.0963545862342,-0.114261398155,-0.310593190871,0.30981522698,1.74441432429,0.874671570014,0.228258510044,-1.17071957591,1.28483890795,0.676055585601,-0.18047878357,0.0939184100512,0.648034561661,-1.47225411684,1.80329831627,1.16757849926,0.24934948108,0.845428953516,-1.25249444506,1.38305872773,-0.19435123522,1.67882356344,0.619573707898,0.62386579214,-1.78241026398,-0.254710981105,-1.78419520393,-1.71428772993,-0.587255157777,-0.0644978335542,0.215826897584,-2.92581387242,1.06378987329,-0.155935530709,-1.51602717938,-1.20543592538,1.21093614994,0.548051543571,1.69233662592,0.85309892737,-0.636523980784,-1.02931430778,-0.202674742965,1.60655309999,0.620992220397,2.40655303279,-0.0358563654448,-0.360315134663,0.855527767705,2.64851605158,-1.85308877557
-0.65882479306,0.101138677919,-1.9404554973,1.25898218226,1.02559923074,-0.325190228902,-0.434376359597,-0.868259907605,-0.355308306482,-0.129774283834,-0.409690613007,-0.125228744807,-0.0839742031443,1.37181967398,-1.1114065392,2.27362084968,-1.03912455342,-2.97682364579,-0.917975080007,-0.651004590726,-0.352519139751,-1.70632720999,-1.73931102174,0.343015215383,-0.887555764692,0.235346548618,1.56499612932,1.00155918924,-0.631207958889,0.981054158046,1.13406494505,1.13956079151,0.209919968858,-1.30227244474,-0.194549500169,2.28032166305,-0.571195702239,-0.185482152014,0.454528471099,-0.382673238154,-1.74531256441,-0.250331327267,-0.991774408189,-1.31292420903,0.476283939851,-1.60045021586,0.583921866133,-0.751842850685,-1.06950363871,-0.611260964014,0.487963789769,0.140626509972,-0.687086250106,-0.524709438039,-0.550620963637,0.879507471362,0.639478072564,0.946324581221,0.311494035602,-0.923798789252,-0.0336064621921,0.510166980108,0.616670782336,0.259853844358,-0.60096827293,-1.18238419021,1.06738969093,-1.94058594561,0.906202668369,0.143903832748,-2.35610281582,0.596076238862,0.731781109476,0.271783163097,-1.48059648112,-1.15232718553,0.775335479377,-1.77515284469,0.809958212536,1.4359822327,1.24242308595,-1.07560137714,1.06428610074,0.356399041569,1.17601058592,-0.789524337977,0.868970603357,1.33045165965,-0.19288366907,1.395598252,-0.453316044121,-0.957076953173,1.21141940889,0.72933979061,-0.89658633718,0.0298491839771,0.0821923317629,-0.159843917476,-1.66116549902,0.980432154425,-0.936827953148,1.37542120368,-1.1059852571,-0.0261603470264,-0.040726477805,0.0134586289882,1.09215960644,1.01315359631,-1.42682486617,1.01911477115,-1.40626688452,1.03421485416,0.499266994903,0.898472514601,0.365678277238,-0.634197116009,-0.532564683386,1.62188607897,0.192738004678,0.168251422282,-1.25033765792,-2.72546225221,-0.623284903183,-0.13519816291,-0.986772226972,0.407204642016,-0.307943427225,1.01772362354,0.130049133181,-1.16111122033,-0.603425262736,1.03541630533,-0.56286080136,1.02839068357,-2.23705013629,0.151913489112,2.60589372154,-0.0381450639841,0.304416885526,1.09398545515,0.19492705251,-0.178871337947,-0.98824371361,0.152262636353,2.00824633056,-0.0766227819181,2.62931197847,0.073556189162,0.276579737186,0.405837454218,1.69783075488,0.222149562668,-0.0236540397711,-0.00991295676227,-0.331878365573,-1.02619771667,-1.00140434412,-0.779899722767,0.860958824277,-0.283067694806,0.390901077878,0.0600147741805,1.94812946132,0.732027534797,0.141249457546,1.02974560065,2.24130119872,-1.67521148113,1.66585213728,-1.11362007526,0.572272661502,-0.841102557353,-1.37522291614,-0.23434760068,-0.573508847354,-0.105837195199,-1.95578009714,-0.49777426004,0.478564749282,2.20720172698,0.272129236559,1.53467862718,-2.32358428641,-0.656435464694,-1.35363639855,1.53080239744,0.600903585332,1.05837807129,0.407630829195,-1.27369964325,-1.43262221215,-1.86297631955
0.105326849879,-0.247629940486,-0.24380795988,-1.04215126202,-1.15274045624,1.8230930362,0.206170906295,-0.563322532803,1.51410793735,0.934595857943,0.544840895035,0.489697614783,-0.192356848926,-0.741098324409,-0.383934332266,0.769382014864,-0.270792372207,-0.00126846510133,1.3362273409,-0.167660845167,-0.930943187705,-1.09033369901,0.421251462262,-0.078771326211,-1.83831836494,-1.38911715528,-1.46197574397,0.0405312682444,-0.471997121663,-1.36932198232,-1.34224859677,-0.150797807515,0.804786416599,-1.24926560707,-1.70508930934,0.927690139654,1.07986781237,-1.09100971381,2.40033454987,-0.443508499911,0.254242726593,-0.216760005625,0.4571801374,-0.417388348364,1.70942303637,0.451720125894,-0.45136657266,1.44614676588,-0.0131887961604,-0.560975316376,-0.712206543898,0.577349246573,-0.771171371821,0.0323169550917,0.708620496951,0.455745411161,2.96315352695,0.589637205696,-0.217668382132,-1.41210763807,-0.962326235519,-0.450603419923,0.167392761869,0.481927746744,-0.374464764687,-0.943043921602,-1.49230485159,-2.11264957409,-0.828433247647,0.890568581965,0.66949661453,-0.984444339058,-0.645820094491,-0.580357375574,0.749400791137,-0.0251766930199,1.02336258434,0.426907408239,-0.0663387927524,-0.828897035239,-1.32117561159,-0.0758599974028,0.0713323515375,-0.495831172953,1.10468229091,-0.722264839223,0.193668485646,-0.884072898191,0.372567094032,1.65814057094,0.340070090345,1.14370304171,0.13292573858,1.27767353519,-0.864485596698,0.719379000186,-1.18249434302,-0.631299434038,0.923309799592,-2.09969014829,-0.733942745693,-0.628608509406,-1.03019566116,-1.69043504143,-0.319397913001,0.0325449299946,0.74516475002,-0.999588022402,-0.955332101557,-0.252962903016,1.10470274066,-1.27439553315,-1.83052558595,-0.641788287039,-0.817947421006,0.560646127242,-1.39946323844,1.30838022757,0.0477797599772,-1.15733692535,0.0611439565618,-1.8809841821,-0.274694128142,0.155832111369,0.614029038325,-1.11868722008,-0.486794815727,1.88391259368,-2.84238622389,-0.706355300877,0.152533293169,-1.05843402607,-0.0818674088576,-0.708826915485,-0.121286024575,0.639554584661,-0.463732320802,1.22522742962,0.215778209576,0.0841088705803,-1.20161970778,0.0139574381671,1.09330036752,-0.0189189948996,1.47707859138,0.386951329835,0.644606473277,0.290184865998,1.0055501939,-0.615788925236,0.818897184572,0.508781783683,-1.91032145623,0.2013389965,0.296031121117,1.65981638577,-0.521545945317,0.530608296162,-1.07747293375,0.82512817128,2.73310340984,-0.885398325782,-1.64311331427,-0.413365973744,0.916585552384,0.186749987377,-0.252036982937,0.709774826977,-0.55008790352,-0.02227765837,0.155991421113,0.383643487753,-0.44854771402,-0.131460281709,-0.809799371962,0.0347241694722,0.153593258484,0.603814445468,-1.81550290636,0.435521467572,-0.035140376653,1.25306757733,-2.03969820972,1.87171683481,0.384270386647,0.25643916574,-0.503431543045,-1.27486038901,0.743895866127,0.0266373746629,-0.207791859252,1.3280540817
-0.455763895176,-0.192453751515,2.53474239371,-0.807048433411,-0.796601337492,-0.936135575345,0.17536423313,0.128297542368,0.76178286695,0.332198494812,-0.645296737464,0.117588121013,-0.188440050464,0.749174567973,1.45817834863,1.08768534541,0.961476481126,-0.461340137419,-1.44930003415,0.338442409895,-0.588660114369,-1.46561097245,-0.201067654568,0.118692415987,-1.23070575059,0.0864954071369,2.2840135065,0.835730730445,-1.64690076427,-0.966552514867,0.808694608077,-0.354610762995,-1.33163229764,-0.749616555107,1.21579669038,0.00515834074322,0.419786212809,0.687954572009,-1.19708979217,-0.466756022558,-0.235727456885,0.981843880785,0.733038099639,0.48862171562,-0.181930106611,-0.0225660516127,0.922401768165,-0.167378846154,-0.481821610443,1.0686543661,1.14070851954,-0.0643334723483,0.71677895895,0.904317895564,-1.41497684873,0.346022388984,0.828894126943,0.79908689114,-1.30138934843,0.571642999691,0.451614113715,1.69546813438,-1.14502612655,-0.770333556327,0.308934711451,-0.518628544292,0.34594744158,-0.504108825048,-0.576316789872,-0.129526432139,-1.29074950293,1.38009689267,0.366210941037,0.506263194231,-1.30373232532,-0.394372964384,0.679839224813,-0.0452338961293,-0.981804445232,0.915457128974,0.249729604918,1.18448500963,0.567750718369,1.10159212747,0.175135253801,-0.488502421683,-0.6448713882,-0.257624363676,0.29712456899,0.340462580532,0.320385538677,1.36800504846,-0.476846839217,0.52973708745,0.16599129007,1.55783658297,-1.49207534241,-0.0889000339912,0.194239818749,0.978333796733,-1.15020990394,-0.353310532869,0.384938189196,-0.996614913734,-0.986240628085,0.554224569508,-0.177052743289,0.630778634616,-0.0444616268966,1.48355002566,1.40567902074,-1.26719553934,0.566982405194,0.41158910358,-0.735656440627,-1.43228647281,-1.63289623183,-0.187847506818,0.590558621331,-0.870934599251,0.853075287353,-0.812944545219,1.35578021544,1.97563069688,1.47657495016,-1.13563916987,-2.69739166575,0.652231903844,1.37948222012,-1.48708267118,0.99664529585,-1.26206922815,0.193896273663,0.0812817118917,0.548215302862,-0.30737222998,0.113955003795,1.89927513342,0.837089793696,0.0290011099507,0.662506152514,0.388691256089,-1.34793442056,-0.419461339926,1.28211353928,-0.540964085354,-1.57733880248,-0.84987482042,1.04156914752,-0.598960218706,-0.740053554712,-0.348859400928,-0.255821431505,-0.295671685246,1.59072154699,1.73107158025,-0.968149695694,0.654432916243,0.682167430531,0.780310144478,-0.53108352395,-0.270135985271,-0.835342973076,-3.53150271248,0.398187923502,1.41655931972,0.485790308925,0.0741717941361,-1.3611860255,0.174364041682,-0.197362630484,-1.2706172883,-0.382927469477,-0.183764336957,0.698886443104,0.91007645164,0.0163667030572,0.649910146681,0.0275012132153,0.691692619402,0.10253389532,1.87168828946,0.567766003695,0.484619472017,-0.389819989383,0.693042893391,-0.933400291782,-0.755688529229,1.43692217338,1.56212719335,1.45161163446,-1.93194149458
-1.12828732431,-0.306088771612,1.64791467169,-0.0946129633438,-0.0632404588887,-0.163768105146,-1.05231043161,-0.342646926089,0.500553342076,-1.09467658764,-0.0136830053947,-1.44239084633,-0.186976803995,0.848722492123,-1.15615586248,-1.91557862298,0.685598867644,0.49106629705,1.2338864782,0.251913544914,-2.19107726309,-2.9930859837,-0.232533317007,0.710638550283,0.406401627181,0.543067703474,1.22712887689,-1.9415728594,0.14686008937,0.175161483225,0.980016775165,0.310031252885,-1.20297517575,-0.0658430103561,0.423909680108,1.109283169,0.764049376336,0.0949359642582,-0.392531182246,-1.35619466653,2.26858794859,1.03526134106,0.485972117112,-0.474269261636,-1.84607170733,0.15167474807,-2.22755511222,-0.253329858382,-1.77195889008,-1.5091199438,0.239648070793,-0.75453025322,-0.61603403256,-0.976672604145,-1.61250898377,0.0891496139064,-0.193714447962,-2.12342554171,1.01967302315,-0.547512799388,-1.31682748108,1.06551162717,-1.53653333266,-0.0950048757186,-0.0802050303917,-1.18956953012,-0.0545720656399,1.09224667092,0.998779244052,-0.856536946122,0.559302452758,1.42948139833,-1.42067994081,-1.40359914905,1.85652443504,-0.045744986097,1.54733455364,0.239139105953,0.60868665053,-1.73566252143,-1.35878168396,-1.16911000819,0.0283710918365,-1.37747810792,-0.967148084215,1.48235741165,-1.2374828901,-1.97738410929,0.610497829001,1.26796601259,-0.77179118746,1.24484835572,-2.72734842064,-0.57304599808,-1.80721863906,1.18476568376,-0.59312474428,-1.22795134014,-0.14756710279,0.648742112036,0.729341128448,-0.96265242,-0.0535996378749,1.59102004074,1.57546975723,-1.19280049291,0.917643150485,-1.42847134399,0.557213993532,1.01199981456,0.156141769617,0.343652188922,0.681252554229,-0.556858458209,0.202749539244,-0.156552792595,-1.20521014464,0.560916564255,0.134071972465,-0.0732517322389,-0.38625649172,-2.3115773983,0.50603172399,0.0784721739649,0.431110256287,0.809507594014,0.438696291955,-1.82663047797,0.238075888546,-1.42347047842,-0.0493339446436,-0.0189482969366,-0.502212047177,-2.51424853707,-1.48030070781,0.649820708517,-1.20432317193,-0.133461437973,-0.383264488898,0.662616450682,-1.91982794213,0.876528358647,1.54584846381,0.272974065231,0.756939251062,-0.178046741735,-0.479182474025,0.508501783137,-0.160387655288,-1.83353328543,0.746956898161,-0.348050576747,0.436254862303,-0.0380641360388,0.863931381085,-0.406927208104,-0.57690509494,-0.297844400119,-1.10198915828,-0.0341975230766,-0.273562863345,-1.1065792107,0.525241986795,1.17702971871,-1.13216916662,0.396948679858,0.257698847791,-1.01111805934,-1.53404455129,-0.302981360549,-1.98589302927,-1.25086921897,-0.312069318892,1.92370428614,-0.13233143189,-1.05035728079,2.55453760136,-1.27091576483,-0.766033771549,2.45893045212,0.208012795416,0.0249141283472,-0.279622571242,-0.384762999481,0.181177750061,0.408458733331,-0.90629714636,-0.683182314173,2.917128545,-1.44062996288,-0.189787757299,-0.275791918556
-0.000290520405685,1.66684577987,-0.0629266532843,1.23800682633,0.448163209982,-0.295205735524,-0.128243601839,1.68905445618,-1.1814152056,0.0333620127741,0.157596127807,1.07067573741,0.0848734310204,0.00370384364784,2.4572026629,0.643250908046,-0.041942701988,1.35329397668,0.145931640016,0.437999158483,-1.48033066024,-1.01430890888,0.37077463062,-1.52092226335,-0.946026389919,-1.99284607166,-0.348686585239,1.38641055728,0.425925679435,-0.343439630735,0.67777402651,-0.417705114438,-0.150905994799,-0.858491682907,-1.6410618413,0.50312962427,-1.30229173002,0.0155700308469,1.17417813601,-1.63531142849,1.36154523742,-0.278462279012,0.156899730033,-1.50368307672,-0.724242256457,-0.206184288712,-1.05828938616,1.43522124741,-0.426966384748,-0.402749750598,0.481655938473,0.387023041622,-0.430043593854,2.49633096357,1.30166750773,-0.0563515364679,-1.76077080378,0.637573132647,-1.17718698504,-0.653718097143,-0.514308655855,0.825565231356,0.678641672308,-0.758207329375,0.0698545740389,0.593092134216,-0.500559016219,-1.2607342211,0.251273131927,1.60990322605,1.24926862186,1.79362259775,-0.225098942099,2.45385532879,-0.26289762142,-0.611794492551,1.09058371271,-0.640965210731,-0.680363755976,-1.40479494843,0.890820041441,-0.305840503175,0.0647157870172,1.74028517818,-0.299094143628,0.223877667522,-0.9525606205,0.149320888408,3.11936036089,-0.535344965402,1.16966886028,-0.972114150692,0.497158245232,0.216178787711,1.8109940909,2.55557980942,-0.258377901048,1.74525835685,0.277002740602,0.321776690805,1.07848087654,0.823750830197,0.0233263225442,0.914571422787,-0.597123500106,0.675894224782,-1.62272739106,0.528193709519,-1.28254253942,-0.863136999745,-1.03474772407,-0.204866293349,-0.126143502594,0.242747587341,0.0495191845663,-1.54113997757,0.458876092464,0.411238246506,0.0629840463963,-1.19144737267,0.327130752606,0.209808127078,-0.750863635096,-2.19091718889,-0.336124857766,-0.489977808492,0.0104687356376,0.802739035937,0.980923138441,0.940004946014,0.453218970291,-0.212635366812,-0.202097411901,0.682883645461,-1.08478770248,0.616171185498,0.996066647789,1.44369424462,0.347621998314,0.107012921546,-0.00905288934252,1.60862393483,1.03002510277,-0.0568763021308,1.31022984903,-0.321413293044,-1.95953397294,0.299858023077,-0.13320991156,-1.31100660163,-1.32472544224,-1.45624232267,0.101090383392,2.060755505,0.059992702085,-0.433730824561,1.25004486852,0.611259150573,-0.360114335708,0.0234010400628,0.603458389834,0.0788840768379,-1.25984359689,-0.246814613172,-0.592801693122,-0.295788874649,-1.38499745536,-0.18034421285,-0.877592156363,-0.452691883213,1.60823754388,0.136598998764,-0.172228350213,-0.761343120914,-0.224568636044,-0.10278262611,-0.741676753085,-1.29764467301,-0.487699823794,-0.5217685069,0.210661788771,0.0896238892672,-0.254877022712,0.136475418671,0.0944098564584,1.59012281352,0.278720698779,-1.29899280532,0.661566089532,-0.827618147938,1.43788311535,0.793411708373
0.376458362761,0.479572823316,0.414751798994,-0.291172016526,-1.81939450903,-3.07164092324,0.938559933317,0.768021401337,1.32354115545,0.21379648497,-0.286843066818,0.701852234334,-1.35878335784,0.63706934993,-0.251175292244,-0.646368621129,0.200510887286,-0.128469336613,1.11967327614,0.0282735552118,1.04918053139,0.419083005794,0.0858417499261,-0.601254188991,0.869434159175,-0.272975108699,-0.221594371952,0.601633629952,1.07221204985,-0.974495710383,-0.95348429881,0.499731010564,0.812972348104,-0.633525306722,-0.0994596930218,-1.3254783516,-0.935825116012,-1.76373311882,-1.31982947627,-0.0932364552014,-0.600080839933,1.07402596498,1.23786673246,-0.197612221745,0.737998545622,-1.22107303859,-0.30235930563,-0.208504005809,0.0514120420808,-0.185006727479,-0.0142517693872,-0.0281396445714,0.469430944039,0.599431188556,0.355474306238,0.287283822499,1.12745370955,2.85430755343,1.40433002561,-0.351418495672,-0.358636476021,1.13014086917,-0.167364635346,0.0308703841679,1.4741501844,-0.0604567581164,2.76685311792,-0.208052178939,-1.34411198049,1.05659425393,-0.624912443225,-0.896834232336,-1.36810516678,1.04914534956,-1.40145486747,0.0168291558581,-1.36449847859,-0.204807087605,0.174107345721,-0.291178141867,1.14100334949,0.842701082125,-1.12566885258,-1.56457498017,0.216715141026,1.33887413452,-0.0968445995365,-0.440204739364,0.244564893041,0.958443573689,1.08494743376,-0.181217036847,1.58077936927,-2.62396883061,-1.24387858985,-0.262648136343,0.708066865326,1.12650917425,-0.550225563334,0.137593734686,-0.243882350872,-0.639855982456,-0.335698556344,0.625054201787,1.07441077031,-0.381181710254,0.408599299756,-0.911500709209,0.631892705822,-0.990603347008,-1.82279145396,-2.09965796585,-1.50230638565,-1.7808508878,-0.980220920604,0.204769617972,-1.41157711228,-0.823432368251,-0.964158650354,-0.389043551034,-0.351911564497,0.405819626249,-1.92051388174,0.81709244541,-1.32920066362,0.429403711643,0.230576837962,0.324103696515,-0.585492454034,-0.341317747114,-0.57567760605,-0.491368793871,0.728616392726,-1.3022960198,0.888105470832,1.57074308675,0.449763011611,-0.0580590781569,0.640727216611,1.64924013482,-0.989848081398,0.491114764148,-0.896924210328,0.280044868517,0.913551064708,-0.78026130761,-0.33626401645,-1.10890922479,1.72401491642,0.255268720224,-0.721392311453,1.55561474811,-1.48443599766,-0.878003289901,-0.0110916933066,-0.454529666819,1.04473148364,0.0231357623669,-2.03725348425,-1.17503373941,-0.21235961711,0.226083153027,-0.388056750147,1.01656578074,1.595056599,-0.901953809344,-0.413043952652,1.38079840543,-1.57968836223,0.251839450997,-0.762508658115,-0.0719747050657,0.314172609289,0.115202260186,0.11359729994,-0.0269601893822,-1.97298503166,-0.27957449916,-0.845710495989,0.0987351770412,0.104620602839,1.26502315985,0.664301941206,-0.671796316271,-0.558745097855,0.634156569837,-1.28604036262,0.837882634646,-1.0410282766,0.590679629878,0.917472532701,0.47908238005
0.387841048217,1.07896085799,-2.08921226326,-1.04396569226,-1.30174843852,0.76551152117,0.771833685571,1.2789957996,0.37733938568,0.708324158031,0.427654872495,0.796809465627,-0.712599133326,-1.25973874547,0.387759089211,0.0954263402507,-1.14761331373,0.959685312147,-0.542016878535,0.40031470227,0.950707754143,-0.683028662708,-0.606926171448,-1.42930075767,1.18263267912,1.44099107652,0.211576979791,-2.12109749102,0.590693287943,-0.744801136753,-1.84206587996,0.906594802263,1.75803571615,-0.068288033477,-0.526292845827,0.899719081755,-1.24165623185,2.21351926503,-0.495136086108,1.0261616528,-0.512214670602,-0.220930322186,-0.0340635288207,0.453590749392,-0.140984182958,0.313874660175,0.990472459007,0.457948462451,-0.787107353979,1.25039746977,-0.284403384836,-1.88248803785,-1.01501384789,0.380164164747,-1.70659121572,1.43930873485,-0.297586458123,0.259234112791,-1.38056792127,2.14183603628,2.45042749351,1.98404259897,1.24934858234,0.991159369278,0.0638338771314,-0.0970851149745,1.60554589888,-0.356585345718,0.429959223682,0.4787701221,0.792007952216,1.57783553482,-1.38300289373,1.53096552625,-0.0672197462181,-0.0635544512731,-0.151213166214,-1.12406711509,-0.839077910528,-1.70675265765,0.583012901623,-0.727437365052,-0.828483719959,0.311114294971,0.53680601187,-0.175157508025,0.824594840787,0.989193403748,-0.138619248491,-1.46443887363,2.74652954475,-1.23979515451,-1.54209608677,0.622149246214,1.27929279663,0.252690040266,-0.668005228078,-0.4983249281,0.670358369585,0.631574076931,2.08137286073,0.257848153678,-0.377796135453,-1.19758241313,-0.285009993741,-0.864215955004,-1.04263646367,0.208979299395,-1.61949716029,1.26999997529,-1.84287571217,1.20797181141,0.476370235184,-1.07802357868,2.21082079369,0.00384230483742,-0.935514350698,-0.234661292519,2.40136490027,0.960639261322,0.574164577506,-0.217834171632,0.994404576038,-0.209913407676,0.364881616231,0.0390403994361,0.738937249907,-0.395022862994,0.162756920108,0.944017562012,-0.978305744658,-0.587043512346,-1.66281714172,-0.62976945767,0.222500412223,-0.783789974305,-0.445526197463,0.72938624818,1.4052496142,-0.263806102347,0.514807268201,0.765219517186,-0.882314162373,0.673555113113,-2.00716983889,1.36368126787,1.55895696513,-1.45751589994,1.02259747543,1.04204356789,-0.119023494741,-0.48093517405,-0.530709083334,0.961664015164,-1.97247844762,-1.53619589111,0.234820734336,0.799373463734,0.74274983601,-0.0192892706884,0.0924440094078,-0.713121102297,-0.465218131055,-1.54779874927,0.805012399383,0.692552754589,-0.732301469151,0.126580693299,1.35365298848,-1.95905515889,-0.675627765316,-1.13851774112,-0.651090646799,-1.54393263265,1.02080361986,-1.14319973206,1.51278974212,1.10426039419,-0.627913317861,-1.85931808935,-0.204252566967,1.0077490698,0.802720390761,-0.0242930492703,-1.23144241374,1.08094512655,-0.0309232765878,-0.826081854367,-0.0498633564798,-0.282585058883,-1.74225309706,-0.256928842421
0.991591121936,0.672096721254,-1.10682277634,0.562406287495,0.745963170251,0.0993729707294,-2.66096832279,-0.0741492843936,0.60885913457,0.0325607484427,1.3999843059,-0.1582281682,-0.943967870363,0.986126581157,-0.463363643997,-1.48346385542,0.436786456778,1.26365023569,-2.54786747765,0.0228108806405,-0.616043611883,-1.45882746634,-0.88996072754,-2.21329089439,0.0795428166757,-0.0853080050763,0.241659780047,-1.23559993926,-0.133719994336,0.769625995092,-0.60269107733,-1.0417568481,0.746513931018,-0.665680468128,-0.540484366856,-0.00590903960671,1.49261688253,-0.443997411074,1.61921746474,-1.32568337631,-0.557430592607,-0.247189311836,0.282654063109,0.276279871877,1.95854794548,-0.861172943335,0.379056754981,0.735317526375,-0.355641323829,-0.0782864540137,-0.841213233607,2.03381970972,-0.76258616381,-1.26316820325,-1.02941562656,1.88949386789,-0.204654495824,-0.139494442652,-0.541082948936,-1.15832711685,-1.74077949494,0.937619374893,-1.24733698916,-2.24364654566,0.0998922428308,-0.59230946232,1.04224197193,-0.433540606013,-0.88747953764,1.63956142242,-1.85481084507,-0.799915796731,-1.08772980282,0.401805529742,-1.7654231025,-0.929907083504,-1.5835529073,0.0290354608987,-0.829804356284,0.326041641717,-0.956264857653,-2.16740354349,-0.267455407959,-0.608825899486,-0.081715677577,3.07815589728,-0.257894886541,-0.67207593448,1.88908686191,0.456694026939,-0.646347298102,1.1079561666,-0.280614757654,-1.66756269663,0.580863696803,1.94009815964,1.59185276927,-1.14244895573,0.222446046702,-0.251000001858,0.178651586629,1.12563280266,0.191189837916,-1.74342118429,-0.115754785891,1.31532727346,1.28609987869,0.517958178821,0.0708750441737,-2.1333074715,1.03296543465,0.966288694516,-0.981164721941,-0.333884241239,-0.641076576724,-0.195247762901,-0.759162145495,-0.555197234821,-0.551024575099,-1.28710256718,-1.57096614108,0.0217336223091,-1.34557983044,-0.406059190881,-0.17344809021,-0.710292530961,-2.09974651842,0.170571342667,0.178035282666,-0.772743213063,0.456973983866,-0.796992975137,0.871251475649,0.7519660813,-0.624715199371,1.21568522678,-1.56606816474,0.716600966691,0.757897402916,0.449060179165,0.590682035157,0.856315463329,-1.3509434858,-1.09153341658,-0.727463826246,-0.381565781566,1.85869424545,-0.256873652277,2.06148937113,-1.47905135012,0.156844997775,0.108577082518,0.0563614274686,-0.279839032492,1.15500433854,0.0455284150683,0.25013358616,0.547983367919,-0.0187967834972,-0.64688407334,-1.15337258391,-1.77862303524,0.645785789986,-0.88603997514,-1.00651685405,-0.76669106229,-0.841180970488,0.959249631393,0.74663038871,-2.52158761628,1.00461944369,0.0587221431174,0.17581737155,-0.283953582255,-0.768936764036,0.267311243189,-1.04519592608,1.5449382946,-0.828681767804,1.67359350687,-1.77867726795,-1.31367462567,-1.16510446859,1.55514517046,-0.685691892751,-0.747022097764,-1.09885959924,-0.530155979733,-0.280495698357,-0.444247263587,-0.758463197166,-0.863063270044
-1.12508690593,0.889611721535,0.239952922439,-0.105527290669,-0.332929592664,0.0943282239275,-1.92321757831,-1.0163309231,0.545529384232,-0.616198436273,1.01156373908,0.996546885942,-1.01859437562,-2.57059522606,-0.406443754379,-0.0578265870075,-0.264494518929,-1.30107103648,0.386228957522,-0.368840438834,-0.124173891866,-1.69829820585,-0.93603205798,0.667315061491,1.4800922536,-0.854195415961,0.615239963031,-1.25920834939,0.663369831673,-0.926961289392,-0.206772042495,0.925031911605,2.35026543316,0.210403602711,-0.437420613947,-1.21279083004,0.269520664252,-0.373443664133,0.81164486339,1.2371558186,0.46748593713,-0.989887777789,0.851675437703,-1.45751014749,0.214122440522,-1.39722314995,1.84249155218,-0.80528072252,1.78098730423,-0.706581178637,-0.060920037687,2.28912310403,-1.10652248239,-0.862629084495,-0.463505884591,0.584237738032,-0.377959597061,0.781916742046,-2.75041669253,-2.28832058659,-0.240850165964,-0.632979402306,-0.308384894216,0.106631805383,-1.57101151007,-0.310685253054,0.419072676087,-1.82724537586,0.186466786405,0.282069230677,-1.55068792226,-0.478232148496,-0.386488845898,0.81727015242,1.2095331041,0.504827617478,-0.530125650894,-1.33865651649,-0.0141009734625,-0.791691585592,1.37950758899,-1.16622315868,0.147861115101,-0.455835724373,-0.00581482177815,-0.803713077043,1.142988081,0.418504074753,-0.166048371095,-0.19357709128,-0.207530668688,-0.706459217266,-0.474366785891,-0.670513969805,1.7011376156,-0.0392969772698,0.489070576883,0.591814118661,-0.425644631865,-0.41460358615,0.840330307069,1.09616650797,-0.194333543362,-0.705086420743,-0.329084471185,0.239143011055,0.542837391832,-0.692204430592,-0.523317629513,-0.770556166468,-0.170640512339,0.380178627866,0.677458618779,1.77971343297,0.320720780818,-0.972802413433,1.17426058173,1.65799492883,0.125576208234,-1.15140443918,-0.459737019345,0.0281226440194,0.275893950123,0.0996173841177,-0.0551960697096,2.30589368324,-1.80777587235,0.150320731384,0.992535201348,0.927156174718,1.01595893708,0.517531033094,-0.326110648188,-0.413214612791,1.1682797454,-0.176480325776,-0.482368908017,0.576676002988,-1.76126995179,-0.342988960985,-1.61585391478,1.05692053096,-0.433170543608,-0.304063897852,0.442451249942,0.233069864831,2.07856876113,-1.8741995438,1.95056977339,-1.68782135195,-0.33635317811,0.717320512449,-0.74748565906,-0.904184508147,-1.58933090786,-0.304344600353,-0.503367814262,-0.594652761708,-0.490837115706,-0.929651886397,-1.60783608863,-0.320920370576,-0.406478874916,-0.671403093955,-2.22557757386,0.447294249127,-0.568477407683,0.656748253324,0.993108907833,-0.726648198456,-0.639005483004,-0.0451952020048,-0.425504897369,-1.41582571774,0.184086437793,-0.7877853216,-1.10315267515,0.312056276934,-0.327486964321,2.20687126621,-1.76366228931,-1.53578583657,1.03287674691,0.123700245092,0.209341151899,0.104374880104,0.949711406606,0.103682969792,-0.565155579276,1.09734022539,-0.533607614869,1.58321990783
-0.687073304131,1.87130883889,-0.288544263107,-1.40561335842,-0.3057332552,-0.213068651183,-1.94038469069,0.226326777445,0.179713655059,-0.8452754865,-2.20058381782,-0.111875994054,0.954883522942,0.138412859419,-0.702700212524,-1.15356612367,0.110725797736,-0.809220367712,0.269324317712,-0.482135117448,-0.509765444135,-1.27194048175,-0.298485034402,0.0442008147326,-0.562303950124,0.425401392155,-0.717870846296,-0.506248084136,2.15055659295,0.637371525071,0.429651067911,-0.103671012655,0.418489818391,-2.51772730733,-0.367796885554,0.341942558916,0.601341122399,0.833393804502,1.91971701402,0.613328723365,1.32401262184,0.805530697714,-0.620726483345,-0.495533635075,-1.37250511107,0.719743192367,0.684962238804,0.289415361499,0.549031488075,-0.407440786835,-1.0266096738,-0.975903702591,-0.0543715715076,1.33318524038,1.47193697876,0.0975880936351,1.36749273184,0.0935181066879,-0.808060422932,0.730354485362,0.115847061027,0.427609042967,0.588175209894,-0.786495225398,0.23389236667,-0.12178925666,0.760175591689,-0.371974266638,-0.208137573341,-0.677065117311,-0.405784021611,0.373249685049,1.24369738975,0.345297891377,-0.206067288144,-0.330346701437,0.21444678254,-0.322405590394,-0.0613619567538,-1.09595730687,-0.15645665059,0.00887564902281,-0.75775939981,0.355182429383,-0.15293827411,0.554681867891,-0.85366115664,0.295885151025,-0.0217115192435,1.09919577192,-0.824859347745,0.539981107227,-0.156210347508,-0.818747692352,-0.276060215906,-0.188839992792,-0.368338159877,0.847776930604,-0.557786878955,-0.479594222456,-1.22264485054,1.31126179567,-1.12810745445,-0.851564562513,0.955966014893,0.107016988048,0.28709545305,1.91214210264,-0.652664347187,1.37984217235,0.0345280100091,-0.0944801701613,-0.766617826031,-0.889082848828,1.46898235086,-0.117674331521,-0.843767176625,0.41462784806,1.6771422031,-0.298944922867,-0.671590310233,-1.80132970431,2.11086129485,0.159067343865,0.520798207452,-0.125391137155,-0.170187599892,-1.10437872656,1.55358630686,0.92517047621,1.0523751527,0.0455356593502,0.13358800678,0.352558980916,1.19100214757,-0.218575072859,-0.935858034854,-0.0631802813346,-0.675987246097,-0.478459899665,-1.23005243423,-0.508405729344,0.335551811198,-1.10253237557,-0.761141646989,-1.12389165865,-1.7015102827,-0.444491698113,0.457652601664,0.110934857935,-0.325715652804,0.136595582545,0.992387547646,0.984546935046,-0.7680958539,0.63605345251,0.697197514985,-0.00432765535799,-0.145136933748,-0.196009443449,1.19884109243,0.36786643893,-0.614100004747,1.09030170137,-0.469077933597,0.894309980085,1.2903403186,0.681288518182,0.411312933603,-0.251453806099,0.622402761488,-0.633417533299,2.20722364684,0.37324512704,2.17094315579,0.442885677166,-0.283539387942,0.19981184622,-0.724693614467,-0.401558901675,0.441342540521,-0.336720191319,-1.89571178209,1.45703056546,0.111949650544,0.0648996390164,0.820926434692,0.786627978465,-0.153906599448,-0.0324757255667,-0.00557374729007,-0.197347571396
0.347766257334,0.635393145267,0.785500955207,1.53396568561,-0.044795792707,0.465934868947,-0.340169925452,1.16210478155,1.65966960569,0.197128012931,0.0322120493253,-1.03158381641,-0.967302389118,-2.07029875532,0.405059174336,-0.101102014182,0.0484889614829,-0.0273974075281,-0.333680146386,0.366725075234,0.222531276313,-0.583398725211,-0.822985356459,1.5243321904,0.86041251727,0.0854998581182,1.06455193441,0.0497363680234,-0.231911201252,-1.2369182896,0.141563265253,-0.0785434724622,-0.448186493816,-1.72862502181,0.186963537471,0.362772957103,-0.216569174115,0.324475881495,-0.113699478735,0.32394934268,-0.144898730359,0.580806703994,-0.23165577731,-0.982227071804,0.0116422691118,0.162862811643,-0.712926279004,-0.622429994772,1.86628344733,0.905771356926,-0.663259330476,-2.74882469241,1.29219239581,0.820261678333,1.07588317468,1.00103569091,-1.13070606163,-1.0381429373,1.11794507372,-2.36795834251,-0.278200870269,0.0315076024933,-0.409181050782,1.12750205452,-2.08445440569,1.04917077271,-1.8022489955,0.0902374138174,0.697861116012,-0.742000186882,0.29416137982,0.442420608504,1.06351706372,-0.600905873278,-0.48806739792,-0.809723588032,-0.0900704255728,-0.0139128315515,-0.685585449108,-0.287259105323,2.08536547855,-0.736865243454,-1.34047611096,-0.793220760117,0.571229299837,-0.0957204913432,-1.83210384433,-0.252894114533,-0.17132276418,0.958291349862,0.581837683436,-0.872647098495,1.37353152954,1.54679794405,1.03171806776,1.35260940109,-0.99425894792,0.910163230797,-0.503004908511,-0.0728348763596,1.09509603985,-1.7955372305,0.543870748457,-1.82014706394,-0.0341677119853,0.791632553053,0.959941613111,0.217771394766,0.992954524399,1.03796871032,-1.46481387804,1.67913925679,-1.62411845837,0.981978942186,-1.0106068895,-0.0300355044912,1.34708860118,0.677636367154,-0.468937074674,1.27094848147,-1.09403948006,1.67765794268,0.55023927074,1.0054705737,-0.537303451882,-0.222613236522,0.950807155549,-0.218708106126,-0.631997960903,-0.473607271591,-0.259086985641,1.24558344238,-1.21882762961,0.794854604642,0.26161975939,0.465992991437,1.45961208877,1.14763554759,0.413274642875,-0.764777565368,0.347112126789,0.804569199783,-0.59676733956,0.360456089433,-0.262248464263,-0.318473220865,0.523742677589,-0.54245011786,1.64756765994,-0.0552740866029,-1.20591902745,0.585141317349,1.02824888667,-1.41213369316,0.928269495083,0.747607989794,1.36064978473,-0.429415279468,-0.0439146454938,0.0613113701998,-2.49400172951,-0.316842310119,-1.25373256215,-1.83964040524,-0.2352066981,0.154298204266,-0.961603643216,0.304631474144,-0.238691220335,-0.233068121921,0.369137004858,-0.813845107933,0.529162756337,-1.22702617614,-0.823247495702,-0.51076703474,-1.97193838486,0.194338081778,0.439135961197,-0.476725935644,1.24010663832,0.904426370401,1.40149178551,0.524937433864,-1.26870433705,0.492438136327,-0.498961145415,0.291626887526,-0.0893991304027,-0.357624067707,-0.295319372646,-0.131578034578
0.108609944419,1.8628941773,-0.674208905945,-0.0259392781915,1.02492640004,-2.94934158486,-0.630128867697,-0.423743894976,0.213062533129,-1.82796721867,0.296839373536,1.1915954644,-0.714781275842,-1.90469079317,-0.151340178598,-1.02690828559,0.110972898673,1.55906989868,-1.98675451848,0.68933951758,-0.605989580315,0.519224726881,0.336051806968,0.139211881611,-1.82647913805,-0.131910694135,-1.4177100401,0.71130287315,-1.16397245363,0.494198691885,-0.489731769753,-0.679057850083,0.83524133487,0.0998458953816,-0.504557263793,0.307579842009,-0.459587791525,0.34750415696,-0.499343475179,-0.183964933472,-1.06161512999,0.92064422347,0.324155814116,-1.12758741749,0.551550258886,-0.672148173481,-0.0268185842456,0.273977650156,0.698856676778,-0.485098044473,-0.590865046492,-0.911415706885,0.605168079904,-1.75335691796,0.627342684535,-0.444788178126,0.255779072513,0.522899147344,2.0071612431,0.345333514796,-0.193648186355,0.811912424756,-0.557286357841,0.572192322023,0.261903968517,1.04344795826,0.10585730474,0.199436745247,0.298638185983,1.30264343602,-0.0382437067324,-1.12280026796,0.477531599579,-2.11102427074,0.976726189412,-0.946122694455,0.240488373813,-1.0726645767,0.348456132949,0.0975085755269,0.520898620664,1.39072152753,-0.470964053623,0.360913137374,-0.391057925423,-0.547015425772,0.554047791851,0.000429548550583,0.194108912691,0.391380551952,1.4927087424,-0.508468648807,0.0170238710063,0.963218293247,0.671455055087,-0.137546758889,-0.393335359659,-0.0797891351549,0.0391723066719,0.453946197883,0.0971535475142,-1.38399875103,-0.174560309488,0.0571030907381,-0.62642048659,1.26440845544,0.126916720736,-1.88607010251,-0.384444874746,-0.328415781432,-0.217668721296,0.481126825932,0.653433561359,1.13200838653,-0.454060752411,0.961389985927,-1.00134903632,0.362716984369,0.623836419742,-0.0907163021196,1.11055744928,-1.24688024095,0.860444697916,0.896414253183,0.731208540543,0.153329148166,-1.07830421938,-0.547960195888,1.14866180189,-0.344225665217,-1.07265255619,1.1582144299,1.27114562597,0.423939086179,-0.925190651179,-0.200115194788,0.956358548984,-0.390755558697,-0.296449682822,0.0864925369771,-0.880315103091,-0.462838938365,0.327916842495,0.0668487665257,-0.936207626558,0.415454815146,0.645345739716,-0.530588138532,-0.98884895909,-0.834707130359,0.070199583614,-0.0331261245159,1.34307548906,0.321094376727,-1.17370886816,2.03600082415,-0.102636105565,-0.689589632505,-2.1305588796,-0.612125761798,-1.32943434865,-0.12336535641,0.647347576356,-0.378648364122,-0.590966710314,1.0798877226,0.521576290715,0.238488049564,0.171865255389,-0.995649427047,0.0272904294443,0.473866330313,-1.15393755774,0.339140484865,1.8047267569,0.279130090171,0.539106496173,2.32620222702,-1.46998251967,0.896244723304,-0.195823030548,1.8424420915,1.77335541967,-1.83266615607,0.795727013744,0.338536564673,-0.359266006038,2.06178662298,0.618136099124,0.239901474178,-0.259439149149,0.723105722159
-0.00894647221375,-1.60888850267,-0.174368846325,0.125916539008,0.348404298115,-0.873495868203,-1.04106699466,-0.0524758006801,-0.79851858625,0.5714990554,0.353911936239,0.0224901168943,0.127413972777,-0.623692614945,-0.566803902115,0.59523594667,0.597624538855,-0.0643939244272,-1.08974051222,0.685907702372,-1.54211198255,-1.16532580222,-0.441548909042,1.35021166794,0.429206311876,0.251586626931,-0.0261753394033,-0.387897269499,-0.343310067805,-1.88820570076,-0.361453972378,-0.594902242645,0.0255567792859,1.27884505003,-0.626781615894,-0.728023114307,-0.295256973522,0.938590418033,-0.964193871846,-0.259866291301,-0.404728787299,1.09258620262,-1.28897536723,0.0259810308783,0.213800433854,1.23190119664,1.35361275448,1.90250769272,-0.631019335659,1.49081069388,-0.0918002498046,0.260598499634,-1.70097365759,0.8795221946,-2.34741354604,-0.0850408918239,0.535840750987,-0.637248445879,0.745473047001,-1.89590666205,0.0896908632671,-0.911159530157,-0.0223855618249,1.84570093537,0.859937809882,0.32966730696,-0.998722629685,2.73683957171,0.681743700184,-1.58091801894,0.46088767154,0.828966568392,-0.972080888944,-1.06048926673,0.252498993813,-1.34042587087,-1.25963119559,-0.114371476695,0.451453894648,0.452511426731,-1.82983590941,-1.31703578171,-0.672048321632,-0.093908868648,-0.446232432205,0.765437078793,-0.541943304862,0.589725080944,0.665584094561,0.247853211906,-1.30946526256,0.757904674184,-0.642893630246,0.809605300208,0.118349169741,-0.611990001389,-0.374084409198,-1.26327992408,-1.21726929491,-0.461993250798,0.512390085954,-0.437297921767,0.381966595485,-0.254653659989,1.31047467491,2.73051603171,-2.31399214823,-1.28065204705,-0.538688050926,-1.39284229318,0.826076028422,-0.0267634432393,-1.27597740843,-0.564162271391,-1.63515872848,-0.117082716997,-0.0266644839284,-0.701340786926,1.60184314548,0.347494911476,-0.219720000483,0.411850397107,0.175791587287,-0.552366404742,0.11818258631,-0.190134889934,1.8975047151,-0.868222174564,-0.706883716403,0.990771706053,0.816059183745,-0.0658660168826,0.10235025139,1.53830524489,0.62120648037,-0.0257278831826,-0.322376529513,-0.00210210175793,1.47267233618,1.04856655146,1.32184113585,-1.14591979088,-0.750685574212,0.454911802218,-1.83032193622,-0.8534528299,0.118434272387,-0.274749813854,-1.12463551936,-0.161111964942,-0.338586322596,1.07444533996,-1.07358795025,-2.35416087597,2.17348490847,0.167850763045,1.85225884701,0.702845112234,1.60513709528,1.3866097616,-0.147687697552,-0.52484349148,-0.685965442754,-0.907165470641,2.32647935111,1.42433106248,0.599946518062,-0.098399267719,0.350494210017,0.218894300757,0.464345009761,0.876212403998,0.471285104176,-0.201437734348,0.0244626455167,0.764189524491,1.2413450061,1.75917882908,0.27746881791,0.0970284956882,-1.0288878256,-0.316646970413,-0.45401445476,-0.0223415573877,0.759093701544,0.835644829999,-0.634444482912,1.30737301037,-0.383878257911,-0.506384158957,0.382214834462,-0.0239873169248
0.656852420358,0.675390136444,0.345840204707,-0.464471660763,-1.15043265212,-1.03869910562,-1.86025547399,1.48055783122,0.316550404415,0.598587917343,0.663823243667,0.00633233834813,0.0612608387424,-0.661425392477,0.846931457744,-1.22578076875,0.080058460743,-1.58311101616,0.417762920431,-0.197700623937,-0.321452694626,-0.386320595735,0.340311031996,0.0742673538737,-0.96301868629,-0.424569553597,0.595791781834,0.210949890341,-0.715838286631,0.730887840098,-0.580291613159,-1.17947019574,1.00297890684,1.88296593398,-0.806456536739,-0.533036039885,-0.127422833353,1.13131805921,-0.876926863025,-1.20034175829,0.93899595764,-0.00689881968181,1.01106036632,-0.201360966469,-0.747297611222,1.2985808773,-1.17113014176,0.542217495113,0.856673907212,-0.372443175223,-0.0995078976679,1.13077898384,-0.126943405841,1.52786832369,-2.05340971301,-0.102316359546,-1.08778715474,-0.442363164705,-1.46212766772,-1.88163039348,0.494561038299,-1.80027880299,-0.210244518729,0.307570730394,-0.45289434597,0.251727201767,-0.65704320871,-0.0188243097648,0.0299388751107,0.171671972216,1.63656728981,0.949038999459,-1.35856780848,-0.383245141911,0.856050569828,0.15467809097,0.415831215921,-0.427310396529,-1.28074334298,-1.54647354247,-0.433788052374,-0.319216562058,1.54606027443,0.0512829267126,0.88610847493,-0.0996321718131,1.16269049034,0.140593414719,-1.10727278018,0.352927380847,-0.101049457149,-0.383974403613,-2.15824453528,0.539215244432,-0.820085776046,-0.0480379374755,0.425172906727,2.32624840038,0.071409080671,-0.625447602523,-0.341705736544,0.0687154103764,0.772630513692,-1.33447906457,0.33532773581,-0.82048751282,0.434884459949,-0.438700562033,-1.18052036321,-0.498807306095,-0.00307954546868,1.38658753295,-0.837364132324,-0.0381876027269,-0.115846391908,2.03852560707,0.549133971644,-1.03818364601,-0.386895332781,1.08148715144,1.18107673303,-2.11104828287,0.696137512993,-1.6318914334,-0.177757656545,1.79607339078,-1.30164055981,-0.869619972364,2.09876554561,2.61779240915,1.06491489574,0.505134123526,-0.0995556963021,-1.07131496326,-0.11850211388,-0.311386466857,-0.0609766110611,1.00520372161,0.84928104285,-1.16679162145,0.282818076146,0.595796173931,-0.421319156223,-2.239870726,-1.25231822606,-2.29388346442,0.229499330776,-1.33450854795,-0.345082152467,1.85178849626,1.05325862022,-0.482540649779,0.0619892852454,-2.01345819364,-0.0535018695147,-0.110736240765,0.0616838628694,-0.523185357502,-0.41531557461,-0.511860571638,0.121070588144,-0.0229632140498,1.52810475308,-0.754582187023,-2.55635371031,1.49379524774,-0.939594449321,-1.60057799196,-1.12414430749,-0.425280063305,1.64648270401,-0.493241669027,0.0532071514387,-1.34118331998,1.16841548717,1.55064727558,0.112368212044,0.135933916502,-1.51704353391,0.188354913798,0.320546299155,1.97245708486,0.935855031145,-0.5772999595,1.63902051716,-0.238286090475,1.00819378387,0.413172053067,-0.9263160677,0.175335090591,0.64030875217,-1.00477749353
0.698480043405,0.989054849428,-0.329360300065,0.535426675381,-0.801233946353,-0.955211786166,-0.529255213376,-0.463820088737,1.27592590071,-0.0399289147796,-1.46125084891,1.39105641907,0.681884551791,3.21864111471,0.792349657415,-0.656961590855,0.811105520909,-0.661523367928,-1.32982169111,1.27440588816,1.99404962365,0.453120549283,1.71318033043,0.463290586756,0.323212373391,-0.224057718442,0.0679324902092,-0.054127507081,-0.00260406968118,0.698966437384,2.63116495372,-1.64196636846,-0.552480228437,-0.463628389418,0.174773935768,-0.842797152281,0.733561619772,-0.514181780456,0.529461218856,-0.180544455063,-0.161621710403,-0.135527226239,-0.215141929631,0.958386627896,1.32578594522,0.772379131339,1.97055970168,-0.00205331696085,-2.46165024638,-1.10248545354,-0.487348720388,-1.27555456249,-1.30759858494,-1.14434958061,0.607035948855,-1.1863150791,-0.781149580896,-1.20072765709,-0.0265614294093,1.8263729334,-1.54967265197,-1.20275494363,-0.708996598244,0.725480426417,-0.16459168308,0.536855178824,0.0695154329672,0.586994576649,-0.308081871205,0.990355521818,0.483381968956,-0.751468011827,0.428886259165,-1.79489389062,-1.16037303317,-0.0711195677122,1.31341184237,-0.0931131894276,-0.496237229357,0.984388228782,-0.0567223337408,1.09926261838,0.32975678439,-1.06594862045,0.601514101013,-0.0695071145653,-1.24160096404,0.0705965722242,-1.43569402013,1.05143309678,0.562622318186,-0.232200526906,-0.955900171244,-0.738167715715,-1.5556898435,-1.13101737685,-0.855279030892,-0.322560188261,-0.0637858706741,-0.0486062517784,1.53233279866,0.820113494569,-1.14658628221,-0.174469107949,2.06566835137,0.826862910066,-0.228885919171,-1.60207043192,-0.142222976261,0.0225377481752,0.633709244374,0.752301965095,-1.01456739625,-0.047326328393,-0.00555147450552,-2.42963488965,-0.0540446335486,-0.681517902676,-2.12399656325,-1.8314930436,-0.0788118109931,-1.4803768154,-0.597769532734,-1.61390364011,0.867076603575,-0.471025659816,-1.57851341585,0.831814996509,0.144300285531,-0.432211628294,0.720495627779,-0.681525442863,0.464579655241,0.269951836804,-1.67447491368,-1.03975612107,0.142596257878,0.625225243366,-0.993504102506,0.0273358275495,-1.70159867067,-0.905653110669,-0.633873142673,2.02043578505,-0.0201350829008,0.267408614118,0.665105705018,-0.524493066704,-1.15991244112,0.353853170293,-0.276545111237,0.0176067877865,-0.16896379678,-2.30392218096,-0.240932182309,-0.0791438383522,-0.541925517711,-0.214220834082,0.457499360377,-1.30515283408,1.48181686479,-2.62078312731,-0.29987840845,-0.508395888576,-0.708202081595,0.209156364844,-0.837761534615,-1.95792153258,1.11473901284,-0.643582079792,-1.00941548534,-0.244096651762,0.118058572357,1.18785234411,-1.08235894901,-0.0145009346307,-0.401060077094,1.34534734829,-0.829788464248,0.295073207688,1.47251831513,-1.30370602456,0.52878107201,-1.92160414735,0.840712427014,0.197306364833,-0.630573100555,1.35082916417,2.53922550811,0.936528521664,1.37574327436,2.42234211488
-1.86039263396,0.575663460389,1.11951935434,0.320429800802,0.606599915272,1.04304375581,-1.21617289118,-2.53156632514,0.602470989322,-1.24108364394,-1.41796022365,-0.0541123549159,1.66159084047,0.194521983859,0.827490959101,0.314389435744,1.32272687464,1.21540603136,-0.462052156946,-0.190834133947,-0.583231962937,-1.90191708275,0.752003326594,1.8220613879,-0.430291180395,0.696441121951,-2.03447962915,-0.880303471797,-1.29515684988,-1.20137904593,-0.833864392619,2.52173041165,-1.33347642794,0.824825010452,0.919630142011,-0.0112953907658,-0.183819166913,-0.455807286745,-0.0374842282294,-0.792243411608,-1.47468986591,0.219135378896,-0.423857150593,-0.443365387054,0.687089620705,-1.32616370533,-1.59121301241,-1.9012156466,-0.369781167323,0.593994457424,0.380012100137,-0.974801006104,1.28456905327,-0.658997829252,0.34916095334,-1.27878799224,2.07058612497,0.989890951878,0.453372511159,1.19138336584,-0.497051959944,0.332675590871,1.55656620715,-1.37363683787,0.568938880763,-0.573298392176,0.698403126291,-1.52414233508,-0.560937274911,0.275596197599,-1.532613663,0.232545548833,-0.344774579833,0.387788285846,-0.867306071538,2.44549924727,1.64038502234,1.32217394055,0.983151600224,1.40330090353,-0.00279954175034,-0.634644880358,2.16530392857,0.953739171817,-0.00640736485321,0.968471426753,-0.389425920582,0.284521657432,-1.24118567243,2.19287088717,1.87615278552,0.715143665375,0.795426391877,1.83930957265,1.09297893071,-0.599892528773,-1.90931696473,-0.747091623678,-1.0037475055,0.506303655944,0.793078156323,-2.17547481776,0.94739571676,-1.06792764565,0.984602121029,-0.644845848282,-0.582931210753,0.260879940743,-0.930791722078,0.528639291203,0.452612071261,0.386275647023,-0.816716922168,1.36915878838,-1.00683872501,-2.22363237167,-0.125700044521,0.787553507288,-0.236416415842,0.4051139263,1.38173678719,-1.44770325187,1.07233798291,-1.105816945,0.613192287488,0.582272306435,0.451923532827,1.77583179071,0.090438064442,0.188932441432,-0.956813959636,-0.10887443308,0.711473021326,-1.25434285319,-0.789015170278,-0.00327801257985,-1.17460339643,0.866912471765,-1.51115112615,0.4418929078,-1.20108133521,0.254821808644,-1.59861210243,-0.823584388864,0.183463544918,0.735167625097,0.895208807046,0.477870920768,1.33530487784,-0.0957468539923,0.293627541385,-1.28990409656,-0.170594489332,0.838244754376,0.509442639765,-0.191977401388,0.202219755622,0.443566622211,-0.737118523479,-0.478035016222,-0.478991994595,0.551352060286,-0.0878818753065,-1.14060095609,-1.04354241505,-0.287365613772,-1.31089799044,-1.24030571464,0.0243207550721,0.268618917674,-0.943920504325,0.672871206248,-0.169054213074,-1.32560848187,1.19934084757,-0.153610278703,2.36133034488,-0.720237910448,-0.149971726914,-0.791788506623,0.701201475772,0.00742147245374,-0.208333648799,-0.192596145638,0.578854685198,-1.24674737896,0.535734599549,0.356732299947,-1.06876212561,-0.305987036526,-0.460313613737,1.62432640798
0.548646700066,0.781055794904,-0.86025281322,-0.89774392863,-1.28627027044,-0.308179311685,-1.50478406073,0.435988840258,0.172784152364,1.68998199768,1.59735243089,1.38581852197,1.10200776465,0.669932742371,0.461559969939,-1.18326336167,0.167474494912,-1.37495312098,-0.943353735056,-1.94715750047,1.51264340775,0.149300007287,-1.482857498,1.05459806132,-1.03499126533,-0.89330797465,1.38624917971,-0.195759902198,-0.863629200511,-2.0255526647,-1.1161287329,-1.19025137127,-1.34906086562,-2.52695503919,0.426096156442,0.241665146242,-0.627662354229,2.80781955351,-0.81253549455,0.512921905658,0.110012940648,-1.38475137544,1.68413106043,-0.242944323723,-0.926223704558,-0.631397651473,0.499883714204,1.02644672028,0.789476685146,0.0135719223753,0.278692205594,1.41050487292,0.983796341784,0.0296101882737,-0.528677327626,-0.457592938704,1.03392438026,-0.182882323698,0.639679358545,1.3761873276,1.18601109605,-0.0158334897394,-1.57585067169,0.70627435219,-2.44962310886,-2.40916677896,-1.24528696834,0.932255611331,1.00688149663,-2.04108010854,0.900399319287,-0.728065669976,-0.825061705992,-1.41463658699,0.308352604241,-0.856241016106,-0.103142741784,-0.379741259798,0.507243560279,-1.25694973261,-0.0985956841982,0.00109478475834,-0.358708503371,0.522496530314,-1.61685414161,-1.04054801553,-0.93263128655,-1.75048472735,-0.224177570222,-0.282427604813,-0.174523161725,0.107353489617,0.772697418678,-1.11901512922,-0.550001696547,-0.0784639848502,0.229516996433,0.915734540745,-1.19419340062,-0.396672001552,-0.307593480881,-0.453393282095,0.250632072247,-2.06169556052,-0.384816522034,1.45389776718,0.338034779408,0.595565588748,0.766958347095,-0.562248480592,-2.37902176436,0.0378181540034,-0.969266634601,-0.266311539875,1.03094341111,-0.557807459192,-0.467826301196,0.432082162857,-1.38206306841,1.69106636642,1.13886521402,-0.80189444783,0.739380206887,-0.176744500423,-0.0161406639682,-0.562857562437,-0.540030302094,-1.10089276054,0.354529208448,-1.03151764466,-0.316666519162,0.969231663398,-0.721883770283,0.710572229599,0.162641978382,-1.23617225381,0.400380696653,-0.0484086702237,-0.444381406914,-0.117871703303,1.19808503315,-0.493348645688,0.681182391772,1.39109358913,-0.616126216396,-0.0319249455901,0.202618569662,1.63282881858,1.97639614857,0.929057829388,1.49195862092,-0.712582553776,-1.20518899628,-0.0454131642929,0.296720186516,0.563334986161,0.307641949918,1.4093468291,-0.466837161013,-0.00233224901971,0.0743589472558,0.710865418711,1.14150345209,-0.0267519034745,0.396717707973,-0.937886063736,1.15078575547,0.179499250458,1.567414249,-0.829572039727,-1.11777290394,-0.947826811796,-0.810177922521,-1.83258575748,0.0583215684244,0.23772777531,-0.659693201945,-0.14304365022,2.27086864862,0.927331016227,0.605209729389,1.92459287312,-0.683229126915,-1.40124844129,1.88222583936,-2.63818684149,-0.0232625313128,0.350083970095,-0.474983446607,0.688448228697,0.532090760345,-0.536252427856
1.8764480606,-1.16347188716,1.33302630404,0.0323398510809,1.33538334915,-1.36439127625,0.505039482814,-0.122020729907,-1.46357237862,-0.366892331902,0.398760835429,1.07397589429,0.834736170378,-0.268444874219,-0.868377543389,0.948680147899,0.319473194766,-1.18019215069,1.08692617512,-0.486737658935,-1.55006993307,-0.899543207296,0.131899337518,-1.10311693916,-0.286674106574,-1.89548400778,-0.331984002922,-0.914890056242,1.01659155324,0.152440932466,0.13526410813,-0.2880693941,0.546520371781,0.306963902454,-0.326788162594,-0.134939612749,-0.118643962447,-0.0260419154484,-0.531090091855,0.175026254825,0.455708513665,0.369364175752,-0.411928211745,-0.381931196521,-0.0123512920813,-1.03641592468,-0.532658635649,0.396907795498,1.36826919796,-0.498618977449,1.93435173553,-0.858868198938,0.390298951551,0.106514029369,0.243776605131,-1.18572061475,-0.375074348882,-1.01562792974,1.04160863267,-0.686821846253,-0.280587610484,0.375007570802,-2.0477476916,-0.208503635375,-0.0615382551354,0.398060456442,-1.62497953529,2.18215649186,0.819035363451,0.963021432504,0.601178466223,0.581965709235,1.64608692189,0.287749197563,-0.328794465118,0.375775737513,0.430909666692,-1.90664353473,0.691283463651,-0.305825619249,-0.670930181308,-1.35859393547,-0.323514506205,0.0255098349388,0.015761319989,0.642018427227,-0.751927756284,2.10211113808,0.226693887626,0.410622463839,-0.627932675119,0.138746011704,-1.68881271011,-0.155225297568,0.140047598176,0.973452628978,1.77413790491,-0.942299517741,0.487149434861,-0.829898275407,0.792619119735,-2.2451771781,-0.376508385156,0.807196774548,-1.63375665084,-1.494274544,0.345378352837,0.614633288511,-0.6244440932,-0.721058797725,-0.0461290251682,-0.40434619,0.550807468545,0.244808876407,-0.170489254272,-1.52028471882,-0.153462497068,-0.124684164803,-0.471450384107,0.38583549834,0.226184435868,1.24654959221,0.00903100260744,-2.30052063644,-0.34681642377,-1.95307915,0.174080601514,1.81929920977,1.04446448856,0.831375965837,0.15720118955,-0.627532707439,1.39220462075,-0.158105909576,0.169541011758,0.372530061604,0.177700361214,-0.858470297151,-0.336578669303,1.27295616182,1.94405866956,-0.499592996723,1.3647820529,1.22180546963,-0.457437789998,-1.01630386238,0.187781590206,0.168588468313,1.05752399429,-1.0972875221,1.43822489287,1.641821144,-0.472036859273,1.88127853221,0.827036143825,0.642544888754,-0.574170273421,0.382196907628,0.0537285458929,2.37194753551,-0.545865459106,-1.27416159067,0.287029021463,-1.41824809778,0.335844887836,0.171790042482,1.06151112731,0.386810402772,-0.700127072156,0.297321863442,-0.0710994210192,-0.588684619742,1.59708366779,0.853745677868,1.13022977297,0.188009404258,0.869795972282,1.10025016908,-1.18800144186,0.459876141439,-1.39410503635,0.904407234209,0.685082735826,0.268311609499,0.881220792754,-0.343148156963,-1.34315880351,-1.45819587808,-0.502728075964,0.322057247809,2.12245405447,0.485022649871
-0.670783199395,-0.422635455274,-2.0334324222,1.4678968908,-0.976470807809,-2.36267338161,-0.972745793008,-0.459237958132,0.260363850849,0.599114129913,-0.213766511297,-0.603962309994,-0.112745607557,-0.833640889181,0.917590676577,-1.61121438436,-0.613447367458,-0.865156629723,-0.199574457248,-1.33736754187,0.69391951904,-0.0448129478202,-1.4037560354,1.43476760555,-0.847820506035,0.929925803886,0.566123557166,-0.859701190735,0.716355745434,-0.198324549252,-0.551857884198,-0.69668604954,-0.421789823973,-0.666809641576,-0.095145924864,-0.606564890005,-0.720360200582,-0.448084352037,0.726682758138,1.8406946977,0.62562620154,-1.29809790837,1.86795247857,-0.540219511527,-0.0261241775045,-0.387617390423,-0.138852881387,-0.728255544947,-0.253689331324,-0.264354367005,-0.199534961048,0.186021870109,0.834248828149,-1.58929285454,-1.54536160321,0.375743366101,0.261920606085,-1.4540243851,-0.206375601768,1.97659857301,0.107579523608,0.6414101653,-0.0922275715848,1.2642178041,0.144576149908,1.31540833739,-0.788836126736,0.516505783791,-1.08903018213,0.303049109161,0.466427570969,0.0807983998035,1.77738099589,1.10933089753,0.28764688888,-0.782746260469,0.472191403418,-0.524395295187,0.85702487446,0.151136936565,0.157977047963,0.0084402580051,0.00772486365133,-2.0207724116,-0.830350651363,-1.12590006423,-1.38528312532,-0.558109992184,-0.0983991085469,-0.277684481749,-0.871320074542,1.02906948015,1.52252806561,-0.973269954651,-0.326066098456,0.992796371992,0.979495923607,0.479743033675,0.073178841883,0.65686054405,0.171637183955,0.482142499303,0.224394873573,-0.630394161459,-0.753761636924,0.399244504,-0.786565341525,-0.0709064387072,-0.547571589806,1.52646283023,0.991746262975,-1.9441048779,-1.48048049568,-1.4467066365,-1.27882141323,-0.932627950733,-1.31085651463,0.0355789237106,-0.277045711536,-0.50020064993,-1.4196937798,-2.93633466644,-0.100496679157,-1.0400008654,3.18090139459,-0.469553783641,-0.513997947844,0.944097814321,-1.9177361807,-0.339153553417,-1.29644419429,0.791604533636,-0.543328346619,2.4149512758,-0.196806364574,-0.964537827563,0.523067981305,-0.141246720645,-1.92434786036,1.37355424787,0.672581390215,0.594401479709,1.15508775863,-0.656846978301,-0.469640481629,-1.65203987535,-0.613792187724,0.366712086592,-1.34976434407,-0.92211139985,2.35459466483,-0.197966921221,2.17572299597,0.848488419517,1.40745073843,0.685932828056,-0.366252788757,-1.50821467973,-0.400280874539,0.683824305166,0.981948091869,0.442774802274,-0.238482990706,0.748986536534,-0.280452997765,-1.39344954205,-0.479818565436,0.283693390999,-1.04274737819,1.06223439894,-0.310140723466,-0.824049795594,-1.1667655305,-0.457652478583,0.446672018325,-1.1872801775,1.23011743426,0.794940065553,1.53377631459,-0.917823518161,0.687823929247,0.790428491454,0.0042183222889,1.90117920765,0.396227973672,0.304190097991,-0.0580226520226,-0.456819837757,-0.358975933809,0.84814103007,0.477855178867,0.107672787394
3.03555821923,-1.15755684737,0.9625548315,-1.44813506394,-1.07470186564,-0.267740610772,-0.867421116371,-0.805422983703,-0.459497605794,1.45508799921,0.584614240742,-1.57187962335,-2.36197699843,-0.27005278056,-1.02032999438,-0.338214491407,-0.926724483132,-0.908582194468,0.0943566976453,0.122117333832,0.569246302943,1.47137296777,0.429552075079,-0.220276778702,-0.451421724766,-1.12963826966,-1.68626200883,2.05300582322,0.116299754761,-0.392910331314,-1.04316484177,1.87334547412,-0.963545018994,-0.507893695895,2.11052814297,1.89774593384,0.789812541619,-1.60897414437,0.888724738536,1.77410235937,-0.990537319083,1.73121706652,-0.93355507453,0.852271756875,-0.776841037299,-1.57298522451,0.33391899151,0.303619323689,-1.55829973319,-1.40287744266,-2.01052344754,-0.347715985982,-0.998007333706,0.0433169108004,1.47393310254,-1.86278358115,0.929596946366,-0.204016409429,0.322306893001,1.05188843374,0.325706033996,0.364516205759,1.36637828823,-1.88016057937,0.689426517015,0.740127073164,-1.32939612977,0.621269290444,-0.855113134541,-1.09596077367,2.03241864073,-1.01641684665,-0.224539568789,1.51278449748,2.58331334095,-0.110575051278,-1.14321278965,-0.445933564897,-1.25956447069,0.198172833745,-0.208450624023,-0.817517008888,-0.0924093058674,0.689489747835,0.787483024898,0.409339422579,-0.441066289496,0.679725490675,0.228423754873,-0.810917283869,1.18728354868,0.38022726078,0.726169248762,0.00831111058323,1.74828968874,-0.267433940296,1.13812161199,0.187653553674,-0.834470001104,-0.531652531458,0.232095430595,-1.36202649426,-0.18270511046,0.232078389533,0.921640423298,-1.17480646806,0.461896443535,1.32979214828,-0.00503813914812,-0.636168925902,-1.15762020068,1.1636480817,0.187852535657,0.548599646703,-0.982223644776,-0.187638484304,1.76849105206,2.1716572454,-0.699298317018,-0.820423368082,-0.817743361783,-0.452868302794,-0.568449126113,0.339938069443,0.328022708434,0.732978871471,-0.37368241417,0.00860588404468,-0.171516099965,-0.865388132413,-1.04871715785,-0.671705731793,-1.64542435335,0.312093070422,-1.15180837683,0.0883067316257,-1.7376273068,0.959795406868,-0.246163562406,1.03955795265,-1.02545890465,-1.46629351539,-0.451882769084,-1.09470802823,0.0946050768704,0.784329243305,1.88643363488,-2.33600357913,0.887974632543,-0.881912384356,0.838903451272,1.75648129715,1.39030820432,0.127351690444,-1.22132612247,0.771127678229,-0.100833146529,-0.122650789595,0.593610254705,-0.206006117387,-0.535747929131,-0.245667136092,0.2655463229,-1.34236921373,1.0112914297,-0.274658655872,0.160109914014,0.0442933050747,-0.846766208543,0.703669610055,-0.288026997658,-0.658698518219,0.237688445458,0.998733214519,-2.09992659171,0.641206851127,-0.576438518101,-1.15101143704,0.560795229377,1.50483307692,-0.116097612631,-0.0653403769929,0.642414760005,0.0109424887669,-0.262719585868,-0.781679455763,-0.134222410787,-1.75717911939,-1.96210006975,-0.107341233151,-1.14505526634,-0.28193335219
-0.139300869416,1.87871665149,0.0815639820799,-0.327209570477,0.918419052891,0.406686668523,0.576466964207,0.654300052103,1.01446216697,3.09625964682,-0.430545424931,0.524971718638,0.370870246129,1.79548759032,-2.13844598409,0.745189837818,0.41375980995,0.591108755376,1.38540114655,0.674428668864,0.712587158939,0.897814361291,0.953190232308,-0.222693251122,0.724159667777,-1.10761433785,0.12024496514,1.16031863945,-0.234215706107,1.58531204672,-0.59081452555,1.20084588161,-1.58074902196,0.128678376331,-0.0709194815009,0.642662539109,0.204512592971,-1.22162446506,2.90532162204,0.437465728947,-0.706175025121,1.5987788944,0.037718619042,-0.572020516466,-1.26368103687,1.35035009478,0.0534099550149,0.10459267446,-1.38950491242,-0.0134048881747,-0.989336590052,-1.74463986306,0.0474362437525,-0.706060962418,-0.784243672475,0.0646765493802,0.198611324232,-1.26650184355,-1.0265986639,0.0174353548238,1.73311582873,0.236107127326,-2.43796005605,-0.235194025298,0.798694454671,-0.807347828776,-0.237063596068,-1.14912246502,-1.48923764333,0.187107050243,0.54977797857,-0.574145550196,-1.09576245165,0.788774338632,-1.1260073359,-0.486474592592,-0.788697971859,1.51861864298,-1.35137957371,-1.92924018982,0.165503169602,-0.0990129525469,0.210333422298,0.299106503603,-0.426594394308,0.0248301389557,1.1436790053,1.26900192994,0.719844539993,0.476530597431,-1.39089681546,-0.373316162114,-0.0507135843258,-0.189998095128,0.961742101524,-2.02820159252,1.22820183527,-0.679876849951,0.0875245762248,0.626749737146,-0.791646456167,0.256054739487,1.22561467643,-0.353521625467,1.94503999034,-0.846813323676,-1.54705807499,0.64117640081,-1.20295398304,-0.963956402473,1.26385308277,-0.501061957679,-0.0870835719951,-0.290745769408,-0.360763898683,-0.369793314221,-0.496266770795,-2.59919832927,-1.1088316337,-0.453231281744,-0.247003986274,-0.153983435109,0.842436091596,-0.000718179111085,0.115007780579,0.374879397085,0.558580984116,2.06106357658,0.125455360386,-0.228716833334,1.12073656201,-0.789394454202,0.296869492351,-1.30121678962,-0.64510030487,-0.6637954203,0.663902194612,0.592991102622,0.171051106206,1.923910504,1.1918772211,0.632879534571,-0.569766649826,-0.37756713157,-0.763287597071,3.02584167217,-0.139389578841,0.740463714402,0.508163874003,0.174205372116,0.615673041305,-0.900319765825,-0.289305776644,-0.302861010839,0.788440336391,-1.1090705465,-0.651617547459,0.340187740777,0.665341306528,-0.683836521108,-0.796491518511,1.44958147913,0.06363084509,0.245075180672,-0.768503882239,0.166857992903,1.24375485373,0.22796564312,0.0874726899956,0.756736985316,0.380958567401,0.18463504197,-0.963629631121,0.199014060255,1.15368540154,-0.431751402841,0.135705176162,-0.69021917436,1.3722720174,0.642313803743,0.33362537513,-0.901244334356,1.3275522006,-0.724506033397,1.1122115656,-0.0281472528858,1.23370351667,-1.67952831403,-1.72332968957,0.962146650882,0.0520380263786,0.747007097859
0.998230893526,-1.30491767827,0.18411077499,0.00705874389623,-0.812844683524,-1.86578128542,-0.445988689791,-1.25078850457,1.45649608017,0.130965427802,0.905795145958,0.201419143662,1.42180415321,1.07517721469,0.747781062003,0.695135154001,-0.37174953304,-0.243792183533,-1.86267447246,-0.0962023807137,-1.69385052224,-0.366491984881,-0.956243571934,-2.34882370652,-0.51974808194,-0.0578277355565,-0.979654667375,-1.1842081873,0.703841370241,0.597604247668,1.17679569532,-0.406255251157,1.88946817543,0.139307273286,-0.865979648718,-0.417438535846,-0.423495443538,-0.0768943766065,0.2480406087,0.689906799702,0.481320558616,-1.02156653575,1.63078318321,-0.0356007607855,-0.272673883395,-0.293439118356,0.434880679643,-0.909200445274,0.886023582899,0.492870938588,-0.658089863793,-0.814594191509,-0.286723377431,0.0508324066571,-1.05163156427,0.600988737908,-0.114982383343,-2.32683422573,0.413078446136,-0.790830555381,0.208400818047,-1.5561385425,-2.22294830972,-1.60814590607,0.230900999087,1.06479173967,-0.919772090723,-0.661456829809,-1.97392634069,-0.451495998827,1.01889195085,-0.980272639513,1.70523183065,-0.468417146267,0.508224863854,-0.623149024834,-1.80249202789,-0.496419877252,-0.415100787333,-1.09583357447,1.16999707984,0.66200121786,-1.38389890516,0.50383455891,1.23079611917,0.533745036145,0.13498877725,-1.6790570927,-0.647320268165,-1.28458531504,0.793226906074,-1.06164206941,0.231937551177,-1.69934703166,0.110549895398,-1.25712706195,0.40491964524,0.0291661425436,1.75952988231,-0.989929278993,0.600205233638,-0.416341863374,1.1186356973,-0.29230720439,-1.66861123458,0.14833144054,-0.707646426579,0.336090184361,-0.459613831492,-0.167668178382,0.135553758078,-1.0223944748,0.458637529291,-0.196772590764,0.193229929493,0.263690149556,-0.231236117424,0.63048802063,1.01169605733,-2.06927515604,-0.049882922123,-0.850000769409,0.490492203322,-0.518498919267,-0.0223396263617,-1.0364367181,0.09850945715,-0.675485128356,-1.76680664562,-1.07306801456,2.41309567559,1.55447253848,-0.606706326887,0.628236357373,0.201745908147,0.588403477242,-0.368350741916,0.342807721872,-0.985709582556,-1.3059873694,-0.663290349621,1.30782087004,-1.45566477935,-0.572731848267,-0.306032077413,-0.962398801306,0.910600778174,0.48265515458,-0.123190893381,0.795832142418,-1.38486131353,-0.180438713463,-1.13780685774,-0.826705680517,1.0246083031,1.39697391606,0.221496706664,-0.775410498037,-0.526722024662,0.231521089336,0.0494813265796,-0.32696640082,-0.945535165292,0.165796110855,-0.337794812316,0.461549760862,-1.05570804632,1.24410809031,0.771787013407,0.030852021132,-0.585133212308,-1.01747834641,-0.826508678309,1.29522663798,-1.16895107052,0.197259770187,0.368037953929,1.15049157658,-0.227909820263,-0.149908278378,-1.79000902545,0.570971566554,0.997346572725,-0.33189551439,-2.49565636616,-0.806712264572,-1.13384403979,0.910776018266,-0.159068528288,-0.240252996424,0.171032836033,-0.996782277596
